32 700
94화_잠은행上/94화_잠은행上-020.xml 0.418421 -0.28257975 0.22113888 0.7214694 -0.19203785 -0.14263704 -0.18525925 -0.091370836 0.152045 0.22478235 0.21478611 0.08512219 0.23515348 -0.07608479 0.35297304 -0.072783746 0.16970226 -0.007882888 0.13218626 -0.65600693 -0.011495514 -0.034513198 0.08605568 -0.11640705 0.02358911 -0.072140425 0.28492546 0.03296744 -0.15102029 0.10469632 0.00059549016 -0.11302679 -0.34490848 0.16394493 -0.017633123 -0.004960756 -0.09003033 -0.015340552 -0.0791721 -0.053886496 -0.081797384 0.01856355 -0.3433137 -0.11974865 0.13524318 -0.17136185 -0.2240188 -0.054965567 -0.10683598 0.089237295 0.21300851 0.0779037 -0.031135648 -0.3273667 0.5365209 -0.23997903 0.18524149 0.3897532 -0.048218913 0.054542817 -0.27331072 0.2655235 0.038487405 0.42681527 0.22730944 -0.21207862 -0.10584049 0.4951337 -0.04066309 -0.17923109 0.05498898 -0.017694995 -0.6117923 -0.21172333 0.17914796 -0.004135235 0.19256435 0.24752176 -0.10254213 0.17810306 -0.091060266 -0.45837054 -0.36334896 0.11946781 0.04407551 -0.31130952 0.1891022 0.16814546 -0.3614419 -0.10157295 -0.11268293 0.38305688 0.11435324 -0.004127438 -0.22225444 0.23589139 -0.0004440844 0.14817077 -0.17758004 0.16747695 0.42075592 0.201195 0.3776165 0.042684704 0.27710852 -0.09039023 0.16063556 -0.036414683 -0.12118788 -0.035515975 0.0042062774 0.30428827 -0.24514651 0.04929207 0.12196696 0.064707816 0.29802847 0.2083843 -0.1531877 -0.035970524 0.07338466 -0.004591167 -0.07540688 0.48091578 -0.061083145 0.20460176 -0.004543548 0.11972323 -0.22042754 -0.337828 -0.14122441 -0.0503854 0.053103007 0.09280568 0.20546433 0.10597502 -0.42432445 0.15467714 -0.04437101 0.03270027 -0.56877327 0.44725427 -0.19407937 0.14877182 0.23193732 0.20955913 0.22102928 0.04121234 -0.27630037 0.1342446 0.20502856 -0.12286636 0.38275704 0.3459518 -0.2550814 0.07175861 0.048756085 -0.06477766 0.14559416 0.106080085 -0.14394361 0.2862001 0.13973673 0.1463852 0.14961389 -0.13566518 -0.40979013 0.31737715 -0.05112226 0.37131116 -0.096193306 0.24718574 -0.08131829 -0.5044584 0.20036045 -0.21435171 0.15119687 -0.005927652 0.18233767 0.00826779 0.12930462 0.3422922 -0.12919798 0.17775702 0.14031166 0.13097472 -0.21529758 0.23337261 0.0504291 0.298365 -0.3652324 -0.0654236 -0.044043124 -0.09591332 0.0683458 0.0026097894 -0.1174381 0.16903836 0.1182434 0.21933214 -0.01680532 -0.20380378 0.18657625 -0.025388664 0.4486396 0.11275923 -0.17198753 -0.16234952 0.006604781 -0.042300552 0.10589938 0.09025127 0.025107509 -0.21365324 -0.48008156 0.07317923 0.21753356 -0.09795597 -0.22059368 0.20718746 0.06998874 0.03427754 0.16092192 -0.3709991 0.10882797 0.07100762 -0.07974415 -0.13333283 -0.05056257 0.5060622 -0.060502477 -0.008649334 -0.29379007 -0.28933606 -0.101681456 -0.23655555 -0.09562697 -0.05107969 0.3065564 0.28790614 -0.14965872 0.10133245 0.08996214 0.46367034 0.3888728 0.32083508 -0.25133497 -0.25370038 0.2451983 0.10195016 0.2641484 -0.33586764 -0.08353891 0.26645595 0.078157306 -0.119540915 0.032682978 -0.06439833 -0.12204479 0.13393855 0.091533385 0.11551937 0.12120761 0.107438326 0.2119487 0.014403611 0.12272372 -0.15482885 -0.28977782 0.04423541 0.19823341 0.17709705 0.2800653 0.30626866 0.104551256 -0.14400563 -0.17693567 -0.0056502027 -0.03362054 0.14571023 0.044087257 -0.16195096 0.01462107 0.20381024 -0.21532452 0.156008 -0.25355813 -0.04471021 -0.18409054 -0.061364345 -0.017605484 0.027948156 -0.045681566 -0.1393744 -0.043330964 -0.3577541 0.07319772 0.4711308 0.083696455 0.073361516 -0.037551507 0.20746218 0.22798717 0.21144378 0.040673107 0.25825685 0.011750773 -0.16755478 -0.0062003434 -0.10795187 -0.058029227 0.65297556 0.13319223 0.23773333 -0.09435298 -0.14305092 -0.11855304 0.06565063 0.38446686 0.04729393 -0.12288775 0.3906424 -0.10969647 0.20139138 0.14543289 0.40917024 0.11024694 0.110140756 -0.022433003 0.07668352 0.06708052 0.086554796 0.062562466 0.26076242 0.19328892 -0.13761786 -0.3557729 -0.20325172 -0.14747676 -0.1794471 -0.17644136 0.24126028 -0.03686019 0.17254417 0.0546552 0.13495491 0.26994047 -0.09963316 0.05114027 0.17853545 0.052132152 0.24396354 0.26365012 -0.2972099 0.14375353 0.040747195 0.2180386 0.20382556 -0.032639295 -0.0072104335 0.2225528 -0.09725946 0.11164707 -0.18904488 -0.22216366 0.2290235 -0.250959 -0.43223614 0.1544869 -0.009869834 0.21818796 0.29632145 -0.08529176 0.32162458 0.16826117 0.094392985 0.29407904 0.07770278 0.05585151 0.0060894387 0.055289607 -0.03183641 0.061103832 -0.1371129 0.14768484 -0.0023770842 0.1226116 0.0013370614 0.07598044 0.012194398 -0.106582366 0.090701446 -0.007983208 -0.089588724 0.09927439 0.03136319 -0.22440982 -0.042790007 -0.089932665 0.18770498 0.018854115 0.117443025 -0.053238016 0.20636883 0.38905782 -0.25884977 -0.46544716 0.07160804 0.33850428 -0.04718899 0.104821086 -0.1562877 -0.2082878 -0.0084912535 -0.21310282 0.35538265 -0.01709912 0.39163488 0.20280832 -0.26344663 0.36043268 0.08306751 0.2441692 -0.25572106 -0.05972322 -0.064662755 0.27466863 0.05896486 0.20449615 -0.45999432 -0.051337495 -0.21556142 0.09739813 0.00883629 -0.06978814 0.12066485 -0.02413307 -0.06583161 -0.2410721 -0.20672272 -0.025351759 0.0059379092 -0.07587202 0.027092457 0.71120274 -0.14798453 -0.24930768 0.29676837 0.022120103 -0.1426531 -0.27115288 0.107757054 0.13163376 0.09534174 -0.23428112 -0.051283143 -0.14018266 -0.23291157 -0.037091535 0.09144953 0.2940988 0.074269034 -0.19549307 -0.0011451691 0.089417726 -0.16505578 0.02783671 -0.025504008 -0.037407793 -0.088809535 -0.24366474 0.39951748 -0.3164693 0.103384666 0.2728777 0.03989507 0.12977332 -0.22181424 -0.1788094 0.01553608 0.1788995 -0.26919115 0.04737873 -0.021603595 0.1531288 0.27183577 0.09184857 0.23776028 0.07530971 0.08001591 0.45279023 -0.092973255 0.11411368 -0.02781915 -0.04301816 -0.43061703 -0.052279137 0.14724725 -0.08454853 -0.22871667 0.19954151 -0.18531238 0.121857285 -0.18422072 0.2454204 -0.07406172 0.23635885 -0.010035476 -0.07029949 0.055348605 0.13802862 0.059911184 0.106411956 -0.05665963 0.20655307 0.25483102 -0.20894854 -0.15541606 0.08075808 -0.42420572 -0.11654633 -0.2224482 0.14935362 -0.009663189 -0.3453698 0.2863351 0.19433582 -0.094108395 0.32106274 -0.06347145 -0.09544164 0.074473426 -0.082027555 0.35653266 0.41656905 0.01462849 -0.29404676 0.16739684 -0.1527473 -0.3496117 0.22255188 0.09610665 -0.018238833 0.06835921 0.20064752 -0.08107533 -0.054083973 -0.06286835 0.030862568 0.32065943 0.050110303 -0.2478526 -0.005079632 0.04840378 -0.06604904 -0.23464188 -0.19101253 0.16229424 0.23553964 0.05299498 -0.22984397 0.14737174 -0.04712264 -0.120753966 0.011672202 -0.22831547 0.09780973 -0.0032565854 -0.054550074 -0.00836314 0.1424725 0.1423553 0.3547628 -0.6744528 -0.0957343 -0.10487833 0.24849057 -0.23947029 0.11373731 -0.3619967 0.37117517 -0.2631339 0.047452025 -0.19391921 0.1477646 -0.13955638 -0.11072028 -0.15466584 -0.2995689 0.0142366495 0.06536229 -0.045401603 -0.21559763 0.060089372 0.17117852 0.035227187 -0.12909746 -0.13516569 -0.085588954 -0.13247906 -0.49599248 0.08023138 0.034564093 0.011699468 0.09713422 0.22688827 0.02004379 0.0069214506 0.1279068 0.0671117 0.10928027 -0.047141477 0.009267475 0.13376144 -0.068119615 -0.005186945 0.41943154 0.2994908 -0.13495737 -0.008852214 -0.24946213 0.35518098 0.24262929 -0.22465411 -0.14776486 0.11058818 -0.11460054 0.3293015 -0.18726787 0.41629204 -0.098857224 -0.4518146 -0.22929643 0.29340956 0.44473407 -0.056947947 -0.35112113 0.25170782 0.2739126 -0.23532012 0.35315013 -0.37733793 -0.3485589 0.42456257 0.25686005 -0.1176105 0.0026806935 -0.4905156 0.0144671425 -0.24346416 0.021243244 -0.1769619 0.116617344 0.11566779 -0.06154871 -0.10314627 -0.09136228 -0.06270909 -0.07554287 -0.11556335 0.06237551 0.12479516 -0.048425436 0.04897959 0.123450965 0.032351356 0.28921455 -0.022127122 -0.095823586 0.3196311 0.08340016 -0.031638205 -0.0048837764 0.35198045 0.14292315 0.22457972 0.1687076 0.38852748 -0.14339805 0.32384574 0.5791973 0.097296946 0.29031086 -0.38841388 0.056865625 0.17566286 -0.1431334 4.7316156e-05 0.35342273 -0.3208432 -0.07111713 -0.5210388 0.12727545 0.36662394 -0.04784935 -0.3405093 0.05207338 -0.14729853 -0.021049514 0.3216858 
94화_잠은행上/94화_잠은행上-005.xml 0.08371168 0.20117013 -0.10670684 -0.004309873 -0.08508583 0.058366656 -0.12497595 0.07002788 -0.15146711 0.23376742 0.005672681 -0.10578435 0.10995416 0.008471994 0.19797856 -0.13740987 0.2577773 0.1411972 0.09056129 -0.21174842 0.04882896 -0.13878916 -0.0111268 -0.34989464 0.07173275 -0.29741165 -0.0042858026 -0.14790854 0.19025594 0.40553117 -0.34137675 -0.053876653 -0.05507798 -0.12394207 -0.0824731 0.059636556 0.2039666 0.12295358 0.0006937459 -0.21842873 0.01911391 0.2934386 0.06402318 0.0531093 -0.25001785 0.33021593 0.16373517 0.096987575 -0.023224756 0.17666072 0.100264125 0.02647508 -0.0047077937 0.21077941 0.023831604 -0.040205367 0.15593311 0.20312488 0.049616273 0.20176207 -0.036252946 0.05876427 0.01148086 0.017748263 0.13308828 -0.13554728 -0.11627674 0.1077736 -0.05080534 -0.036605887 -0.055018872 -0.16079955 -0.10623824 0.009582809 -0.21818589 -0.002504263 0.23788051 0.048262518 0.039562225 0.00060562696 -0.10695459 0.12933813 0.08059457 -0.057767928 -0.07036909 -0.06922969 0.020232726 0.021544032 -0.07592872 -0.011785498 0.02505668 0.23308074 0.18458264 -0.09865897 -0.16586524 -0.1327682 -0.15514831 -0.09369385 -0.11641765 -0.0013503408 0.02049674 0.11405501 -0.0105415415 -0.24269196 0.14772454 -0.1723644 -0.03269188 -0.05537892 -0.02493157 -0.02931277 0.13264242 0.02480672 -0.056525584 0.10117944 0.019436285 -0.15425175 -0.1779292 0.06745854 -0.117410436 0.103395954 0.02047312 -0.3168714 0.17256509 0.02806983 -0.09036933 -0.023789143 -0.12972875 -0.09597114 -0.10112506 0.011481833 -0.11877858 0.10147401 0.17050713 -0.02097902 0.17169425 -0.055664375 -0.26226175 0.10183792 0.07431498 -0.004248418 0.11094627 0.1894229 0.049686544 0.092230126 0.10241835 -0.10911044 -0.045149054 0.19642477 -0.100591004 0.34114212 0.06832874 0.007649084 -0.11082767 0.08673346 0.11542686 -0.22073501 0.05312258 -0.098417446 -0.06358163 -0.22612527 0.19809297 0.102626935 0.10282284 0.039817493 -0.122049555 -0.060883697 0.08619538 0.023669532 0.11901778 -0.14414537 0.19190511 0.026453044 0.040847193 -0.06781074 0.1432322 0.21031755 -0.11924085 0.022493713 0.020340936 0.015581269 0.015776444 -0.21470122 0.14801747 -0.10971432 -0.078118026 -0.05157129 0.23125324 -0.21575812 0.0056155636 0.03337428 0.021415269 0.1081032 0.0660156 0.07442075 0.13322984 -0.055788063 -0.03216824 -0.07266766 0.08812468 0.053850245 0.14635181 0.14231753 0.11253698 -0.2782274 -0.19339393 0.088108346 -0.040945645 -0.12025933 0.3208031 0.11793405 -0.10776683 -0.059574567 -0.16142976 -0.26087335 0.040521704 -0.001991311 0.042745978 0.11279942 -0.16408513 0.22341412 0.033538997 -0.2935137 -0.16750452 0.094715714 0.090102345 0.23287961 0.02391412 -0.048864245 -0.18908143 0.08735889 0.042398762 -0.04963241 -0.22725874 -0.1644204 0.09189737 -0.06199982 -0.1883931 0.08434787 0.4436679 0.26964343 -0.077897966 -0.089058064 0.13373841 0.008273648 0.12914273 0.043948352 0.05580792 0.13628694 0.08386042 0.1128598 0.09071799 -0.060689893 0.2110384 0.06259869 -0.17516819 0.15194681 -0.018452983 -0.06442638 -0.05795481 -0.1302855 0.35925645 0.008088432 0.050111424 -0.06630789 -0.21364687 0.054104038 -0.02186506 0.15370767 0.09965783 -0.13000944 -0.07789533 0.027087783 0.22964162 -0.097985975 -0.1955646 0.18248776 0.33176696 -0.4129731 0.27035052 -0.09043343 0.09927417 -0.18280111 -0.03393507 0.15309918 0.099450886 0.05392974 -0.090997234 0.21732038 0.078624554 -0.07404926 -0.008375906 0.044116076 0.17130522 -0.17081994 -0.19314826 -0.0025490287 -0.16285653 0.07539893 0.009055659 0.059766393 -0.21591899 -0.011708672 0.085134014 0.09606718 0.048923045 -0.18251532 -0.108295426 0.08072996 0.3353306 -0.031320047 -0.093904875 0.30614164 -0.12905931 0.23467557 -0.21669643 -0.16049679 -0.12278639 -0.15817925 -0.01924501 0.042471386 -0.13566123 -0.13056576 -0.08792695 0.025272828 -0.17096078 0.23979744 0.1277736 0.080014855 -0.12564492 0.03935328 -0.033894643 0.08637625 -0.10435241 0.055456236 0.16774862 -0.1799002 -0.06391725 -0.3214152 -0.03586544 0.2951037 0.00484253 -0.046786558 0.084566794 -0.08453551 0.010223823 -0.02522337 0.0045153084 -0.17830437 0.21279655 0.16318375 0.005195074 -0.0460767 0.11846076 -0.07303914 0.093629956 -0.20466785 -0.0507211 0.14899394 -0.008161534 0.081901185 -0.02752151 -0.06728472 -0.15866512 -0.053406075 -0.17853014 0.2134647 -0.18472455 -0.03207636 -0.24598241 -0.23911905 0.07677597 0.093925916 0.085040376 -0.0017773851 0.12101986 -0.021070441 -0.039142154 -0.19881457 0.10399806 -0.07739012 0.05787251 0.2508701 0.071832 -0.0779732 -0.015234156 0.05579863 -0.040581997 -0.024359351 -0.24537611 0.036302187 -0.048545536 0.020060569 0.05693028 -0.020201942 -0.13535188 -0.102590114 -0.17354862 -0.07204816 0.060576975 -0.14793593 -0.00071898353 -0.08239263 -0.1500352 -0.027926227 0.19544898 0.18134919 0.2150365 -0.045683533 -0.014967583 0.033313714 -0.17376857 -0.22764057 -0.2984324 -0.28553295 0.057062343 0.23605397 0.094892204 0.028363151 0.115343206 0.17380415 0.10713619 -0.08367704 -0.015315605 -0.06522251 -0.1279977 0.0028776098 0.08963263 0.12640859 -0.10568008 0.100731134 0.31012583 0.11236924 -0.04756978 0.13523917 0.07192901 -0.061281733 0.19640464 0.28308535 0.10489782 -0.26731658 -0.0157885 -0.16833186 -0.036587767 0.23093793 -0.021337803 0.15774101 0.111212194 -0.054366704 -0.17493579 0.041632235 -0.10372724 0.0042562736 -0.102587275 -0.034543123 0.037319675 0.018735494 0.12436068 0.03130782 -0.020792373 0.077292345 0.123451725 0.08387385 -0.092847124 -0.055907916 -0.079319164 0.230476 0.02607645 -0.23865318 0.0046726596 -0.06916409 -0.09657427 -0.14666563 -0.18157718 0.030688323 0.07967245 -0.017415076 -0.067600936 -0.1718651 0.010070247 -0.14261584 -0.094863914 -0.0636934 0.099421665 0.04457029 0.22195461 0.15524863 0.12025927 0.02455498 -0.052951448 0.021054253 -0.0011036627 0.038584985 -0.029983006 -0.12697095 -0.089275956 0.14916176 -0.039008934 -0.032331806 0.061185904 0.094989344 0.14122039 -0.052065037 0.13924012 -0.005177518 0.089202866 0.14291745 -0.23191302 0.13531393 -0.06275428 0.16105393 -0.038614422 0.09118575 0.07569846 0.2060126 0.017258463 -0.03277571 -0.08426581 -0.32666978 -0.04407987 -0.14723916 0.10330865 -0.044937056 0.087760404 0.072866365 0.0914429 0.2266939 -0.16138484 -0.20767073 0.057510927 -0.05923114 -0.12807558 -0.034923196 -0.069788754 -0.1928477 0.1705392 -0.102807924 -0.2603534 -0.051844746 -0.061183095 -0.100794606 -0.06583981 0.041985735 -0.10184793 0.058661558 0.13592312 -0.060455617 -0.031021494 -0.21755573 0.07314721 0.0035276017 -0.13332088 0.069939055 -0.170106 0.13047004 -0.14373848 0.06316924 -0.07718983 0.16133833 -0.08139809 -0.15999001 -0.37258947 0.17419976 -0.007679054 -0.06605102 0.14750098 -0.09435551 0.034948826 -0.02659332 -0.040953822 0.24675255 -0.048822444 0.07470092 -0.021618402 -0.24244732 0.06468323 -0.20132405 -0.008859582 0.120286755 0.057566326 -0.31474546 0.10645728 0.11528449 -0.19146755 0.016887654 0.16738407 -0.12425958 -0.12749788 0.00948913 -0.080983765 0.072362304 -0.07997786 0.23740467 -0.0071435026 -0.0993602 0.032935083 -0.10532503 -0.049866255 -0.07335205 -0.11259884 0.10595813 -0.034963027 0.101390764 0.25082016 -0.12124881 -0.07456055 -0.011691432 0.20086578 0.0032758317 0.06306328 -0.092688106 0.20879576 0.08937117 0.12253712 -0.12428438 -0.06656286 0.24953441 0.14189693 0.08809039 0.05591319 0.03910987 -0.12298387 -0.066078484 -0.045653217 0.024476832 -0.16186634 0.0803453 0.0355516 -0.11506941 0.0480415 -0.04926665 -0.02610926 -0.0038591723 0.10786942 -0.0061425 0.11075176 0.14063087 0.30723158 0.1981154 0.20004098 0.2779421 -0.07483043 0.11749412 0.107237354 -0.027461555 -0.27343822 0.43170905 -0.5568856 0.47424135 -0.1850721 -0.05412255 0.104026854 -0.038034216 -0.14518815 0.17064378 -0.1548261 -0.11054393 0.09573394 -0.070587814 0.05784344 0.18857741 -0.12870866 -0.114393435 0.13670307 -0.26627633 0.06701941 0.033987697 -0.37863588 -0.1649552 0.04254005 0.30786514 -0.47341228 0.024610657 0.0831714 0.14610174 0.06562368 0.059144717 -0.036864713 -0.16462755 0.1445501 -0.06097591 -0.042499147 0.12095492 -0.026266715 -0.14573126 -0.046811264 0.055208426 0.12560898 -0.08855465 -0.038219057 0.055107668 -0.031311408 -0.27220517 0.032590706 0.18258 -0.07285108 -0.31244 0.029703852 -0.1544699 0.0140266 -0.12269019 
94화_잠은행上/94화_잠은행上-028.xml 0.28249246 0.191894 0.20078684 0.03881326 0.052569162 -0.23249984 -0.3617364 0.14596102 0.22708483 0.169541 -0.21963105 0.3302863 -0.10117851 -0.32520002 -0.08289242 -0.00011163205 -0.27404928 -0.20668307 0.02333552 -0.02481296 -0.10286766 0.25815848 0.552278 0.013836226 -0.3900448 -0.2764709 0.41921893 -0.321308 0.054763302 0.346793 -0.20298226 -0.16125442 -0.74852145 -0.039422825 -0.0746785 -0.23433472 -0.18794039 -0.053080462 -0.18257383 -0.116046116 0.078848414 -0.09368683 0.017216489 -0.32541776 0.025796086 -0.07013265 0.17157337 -0.06293711 0.34516853 0.084881485 -0.3475415 -0.051002003 -0.012606617 0.0072698966 0.2874739 0.19116622 -0.06303456 -0.25622216 -0.07010019 0.04966805 -0.15843424 -0.022123072 0.11312785 0.28241327 -0.17961527 0.1916832 -0.019844532 -0.16174378 -0.1606606 -0.06210096 0.12318112 -0.06765169 0.19734785 -0.16349281 0.08026376 -0.0448187 -0.15558541 -0.5754615 0.34289095 -0.04805463 -0.085856624 -0.20884523 -0.45160496 0.06816902 0.028737657 -0.4871243 -0.29449123 0.12209585 0.1134118 0.020254076 0.024455229 0.25560546 -0.47390825 0.18540837 -0.16060425 -0.0119362995 0.13711649 -0.06656515 0.14993818 0.06892432 -0.0065573305 -0.14917876 0.1545615 0.11218301 -0.30407703 -0.46778795 -0.20457593 0.1811473 -0.30231768 -0.09207984 -0.15323916 0.14854547 -0.17134325 -0.0040713586 -0.5056746 -0.6291768 0.052995004 -0.26387072 0.058348916 -0.18886963 0.16604316 -0.035831187 -0.1852214 0.17574966 0.3048283 -0.13360271 -0.084198 -0.0723978 0.2643185 0.11702911 -0.36214736 -0.05714947 0.06662815 -0.06885657 0.035066135 -0.10310611 -0.28491515 0.05247042 -0.083013274 -0.42009977 0.00066345 0.008521996 -0.029844217 0.27754417 0.45746145 0.040384166 0.4804703 0.008590322 0.5637444 -0.20825373 0.18553355 -0.2077802 -0.07053167 0.02210036 0.032776657 0.024996996 -0.06792502 -0.15408474 0.1725543 -0.14586836 -0.26241866 -0.10099582 -0.020681147 0.24721661 0.18917815 0.3630633 -0.17439957 -0.33608553 -0.41545808 0.37076303 -0.20116395 0.20800596 -0.17472139 0.014081035 0.31622183 0.10799365 0.16554695 0.247685 0.043444395 0.043457936 -0.026118636 -0.3369555 -0.23443072 -0.030677617 -0.08406587 -0.05601427 0.21286522 -0.038630676 -0.19232678 0.02240169 0.0012014434 0.13503443 0.21793656 0.038592905 0.18831773 -0.07558571 0.104230955 -0.21504065 0.01667773 0.3154394 -0.0013223067 -0.32633403 0.13449545 -0.05145093 0.14276616 -0.13799618 0.100302935 0.14235751 -0.3074525 0.08404282 -0.3756188 -0.18566248 -0.10258983 -0.06200153 -0.19565451 0.11950143 0.12770197 0.2871879 -0.2002174 0.114836514 -0.0074762506 -0.23906809 0.28356165 -0.07674489 0.11978248 -0.033747785 0.4459079 -0.4343732 -0.045984462 0.0447162 0.106263675 0.010793112 -0.2218398 -0.15188035 -0.071779385 0.09854327 0.15507817 0.12919188 0.122442625 0.16073869 -0.30238283 0.015820459 -0.028085735 -0.112818904 -0.16463222 0.052158847 -0.25237295 0.07033622 0.25815907 0.25980464 0.3184331 -0.4968471 0.32308546 0.22038755 -0.09094307 -0.00043989345 0.28568435 -0.15899053 -0.14975284 -0.07064492 0.24311222 -0.12941843 -0.14629135 0.05209806 0.31800535 -0.12854968 0.33341554 0.22777298 0.29793358 -0.00496877 -0.028139755 0.15106048 -0.023721553 0.14773494 -0.031616338 -0.42304775 0.14073548 -0.22119772 0.2433857 -0.058431286 -0.0105924085 0.052897453 -0.2832441 -0.13674082 -0.23098822 -0.054521643 -0.24554151 -0.121589564 0.1929928 -0.24484102 0.022420084 0.17037866 -0.39952558 0.09536815 -0.20486896 -0.25552607 -0.10661554 -0.13445356 -0.20530894 0.15346402 0.08943708 -0.07056488 0.012576507 0.11682506 0.01202625 -0.24372816 0.09533223 -0.12580243 0.17026973 0.049026817 0.0042707957 0.080918744 -0.031999692 0.19216628 -0.0057583414 -0.17384626 -0.021633022 -0.34302866 0.15505768 -0.0882883 -0.3030331 -0.23768657 -0.122843206 0.105327815 0.16345096 -0.061772484 -0.036377706 -0.35571456 -0.14248666 -0.005893424 -0.274743 0.027431812 -0.27177674 -0.25906304 0.30553478 -0.3871755 0.21632405 -0.23080343 -0.12735981 0.30313617 0.20138654 0.3316428 -0.18332097 -0.026904691 -0.22396646 0.22714978 -0.0972305 -0.07303098 0.0801675 -0.19498 0.095960334 -0.23215611 -0.023841616 -0.12938748 -0.08100215 -0.2057988 -0.3599457 -0.19524163 -0.3388653 0.3896623 -0.21193829 -0.17790231 -0.38483074 0.4478517 0.010154332 -0.017378705 0.28404963 -0.22755644 0.103724316 -0.24433117 0.04134146 0.2316553 0.30337423 0.54922074 -0.025149122 0.16177303 0.030924369 0.20953017 0.056842003 0.08443339 0.024881095 0.034581535 -0.22400093 0.5356145 0.10798259 -0.0014882833 0.18121675 -0.00223092 -0.28243685 -0.29088423 0.10433373 0.27519387 0.17948341 0.1280738 0.08672722 -0.042821247 -0.11383405 -0.28554237 -0.038645495 -0.043106467 -0.0070777535 0.15382555 0.5032623 -0.34783384 0.12254506 0.11329227 0.20981416 0.018037293 -0.21517758 -0.015953854 0.08869601 -0.063920245 0.2011902 0.4342063 -0.0593799 0.12562846 0.14596693 0.36008364 0.11520354 -0.41198978 0.3344428 0.22537702 -0.2020719 -0.15904231 0.05297618 0.0042099683 0.34627664 0.33628246 0.46763092 -0.007992756 -0.07684794 0.05657979 0.28308335 0.36356953 -0.05385509 0.30335477 0.38735804 0.23839481 0.10037245 -0.38980153 -0.055291556 -0.30101585 0.22444737 0.17073652 -0.5033485 -0.008947328 -0.32237464 -0.011646934 0.20496711 -0.2764508 -0.19101758 0.047323342 0.19358884 -0.2371173 -0.06687735 -0.21100697 0.06003698 -0.104564466 -0.09686001 0.0956115 -0.16430593 0.4286857 -0.15310408 -0.10232317 0.17106718 -0.2656817 0.21180698 -0.32996213 0.0054209866 -0.28055373 -0.03831645 0.40508795 -0.32870135 0.027239438 -0.09616419 0.24282022 0.44644585 -0.15428795 -0.049995 -0.1718173 0.4470018 0.01289105 -0.19049919 0.12256952 0.10632053 -0.073299676 -0.017801462 0.33595616 0.43147054 0.32314336 0.073365174 0.06401854 0.04505901 -0.21810503 0.20064697 -0.17215414 0.0686287 0.1565711 0.043578163 -0.048434112 0.09169054 0.29181543 0.10237032 -0.106743544 0.0719566 -0.42793012 0.09827113 0.03726551 -0.044312418 0.3820144 -0.16258448 -0.0045687556 -0.0657134 -0.089124344 -0.16996032 -0.34516746 -0.28266785 -0.24535923 0.029916618 -0.012358857 0.09455499 -0.018733427 0.028933551 -0.1949876 -0.17648512 0.16695309 0.3876514 0.13889861 -0.07876625 0.19365351 -0.089778855 0.22119658 -0.1560266 -0.23362955 0.15925728 0.14157842 -0.42532623 -0.09667894 -0.41057736 -0.19594538 -0.39079446 -0.26088792 -0.5062493 -0.06988994 0.09276661 0.11809108 -0.14471942 -0.13361168 -0.051316056 0.13473433 -0.29085046 0.07111778 -0.43355435 0.022940693 0.28593153 0.36605713 -0.1961631 0.62261355 -0.0850596 0.37895858 -0.18992344 -0.06807551 -0.16982251 0.08686559 0.08751399 0.0641658 0.3572768 -0.44236106 0.084830895 0.3085726 0.30547345 0.040993832 0.3614663 0.0993292 -0.04547111 0.12780753 0.2201948 -0.35613388 -0.10360137 -0.05648753 0.10916364 -0.24195305 0.24211994 0.13769203 0.49619898 -0.06836003 -0.20224819 -0.3802878 -0.24633196 0.033817012 -0.31473312 -0.45757002 0.24061732 0.25854057 0.17091584 -0.20704612 -0.3068006 -0.054446135 -0.19860628 -0.26511288 -0.39020133 0.4762137 0.21692067 -0.23655157 -0.047070105 -0.5095281 0.1646152 0.13717231 -0.37464926 -0.10023393 -0.33279485 0.08846173 0.007567483 -0.29744118 -0.12342293 0.05905184 -0.32542077 -0.25365108 -0.12834111 0.2829805 -0.034143902 0.013392348 -0.013160809 -0.45877385 -0.32881576 -0.51556396 -0.4749299 -0.097168 -0.08099958 0.46570957 -0.031618867 -0.5229726 -0.07177745 -0.38728437 0.24663687 -0.14225528 -0.04988338 -0.04767669 -0.29701796 0.41055477 -0.19609761 -0.043661617 0.6190835 -0.50054777 0.06766779 0.026286885 0.43653908 0.13968158 0.23120664 -0.36825556 -0.2528849 0.23271854 -0.4074551 0.16893092 0.19750455 -0.0015433822 0.18048838 0.32553148 -0.002426874 -0.16167374 0.07820349 0.061044835 -0.18128508 -0.21984589 -0.30084032 -0.12939648 -0.06247435 -0.13936567 -0.4380664 0.05573856 0.068654224 -0.35524642 0.35726207 -0.02718981 -0.34847498 -0.13196701 -0.49240255 -0.117215954 0.1146373 0.39059502 0.40270668 -0.14842087 0.064127736 -0.16719636 -0.22217943 -0.35022053 0.110069364 -0.04567645 0.1860273 0.04096146 -0.28072032 0.14109072 -0.5626832 -0.04021649 0.025390215 -0.115974985 -0.2921017 0.059884094 0.03311678 -0.33313006 
94화_잠은행上/94화_잠은행上-035.xml 0.064802505 0.15085807 -0.05365183 0.104592994 0.30297908 0.07714108 0.13789181 -0.063300274 0.24105932 0.38614693 0.12188621 0.2582458 0.3062679 0.093916826 -0.0016745926 -0.011881382 0.06472914 0.24786443 0.14156197 -0.29358333 -0.098223045 0.13126203 0.05603209 -0.29340023 -0.05984381 -0.2072892 0.18236059 -0.054271072 0.29985422 -0.026523612 -0.20470366 -0.21067218 -0.15496954 -0.049630985 0.06287934 0.08155453 0.08450382 -0.09003981 -0.10566016 -0.19397669 0.033723533 0.16179365 0.050286762 0.02157041 -0.06060109 -0.058302037 0.0016173066 -0.14498173 -0.12916574 0.03470059 0.017616997 -0.01691277 -0.2644598 0.19971596 -0.09141674 -0.21331157 -0.04896646 0.124808766 0.030983241 0.15257564 -0.0044578016 0.13703972 0.22062057 0.1535414 0.059083104 0.0010314435 -0.16356492 0.041992225 0.08626 -0.037135687 -0.2712376 -0.068801634 -0.054262474 0.0018332921 0.20331186 -0.12665093 0.64567405 0.15052399 0.15973847 -0.05269636 -0.110969245 0.11109574 0.36444083 -0.17669122 -0.5086434 -0.3209678 0.26394528 0.10655334 0.06020901 -0.2210373 -0.029728647 0.11494782 0.16013071 0.021885978 -0.28528634 -0.036655862 0.055872817 0.22077417 0.05180416 -0.19898456 0.27587014 0.122586876 0.3628295 -0.19561726 0.28410596 -0.12715225 -0.0048463517 -0.078105606 -0.051738303 -0.16356665 0.1772456 0.045347642 -0.06596064 -0.14187655 0.068729565 -0.14998484 -0.25900865 0.046799395 -0.06199852 0.2714208 -0.06926024 0.106186405 0.16158026 0.32201993 0.0803298 -0.04230841 0.12743227 -0.13283847 -0.027460251 -0.12868498 -0.1463202 -0.18195237 0.17201969 -0.028690033 -0.16779926 -0.08874223 -0.23440781 0.25997 -0.2687871 -0.069634095 -0.31102142 0.38373527 0.024674201 0.03140693 -0.07342061 -0.17161448 0.11356099 0.06981648 0.10441593 0.10253806 -0.001582265 0.00776084 0.043480817 0.1960259 -0.25214997 0.0046075075 -0.010150765 0.055548303 0.13259788 -0.12367137 -0.0016283138 0.22813189 0.09323342 0.21767099 -0.0033786767 -0.017416261 -0.2353613 0.00796521 -0.012508819 -0.2783361 -0.090191215 0.24314721 -0.040522832 -0.117543854 0.30060953 -0.095964625 0.04338681 0.0049783587 0.25467002 0.268332 0.11537143 -0.17729338 -0.13171339 -0.07862816 0.06116267 -0.08087673 0.115185745 0.072257325 0.004306385 0.20260628 0.054735493 -0.08580566 -0.0004188674 0.08643208 0.23120452 0.098734364 -0.020767337 0.01204036 -0.18155906 -0.10523326 0.33885974 -0.34023675 0.050544873 -0.3762147 0.00082787446 0.021998828 0.11300473 0.119000226 -0.27432153 -0.075983085 0.029104507 0.12230046 0.043012287 -0.13847812 -0.2318474 -0.16774823 0.03496935 -0.10486426 -0.08403451 0.0850558 0.3914148 0.043018933 -0.3780834 -0.098345146 0.16106398 0.18440133 0.008499793 -0.16809197 0.12052785 0.09083285 0.045965716 -0.18117899 -0.23869409 0.04024177 0.11525893 0.098980054 0.070429526 0.06901625 -0.018376786 0.09109681 0.017250616 -0.10077712 -0.062052164 0.04609486 -0.21982373 -0.0671572 -0.28671348 -0.23158896 0.09178051 -0.026250312 -0.2596998 -0.040384974 0.012302125 0.052605327 -0.21025954 0.1873935 -0.28393897 -0.065257475 0.052445177 -0.11219228 0.16333409 0.31081554 0.11008384 0.03679838 -0.025062732 0.007019201 -0.09239368 -0.054003123 0.066500865 -0.38660324 -0.016384143 -0.0019102098 -0.16275606 0.0012720227 0.059222322 -0.103257135 0.17534266 -0.18640524 -0.030659648 0.13924375 0.17173725 -0.26051256 -0.20022193 0.26878634 0.12444909 -0.059580855 0.2941849 -0.15445632 -0.069263995 -0.024066923 0.08435699 0.025557501 -0.20497765 0.11375549 0.010990131 -0.17623204 -0.08289313 0.15859257 0.2843958 0.030346178 0.065784946 0.3771353 0.01080055 -0.0853635 0.069301926 0.06696638 0.0020426002 -0.14822048 0.147292 0.093931206 0.17739469 0.11837298 -0.21134524 0.18406372 -0.049445257 0.13274811 -0.15141223 0.051598918 0.11427309 -0.032434292 -0.21018751 -0.17841844 -0.17129882 -0.22482872 -0.059308868 -0.018297324 -0.05503897 0.092782825 0.19993941 0.14093727 -0.018536452 0.17235939 -0.20380995 0.39903218 0.14952978 0.070891224 0.053857006 -0.108522505 -0.24504095 -0.037676275 0.054880604 0.12249674 -0.2070302 0.076655425 -0.092580535 0.114799246 0.14314169 -0.04481772 0.1364262 0.07740092 -0.09314385 0.10040606 -0.077973455 -0.13530657 0.22992422 0.11615223 -0.058064643 0.2459939 0.029075658 -0.006193404 -0.068671085 0.33271283 0.15837339 -0.07996841 -0.69467574 0.49677864 0.25900465 -0.72928035 -0.038849402 -0.18898563 0.19095875 0.0639125 0.039342083 0.23900259 -0.03472716 0.29018497 0.26600724 0.0072424924 -0.1348121 -0.07853889 -0.09585287 -0.084179394 0.028022554 0.013626022 0.19960102 0.16446742 0.041917946 -0.030578136 -0.24816605 -0.10701249 0.07012256 -0.008234844 0.043940946 0.43434134 0.008758265 -0.13323377 -0.002078414 0.1722987 0.11455602 0.0036799314 -0.15610795 -0.025394859 0.1290565 -0.21579821 0.07416981 0.3025085 -0.0026987335 0.13240078 -0.06654003 0.13948254 -0.093036465 -0.18565336 -0.1490959 -0.0068899565 0.029825335 -0.055263028 -0.140798 0.056850873 0.011074548 0.15460587 0.17841487 -0.14880624 0.17761473 -0.125428 0.008135434 0.113259554 0.0666637 0.052686643 0.22868983 0.09705527 0.08924201 0.101468794 -0.076722644 0.14473253 -0.0925534 0.07352915 -0.0526217 0.35243383 -0.18633047 -0.1838711 -0.08099124 0.022186788 -0.062459275 0.23477188 0.10912365 -0.15301578 0.0038988423 0.10502971 0.105070464 -0.08257339 -0.14495963 0.15237637 0.058238596 -0.29198715 0.12133323 0.25102395 0.24868989 -0.15570113 -0.08090946 -0.07533834 -0.20885994 0.09650128 -0.007329524 -0.018936154 0.18661971 -0.11992491 0.011789089 -0.13724741 0.026757488 0.000945376 -0.013890412 0.07044855 -0.45208836 -0.1039182 -0.13406688 -0.07432319 0.21036252 -0.0048284363 -0.009372378 0.22330788 0.07718368 0.01686057 -0.024611732 0.1141686 0.2949277 0.008842248 -0.057054464 0.17513104 -0.20089202 0.122226015 0.12724061 -0.022032585 0.18410762 0.12377353 -0.08807211 -0.036897294 -0.23454133 -0.07469061 -0.15325724 -0.035491854 0.110441625 0.013307278 -0.006421579 -0.01969535 0.29218373 -0.0389588 -0.0020529395 0.035473157 -0.22047023 0.04704194 0.22094147 -0.057386808 -0.2729633 0.010195345 -0.21876046 -0.24573338 -0.13902906 -0.16191202 -0.03494168 0.009516027 0.14133434 0.04369329 0.05347647 -0.16835782 -0.23417631 0.17426349 -0.17825876 0.007544105 -0.21569827 -0.08648304 -0.24115989 0.11548915 0.00348889 -0.06090154 0.20057085 0.086472325 -0.15538538 -0.2585707 -0.26263008 0.10888539 -0.3674936 0.085640155 0.058142282 0.1687709 -0.16472296 0.09986982 -0.0075832554 0.0006999374 -0.25724632 -0.13180783 0.24234645 -0.25153294 -0.38229433 -0.08131804 -0.079217464 0.08156004 -0.34759626 0.16813733 0.043896828 0.39059463 -0.11223245 -0.17485116 0.09491458 -0.2778934 -0.05171548 -0.015847607 -0.1076803 -0.02318602 -0.10223854 0.28480566 0.01759249 0.054440238 0.21009299 -0.38190478 0.10241369 0.0003330367 0.18280782 0.081542 -0.0657027 -0.15083438 -0.010875777 0.17585687 0.060735058 0.0052467524 0.11173566 -0.16606045 0.06373218 0.072590165 -0.1455498 -0.051342376 0.18740231 0.005287162 -0.040822703 -0.13212025 0.044955593 -0.14667225 -0.18284287 -0.10697178 -0.082078375 0.0078477925 -0.032169968 0.038405683 -0.014157347 -0.38923317 0.2578457 -0.015234501 0.14755517 -0.07159286 -0.2826373 0.034344763 0.012984603 0.13373739 -0.19457625 -0.20576993 0.022352347 0.06667345 -0.1455079 0.12055401 0.06661636 0.30600712 -0.09383898 0.13193117 0.0251437 -0.080358826 -0.17424259 0.024168901 -0.17859663 -0.05321588 0.15099803 0.17809625 -0.12698644 -0.17644724 -0.24389018 0.03251591 0.14501925 -0.061512157 0.27368352 0.24649222 -0.13429546 0.19992802 -0.24158806 0.31076905 0.32535502 -0.16085918 0.037691243 -0.042329766 0.009903794 0.07117518 0.06164521 -0.08169464 -0.11050352 0.086315446 -0.42186534 0.09229562 -0.27862835 -0.08371053 0.11424844 0.058697943 0.08177918 -0.02358603 0.07598106 -0.16889936 -0.18046005 0.02616259 0.05648668 0.12238523 0.050708484 -0.00956535 -0.04262081 0.045299456 -0.14675808 -0.26355207 0.26543814 0.1636607 -0.29101783 0.04768368 0.068246216 -0.15783557 0.05150465 -0.051704135 0.04773342 -0.019529667 -0.0024639454 -0.10763843 -0.11187357 -0.14049573 -0.032800484 0.10765308 0.0072513344 -0.23571727 0.06672915 -0.15290835 0.07519361 0.18092272 0.03882357 -0.18487392 -0.01386076 -0.38903382 0.0199708 0.08826611 
94화_잠은행上/94화_잠은행上-027.xml -0.57334554 -0.32684088 -0.091913685 -0.6444775 0.3512506 0.29852688 -0.031822957 -0.04014334 -0.14038157 0.25120026 -0.036898576 0.2205131 0.040626623 -0.24486244 -0.53680074 0.5048947 -0.31556052 0.49854118 0.80241823 -0.36447352 -0.6819899 -0.016765056 -0.23795399 -0.6292624 0.18072498 0.1665645 0.07138437 -0.34626418 -0.076817386 0.026234478 -0.7687155 0.019578569 -0.10154122 0.123675704 -0.054696232 0.4223783 -0.16221416 -0.14204445 -0.15911977 -0.34468734 0.7174387 0.6696352 0.9891634 0.2555614 0.36627775 -0.42149746 -0.35472378 0.016218865 -0.27336198 -0.10360267 0.32013047 -0.1156262 0.47633868 0.4234593 -0.2935045 -0.4119277 -0.43240103 0.06662059 0.16334024 0.23441118 -0.094337344 0.0008375123 0.5093458 0.53255576 0.0057109036 -0.030716956 -0.4605846 0.651529 0.37287027 -0.5193484 -0.21831869 -0.19271153 -0.07174592 0.14070511 0.53826976 0.11649547 0.7185794 -0.19022033 0.2330563 0.13412453 -0.09265587 -0.4703446 -0.25944662 0.37917292 -0.053858515 -0.2895959 0.13054389 -0.07382908 -0.35064298 -0.009309396 -0.13526641 0.120731875 0.054839373 0.24882367 0.49669388 0.36147544 -0.05995387 0.4274785 0.34650534 0.022659823 0.34702405 0.050398573 -0.071428865 0.49852931 -0.17259693 -0.1474174 -0.34027326 -0.7242095 -0.28799513 -0.1867593 -0.13312396 0.5044176 -0.43151668 -0.14983 -0.07624073 0.033734232 -0.4943138 0.18437657 0.43273646 -0.3752086 -0.26130465 -0.21496567 -0.29165208 0.20933679 0.10556468 -0.06670785 -0.49898365 -0.3761639 -0.12657619 0.43508333 0.18471748 0.11569992 0.24291977 -0.098334245 -0.35787734 -0.35180137 -0.37829822 0.0442108 -0.19698712 -0.37329268 0.07606265 0.059658814 0.060607463 -0.09245173 0.053596444 0.46291003 0.28363743 0.21750887 -0.42364708 0.21572353 0.19331533 -0.020944074 0.32695618 0.33697557 -0.42142028 -0.50314003 -0.40373573 -0.4523515 -0.33244842 -0.4397119 0.061925158 0.36845532 -0.05046407 -0.037565053 -0.033021197 0.21813901 0.018264815 -0.14732908 -0.038741358 0.09384753 0.08438665 -0.009556785 0.3912489 0.2201564 0.3733091 -0.10800451 -0.20596752 -0.19664116 -0.38810587 -0.21801387 -0.43835115 0.099614315 1.8179417e-06 0.6254053 -0.5892675 0.38485086 -0.0150996465 0.22093809 -0.07059096 -0.13343695 -0.10520958 -0.119843215 -0.24653763 0.1509407 0.14031757 0.19877069 -0.43324348 0.10517128 -0.09728683 -0.27333057 0.05627361 -0.017597213 0.1566859 -0.3744659 0.21309523 -0.31957075 -0.2165218 0.053594206 0.47705907 0.12416951 -0.2022477 0.6826457 0.8694677 -0.20812336 -0.4556474 -0.07246629 -0.21993215 0.54261386 0.27085382 -0.26762134 0.23360302 -0.052569926 0.10600474 -0.057823434 0.13091798 0.3068786 0.39983904 -0.10241245 -0.1685231 0.116997935 -0.31711733 0.048440084 0.16977453 0.42710495 0.4873355 0.26671326 -0.4335128 0.087807804 -0.22526905 -0.37314013 -0.19095954 0.21651638 0.049435988 -0.29530004 -0.30429202 -0.22335422 -0.0057935715 -0.13174836 -0.020391477 -0.10275638 -0.28206152 -0.69844073 -0.3777018 -0.23079515 -0.12324785 0.40989777 0.060915917 -0.07600783 0.51713884 0.12638198 0.016568467 -0.44286734 0.14912945 -0.40707672 -0.1322451 0.11511887 -0.52130413 -0.34260383 0.60862124 -0.39826608 0.06736605 0.32670128 0.13897711 0.18223737 0.3407987 -0.5957324 0.112113886 0.30974013 -0.3699059 0.12493497 0.5489726 0.13102311 -0.023289062 -0.1715321 -0.4003736 -0.056589466 -0.09070925 -0.79731774 0.26220807 0.03865078 -0.30469608 0.1538308 -0.45002267 -0.2856951 0.16944438 0.26345447 -0.14931832 0.18740326 -0.09910941 0.18076548 0.151743 0.13525736 0.29734936 0.18890537 -0.056721345 -0.05574161 -0.01858113 -0.27603275 -0.036197286 -0.5444323 0.35888505 -0.13613385 -0.39616564 0.06458915 -0.2413718 -0.14671476 -0.14742976 -0.2933613 -0.010614857 -0.25869724 0.49182153 -0.19741711 0.10770459 -0.43110174 -0.3540338 0.028185397 0.4080079 -0.6143393 -0.13913682 -0.07302461 0.5224401 0.37265468 -0.11596136 0.19661677 -0.41159287 -0.32470647 0.08598845 -0.2724355 -0.040653467 -0.3096075 -0.22948931 -0.11898443 0.23019198 0.30646315 0.12046857 -0.098455794 0.04472114 -0.5670603 0.28045583 -0.4460547 -0.09615952 0.2662987 0.113075435 0.15342292 -0.2302998 -0.088652834 -0.46511793 -0.030708104 0.18684801 0.25529253 -0.4951663 -0.3863381 0.07739617 -0.27143985 -0.1574328 -0.0016391762 0.8391577 -0.075137585 -0.25452256 -0.61717665 -0.36637565 -0.0077394694 0.51746476 0.40990484 -0.1024434 0.34062797 0.09051855 0.23879597 0.11029957 -0.2561844 0.40945655 0.1929138 0.15200394 0.09273945 0.045827687 0.47244084 -0.36023957 0.18743405 -0.48880664 -0.90473354 -0.016444713 -0.094211996 -0.058788776 0.8407238 0.20141335 -0.69550085 -0.11958568 -0.34044325 -0.26750955 0.2631369 -0.33890146 -0.25750616 0.027218 -0.12247752 0.3005466 0.06701057 -0.32647625 0.04455632 0.17060031 -0.07666891 0.53492993 -0.12876377 0.026684076 -0.46437073 -0.15108427 0.25400302 -0.26796317 -0.6021719 -0.2577598 -0.40415198 0.3923917 -0.15448281 0.017668128 -0.52154905 0.11617389 0.15454942 0.64252645 0.41427785 -0.2364678 0.081371576 0.3746503 -0.09599112 0.16842537 -0.45945066 -0.096884236 0.04626505 0.3777268 0.041329697 0.14069828 0.03152296 -0.030066252 0.10768254 0.35645214 -0.09796663 0.049655996 -0.07877432 -0.2786519 -0.39317676 -0.16227804 0.22714779 -0.49475175 -0.311085 -0.18955122 -0.38125023 -0.08844777 0.09951043 0.27061298 -0.14512688 -0.07925089 -0.090497956 -0.31583428 -0.26124656 0.6590596 0.075199306 0.27312803 -0.3707854 -0.015812099 -0.35776925 0.04072824 0.20496966 -0.068095684 0.15284503 0.010664128 -0.67459494 -0.50765574 -0.109140985 -0.12881994 0.033607557 -0.04669445 0.57414746 -0.2877695 0.059649743 0.20651244 -0.06897819 0.38303715 0.14873527 -0.08403682 -0.09658249 0.011404544 0.11413615 -0.29773653 0.2388391 -0.04982561 0.027528837 0.336824 0.08579443 0.03495702 0.122054376 0.28279936 0.18043286 -0.121117204 -0.110820174 -0.22665301 0.008858572 -0.42358282 0.297131 -0.15654695 -0.4341244 0.018708661 -0.15772226 -0.16613993 0.049461767 0.35067332 0.32279116 -0.4754693 -0.06011184 0.55390495 -0.28396058 -0.41033316 -0.23861887 -0.76946807 -0.066885464 0.36947703 -0.08685005 0.0524165 -0.47093925 -0.4155537 -0.14770931 0.45551664 -0.05908668 -0.12963782 -0.0145904645 0.34339428 0.5476719 0.4722373 0.21992297 -0.4055705 -0.019413263 0.29605502 -0.07433267 0.14168742 -0.27769086 0.24842702 0.33315474 -0.51688987 -0.0032539815 -0.25321454 -0.10649615 -0.19786038 0.65632045 -0.10884991 0.0162624 -0.12481852 0.23572934 -0.12433557 0.17898607 -0.32860783 -0.2882064 -0.12725706 0.4325404 -0.03127587 -0.24089506 0.26387686 -0.40571618 0.28110653 0.78533864 0.00044571608 -0.2385463 -0.011744674 0.755594 -0.06656781 0.6500558 -0.59330136 0.29151207 -0.3958917 -0.54665655 0.44824862 0.09524733 0.08605149 -0.5820467 0.21952173 0.073106706 0.2975799 0.025354668 -0.2134809 -0.1761151 -0.34633386 0.29221568 0.3153944 0.22731328 0.018988017 -0.06361109 0.067990914 0.13024949 -0.34888127 -0.85547316 -0.2804559 -0.30190718 0.14347376 0.03601882 0.12978478 0.11254762 -0.010939375 -0.46227527 0.019903958 0.35662305 0.3233093 0.11987975 -0.15690349 0.74611884 0.24257912 0.34631628 -0.09485174 -0.025552247 -0.010426339 -0.02614005 -0.43330687 -0.6332636 -0.01566837 0.23991859 -0.42251968 0.5025892 -0.22174338 -0.6613997 0.3264923 0.40181744 0.29963464 0.12995476 0.152286 0.32976112 -0.27074 0.025349174 0.010735244 0.008066321 -0.41646516 0.016374988 0.18483548 -0.23773052 -0.059906006 0.018809624 -0.6076461 0.9823028 0.4358943 -0.35025004 -0.013248503 0.2740408 0.19921452 0.035725046 0.3993174 -0.07296757 0.054253187 -0.6533463 -0.4305182 0.13980186 -0.70001847 -0.2001466 -0.030099018 0.09508659 -0.13079281 -0.5026766 -0.24925676 -0.27281535 0.2333633 0.09012623 -0.28247732 -0.22895306 -0.102629066 -0.29196924 0.0035765767 -0.23216155 -0.3491065 0.009582579 0.5773825 0.6042247 -0.25560343 0.030446433 0.007138014 -0.06566785 -0.122870885 -0.014018536 0.30094847 0.50951433 0.51703274 0.15848735 -0.108867936 -0.2124087 -0.17716065 -0.12446354 0.6130602 0.15866879 0.0802228 0.16405371 0.21541469 -0.038633645 -0.20529154 -0.07017232 0.14903703 -0.110959575 -0.06607999 -0.01826355 
94화_잠은행上/94화_잠은행上-021.xml 0.10948405 -0.201061 0.14998795 0.12001756 0.059863485 0.22487584 0.0012175025 -0.048033036 -0.06004833 0.11003021 0.08255098 0.022976683 0.24856603 0.15230086 0.012697958 -0.0182354 0.14406429 -0.038387515 0.089432254 -0.043036435 -0.028545776 -0.030952103 0.07204812 -0.10175609 0.0714784 -0.15326113 0.08093821 -0.09880218 -0.00030515136 0.16554496 0.009874891 -0.06284604 -0.029268907 0.12852988 -0.10812003 -0.0999994 0.04331456 0.05768626 -0.06708153 -0.10028258 0.041366935 0.09221759 -0.03626345 0.003424054 0.03698842 -0.054514375 -0.09537987 -0.10259921 -0.08481574 -0.046007603 0.084080175 0.12939368 -0.0050254925 0.031710126 -0.03806666 -0.0302419 -0.08999305 0.07449028 -0.05935023 0.042557426 -0.16828315 -0.046545792 -0.05431343 0.112515934 0.009219595 -0.05849245 -0.039203186 0.0998285 0.00077745423 -0.1211374 -0.027423594 0.039651815 -0.028177341 -0.027254617 -0.021386435 0.028941242 0.13698131 0.11848936 0.1003735 0.031495035 -0.09466155 0.013625953 0.05496177 -0.18254846 0.006175961 0.12680008 -0.004669988 0.013500848 -0.14597581 -0.09713069 0.17410925 -0.029134972 -0.016642088 -0.1462281 0.045064837 -0.021072362 -0.067447774 0.012554738 0.07968445 -0.034285057 0.076407075 -0.02058257 0.1365236 -0.028269183 0.06548197 -0.037880838 0.0035764622 0.097454794 0.030857049 0.016290857 0.07432453 -0.050318178 -0.0099756885 0.015384554 -0.024775475 -0.04915117 -0.068546176 0.076477714 0.04642179 0.062090665 -0.10387494 0.13345827 0.08235813 0.0132188555 0.13114329 -0.06636614 0.07153008 -0.063934214 -0.08406123 -0.1039838 -0.058191128 0.0011652769 -0.083181016 -0.010878451 0.0025408869 0.061365176 0.006286383 0.10483304 -0.055059906 -0.056974787 -0.049864396 0.037561357 -0.06665085 -0.029297078 -0.093634404 -0.0006027951 0.07468659 -0.041937996 -0.005370317 -0.021379644 0.117770575 0.076802105 0.048070356 0.072533086 -0.031304877 -0.11247653 -0.09274975 0.033140056 -0.04330026 -0.08786026 -0.12677829 0.020870436 -0.0022442923 0.0634201 -0.04071937 0.03648676 -0.049540948 0.018254869 0.089009516 -0.07748235 -0.04623462 -0.11847231 -0.06628249 -0.16100098 -0.011447442 -0.101564065 -0.061905656 0.07310913 0.0477705 0.07465926 -0.07406884 -0.051118445 -0.012970779 0.045884218 0.08991655 -0.026443318 0.012670475 -0.14337946 -0.011892335 -0.05251365 0.01947343 -0.078555495 0.04066603 0.121320054 0.051422894 -0.055412076 -0.024983048 -0.1095314 -0.065088704 -0.11519827 -0.023770157 -0.035038356 -0.07628216 -0.07001748 -0.088497594 -0.05920156 -0.1560671 -0.11435453 -0.20310555 -0.14438826 0.047486156 -0.02745986 0.0068625826 0.016985428 -0.087807834 0.1508345 0.10402367 -0.045651246 -0.053507846 0.048506696 0.2168965 -0.0024273745 -0.19626448 0.14475517 -0.065681584 0.052468725 -0.023987444 -0.1627386 -0.057798512 -0.05670142 0.04894495 -0.03903714 -0.006811323 -0.047569055 0.0017212321 -0.010502912 0.07218807 0.08765152 0.037703197 0.20988756 -0.08549747 -0.041459464 0.008592555 0.044665072 0.061663516 0.13435444 0.0690668 0.01542096 0.025312576 0.14148653 -0.06722542 -0.030445505 -0.005140413 -0.08153182 -0.24508868 0.17522235 -0.011885647 -0.10318742 -0.14392534 -0.03751722 0.14271899 0.07283746 0.09890386 -0.004422312 0.021303754 0.0016630752 -0.02344504 -0.08525601 0.036170077 -0.1699514 0.083170176 -0.010808703 -0.022803612 -0.20226419 -0.12589428 -0.0804381 0.13114832 -0.12474024 0.104240775 -0.06296094 0.15303597 -0.114316136 -0.20396107 0.05649358 0.12029659 -0.0032708538 -0.022761883 0.013606938 0.11781763 -0.0052311947 -0.08849865 0.025119727 0.17532082 -0.06467209 0.04826632 -0.025530843 -0.11983187 0.10089859 0.13008699 0.17096077 0.015559366 0.07544389 -0.113002695 -0.014199011 -0.08382117 0.055641178 -0.1870506 -0.06463505 0.13913786 -0.018351642 0.02825469 0.106009185 -0.04238708 0.10600172 0.011332482 -0.005274787 -0.12092316 -0.122634344 0.18151249 -0.03091461 0.20967603 0.13210602 -0.007457746 0.069735266 -0.005403817 0.06472724 0.07893671 -0.0036055888 -0.092472665 0.109027065 0.09511881 0.118029065 0.026790656 0.112063244 -0.018938277 -0.06476872 -0.031605273 -0.112737894 -0.027700583 0.18726905 0.034230694 -0.05088631 -0.06640538 -0.11370767 0.011989379 -0.071597606 0.05824706 -0.14539357 0.01671875 0.072150886 -0.08477164 -0.10710986 0.034258015 -0.14806476 0.005850233 -0.013214846 0.055507325 0.1787902 0.069983914 -0.10032248 -0.09951026 0.02537225 0.07368508 -0.02166442 0.12581852 -0.008124416 -0.08266996 0.1329281 0.016533516 0.06916386 0.037511244 0.15569106 0.016359633 0.13741869 -0.057179302 0.020629073 0.09038583 0.15195912 -0.0049797604 -0.1175513 0.05146682 0.052151002 0.072629794 0.039092794 0.05520235 0.020343952 0.0027131708 -0.031799722 -0.17689328 -0.014520912 0.109030835 -0.062315494 0.022000654 -0.05210312 0.03100457 -0.00037091607 -0.04934414 0.13068713 -0.057477355 0.09719991 0.08560129 -0.063825995 -0.01969717 0.04388538 0.14197856 0.13021646 -0.0991288 -0.082873814 -0.0005989868 0.092232086 -0.05757057 -0.015084697 -0.1881288 -0.021403465 0.10851087 0.086762674 -0.100642145 0.022104971 0.028937425 0.1735355 0.146145 0.016803574 -0.003408328 -0.05479711 0.014924758 0.10184261 0.13916762 0.05737419 0.12337952 0.09649679 0.13698262 -0.14031199 -0.12530796 0.087973416 -0.04962228 0.05972782 -0.109049305 0.01141999 -0.08469025 -0.057359252 -0.04470391 0.024927095 0.08918437 0.08967898 -0.004989602 -0.17127718 -0.11297452 0.0919289 -0.00061001367 0.009798351 -0.10757276 0.110645525 0.048601553 -0.026489384 0.07166685 0.292287 -0.096768215 0.039112248 -0.097074084 0.18257366 -0.00465848 -0.050076865 -0.020451497 0.096377864 -0.009566145 -0.1272926 0.06567463 -0.1657221 -0.037494995 -0.0073584984 -0.02093189 -0.11356047 -0.065299556 0.027051175 -0.10449062 -0.06065582 -0.00018885576 0.0026884456 0.001488966 -0.029744625 -0.054830346 0.0029487037 -0.051720936 -0.12700547 0.10098252 0.08494011 0.0034056106 0.101734616 -0.1681252 0.014410934 -0.083156206 -0.060279652 -0.029490422 -0.000755967 -0.05060305 -0.09134663 -0.033992738 -0.082045265 0.010666805 0.027796518 0.15426639 -0.0022757526 0.015295229 0.079156734 0.08783536 0.028017547 0.0033349523 -0.048144966 0.023108121 0.069602475 0.044252247 0.08586816 -0.051819127 0.04422474 -0.10152552 -0.06696065 -0.05119689 -0.103338055 0.035847843 -0.071392484 -0.043315787 -0.02732984 0.0678438 0.058651358 -0.23405589 0.044308096 -0.041236002 -0.04321314 -0.06779575 -0.096768424 -0.09558487 -0.0039027166 0.009492065 0.07332395 -0.04491006 0.0066686063 -0.0370518 -0.07329431 -0.0949238 -0.026002962 -0.17524979 -0.06258761 -0.034972627 0.10087 -0.12215406 -0.040874057 -0.11802423 0.13714984 -0.07902434 0.008881337 -0.038027477 -0.11776689 -0.117721125 0.13562247 0.019725708 -0.19256267 -0.03139204 0.10045321 0.027854191 -0.013433382 -0.0686682 -0.055320956 -0.0009116215 -0.04891918 0.02236962 -0.10697125 -0.084705606 0.031239102 -0.0935782 -0.045113213 -0.081933446 0.01560653 0.104087554 0.022809194 0.0033188078 0.017344614 0.0124753695 0.09376649 0.032059267 -0.012973876 -0.107639104 -0.050082333 0.03668529 -0.120278805 -0.06321836 -0.08713908 0.0104481885 0.012009755 0.12697043 0.017140254 -0.011458384 -0.019723818 0.022781115 0.060255893 0.109827906 -0.09540468 0.05898334 0.03355039 0.0017959172 0.016972465 -0.009245911 -0.06969989 -0.02391917 -0.09983644 0.109691136 0.019505857 0.08456433 0.08629748 0.0060375533 0.16393344 -0.043364286 0.09001356 -0.09200866 -0.03870006 -0.08765679 0.05116448 -0.0077922554 -0.056831744 -0.04176134 0.016427845 -0.045101814 0.15568206 -0.018168164 0.02465777 0.09407346 0.092915066 -0.023751125 0.09218602 -0.017422197 0.042783722 -0.041201003 0.07967548 -0.06557136 -0.13128546 0.053799506 -0.0942544 0.11225586 -0.036299296 -0.039875414 -0.00059157255 -0.04469934 0.06434562 0.0019153355 0.03477073 0.17586279 -0.00022669624 0.19437048 -0.27912986 0.047497828 -0.038290936 0.05220897 0.07546455 -0.08458547 0.028906137 -0.11255606 -0.002410805 0.08451363 -0.011886887 -0.018258298 0.034672227 0.1102207 0.10698296 -0.052107196 -0.055176605 0.06611546 0.01157013 -0.023959141 -0.05347927 -0.04811718 0.15541098 0.061242837 -0.12089289 -0.00480653 0.035536766 -0.029135939 0.0201552 0.084672116 0.023416512 -0.15644425 0.17278117 -0.07288569 -0.013652395 -0.032082472 -0.09765175 -0.106121175 0.025884146 0.011703276 -0.038655076 -0.024697369 0.03128129 0.012985992 -0.033804644 -0.0015029609 0.14018317 -0.017803509 0.14201644 -0.015793324 -0.16777706 -0.02333851 0.06683568 
94화_잠은행上/94화_잠은행上-029.xml 0.015619631 0.2100751 -0.22360778 -0.10308433 0.063411914 0.09408441 -0.053661183 -0.036550377 0.15645976 0.05634612 0.14948681 0.13664532 -0.049709134 0.05767813 -0.1296172 0.13170557 -0.100110084 0.024931546 -0.070512764 -0.1584368 0.09965269 0.101303846 -0.032194093 -0.1704228 -0.06411692 -0.14377661 -0.12456322 -0.025051657 0.089261085 -0.06405721 0.1696132 0.045484953 -0.38397732 -0.17830484 -0.00021320416 -0.0990611 0.11870277 -0.3105471 -0.1280818 -0.4683164 0.12572534 0.08254446 -0.097092055 0.04995864 -0.0846794 -0.118705645 0.08647392 0.01639929 -0.21858382 0.046526846 -0.050381523 0.14046231 -0.14171 0.05937256 -0.08987862 -0.15870506 -0.054726034 0.14759704 0.029678186 0.018268274 0.050384853 0.09644789 0.22061764 0.19768392 -0.103282735 -0.026350671 -0.09201257 -0.051328495 0.12104918 -0.14741103 -0.24291594 -0.2658305 0.121922374 -0.019132828 0.010692946 0.008190497 0.1074325 -0.050771985 0.0298791 0.2747165 -0.2741862 0.07007343 0.18893953 -0.1601133 -0.119189925 -0.24580267 0.15965657 0.30424982 -0.22134878 -0.016828617 0.28655073 0.24286743 -0.0041262275 0.089929335 0.07201216 -0.037073214 0.1932421 0.38193408 -0.16844375 -0.042621944 0.090760276 0.06647781 0.42537504 0.07301553 0.100215234 0.20374197 -0.30664083 -0.039718717 -0.17191848 -0.12453505 -0.011779148 -0.10370321 -0.1598282 -0.07596264 0.05631988 -0.18378748 0.068393625 0.05718714 -0.41500872 0.13919507 -0.004063112 0.34358916 -0.19083256 0.3631446 -0.0430892 -0.19524384 -0.243244 0.03575417 -0.18192193 -0.3080422 0.0066427174 0.10483945 0.3234894 -0.51801467 -0.3528343 -0.038574997 -0.3805676 0.012253655 -0.046221986 -0.10396825 -0.32474932 0.37253338 -0.21340741 0.2179346 0.2527759 -0.040593397 0.35917377 -0.011481074 -0.06334946 0.18742602 -0.1690996 -0.03933965 0.030126844 0.27056277 -0.40712246 0.2042896 -0.11082772 0.03260516 0.1943496 0.088333696 -0.023371156 0.15881674 -0.046751823 0.17278099 0.4658369 -0.08320031 -0.1658172 -0.27919504 -0.2926925 -0.031188408 0.022892559 0.27894452 0.023671424 -0.3502024 0.09987508 -0.34556833 -0.30234134 0.015136778 0.16502379 0.33459368 -0.06609673 -0.0076594916 0.2452972 -0.078109965 -0.10320154 0.054795746 0.06297377 -0.10150243 -0.025322607 0.14491257 0.087394804 -0.21902901 0.029169682 -0.2786662 0.4118072 0.17403099 -0.16056067 0.060603935 -0.24650379 -0.25893643 0.23838899 -0.21813968 0.24308927 -0.240906 -0.06059288 0.05118181 -0.0766949 -0.31877175 0.25807112 0.25754997 -0.14421473 -0.11883316 0.10703818 -0.08678094 -0.15057416 0.14697166 0.09644733 -0.10779711 -0.30742255 -0.05341455 0.1363886 0.018194135 -0.16479965 -0.034015086 -0.24533793 0.044461753 0.0398468 -0.121895276 -0.20494793 -0.08970789 0.24001819 0.16511692 -0.060479548 0.06639935 0.061103452 0.03313171 -0.082141586 0.20845355 -0.09157946 0.049096156 -0.10127696 0.07681668 0.117291585 0.13538823 0.19804864 0.12825957 -0.12848721 0.23222436 0.20011637 0.2256363 0.017314395 0.08033631 0.06467679 0.086552225 0.14520022 0.021047277 -0.00698358 -0.16431695 0.049665485 0.03957546 0.14937006 0.029082848 0.0632546 0.07223749 0.012389387 0.06703201 -0.18866189 0.20069209 0.03097617 -0.28464344 0.062625974 0.09840451 0.13707423 -0.16709013 0.039564118 -0.023456084 0.1383779 -0.09727018 0.018186208 0.21225256 0.20021166 0.072023965 -0.071408875 0.1186238 0.08231153 0.080837525 -0.13147946 0.17449118 0.10342014 0.04839533 -0.012451976 0.088957325 0.21568911 0.024610702 0.14552636 -0.15502678 0.20179711 0.123257555 -0.03800237 -0.07253085 -0.094418384 -0.01882718 -0.02581798 -0.019175267 -0.0883888 0.2274457 -0.21116416 -0.11373148 -0.11355972 -0.07521967 0.025245063 -0.026023934 0.05317729 -0.006035632 0.08137459 -0.06178393 0.11216998 0.12971205 -0.03485224 -0.08025654 -0.16331008 -0.06928543 -0.029184679 -0.004882417 -0.034291506 -0.08057698 0.014685311 -0.11476301 0.073750965 0.3482865 0.044874474 0.08447483 0.011323107 -0.037998468 -0.0031114968 -0.18524387 0.083917856 0.17314023 -0.0029552248 -0.19237186 -0.13765259 -0.0937441 -0.055188812 0.0896677 -0.028655298 0.066811785 -0.03018057 -0.042117015 0.01918944 -0.124313034 -0.108363196 -0.06664376 0.08612347 0.034623034 0.1105426 0.066577345 0.1174389 -0.12750743 0.25312534 0.028312657 -0.05323519 0.094770014 0.096757166 -0.09313838 -0.29078075 0.28781044 0.20956212 -0.5561172 0.10093162 -0.038352787 0.015254219 0.07766606 -0.10473231 -0.11003695 -0.09890918 0.06543835 0.105658695 0.011416663 0.1365635 0.10091124 -0.06320519 -0.059807394 -0.029900266 -0.029567135 0.07526053 -0.027666606 -0.021162681 0.03747678 0.15489347 -0.0998529 0.10332408 0.10367701 0.29055774 -0.019805837 -0.12298882 -0.026411725 0.11662139 -0.07335006 0.13809049 -0.0032531254 -0.025017679 0.04481364 0.1746414 -0.06943741 0.041368764 0.0058492785 -0.07173033 0.05705199 0.07813041 -0.032154825 -0.06313886 -0.021665072 -0.06201964 0.00840232 0.0020510422 -0.10672402 -0.11673987 -0.03250598 0.049163654 -0.07790233 0.010874423 -0.14040011 -0.1563487 0.022678826 0.068498 0.033535667 0.075694 -0.03233673 -0.15350795 0.063844144 -0.20725384 0.07172433 0.020238677 -0.13073857 -0.0067154253 -0.057968855 -0.009947987 -0.08151982 -0.27925405 0.06257939 0.033909507 0.0076322393 0.043677483 0.023067547 0.09194062 0.12163276 -0.04019083 -0.3357631 0.113193184 0.008354117 0.07703253 0.10153951 0.019751808 -0.12781703 -0.031603877 -0.051732015 0.012211088 -0.009600651 0.01800105 0.026464865 -0.07844966 0.07737786 -0.111015804 0.11137349 0.09789827 0.13765603 0.0815744 0.08290786 -0.09834545 -0.04169752 -0.1951532 0.24406068 -0.1271486 -0.06627562 0.036445398 0.050133057 0.07720897 0.04201731 0.20746732 -0.10482242 0.1368161 0.07971841 -0.022636166 -0.017114965 0.14117938 0.027236352 0.0045046424 -0.07396561 0.10088901 -0.0059880614 -0.027314253 0.1205766 0.07001012 0.054749224 -0.12421799 -0.011099965 0.07271869 0.07407967 0.16675098 0.09622103 -0.091745764 0.13342538 -0.006593629 -0.048459273 0.09842573 0.05706276 0.0074764276 -0.1633213 -0.061592057 0.038259607 0.13027264 -0.0009537273 -0.011273067 0.01076273 0.0023739163 -0.03331502 -0.026075346 -0.014136553 -0.0203718 0.1534762 -0.048889205 -0.15860228 0.088130824 -0.037860937 0.20770122 0.18306029 0.004645258 0.113360286 0.025821365 0.038681462 -0.06452317 0.003943874 -0.101599924 -0.06329542 0.25065142 -0.0036460583 0.019025529 -0.0074651707 -0.1692755 0.0064019016 0.0006196342 -0.0028469455 -0.080392204 -0.019915499 -0.14271748 -0.089207225 -0.08203035 -0.1952632 0.08126596 -0.0052440804 -0.021128476 0.04999721 -0.010185366 -0.094940566 0.110231996 -0.08250622 0.0012568496 -0.011027317 0.16886291 0.026844753 -0.04003874 -0.062403005 0.22130573 -0.14547922 0.20403628 0.105645396 -0.1399275 -0.07175362 0.033199072 0.3334763 -0.017930893 -0.17347658 -0.0051467367 -0.17077914 -0.009681615 -0.09031264 0.11122184 0.0015747042 -0.07736642 0.038676064 0.078703724 0.22396718 0.006703497 0.14841156 0.21020944 -0.023273965 0.03863125 -0.19343191 -0.27976122 0.25472984 0.08203445 0.08626359 -0.371828 -0.019110182 0.13182555 -0.16227496 -0.22978118 -0.12896651 -0.18238465 -0.14897484 0.092960015 -0.079561025 -0.14250316 -0.2114281 -0.30734926 0.03997973 0.12673226 -0.053803463 -0.031875882 -0.047523957 0.07768307 0.09583909 -0.410704 -0.112608396 0.00035824667 0.15895101 -0.12965126 0.04626414 -0.093559325 -0.1117294 0.12923922 0.10380607 0.19575953 -0.11414228 -0.118882194 0.08886705 0.019721232 0.021649072 -0.061652277 0.25456247 0.05221171 -0.2901982 -0.033674143 0.2648182 -0.026129425 0.19775404 0.16630444 0.18994603 -0.07909089 0.27051654 -0.06594505 -0.057481725 0.28270593 0.06209498 -0.13929366 -0.008256748 0.17486466 0.024525093 0.035219457 -0.09071197 0.1474824 0.02283992 -0.11932184 -0.05812149 0.26617962 -0.23574397 -0.062062185 0.13440518 0.17703219 0.12427025 -0.32306847 -0.09732787 0.15048085 -0.17704429 0.047626525 0.16730343 -0.19675119 0.18516733 -0.037557993 0.1328398 -0.12673008 0.10218668 0.0037421095 0.05067948 -0.049432952 0.12669316 0.07494135 -0.00926357 0.17372291 -0.061170988 0.15080614 0.09627589 0.0021886453 0.011356262 -0.050065033 -0.11866406 0.09538847 0.1726919 0.13801493 0.0013492613 -0.08081863 -0.20477907 -0.16415016 0.0958203 0.0012862447 -0.29881784 -0.118829094 0.18965024 0.121228896 -0.07962137 
94화_잠은행上/94화_잠은행上-022.xml -0.16101643 0.36237872 -0.12268122 -0.17025998 -0.022606997 -0.048875317 -0.0438568 -0.021546956 -0.054726537 -0.015279105 0.15632716 0.04966591 0.12174078 0.044900186 0.25436142 0.03341416 -0.025381168 0.04554283 0.08963986 -0.16745725 -0.078781426 -0.009002861 -0.0006605665 -0.073352784 -0.061108418 -0.053236455 0.031268734 -0.119895004 -0.022690725 0.2786962 -0.26032892 -0.03574734 0.06644875 -0.06616393 -0.07048081 -0.03365239 0.13797121 0.0065497993 -0.023595996 -0.13434246 0.13121697 0.14642954 0.030487156 -0.055272948 -0.037431173 -0.05689147 -0.04343854 0.10479377 0.020024965 0.09653126 0.009019153 -0.010180923 -0.119876504 0.12472314 -0.01772125 -0.058190044 0.016545894 0.13456702 0.17671856 0.038061507 0.10146921 0.16968612 0.08852919 -0.038529523 0.0842601 0.016361497 -0.049378227 0.13755684 -0.058821153 -0.09311795 0.0129517345 0.013291931 -0.17723285 -0.037257917 -0.1029022 -0.02335031 0.18109047 0.05835917 -0.114983514 -0.074211895 -0.12644903 0.14659819 0.02373552 -0.06970152 -0.02203927 -0.08563605 0.055399816 0.060614683 -0.04883614 0.038802274 0.09235239 0.11048099 0.12406411 -0.12392729 -0.09103179 -0.06647414 -0.0707418 0.050514787 -0.07001132 0.036657315 0.010344233 0.11357167 0.10175725 -0.06762367 0.07430251 -0.012409141 0.11899339 0.00659289 -0.06898489 -0.018510628 -0.096439086 0.23668414 -0.039828736 -0.12651093 0.0908664 -0.068719015 -0.00913113 -0.03661055 -0.035060044 0.020806726 0.08217327 0.0037832465 0.010802902 0.10254388 0.09406403 -0.11853977 0.016826047 0.023301072 0.093199 -0.0046345997 0.014099212 -0.0368131 -0.015604438 0.086143136 0.025237571 0.110688895 -0.009547505 0.115286514 -0.0036330684 -0.1618379 -0.17039727 0.17135847 -0.02917683 0.058220696 0.055795502 0.036248043 0.11551109 -0.08257879 0.056488365 -0.08585465 0.060287576 -0.13466358 0.02474059 0.044869862 0.019521052 0.004221685 0.10843503 0.07676298 -0.04353127 -0.089217454 -0.022571124 0.045854043 0.11219333 0.10355585 -0.05113206 -0.01650744 -0.065344624 -0.0698547 0.070269585 -0.057888545 -0.047038358 0.0019924021 0.10982418 -0.008462599 0.14070287 -0.0351762 0.02563886 0.11523287 0.01836218 -0.11607241 0.060170602 -0.033651784 0.006477597 0.056933604 -0.03594949 0.034455217 -0.039247286 0.024368346 -0.026887406 0.02879863 0.07477625 -0.021938205 -0.033630766 0.055307508 0.13911009 0.044069987 -0.075299054 -0.04244133 0.014657825 -0.033028953 0.044147324 -0.025620326 0.031439748 -0.19863999 -0.07633209 -0.073982656 -0.118671834 -0.009926766 0.25736567 0.15688448 -0.19464865 -0.13087177 0.020437464 0.015179908 -0.048905 -0.09514879 -0.027071318 0.031648397 -0.08965586 0.20162398 0.1774184 -0.15347904 -0.108747736 -0.081938475 -0.02391774 0.06902154 -0.021371065 -0.07085037 0.025901949 0.03450554 -0.0057506226 0.08852937 -0.113867156 -0.018419454 0.11130382 0.08182156 -0.07688311 -0.04962363 -0.031076891 0.016307097 0.013308178 0.04334554 -0.10564716 -0.11794516 0.013631465 0.11157003 0.122813515 0.005153393 0.12161177 0.08452316 -0.08779973 -0.09738375 -0.08474882 0.16564696 0.04184332 0.08325786 -0.085839674 -0.04614857 0.021208186 -0.07360283 -0.10324839 0.06930038 -0.05164316 0.02570888 0.02056297 0.059303544 -0.012186251 -0.009203492 0.013661797 -0.028656341 0.03118736 0.00700147 0.12773278 -0.03017196 -0.09282917 -0.026711147 -0.0046748286 -0.11322458 -0.057848882 0.021422774 0.10272541 0.09254241 0.017019402 -0.050867677 0.066067375 -0.025886772 0.12853241 0.053065643 -0.006383644 -0.017904948 0.022482019 0.015785169 0.04984019 -0.18946803 -0.040666208 0.020548856 -0.04994864 -0.030703165 0.06769523 0.057693508 -0.11609781 0.13192889 -0.047170814 -0.14879577 0.12979572 0.054385535 0.14539275 -0.029024538 0.06953219 0.01006334 -0.0098903915 -0.012759175 -0.09548166 0.09226631 -0.019446354 -0.12619591 -0.12304177 0.040709827 0.119307004 -0.031951893 -0.006470061 -0.076205075 -0.085615896 0.009537686 -0.0013127303 0.03832564 0.015807215 -0.021901965 -0.013078129 -0.11377274 -0.011531356 0.06536547 -0.06391609 0.115383476 0.07815687 -0.18400621 -0.132272 -0.061135452 -0.16562928 0.14655104 -0.036083315 0.12598076 -0.120564274 -0.01851632 -0.091641665 0.00016023265 -0.011781616 -0.049152356 0.19720152 -0.008680688 0.0037139384 -0.08074871 0.04602234 0.024592761 0.025499657 0.057047322 -0.08944662 0.059236746 0.044186007 0.027373565 -0.05082372 0.17714004 -0.14378107 -0.14447714 0.038674552 -0.029186688 -0.09652315 -0.01764538 0.014715785 -0.1537244 0.09406513 -0.013454727 0.13299383 0.07362216 0.07083595 0.11291416 0.11806082 0.1037129 0.045977175 -0.1363979 -0.0035132468 0.016692748 0.09328478 0.15866077 -0.03492887 -0.09024565 -0.055182766 0.054374214 -0.17041808 -0.029831674 -0.10155253 -0.03073832 0.013373831 -0.05031088 -0.07628931 0.0067195324 0.05684723 0.007870754 0.037095614 0.061354425 -0.043781187 0.024897411 0.023981873 0.06953974 -0.043432392 0.37672806 0.16945726 -0.008513119 -0.068761654 -0.11430129 -0.2052956 -0.08881613 -0.07122053 -0.00609548 0.012820783 -0.046819966 -0.07105769 -0.07692327 -0.003989763 0.13499984 0.0792116 0.030516898 0.089597955 -0.12133695 0.018906437 -0.11785981 0.05248592 0.093903154 0.1472199 0.10874097 0.12883599 -0.040480975 0.040424466 -0.0315203 0.040218506 0.10673743 -0.07165219 0.17938302 0.050149925 -0.09920663 0.07242575 -0.07655752 0.067564406 0.13983527 -0.0048104506 -0.03022109 0.045631684 -0.062082104 0.06805976 -0.09842369 0.06874504 0.09269458 0.06245985 -0.2219311 0.1321409 -0.09483138 -0.12447332 0.11279638 -0.12445154 0.032408133 0.014652731 0.057714097 -0.16562285 -0.07155186 0.031221211 0.034197252 -0.058927607 -0.06513858 0.10053563 0.07308081 -0.002655033 0.0072126426 -0.05248166 0.005060002 0.06606062 0.03931822 -0.0315981 -0.008744543 0.016029611 -0.034038387 -0.14229348 -0.0020893565 -0.05353354 0.12725762 -0.03662051 -0.09400358 -0.11565019 0.027166892 -0.009290518 -0.013908034 0.06962186 0.054610327 0.07107346 -0.006326541 0.036397584 -0.048765063 -0.14371777 -0.0037748914 0.026746666 0.027014863 0.058695674 -0.019743467 -0.05249351 -0.053743612 0.0063774437 -0.056753512 -0.05462455 0.012269549 -0.05444261 -0.024647087 0.07038027 0.074523464 -0.08152847 0.019130584 -0.06624731 0.049637392 -0.06298992 -0.0923069 -0.040088 -0.029738825 0.083637595 -0.11121094 -0.034136437 -0.09755731 0.023240581 0.030914817 -0.08929499 -0.074291155 -0.052229315 -0.010965295 0.036834147 -0.043946177 -0.03973978 -0.07430853 0.20942931 -0.03319957 -0.018013671 -0.12339905 -0.13869281 -0.06643514 -0.06057541 0.13598208 -0.03268334 -0.124059364 0.08240272 0.02535296 -0.027054455 0.01729176 -0.043598622 -0.06883899 -0.0085181 -0.038224712 -0.05615616 0.07057652 0.0024234205 0.043075338 -0.049624972 0.025204068 0.058595132 -0.037949976 -0.077212885 -0.12772569 0.0156106 -0.0334529 0.007968595 -0.10308438 -0.020381548 -0.084833086 -0.092814445 0.030626252 0.0903407 0.09944481 0.013733486 0.1018184 -0.06751864 -0.121071205 0.07720454 0.016554175 -0.15304661 -0.13065158 0.11830257 0.041779757 -0.047254056 0.02008092 0.074072674 -0.116101645 -0.036249574 0.0751776 -0.08840622 0.06552516 -0.0018639164 0.099064186 -0.029041957 -0.036262196 -0.027635913 -0.21852493 -0.031548485 0.026709989 -0.03744877 -0.020303786 0.04654645 0.073993385 -0.0016349021 -0.108897924 -0.019636868 0.0018196808 0.08106361 -0.061036117 -0.005698766 -0.046325907 0.18036692 0.12146489 -0.122775935 -0.048124157 0.10504898 0.097269416 -0.09903615 0.041018095 -0.000392853 -0.0131349405 0.15108882 0.08344504 0.06342678 0.08735629 -0.102397226 0.10410705 0.062781826 -0.031493515 0.019441685 0.07608797 -0.10436395 -0.054923575 0.009092725 -0.019938787 -0.012841783 0.05915696 0.14559738 -0.024140347 0.06656911 0.094968796 0.039421417 -0.01889408 -0.052322917 -0.034256466 -0.12375822 0.078975715 0.082691774 -0.09280647 -0.03733183 -0.12387 0.02092227 -0.03034063 -0.051580027 0.07949585 -0.042027276 0.022624306 0.07006365 0.05812363 0.07664867 0.09356877 -0.027575573 -0.025871824 0.012441973 -0.21391527 0.02628397 0.2407041 -0.2268722 0.11563778 0.016590973 0.17601946 -0.18730474 -0.109727696 0.04208401 -0.006061814 0.029338919 -0.05722727 -0.037482575 -0.08671033 -0.008512421 -0.083010964 0.100658685 0.06739615 0.021056037 -0.11320525 -0.08698274 -0.02063509 0.08673681 -0.015352137 0.030304246 0.021599099 -0.018114999 -0.23909453 -0.04109509 0.07445879 0.013245566 -0.22122946 0.038661744 0.030734804 0.06617758 -0.111151904 
94화_잠은행上/94화_잠은행上-023.xml 0.16190712 0.10413639 -0.0021580774 0.13790444 0.056254867 0.050154988 0.044527017 -0.011664823 0.32554892 0.10360081 0.007098184 0.21164611 0.07195881 0.12651867 -0.2546727 -0.14986838 -0.062032145 0.14615227 0.018864457 -0.11986986 0.02970053 0.084183015 0.1409914 -0.11466718 -0.20603196 0.111216575 0.18643346 -0.11320265 -0.13942073 -0.00556444 -0.10023344 -0.093492106 0.0918805 -0.048871197 0.1386306 0.13822179 -0.041626874 0.18689708 0.08321318 0.089928225 -0.04194127 0.028905485 0.16598444 -0.047306143 -0.14784028 0.045002867 0.003985858 -0.021654148 0.17020333 0.007868506 -0.074407235 -0.061255056 -0.15629521 0.062186457 -0.13175276 -0.105121344 -0.018727677 -0.15911062 0.111562096 0.06575676 0.0359079 -0.040686127 0.06644708 0.045801684 -0.2535831 -0.01440865 0.19759324 0.09461992 0.06639283 0.16000658 -0.14102568 -0.14698717 -0.049298167 0.008075654 -0.079394475 0.049806673 0.14852591 0.19192952 -0.22238076 -0.03750191 0.214504 0.080902494 -0.21561 0.07624859 -0.053275716 -0.02522732 -0.20137206 -0.16510086 0.13031857 0.022174174 -0.08582937 0.01354062 -0.0767171 -0.04421211 -0.24818887 -0.24160913 -0.03273372 0.022944756 0.0041950634 0.15272056 -0.0047951676 0.14290851 -0.026790537 -0.06184108 -0.107084006 -0.20859157 -0.043496214 -0.04265517 -0.11672881 0.07883607 0.1350589 0.00021365564 -0.0961779 -0.094350375 -0.0629231 0.07053099 -0.061134793 -0.014317871 -0.21044666 0.114761695 0.05798361 0.17112598 -0.07040939 0.022619834 0.057354674 0.09537271 0.3154918 0.034815993 0.13209698 -0.018489482 0.122891426 -0.07894179 0.09818785 -0.0795736 -0.0362418 -0.049991656 -0.0025146585 -0.045975238 0.026721817 -0.070816815 -0.17134936 -0.0647804 -0.1302357 0.05387541 -0.052028097 -0.084475 0.11373869 -0.006293511 0.15112185 -0.19623372 0.048779037 0.0004471466 0.08136259 0.15856755 -0.08141706 -0.09179505 0.029160837 0.11169969 0.00888651 -0.11120886 -0.022512835 0.0045070685 0.035689157 0.15359858 0.022649832 -0.06832023 0.10254521 -0.119754836 -0.015253387 0.028825205 0.014553149 0.1237959 0.0053519756 0.15248817 0.10586004 -0.022298962 -0.09327828 -0.0030800167 0.14077984 0.058560178 -0.04114586 0.0788829 -0.06976197 -0.025208043 0.13098387 0.08978076 0.16613401 -0.13194466 -0.111117385 0.21979648 0.07823737 0.08433544 -0.010926792 0.18445441 0.075911336 -0.08300823 0.023349658 0.2038056 0.11034345 0.05916986 0.13029781 0.048275027 -0.1374077 -0.16171005 0.10994676 -0.056325175 0.028108183 0.060808755 0.09254953 0.17503706 -0.217724 0.1694476 -0.07786975 0.0084636435 0.0811353 -0.15604347 0.037302412 0.13602427 0.079678915 0.017444402 0.006271536 0.02286983 0.13428992 0.07282604 0.12451725 0.14843872 -0.066958815 0.12659642 0.071235135 -0.16207959 -0.10672935 0.09682889 0.07963186 -0.006172531 0.03732814 0.070004135 -0.05740189 -0.0076980502 -0.12231592 -0.036817122 -0.0660713 -0.012971452 0.053532895 0.1819363 0.048302684 0.09065331 0.15384632 0.113430746 0.11823947 -0.16348141 -0.1120646 0.011037222 -0.023640603 -0.034120753 -0.02013894 -0.041580703 0.015744708 0.035567995 -0.008349691 -0.08992211 0.15953526 0.041718155 0.1714227 0.08080305 0.07399916 0.11462041 -0.16428667 -0.10439303 0.024727931 -0.1212443 -0.06832425 0.07431367 -0.01363049 -0.08034729 -0.00554556 -0.073825665 -0.13158341 -0.15123352 0.0058548097 -0.083737396 0.02345345 -0.021804508 0.15086971 -0.057599343 0.007624142 -0.0862637 0.33671767 0.09885209 -0.050432112 0.13258994 0.047219075 -0.1509833 -0.08258888 0.11044856 -0.14147398 -0.042372823 0.19335005 -0.15666696 0.18335947 -0.007154666 -0.019219877 0.07458986 0.06044744 0.052679546 0.11826167 -0.038087673 -0.017686704 0.107707515 -0.19134691 -0.04479359 0.037450977 -0.12052327 0.039386716 -0.124255985 -0.073068134 0.034809902 -0.17262097 0.0071853357 -0.013475625 0.15274712 0.036848806 -0.09429763 0.035048492 0.1228176 -0.0044200644 -0.09328165 -0.2028654 -0.07798739 0.005133355 -0.019167578 0.029653015 -0.01793388 -0.05084758 0.2837163 -0.093966626 0.19184317 0.14186756 -0.04582118 -0.08193266 0.086782694 0.17922209 0.046900768 0.004413302 0.013613939 -0.0141814165 -0.020359565 0.027074613 0.09383511 0.06827177 0.19026145 0.022317719 -0.003755882 -0.20091444 0.08323588 0.11360841 -0.053472612 -0.12924084 -0.06813443 0.059774213 -0.122514606 -0.28104615 0.08244842 0.07093136 -0.18765089 -0.24713624 -0.09066878 -0.18666407 -0.27218646 -0.15839309 0.12246075 -0.049253028 0.09515633 0.13729614 0.01665907 0.013692377 -0.04419452 -0.05109798 -0.09616652 -0.071680196 -0.066534065 -0.02961694 0.100306645 0.04707042 -0.0020674877 -0.03699636 -0.15778893 0.12976773 -0.04795904 -0.079309 -0.11147511 0.07225711 -0.060371242 -0.009133714 0.062274646 -0.11532082 0.119245045 0.12035732 -0.020833971 -0.078277215 0.09511566 -0.14449571 -0.025966976 0.055527486 0.23285905 -0.30748612 0.09770592 0.09005818 0.09807122 -0.04507371 -0.032983404 -0.20506036 -0.18711863 -0.07701748 -0.19945034 0.30235267 -0.070860885 -0.1401847 -0.098905206 -0.110297725 0.118984535 0.08505947 0.10869685 0.0054330733 -0.13493915 0.09847431 0.08703153 -0.02279163 0.11834605 0.03707291 0.09140842 0.08678926 0.041231208 -0.07661289 -0.11524602 -0.0009644097 0.003989039 -0.095317885 0.11032435 0.06786776 0.13682674 -0.06786461 -0.30555436 0.02543256 0.08284281 0.101242736 -0.06503904 0.04404284 -0.01603907 0.10066726 0.09018956 0.040165197 0.009746835 0.16587749 -0.051130984 0.15691666 -0.08993331 0.09136543 0.015255269 -0.1014128 0.02520502 0.16551244 -0.12807664 -0.13567053 -0.0774503 -0.10939729 0.09590749 0.026311904 0.029066466 -0.0029623192 0.03318758 -0.024264649 -0.23531818 -0.082242474 -0.010282065 -0.014544472 -0.053685274 -0.110720456 -0.13051945 0.007923833 0.005969708 -0.02931456 0.12550586 0.046986382 -0.026483314 -0.12751277 0.02934819 0.08208036 -0.13685006 0.11708918 0.06449318 0.061475933 -0.055265576 0.09674116 0.1330798 0.10230645 0.100114375 -0.23443867 -0.0063767442 -0.20113693 0.00035114307 0.09710239 0.13460387 0.03996895 -0.17830405 -0.044958442 0.03854578 -0.09980126 -0.05741962 -0.07406367 -0.047876045 -0.014768104 -0.054747682 -0.007832373 0.08734929 0.16439116 -0.21258491 -0.066078834 -0.11893176 -0.036208563 -0.07463015 -0.09195572 0.043873116 -0.30763674 -0.123144686 -0.14701869 0.019281026 0.057249416 0.007508725 -0.27769756 -0.13196997 -0.00085065234 -0.0031235479 0.098400496 -0.06315981 -0.020405725 0.105845176 -0.14003558 -0.112409845 -0.17791606 0.17411247 -0.11309433 0.1940682 -0.09862297 -0.050747856 0.042212985 0.03955475 0.17237659 0.12348256 -0.090427846 -0.011448845 -0.03761313 0.0110198315 -0.08619884 0.14461143 -0.17547043 -0.031958837 0.111633256 -0.07142352 -0.030563653 -0.117813855 -0.13331017 -0.046283744 -0.18380424 -0.14715053 0.040730238 0.1281424 -0.005699585 0.116335355 0.07408536 0.22529106 0.04405825 0.031251952 0.13146816 0.0017709946 -0.13340902 -0.023184158 0.07524436 -0.036490496 -0.091322795 -0.045459718 0.1680357 0.07937574 0.13417156 0.20685486 0.11159235 -0.1130092 0.13600366 -0.0123233665 -0.045034274 -0.08224213 -0.26237082 0.111105226 -0.043692987 0.008956383 -0.08953429 -0.20060071 -0.04896473 -0.04788338 -0.04512042 0.0545991 -0.077308774 0.10791759 -0.0024792263 -0.14173585 -0.0055105593 0.064875305 -0.14636078 0.0384465 -0.14018244 0.04663058 -0.093755424 -0.0120965075 -0.02246416 -0.16799356 0.026275076 0.2164098 -0.14791419 -0.032780416 -0.044341765 -0.0031994618 0.12236651 0.0040230677 0.052951593 -0.2996323 0.00846914 0.07688843 0.06791258 -0.043966826 0.10893106 0.20275186 -0.06537971 -0.009919337 -0.025841996 -0.057193473 0.08746685 0.08758734 0.07344549 -0.0856138 -0.059101507 0.0015429291 0.01147937 -0.15798672 0.02356743 -0.0021350048 -0.14722021 -0.09638826 0.110142365 -0.028510459 -0.09309614 -0.08641249 -0.04236689 0.010422366 -0.061871696 0.073175706 -0.15775192 0.044922136 0.110378824 0.0034425175 0.09187806 0.0039477963 0.09717129 -0.051390987 -0.06146733 -0.076946296 -0.0066987476 -0.00842963 -0.10600971 -0.091448575 -0.07380032 -0.019007357 -0.26727372 -0.097432755 -0.09267413 -0.079512894 0.035848215 -0.17314826 -0.020109534 0.04361449 -0.044057503 0.014081502 -0.049844783 0.07123141 0.057000622 -0.020660792 -0.011200385 -0.03363698 0.033715423 0.0044765035 0.19774018 0.1063342 0.013518117 -0.030691184 0.15322874 0.03755885 0.066663615 -0.19369426 -0.046166077 0.048671465 0.117013335 -0.02017095 
94화_잠은행上/94화_잠은행上-009.xml 0.1938284 0.17595795 -0.008915413 -0.31666273 0.7321362 -0.60733783 -0.039412335 -0.10336393 0.38134602 -0.20663252 0.1953337 0.3517062 -0.10936968 0.037505582 -0.01887102 0.30140975 -0.17444834 -0.0055562602 -0.39407045 0.19294831 0.04193601 -0.15842761 -0.36657768 -0.09052602 0.34600103 0.24184088 0.2356436 -0.20889282 0.123288505 0.4643778 -0.6528362 -0.11795807 0.077426136 -0.3064097 0.008590289 -0.26020685 0.17806937 -0.3522214 -0.30609676 -0.7749239 -0.039969802 0.60007703 0.01050847 -0.1820356 0.107358895 -0.045200117 -0.4101354 -0.008472417 -0.25205234 0.12016717 -0.18452416 0.12114997 -0.24764726 0.442783 0.0710616 0.08346204 0.11538229 0.07992284 0.19630568 -0.07788661 0.010476293 0.3250634 0.03142046 0.15397362 -0.1057978 -0.009822268 0.17358045 0.26646847 -0.15964016 0.12867458 -0.18855605 0.05853785 0.07798267 0.22697544 0.011362638 0.20737007 0.038937327 0.03980475 -0.27719998 -0.37161654 0.2770991 0.023366269 -0.23419914 0.7648201 0.57771087 0.26660317 0.17043824 0.065917306 -0.029767873 -0.56032956 0.123455174 0.36828429 0.28343162 -0.53191113 0.034678116 0.17884491 0.047079176 0.10573158 0.04176464 -0.41532147 -0.41400936 0.5846785 0.1882578 -0.019054096 0.040319998 0.33596402 0.3860942 -0.18312879 0.14217824 -0.06399684 -0.1933914 -0.1332951 0.060891777 -0.2111838 0.39561716 0.21251437 0.18164751 0.082388334 -0.47190082 0.009961697 0.098888904 0.14520586 -0.3392553 -0.15683044 -0.12164275 0.09401135 -0.13101482 0.6281831 -0.25222704 0.13292336 -0.0041121747 0.085922554 0.013891645 0.049785722 -0.05538179 -0.24211778 -0.16668925 0.119047955 -0.1487646 0.20514333 -0.019476436 0.1338304 -0.011990804 -0.0897419 0.09432695 0.04318185 -0.006538987 -0.032237187 0.0070898877 0.035061546 -0.17977747 0.12098263 0.051612936 -0.4585745 0.1781888 0.33364147 -0.1831536 -0.0071390825 0.22657079 0.113352686 0.2538425 0.045726724 0.062120184 -0.12280975 0.3179065 -0.17096466 0.23042978 -0.5109231 -0.06916119 0.3501422 0.13204777 0.39701903 -0.23759401 -0.060259864 -0.27323163 0.104131766 -0.20096926 -0.65987146 -0.05624433 -0.27425918 0.2862044 -0.038796455 0.03731841 0.4183051 -0.0072046956 0.074476846 0.19834182 -0.3938877 0.19637208 0.14622948 0.026877312 0.27056265 -0.5675283 -0.14654422 0.040937975 0.0006966051 0.3446031 -0.11426089 -0.14242257 0.4830519 0.03114722 0.016216025 0.3232777 -0.107773766 0.14593887 -0.11334483 -0.3749287 -0.46164754 0.30105045 0.29669267 -0.028223364 0.26484182 -0.026799552 0.15316129 0.1364108 -0.05071999 -0.07332877 -0.14340396 -0.3537861 -0.20655113 0.07846922 -0.042353243 -0.31077856 0.05377109 -0.074372575 -0.18752813 0.002619646 0.25662333 -0.08383253 -0.040649116 -0.07353809 -0.073055014 -0.08882678 -0.3442256 -0.0012059379 0.13529396 0.11318278 0.08509974 -0.2583099 -0.57334256 -0.30963165 -0.2558417 0.037129603 -0.16015 0.25251782 0.055191446 0.08891367 -0.12771645 0.4618433 -0.41189218 -0.23791617 0.038030934 -0.25097477 0.17014647 -0.007727444 -0.06698143 0.1996954 -0.41876426 -0.19465894 0.0062236395 -0.07298179 0.2058108 0.110381104 0.112134404 0.0790446 0.3820646 0.28972396 -0.113019094 -0.602493 0.08648146 -0.026674375 -0.23368293 0.14827666 0.0815041 0.11415894 -0.001406787 -0.017149042 -0.10417675 0.046700314 0.12842417 -0.1636573 0.040781714 0.030581286 0.06913184 -0.0815589 -0.31851247 0.42054296 0.35884148 0.044030115 -0.17303954 -0.25355622 -0.069653705 0.31970572 -0.35203317 0.055552624 -0.30886286 -0.047106426 -0.108375624 0.55644965 -0.06008231 0.411595 -0.3891389 -0.10854982 -0.32932538 -0.3536017 0.5547188 0.35660806 -0.22847888 0.23326388 -0.23575416 -0.22138661 -0.24794653 -0.07902041 -0.020456713 -0.20499502 0.14931856 -0.09064403 -0.18364386 -1.6666949e-05 -0.15288623 -0.15613164 0.43327257 -0.11868601 -0.110396795 0.07699981 -0.45990896 -0.15131322 0.016584035 -0.17377466 -0.0015952922 0.00773805 -0.41831905 -0.16367435 -0.084607996 0.07079869 -0.17284709 -0.3833306 0.2932212 0.30657265 -0.03900496 -0.21649486 0.07950123 -0.18098786 0.051199995 -0.2794352 0.14636524 0.12942925 -0.06589623 -0.19328979 0.061124347 0.14414491 0.11450126 0.0033533797 0.12996444 -0.36328518 0.030217659 -0.19154991 -0.10970829 0.2829848 0.040603705 -0.22433095 -0.15936574 -0.10906401 0.21403688 -0.222388 -0.21231753 0.089515954 0.38907465 -0.00812719 0.25987813 -0.26750118 0.291435 0.27026984 0.3131958 0.29401633 0.051420905 -0.28156778 0.18042886 -0.36527345 -0.016750282 -0.09031257 0.26828757 0.36624283 0.11101743 0.13154927 -0.21219757 0.2529566 0.33522066 0.17366973 -0.26376998 0.09348802 -0.43418643 0.0121379625 0.20548981 -0.062309515 0.112783104 0.31853095 -0.026871467 -0.166166 -0.01229183 -0.14732593 0.19140255 0.024888743 -0.27909508 0.26927382 0.033097725 -0.06476767 0.3061475 0.05614321 0.12172535 -0.22122754 -0.049268413 0.21499382 0.16495967 0.4827388 -0.2103157 -0.29309744 -0.56241155 -0.19583744 0.08758868 0.13859971 -0.07954365 0.066058405 -0.2945471 0.20772046 -0.17846836 0.08566424 -0.0858718 0.1411427 0.034911484 -0.13366213 -0.15833151 0.16740112 -0.2069362 -0.0239866 0.06378893 -0.17081723 0.5180303 0.39016062 0.043244928 0.030550366 -0.075747065 0.09412401 0.29216903 -0.034214772 0.060930926 0.14856339 0.10112316 0.031132448 -0.16046208 -0.091847725 0.34043095 0.11524295 -0.33211482 0.23062828 -0.11516066 -0.2555009 0.39871868 0.011871746 0.26678547 0.065822564 0.24649757 -0.111323625 -0.140007 0.349303 0.18643183 -0.17144136 -0.2930146 -0.11957675 0.13929024 -0.03774334 -0.08811024 -0.28005394 0.1129418 0.21069789 -0.08732779 0.018247198 0.12045147 0.35683775 -0.24844417 -0.06473546 -0.25320995 -0.108200744 -0.101524144 -0.27454233 -0.4223966 -0.015603036 -0.39192694 0.32669812 -0.103731796 0.07705338 0.49800238 0.3343168 -0.11033427 0.26349825 0.06348282 0.14035767 0.2429526 -0.22913674 0.06564454 0.06413487 -0.11710797 0.06259288 -0.009622249 -0.05490499 0.1721609 0.32004294 0.16234654 0.21019721 -0.005378142 -0.092625625 -0.02835683 -0.20291913 0.19083585 0.054793227 0.44771647 -0.23498754 0.11308473 0.32146004 0.31068286 0.1128315 -0.06051317 -0.074989885 0.24689014 0.058300525 -0.033423875 0.3223083 -0.14088733 -0.29732916 0.0065695345 -0.38280377 -0.38802692 -0.23070769 -0.10783698 -0.024702478 0.06209427 0.20590898 0.25581384 -0.22328392 0.44471362 0.13791126 0.2770934 -0.106401905 -0.028588751 -0.05448806 -0.2050181 -0.0372421 -0.073708 -0.5717491 -0.08751564 -0.34634835 -0.2614342 -0.22713964 0.10597961 0.09572611 0.21872076 0.48483735 -0.2649269 0.2262925 0.044202738 -0.054983627 -0.38548252 0.04981079 -0.18092959 -0.10800309 0.0122059295 0.07717332 0.32018733 -0.0025687478 0.094277345 -0.25866696 0.2344354 -0.047586 -0.017729033 -0.32228464 -0.41597044 0.11322267 -0.22769165 -0.076585785 0.33599713 0.4439835 0.1478107 -0.32485086 0.22330076 0.038735922 0.14471541 -0.07514573 0.24374014 -0.016972624 -0.013813775 0.15484914 -0.10313324 0.30011287 0.119759664 -0.19716941 -0.18260026 -0.031436566 -0.15694581 -0.2097385 -0.26041952 0.22204883 -0.17569694 0.20297247 0.09293054 -0.4325666 0.32231453 -0.2171444 -0.20800142 -0.01932672 -0.20596617 -0.18083166 0.06774813 0.19576082 0.26431617 0.13719615 0.24411988 -0.042776123 -0.39963442 0.16524126 -0.030739281 0.5784551 -0.3043318 0.4441788 0.21815822 0.35692108 -0.11504239 -0.24750966 -0.1268542 0.20293106 0.0502156 0.026906546 -0.29497558 -0.23426901 0.20251368 0.03926631 0.4242402 0.070317395 -0.42650977 0.3108175 0.123368904 -0.16418062 0.0053067766 -0.10991998 0.094100714 0.0756734 -0.03997957 -0.46787694 -0.15906928 -0.085832134 0.16090947 0.10320009 -0.26799598 -0.20272087 -0.04284124 0.18527603 0.28223115 0.10015095 0.08462001 0.11381991 0.036441542 -0.01529482 -0.006197068 0.11475895 0.056180723 -0.16736132 0.3194986 -0.05415203 0.18499945 0.026918173 -0.11977935 -0.042923287 -0.20009373 -0.19570711 -0.15499559 -0.008279344 0.09977049 0.030937143 -0.22091603 0.052401006 -0.30074176 0.33639753 0.26555067 -0.18676883 -0.24673373 0.22027083 -0.13631728 -0.1874845 -0.017525442 -0.02262683 -0.21248174 0.07617092 -0.21518625 0.47161424 -0.34786138 -0.13163084 -0.53342336 -0.09381153 -0.04596439 0.399644 0.06596083 
94화_잠은행上/94화_잠은행上-039.xml 0.6311283 0.4295976 0.6762522 -0.69527984 -0.23455511 -0.2591323 0.4018212 -0.2849882 -0.46770924 -0.33549115 0.1611859 -0.3141192 -0.350845 0.12149724 0.30524784 -0.36859027 -0.36071497 0.094121926 0.4845549 -0.67085797 -0.28448033 0.14434041 -0.21924639 -0.23923746 -0.38270932 -0.15868574 0.57824695 0.20691495 0.22110921 -0.7033556 -0.4108436 -0.4500265 0.32250136 -0.34495187 -0.03167238 0.24239081 0.23878866 -0.1510336 0.40619174 -0.5310153 -0.10995446 -0.2606381 0.29449013 -0.16398728 -0.38042805 -0.22451706 -0.30882126 -0.49143055 -0.17105867 0.054236226 -0.03389183 0.31521416 0.33576927 0.30673516 0.26913995 -0.35648337 0.25208455 0.24795991 0.570921 -0.07610074 0.008358559 -0.29050735 0.165718 -0.19447088 0.05672437 0.25386503 -0.39549473 0.2603359 0.2843181 -0.8967603 0.08281426 -0.12212625 -0.2815292 0.50695914 0.039719626 -0.125837 -0.49659804 -0.12213326 0.043864213 0.47792882 -0.1584102 0.52794236 -0.049283613 -0.24297075 -0.040878307 -0.12700775 0.26511863 -0.15856268 0.14351617 0.10640408 -0.13577291 0.48648354 -0.02080227 -0.2985585 -0.23962332 -0.32298285 -0.12095407 0.09275178 -0.08529842 0.3372946 0.10697486 -0.018776497 0.2814621 -0.60061574 0.11984349 -0.37509587 0.27005115 -0.0012786888 0.0718374 -0.16697074 -0.26834667 0.10246596 -0.19995902 0.2682434 0.46453923 -0.55602014 0.07667908 0.31500557 0.35874677 0.2628508 0.26143906 -0.21211463 0.20857005 0.35267833 -0.6644739 0.086847335 -0.21350218 -0.5258439 0.011815896 0.180286 -0.010124507 -0.10830708 -0.24025583 0.1421597 -0.11902307 -0.048002813 -0.37143236 -0.213063 -0.2602535 -0.19102727 -0.57579273 0.59087205 -0.174547 0.37320912 0.25016254 0.039686967 0.75420785 0.3042581 -0.6213191 0.32959712 -0.27482978 0.17840527 0.55409783 0.5189264 -0.4295811 0.19084238 -0.103031404 -0.12732124 -0.442463 0.005619276 0.057087082 -0.3406269 0.48488402 0.31739342 0.024966588 0.2281749 0.121644594 0.8644869 0.09849444 0.3605777 0.31817177 -0.2821583 -0.39731213 -0.17863193 0.014832104 -0.19177961 0.3005642 0.11912026 0.34938917 -0.12359142 0.059375517 0.5555982 -0.02821739 0.23654544 0.003942702 0.15192816 0.04445774 0.17053223 0.5295016 -0.003349875 0.038607292 0.04287141 0.5661652 0.4737499 0.027050713 -0.04198445 -0.2947399 -0.2759704 -0.186506 -0.53438056 0.48238647 -0.5233023 0.20224145 0.18584993 -0.11418171 -0.21190464 -0.34315288 -0.26098073 0.31471634 0.22922066 0.11217471 0.2593971 0.010963625 0.49862462 -0.40154925 -0.074243024 0.14966643 0.52945983 -0.33048254 -0.3547419 0.028772723 0.11475216 0.24215907 -0.55198306 0.17079376 0.027856449 0.30013537 0.058092557 0.18156023 -0.07584241 0.531077 -0.351188 -0.22204006 0.015170432 0.28910047 -0.2863218 -0.36864617 -0.032036528 0.6847843 0.47547853 -0.44129527 0.5741783 -0.23073325 0.37789375 0.032005165 -0.1064249 0.026643004 0.106956586 0.18707009 0.47982654 -0.2156121 0.030577151 -0.397765 -0.034385942 -0.33326685 0.08787064 0.21974051 0.2592191 0.093284495 -0.14291134 0.024120962 -0.2628693 0.37206504 0.15957423 -0.12545213 -0.13962695 -0.122714885 0.058760483 0.47351918 0.1992813 0.17245536 0.29800922 0.16162254 -0.32682648 -0.3853167 0.15127613 0.28072506 0.5483717 0.42540666 -0.19654074 0.21338046 -0.13264212 0.1317339 -0.39040887 0.078495756 -0.24670635 0.22636612 0.33229852 -0.15784743 -0.047028545 -0.3782626 -0.11987846 0.57358706 0.55433774 0.08225421 -0.27758384 -0.36402312 -0.080028735 0.4824973 -0.02828514 -0.6133771 0.15724364 0.3658926 0.09133677 -0.23599719 -0.10729769 0.43224692 0.2873391 0.13608423 0.5571155 0.21110618 0.24670473 -0.54046404 -0.26165238 0.15777259 -0.6008601 -0.35078698 -0.7433615 0.2071193 -0.3974414 -0.15218261 -0.15678327 0.041279882 -0.2278068 -0.33014458 -0.3080178 -0.0953879 -0.34488177 -0.2574609 -0.50690866 -0.25877568 -0.010759398 -0.44443816 -0.5265742 -0.1671344 -0.40425932 -0.36527425 0.006807031 0.0687528 -0.25345188 -0.18982191 -0.20548755 -0.2905645 -0.37368768 0.5528868 0.27692202 -0.04184413 0.044945654 0.22739297 0.14405292 0.21431334 -0.0012768116 0.027052034 -0.35667646 -0.061564628 0.26053533 -0.085851796 -0.076906934 0.3911701 -0.44892102 0.18964718 0.6177884 -0.30039966 -0.17303964 -0.30526346 -0.22809765 0.16689451 -0.64131004 0.7637585 -1.1813909 -0.34450665 0.7275209 -0.14441694 -0.19434431 -0.012122942 0.45881644 -0.26276988 0.24668837 -0.70683825 -0.6826962 -0.3500124 0.14378916 0.52036196 0.26891223 -0.2055319 -0.26020762 -0.13438828 -0.037033185 -0.06779067 0.036277436 -0.14839005 0.07826751 0.39497748 0.4792632 -0.4185772 0.41429326 0.2159616 -0.09118143 -0.21251303 -0.102625445 0.13278304 -0.7117956 -0.21773948 -0.3256964 -0.2697677 -0.47327346 -0.18344264 -0.5216191 -0.046412297 -0.18815194 0.33462107 -0.22380276 -0.06463603 -0.2739623 0.2155278 -0.8483711 -0.85434073 -0.29034764 -0.11379578 -0.64030445 0.3926602 -0.41957378 0.4318947 0.41497394 -0.015644426 0.13064598 -0.17631103 -0.49685693 -0.061576992 0.14874811 0.25776106 0.13341317 -0.16579787 -0.094730124 0.09241891 -0.57366085 0.110237226 -0.119531274 0.45677644 0.34870297 0.07198275 -0.18947743 0.006087858 0.024683416 -0.16009203 -0.2612711 0.29508418 0.5063816 0.8044924 0.22772773 -0.4617314 0.15552193 0.5961999 0.46493506 1.001796 0.328824 0.15971847 0.064396515 -0.53069866 -0.022976484 0.6292502 0.17661649 -0.43092147 0.6425523 0.50465274 -0.3762866 0.50656945 -0.3611145 -0.2058128 -0.49785137 -0.34345916 0.059268616 -0.32691675 0.39841375 0.13661468 -0.42263627 0.18038309 0.08870134 0.19385028 0.26303393 0.34610784 0.077615395 0.15476777 -0.2834533 0.43255246 0.16300763 -0.1579018 0.18165468 -0.17646001 0.23029831 -0.21889116 -0.22200195 -0.29871863 0.54840237 0.5085947 -0.17903878 -0.14132804 -0.15949985 -0.1862245 -0.03877481 0.022869742 0.10743341 0.1479809 0.044136044 -0.07368802 0.118274495 0.08723905 0.26119608 -0.0050485367 0.46721703 0.26325467 0.031925246 -0.19516195 -0.30178404 -0.22974707 0.07912105 0.016802913 -0.038453497 -0.81238014 -0.100840315 -0.19973563 -0.6449251 -0.34756464 0.08602947 0.2526391 -0.26851344 -0.076976985 -0.036386326 0.20902453 -0.04027336 0.37211052 0.8035665 -0.3976355 0.46585962 0.41704154 0.116093636 0.24137403 0.17143266 0.20322743 -0.5759241 0.23598233 0.1970626 -0.14829445 0.5367612 0.47212887 -0.15037459 0.0043378063 0.07470064 0.43829006 -0.20356715 0.7441726 0.60778993 0.60401905 -0.07780073 0.20456944 -0.03209827 -0.48966852 -0.33357495 0.32306394 0.054800887 0.27866632 -0.012737555 -0.25910884 -0.45858255 0.608653 0.87215215 0.06802966 0.4633534 -0.053411286 -0.016650315 -0.09868484 0.09906618 -0.52785116 -0.19514817 0.07647845 -0.17985345 0.13371152 -0.7761367 -0.32482108 0.50578254 -0.015469112 0.23276755 0.06568776 0.008107813 0.753231 -0.43162116 0.11684354 -0.36806795 -0.18936479 0.26069888 -0.27394783 0.46583208 -0.40407535 -0.008609102 -0.12747598 0.29243556 -0.79540426 -0.40365288 -0.106872216 -0.3141907 -0.25973415 -0.124072716 0.15906923 -0.07393998 0.052901443 0.42530987 -0.3330245 0.46890157 -0.4624874 0.15859087 0.33407554 0.24643861 -0.283116 -0.58681023 -0.31067413 -0.1848379 -0.14754322 0.28398323 0.0860803 0.09876758 0.15993525 0.24519567 -0.2922414 -0.23952314 0.36260626 -0.038097985 -0.40519038 0.38842046 -0.05509524 -0.0034311358 -0.59291923 -0.1645734 -0.43394378 0.45173767 0.11331025 0.14936385 0.024348143 0.21670116 -0.017121099 -0.11746346 -0.14466134 0.93164164 0.4625346 -0.04295298 0.13601847 0.16936961 0.8086428 -0.673468 0.53612226 -0.065524936 0.09425995 0.063205406 -0.16168012 -0.005624152 0.45828983 0.12032297 -0.46208146 0.090082295 -0.33366925 0.14090349 -0.38532063 0.27361643 -0.09126632 0.07457301 -0.31746873 0.15206298 -0.40004605 -0.58211446 -0.41891956 -0.14555328 -0.10424958 -0.7696603 -0.52111083 -0.76889443 -0.24930382 0.3852662 0.38677144 0.107688375 -0.14525875 0.41025302 0.23875807 0.009836081 -0.2398249 0.19308934 0.16129433 -0.13071443 -0.1399376 0.5015902 0.4471807 0.29057312 -0.082651004 -0.5696672 0.09045455 -0.55908805 -0.50210947 0.010902923 0.38133958 0.15535262 -0.2581221 -0.49246374 
94화_잠은행上/94화_잠은행上-033.xml -0.016924035 -0.118020944 0.044857465 0.15440021 0.018550089 0.050630808 0.18570659 -0.23044312 0.086069986 0.21203911 0.011614522 0.27294067 0.1987763 -0.14769123 -0.076751724 0.22097012 0.20145541 0.09190501 0.017163556 -0.42624992 -0.026402881 0.08291926 -0.03307387 -0.13218996 0.16870748 -0.4881502 0.2458326 -0.19085133 0.064466774 0.13425449 0.22779188 -0.028458886 0.11341907 -0.2359953 0.17508829 0.27717423 0.1938052 0.34118015 -0.12052219 -0.2922835 -0.021168213 0.11029859 -0.081447974 0.06567811 -0.10584639 -0.0696071 -0.30928835 -0.38500136 0.1483767 -0.28564572 -0.0738351 0.20777623 -0.10381456 0.24064845 0.12952112 -0.18940935 0.14868705 -0.15332748 0.02949294 0.08359407 -0.09574386 0.17578721 0.036195796 0.3017868 -0.16982149 -0.16898791 -0.2124468 0.027507685 0.15686384 0.1567012 -0.25584894 0.011750966 0.14421491 0.18198276 -0.2723285 0.14542699 0.34382665 0.3921032 -0.30945802 -0.30372447 -0.10271458 0.08006406 0.17129633 0.19072966 -0.36558267 -0.19680469 0.05604227 0.1864655 0.118523404 -0.25853854 0.070025 0.1843746 -0.1290015 -0.069799796 -0.14652008 -0.27521396 0.005232712 -0.010024628 0.14114606 -0.16465388 0.0022996739 0.34516877 0.18092605 0.18816972 0.4671991 -0.0046398244 -0.09234625 0.0807363 0.005937214 -0.1747351 -0.058232754 0.024777493 0.09946017 -0.096446216 -0.0037019104 -0.107249044 -0.15798846 -0.13378656 -0.183665 0.026197245 0.055376 -0.072050065 0.10060567 0.3222496 0.34342536 -0.04885295 0.21656851 0.1115492 0.08546489 -0.18833268 -0.14779477 0.038549434 0.5356636 0.09336609 0.014769157 -0.016502053 0.02997882 0.24871174 0.2563209 -0.12753253 -0.18268636 0.4533704 0.34858626 -0.1262682 0.046214245 -0.10796013 0.24055575 0.17844984 0.16587716 -0.06266651 0.09843286 0.1799415 0.11148941 -0.07044947 -0.24125227 -0.11096875 -0.024659734 0.08161514 0.10627176 -0.04160043 0.037446864 0.05200433 -0.020315718 0.13398008 -0.0015114348 0.09576999 -0.19212548 -0.050402325 0.1513359 0.042911094 0.21956687 -0.16655177 -0.1383561 -0.2671715 0.24643978 0.10778844 0.24160132 -0.3062981 -0.14035785 0.14237413 -0.24864678 -0.25213626 -0.000847367 -0.17448233 0.04916522 0.1236551 0.26344055 -0.26817954 -0.061852288 -0.008718794 0.24409097 0.0800641 -0.057932258 -0.10586719 0.14540777 0.14209647 -0.23083262 -0.18623394 0.23221904 -0.064058036 0.22935545 0.11560647 -0.025976902 -0.1744476 -0.017820965 0.1983705 -0.049011104 0.1355869 -0.00057318807 0.08202782 -0.12822253 -0.10419683 -0.19442599 0.049311455 0.021535179 -0.29464215 0.029891353 0.1429652 -0.08501642 -0.0012372434 0.04119014 -0.14276703 -0.32386467 0.20370059 0.22080588 -0.06561371 -0.0730691 0.068131216 -0.08194545 -0.17844582 0.30826956 -0.038885713 -0.10170686 -0.13058388 0.07439232 0.1700885 -0.08602142 0.1653928 -0.045500882 0.25187683 0.13658944 -0.5165126 -0.25960943 0.30572444 0.07363259 0.005426777 -0.10314737 -0.28369367 -0.10535791 -0.17945385 -0.28916156 0.2790311 0.22069296 0.038769238 -0.16516574 -0.21811652 0.018548895 -0.14748257 -0.16914308 -0.11897729 0.23224068 0.42064005 -0.08429046 -0.18258968 -0.06796485 -0.10806771 -0.13901997 -0.19457094 -0.020897806 -0.2246391 -0.1913302 -0.02369396 -0.21725081 -0.13025795 0.13410561 0.07255192 -0.044172034 -0.41336736 0.0817745 -0.050013177 0.07211243 -0.35166812 -0.059731796 0.18908489 0.12615964 -0.16766952 0.12840255 0.018752081 0.15332526 -0.13191997 0.15412465 -0.081847064 -0.031717017 0.09018861 0.23405647 -0.087748215 -0.006528437 -0.026577547 0.013532883 -0.20673314 0.0740376 0.22735909 -0.06859416 0.052588623 -0.24991214 -0.18341236 -0.14761876 -0.066748515 -0.14071172 -0.2435607 -0.07558121 0.20848888 0.015242031 0.24691455 -0.10889293 0.21105938 -0.034426346 -0.046879187 0.031755924 0.20779364 -0.2292214 0.0047655106 -0.05894073 0.018338978 -0.26550138 0.10361656 -0.13125351 0.011608164 -0.10764028 -0.04436806 0.14851232 0.027708303 -0.164334 0.2127866 -0.07869019 0.36832535 -0.055358328 -0.08996606 0.15983137 -0.002093258 -0.11070454 0.112391174 -0.100160256 0.16450301 -0.24401216 0.057279196 0.1270278 -0.17170386 0.23750298 -0.15424006 0.03249621 -0.09050753 -0.13897094 0.0147628635 0.0740427 -0.018537018 0.059127685 0.07781567 -0.27906698 0.13307062 -0.1925027 0.29610556 0.0018724527 0.2717631 -0.53939927 0.5327677 -0.03178025 -0.5871583 0.006040459 -0.30234575 -0.05075691 0.067117736 0.044974398 0.09381209 -0.207085 0.46612415 0.07591792 -0.072608225 -0.1429488 0.06806245 0.014477859 -0.049161926 -0.089214146 0.0034860156 0.18282591 0.08754516 -0.45267913 0.18594846 -0.056033757 -0.02538107 0.0076309144 0.036950953 -0.061516374 0.2807775 -0.014884671 -0.16594647 -0.04984343 -0.24892291 0.0247673 -0.13730565 0.072996624 -0.1203502 -0.025097694 -0.21643353 -0.08675949 0.11964016 0.002048331 0.06044404 0.050650746 -0.27228618 -0.23799762 -0.100590184 -0.0005649924 0.10404061 -0.0768899 -0.029035076 -0.058828786 -0.11487653 0.09535795 0.2000288 0.030152649 0.08316405 0.12702394 -0.13627343 -0.03821195 -0.0958206 0.14790386 0.033490103 0.104862 -0.12858878 0.24891286 -0.07523744 -0.32979053 -0.0060713543 0.14143775 0.16243553 0.014469398 0.341004 -0.15619415 -0.13352975 -0.017477777 0.1423735 -0.0804781 0.051344477 0.08342912 -0.049030967 0.1692405 0.24942753 -0.019694358 -0.109149955 -0.1835793 0.1952194 0.23664331 -0.33501595 -0.018917914 0.15735699 0.16121045 -0.04858574 0.14664723 0.057370212 0.0140989125 -0.3414781 0.027701369 -0.03274564 0.39804965 0.34214017 -0.058632877 -0.043959253 -0.16191569 -0.060631447 0.026824892 -0.18491417 -0.3362472 0.06878587 0.108930044 0.23433946 0.062564224 0.045744672 0.074133724 0.37557596 0.15636851 0.36531037 -0.006044426 -0.15927798 0.15248922 0.0035952728 -0.09691669 -0.07853452 -0.23396997 0.006970468 0.35388732 -0.03145702 0.0032878171 0.06577116 0.14121255 0.18859276 -0.2552248 -0.24154721 -0.4056186 0.09311603 0.17273943 -0.04542184 0.1680169 -0.22261785 0.2145946 -0.07783905 0.10211928 0.1162171 -0.34267685 0.16341406 0.17634343 -0.30644768 0.07113906 -0.020594623 -0.18162858 -0.2406811 -0.29275644 -0.041529357 0.08737025 0.14616013 0.3013924 0.063808545 -0.24031734 0.035638742 -0.31105796 0.46231183 -0.106721595 -0.064776525 -0.1336218 -0.045264184 -0.33207417 -0.18904899 -0.1540906 -0.22361502 0.2342525 0.08743449 -0.052141152 0.06147828 -0.06851943 0.17363912 -0.2946021 0.30904138 0.048757523 0.061840218 -0.03993415 -0.021289166 -0.16235122 0.22134487 -0.041378044 -0.113727584 -0.07156879 -0.022017311 -0.50180256 0.11332135 -0.2719818 0.23321848 -0.0018596451 -0.090945624 0.046999328 0.5356011 -0.20276599 0.031518143 -0.031422555 -0.10098656 -0.18566577 -0.014013241 -0.25858486 0.31116694 -0.11923321 0.21477906 -0.20408013 -0.09775007 0.21735683 -0.38623187 0.066259384 0.12059264 0.20958386 0.027193539 0.08300032 0.123638034 0.119985685 0.22098362 0.008452674 0.11381429 0.418935 -0.08379357 0.04289229 0.090952784 0.10662737 0.1428866 0.19969308 0.38395977 -0.057884496 0.11948677 -0.1172325 0.025738861 -0.021393513 -0.13687459 -0.10431413 0.080141276 -0.036298037 0.0697778 -0.13086726 -0.40220904 0.16428241 0.0834318 0.07273333 -0.100098096 0.19290155 -0.11310899 0.1250117 0.2505057 -0.17088751 -0.09061724 -0.16476884 -0.08160548 -0.16364783 0.260022 0.29013243 0.19534163 0.11286509 0.35957903 0.08178219 0.088148676 -0.040845487 0.05524027 -0.09526186 0.14251497 0.14611407 0.025805317 -0.16708136 -0.2656642 -0.27568024 0.0031615596 0.06045462 -0.19432954 0.16027461 0.37575528 -0.10647877 0.15358478 -0.3030593 0.27403975 0.39897963 -0.103190124 -0.13298969 -0.2700937 -0.08926886 0.27300608 -0.0034544251 0.008290346 0.09650068 -0.06490241 -0.43326348 0.09438767 -0.22652507 -0.10918083 -0.049010783 -0.14423484 0.10183859 -0.028522227 0.31635225 0.061375838 -0.38014364 -0.15030938 0.10008861 0.19077031 -0.0023942355 0.019548332 -0.10219465 0.019739097 -0.023799911 -0.33217204 0.2874043 0.041787338 -0.28522754 0.1063258 -0.1604751 -0.100882046 0.053469848 -0.14217654 0.12167844 0.0721363 -0.09303918 0.04142592 -0.034850754 -0.07745219 -0.15353274 -0.29833847 0.058948003 -0.040283334 0.069428205 -0.034186274 -0.033139985 0.23962447 0.14897463 -0.06949979 0.09884306 -0.015190582 0.20070969 -0.109534875 
