32 700
94화_잠은행上/94화_잠은행上-020.xml 0.53847533 -0.6590622 -0.1840193 0.37466943 -0.2764898 0.17423719 -0.13047603 -0.30915853 0.46111614 0.22430718 0.122687146 0.002774215 0.21049389 0.38899612 0.2967904 -0.076803364 0.068799645 0.1052347 -0.035868593 -0.4593333 -0.18420854 -0.062375586 0.39355654 0.027487312 0.23758875 -0.2500555 -0.25427362 0.03253182 -0.19329493 0.74161935 -0.04197715 -0.15808173 -0.79243755 0.16403924 0.12115699 -0.44764036 -0.26857734 -0.33026385 -0.08611983 -0.21444568 -0.37694818 -0.25797978 -0.72637004 0.2546307 -0.09821832 0.4474452 -0.6207166 -0.10167009 -0.2691768 0.12955311 -0.079270735 0.3902335 -0.058416747 -0.25923133 0.21984546 0.11946134 0.30268142 -0.013775429 -0.14425296 0.11868748 -0.033490505 0.05071404 0.6292233 0.7255802 0.3083085 -0.19253156 -0.22802028 0.20765756 -0.54001796 -0.054344796 -0.14296445 -0.080188215 -0.5257772 -0.040592097 -0.04647862 0.25224215 0.06469778 0.3653221 -0.10642521 0.46238074 -0.28945202 -0.7222309 -0.53829837 -0.28020537 -0.1284447 -0.596941 0.2714338 0.16798604 -0.16396807 -0.016214691 -0.17337376 0.34716198 -0.17199251 0.24186508 0.15645581 0.0523401 -0.13181315 -0.062672496 -0.75102425 0.25741485 -0.052175455 0.2337848 0.0638389 0.3830192 0.14273693 -0.22797215 0.37781262 -0.39231426 0.51310796 0.20912884 -0.14128654 0.039821014 -0.4112837 -0.11659801 0.10392811 0.31018376 -0.20911595 -0.06036657 0.40642327 0.3879858 -0.20288883 -0.24343306 -0.10414556 0.44740772 0.35573563 -0.05974274 -0.0090781255 0.22090857 -0.14003454 0.15763366 -0.14704303 0.27140915 0.061041564 -0.18031834 -0.02961747 0.06097322 0.12725513 0.081081145 -0.09961073 0.14964232 -0.16322194 -0.020395141 -0.14829758 0.035770558 0.02619807 0.63515204 0.38982493 -0.14621767 -0.46213254 0.07953599 0.23520236 0.026707709 0.04389052 -0.2747668 0.39334828 -0.18976055 0.26948678 0.05843694 0.7571325 -0.1516602 -0.39445007 0.13215248 0.39937592 -0.14474016 0.15054868 -0.107434355 -0.37262186 -0.0022851229 -0.121221446 0.33707023 0.2757389 0.48591512 -0.20347033 0.10306072 -0.08827244 -0.48565596 -0.26776332 0.16297635 0.20035577 0.20160887 0.33724067 0.23756275 0.05452732 0.07582849 -0.06160205 0.117497265 -0.3101507 -0.12135428 0.08374959 0.24081938 0.19744365 -0.25686395 -0.4614091 0.24996434 -0.17075479 -0.0074221394 -0.14358296 0.055528205 -0.281065 0.06427109 0.1477953 -0.25531933 0.5773097 -0.13400842 0.20644763 -0.18726042 -0.06883775 0.1631855 0.14427102 0.0037634373 -0.37214717 0.11300986 -0.13875669 -0.3243603 -0.14236951 0.18460457 0.26575547 -0.2598461 0.04004284 0.1096974 0.6382446 -0.27867246 0.06284956 0.040539764 -0.18159676 -0.07465416 -0.5167658 -0.17372376 -0.33313477 0.550216 0.068001546 -0.3906967 -0.27764377 0.26964805 -0.25610235 -0.037606396 -0.2918108 0.29380077 -0.077686384 0.3690986 -0.14287478 0.5630696 -0.06388581 0.6979999 0.66697216 0.18654816 0.073549725 -0.015631085 -0.16556673 0.09632146 0.11982628 -0.35319376 -0.041124262 0.39837378 -0.7460196 0.2943048 0.07693955 -0.293796 -0.30477762 -0.11484021 0.4189874 0.094101265 0.22491203 0.543545 0.2154393 0.3449727 -0.18568778 -0.57042694 -0.37200913 0.3711099 0.0963137 0.03380838 0.5501828 0.34448463 -0.14153314 -0.4893638 0.05711941 0.16778961 0.022619223 0.26065686 0.18016532 -0.007714838 0.04350421 0.107183 -0.17052412 -0.20062983 -0.0016669284 -0.27822226 0.19087467 -0.15336311 -0.21068048 -0.062794164 -0.24800041 -0.06355488 -0.0233607 -0.5018363 -0.13092598 0.35622257 -0.025654625 0.17315564 -0.12284826 0.2273882 0.39443597 -0.052113544 0.19584326 0.48383233 0.122673154 -0.3633791 -0.121815145 -0.39302656 0.29638112 0.4904998 0.31595895 0.08495715 -0.36541876 -0.72012514 0.053429715 0.5894395 -0.1033324 -0.23599117 -0.22446136 0.11350873 0.09735896 0.07867555 0.35007247 -0.0027911067 -0.15594229 0.35347074 0.26742303 -0.17981127 -0.14784561 0.25341526 -0.20004205 0.50318444 0.19967167 0.23766598 -0.46791252 0.07575512 -0.014707933 -0.16656326 0.08971581 -0.0579047 -0.024124578 0.00067903847 0.14831042 0.17596257 -0.01793325 0.30911466 -0.036787696 -0.15612283 -0.27304506 0.03505702 0.66372633 -0.15125237 0.28157443 0.18233222 0.081177674 0.6154451 -0.29509434 0.027557349 0.1557037 -0.38623577 -0.098344855 -0.18271822 0.20593874 0.24363548 -0.09785764 -0.15405855 0.38811058 0.07296863 0.06543593 0.20890647 -0.033337057 -0.013214765 0.35630092 0.16404593 0.078591876 -0.24130893 0.14470205 -0.086939126 0.47155914 -0.5372784 -0.20685619 0.023464184 0.1314773 -0.2313767 0.06776764 -0.08617771 0.19873837 -0.12548237 -0.373471 0.1851444 0.32772273 -0.23033457 -0.02850566 -0.36917362 -0.013665835 0.048843354 -0.37861747 0.0058337054 -0.39270073 0.20401052 -0.10216302 0.15905462 0.37188667 -0.3409536 -0.34247297 -0.19956464 -0.10338217 -0.28798664 0.10841926 0.5166508 0.15474471 0.1582002 0.02295832 -0.07318519 -0.043964706 -0.13113403 -0.1129794 0.23031871 0.5674364 -0.3822076 0.6868658 -0.23998451 -0.08630475 0.15475541 0.30874178 0.33946496 0.08482998 0.21195386 -0.15459284 -0.15368474 -0.14373034 -0.3514639 0.107930295 0.17559731 -0.10020745 0.13407007 -0.17597052 0.14467305 -0.14966956 0.04960245 -0.046262186 -0.07604553 0.50833946 -0.057653747 -0.04591316 -0.3109433 0.17406577 0.1543066 -0.32300517 -0.3542827 0.32801586 -0.052622497 -0.17610674 -0.07418131 -0.31962556 -0.285994 -0.014707099 0.20970319 0.030897034 -0.11964828 -0.25252387 0.20277676 0.3366147 -0.28409597 -0.05392965 0.32840392 0.039298907 -0.2503239 -0.42385122 0.30368993 -0.45357722 -0.03660804 0.31655914 -0.08578099 0.2099158 -0.16691908 -0.16424754 0.356834 0.0508537 0.008606181 0.14543843 0.15372267 -0.23216614 0.08886546 0.4439723 0.2652521 -0.1120533 -0.0629555 0.25361595 0.047150165 -0.26370558 0.32237512 0.23588705 -0.34923023 -0.31557167 0.430699 -0.13024153 -0.54499125 0.07289614 0.20988542 -0.31603745 -0.05956474 0.10681429 -0.15147188 -0.13973685 -0.16933116 -0.22134876 0.1070004 0.15248796 0.09313874 -0.23294406 -0.45644927 -0.011448145 0.034487396 -0.19543064 0.052316345 0.1348608 -0.09768364 -0.071202986 -0.141691 -0.15089321 -0.24488716 -0.1782444 -0.25969055 0.17744875 -0.17302595 0.19090372 -0.3001433 0.16930285 0.6124902 0.23790239 0.07807612 0.44026837 0.03197927 -0.37366423 0.338417 -0.26654723 0.04772147 0.068127975 0.09114036 0.27170148 0.26427305 0.012795156 -0.30249077 0.030198148 -0.17026791 0.086891696 -0.0714795 0.2143083 -0.20960018 -0.12910247 0.17954645 -0.19433391 -0.069535814 0.40417024 -0.34434018 0.24065356 -0.14851052 -0.11301139 0.05114476 -0.45159584 -0.36998272 -0.37537277 -0.30919656 0.370777 0.039057683 0.06961714 0.12016721 0.15068367 -0.049531486 0.112373196 -0.40880722 -0.15177892 -0.4680408 0.674701 -0.073684774 -0.13672957 -0.6131486 0.113150135 -0.19963978 -0.063032486 -0.19249336 -0.20179832 -0.037282843 0.05806323 -0.31718627 -0.4670835 -0.29889894 0.011595249 0.2591744 -0.27904236 -0.04395663 0.2617238 -0.12004232 0.16622552 0.4306148 0.10005376 0.06492175 -0.42124122 0.31098542 0.21092889 0.07111992 -0.2558766 0.26080716 -0.25157404 0.038309317 -0.003361722 -0.3013879 0.029470783 -0.033405576 0.07584944 0.15430143 0.06408504 -0.072261184 0.3091313 0.13175848 0.07487345 0.008538703 0.46218568 0.29416192 0.17074965 0.032477584 -0.06447972 -0.21575181 0.18473303 0.43207592 -0.23817027 0.6791141 -0.054798074 -0.7119862 -0.13321172 0.38750023 0.25206918 -0.21424878 -0.6280771 0.020217538 0.23200074 -0.21353742 0.10384692 -0.26363227 0.22825329 0.70409817 -0.36445564 0.37565708 0.11511883 -0.11973997 -0.038982917 -0.095790796 0.23059827 -0.2614435 -0.054073673 -0.29569572 0.5089436 -0.7152153 -0.26727107 -0.17054121 0.0035740784 -0.20404688 -0.41074547 -0.28445166 0.31623536 0.28880244 0.09645045 0.26288563 0.02104364 0.18375257 -0.40869007 0.08780146 0.30343115 -0.30571485 -0.21085572 0.2873938 0.52592605 0.012250881 0.12645607 0.41289663 -0.37870845 -0.07346353 0.79758376 0.05951217 0.2224291 -0.46639258 0.10206835 -0.15181017 -0.13327211 0.19579308 0.68871045 -0.38573357 0.20951805 -0.48486263 0.08612686 0.091181844 -0.13729541 -0.04326735 -0.0638014 0.22815925 -0.0927196 0.30560696 
94화_잠은행上/94화_잠은행上-005.xml -0.04437647 0.037391793 -0.40346152 -0.14700949 -0.34604907 0.37278268 -0.3284455 0.2159073 0.0063117696 0.26467767 -0.12050682 -0.14588176 -0.19190113 -0.09107976 0.07767131 0.076815575 0.24614525 0.19093256 0.14233124 -0.3453666 0.1737014 -0.3168579 0.048886713 -0.20029937 -0.057449233 -0.52184975 -0.12748803 -0.08877222 0.24606249 0.26595122 -0.15625033 0.32501554 0.063999325 -0.043203518 0.017634954 0.20986144 0.23782334 0.014855629 -0.01280961 -0.40822792 -0.1746968 0.27294248 0.037479766 0.048433125 -0.087633 0.45638508 0.10973947 0.15828294 0.041584905 0.05173319 0.10366493 0.1271438 -0.27214953 0.17686838 0.018815434 -0.027408054 0.3723354 0.21863692 0.07368857 0.27240425 -0.029152995 0.042975068 0.1101736 0.12650223 0.09814301 -0.026265431 0.22182208 0.16429086 0.051065605 0.009257195 -0.26435238 -0.24115095 -5.3800642e-05 -0.12574294 -0.19544014 0.02609551 0.4928678 0.29826307 -0.14074126 0.0400375 0.016264562 0.21268976 -0.066532746 -0.04857151 -0.2324615 -0.0868639 -0.035971813 0.11933549 -0.08164473 -0.16194528 0.15452439 0.14843054 0.14772476 -0.43831488 0.08058809 -0.33661065 0.031107426 -0.19020967 -0.034657568 -0.035666343 -0.16959882 -0.011411287 0.019238293 -0.19336216 0.30583397 -0.012374241 -0.02436195 -0.10360551 0.05762434 0.04498186 0.09634968 -0.13464358 0.09789471 -0.007866419 0.15816337 -0.0036503326 0.1397401 -0.038925964 -0.066878006 0.3200867 -0.037097454 0.00091302645 0.2894239 0.11910878 0.0786624 -0.014522351 0.16527024 -0.05186809 -0.20299041 0.009731498 0.04981997 0.035623576 0.14409415 -0.05272931 0.034740128 -0.11363202 -0.12186428 0.09963312 0.0744709 0.09059324 -0.11110613 0.3597308 -0.25254276 0.22149913 0.2410185 -0.23124638 0.070924215 -0.04861258 -0.05236147 0.36372775 -0.0068003014 -0.31067306 0.035447605 0.26194042 0.1317851 0.05816935 0.16419655 -0.18075383 -0.036815234 -0.29232666 0.28656828 -0.0013500589 -0.079038545 0.07301742 -0.10493132 -0.016642498 0.30143642 -0.0021796972 0.02473874 -0.13436764 0.24720237 0.17791751 0.12916763 -0.24355713 0.35532197 0.11662151 0.012572914 0.027491774 -0.042696908 -0.01134013 -0.14717981 -0.13922769 0.06347983 -0.24264243 -0.0669523 -0.09322753 0.28201586 -0.12782352 -0.21196757 -0.039301943 -0.07876289 -0.24838822 0.083020166 0.017327484 0.080455884 -0.12091395 0.088525146 0.119979486 0.11314294 -0.2467752 0.19256638 0.17314622 0.41295093 -0.07325044 -0.08410177 -0.051552545 -0.23411676 -0.21865866 0.13021193 -0.16585457 -0.009515753 -0.10395205 -0.041647777 -0.41010267 -0.015779283 0.08665576 0.13584141 0.0037154339 -0.34503996 0.3828385 -0.07077752 -0.5112894 -0.23958874 0.01512676 0.22185062 0.49546522 -0.18657011 -0.030795645 -0.05856251 0.022524059 -0.09611463 -0.19241826 -0.30904534 -0.0889173 0.038538445 -0.15228106 -0.22373712 0.057108566 0.27649152 0.30328473 -0.01543244 -0.3272896 0.24887829 0.072664365 0.073046625 -0.017095277 0.20784414 0.15105258 0.26571482 0.031974588 0.15244626 -0.21453881 0.1748155 0.15515807 0.046880826 0.105258636 -0.036175087 0.062009346 -0.03470587 -0.23658693 0.5084281 -0.091340706 -0.0047177523 0.035911657 -0.14818087 -0.019146059 -0.07646741 0.18119435 0.14024685 -0.5212909 0.08332897 0.14262167 0.18529055 -0.13570485 -0.28136155 0.11378565 0.25089914 -0.56539905 0.03853958 0.28294072 0.15259778 -0.096326254 -0.02554332 0.2755785 0.029886877 0.15457615 0.08445137 0.26655942 0.17468312 0.11980413 0.0108671505 0.2102395 0.31503293 -0.3842889 -0.2010046 -0.017981645 -0.14068925 0.12762846 -0.16827743 -0.036042914 -0.2559677 -0.09147532 -0.05669039 0.04443076 -0.008520289 -0.22545283 -0.06254207 0.10925253 0.35698268 0.17187086 -0.22309193 0.26722804 -0.04263271 0.08737455 -0.00851805 -0.29366624 -0.19471537 0.0047570346 -0.09723901 0.08788752 -0.0939323 -0.10322155 -0.17998998 -0.07692459 -0.07147922 0.23180234 -0.0005378792 0.2195468 -0.07892844 0.028904665 0.051597238 0.06364257 -0.12963006 -0.01719008 0.14117491 0.073891014 0.18067794 -0.14878687 0.017407764 0.12588726 -0.25678545 0.006751535 0.26500174 0.102746174 0.11215916 0.00037198514 -0.14242187 -0.112170875 0.31814653 0.24628025 0.17143111 0.11744134 0.21180892 -0.089669965 0.30511034 -0.34011102 0.11921313 0.07821904 -0.10136296 0.07862933 -0.0994246 -0.06372956 -0.14000016 -0.13680092 -0.058565296 0.07458174 -0.12477307 -0.09402421 -0.3275853 -0.2366197 -0.027484044 0.026577812 0.11206364 -0.11728035 0.22400224 0.19402912 0.04837881 -0.3190564 0.19607341 -0.07253454 0.040344678 0.08462425 0.077467784 -0.09197256 -0.2634981 0.08118432 -0.15672639 -0.15960948 -0.042296648 0.028449383 -0.102332495 0.19908331 0.14967711 -0.12368031 -0.15972093 0.014110002 -0.21887097 -0.060013276 0.08165143 -0.3504345 -0.22072516 -0.23038864 -0.11594855 -0.011115653 7.10177e-05 0.17622331 0.37313157 -0.003632212 -0.0268139 -0.105815254 0.015877044 -0.36108798 -0.33318764 -0.5327265 0.2358843 0.14648777 0.27187133 0.09998229 -0.034607902 0.09594005 0.19225526 0.14528823 -0.045483958 -0.109169655 -0.16981435 -0.113166384 0.06688964 -0.0010193301 -0.15274236 0.0396289 0.20772621 0.05548536 -0.008716321 0.16790329 0.083111644 0.12495052 0.37215084 0.3016058 0.046367317 -0.16691516 -0.030316979 -0.3021558 -0.09221952 0.39262304 0.09210538 0.092023 -0.12986511 -0.025592737 -0.2785933 0.07036975 -0.17466268 -0.014928622 -0.25097376 -0.053723276 0.030828912 -0.0061245365 0.23540217 0.0080339685 -0.12732193 -0.004780208 0.12981826 0.17295448 -0.050533082 -0.17677304 -0.05528493 0.24088053 0.0041383803 -0.035697214 0.029575523 -0.1284552 -0.007866734 -0.21987192 -0.125003 -0.06569336 0.28357324 0.06431481 -0.007639022 -0.093606226 -0.015566017 -0.1037991 0.026665304 -0.057997875 0.0595165 -0.11540484 0.23452184 0.25515825 0.22140992 -0.12832275 0.016435977 -0.15104833 -0.03137185 0.09207201 0.10643828 -0.17747407 -0.12321304 0.38244838 0.006560167 -0.17571825 0.045825776 0.08646105 0.02825747 -0.008648436 0.14874047 0.14516976 0.12786667 0.10038853 -0.16987418 0.05264952 -0.0769248 0.083939865 0.072979 0.15428981 0.16976851 0.28810763 0.111516625 0.02260433 0.0007716722 -0.25183272 -0.067574754 -0.3395064 -0.04728333 -0.10472256 0.28845495 0.2108845 0.108548105 0.5398354 -0.09960094 -0.25300592 0.12237427 -0.07379481 -0.31175083 -0.21447486 0.03120517 -0.19207543 0.30373988 0.011791496 -0.256284 -0.03169792 0.063518584 -0.04034707 0.06769531 -0.014632124 -0.09919133 0.031002339 0.07002661 0.016956424 -0.1487175 -0.22318529 -0.036189765 -0.100345135 -0.098111704 -0.008322297 -0.08630195 0.16771081 -0.16810396 -0.05190323 -0.11171092 0.23939982 -0.1337594 -0.13792929 -0.23718062 0.45062095 -0.021907505 -0.20606837 0.13900957 0.018459393 -0.07027766 -0.052085362 0.056264818 0.25898772 0.07232767 0.05278131 0.33586496 -0.40210506 -0.12428634 -0.20837633 -0.19880861 -0.026428878 0.01767489 -0.27330184 -0.020123504 0.1960424 -0.06456639 0.1521588 0.14441219 -0.16497253 0.12141435 0.028160173 -0.3432855 0.12152101 0.09194505 0.1718606 0.16348934 -0.12830509 -0.08911586 -0.010973014 -0.06337909 -0.23713472 -0.17164722 0.08969161 -0.011003727 0.0051556425 0.003994964 -0.055230044 -0.036824144 -0.080520354 0.22163165 0.09595546 0.09884444 0.12366086 0.23207265 0.11733791 0.004075422 0.006900228 -0.13604487 0.12417282 0.10520973 0.16269344 -0.0936272 0.04746946 0.11493271 -0.25706652 -0.09935507 0.08866405 -0.098224364 -0.13319075 0.10357112 -0.11561453 0.28006372 -0.16659951 0.23492019 0.13142344 0.16367671 -0.076558635 0.1126115 0.20759845 0.116587 0.2428213 0.38742095 0.11063685 -0.20020911 0.038575813 0.13509233 0.0025459714 -0.06387174 0.16103472 -0.36313614 0.028217316 -0.10974455 0.030657735 -0.014251543 0.018774483 0.2407487 0.21653017 -0.34608075 0.10772286 0.10143012 -0.03193764 0.04733532 -0.019786922 0.036658973 -0.2405033 0.17769514 -0.21257828 0.17066108 -0.21696876 -0.08568397 -0.07769426 0.15736 0.06567599 -0.47134683 -0.018848076 0.09480584 0.21757524 0.091598384 -0.12295239 0.028329842 -0.053970974 0.38144445 -0.014919694 0.08786194 0.2686414 -0.13597868 -0.05650907 -0.16114303 -0.100676656 0.02557563 -0.1417142 -0.11786598 0.11071109 0.05097277 -0.13799748 0.23153299 0.19337821 -0.08533325 -0.26907584 -0.115712956 -0.15313783 0.15237351 -0.049396813 
94화_잠은행上/94화_잠은행上-028.xml 0.3109277 0.144692 0.08348778 0.3910559 -0.05343923 -0.24011636 -0.18310311 0.14348663 0.19369999 0.39606878 -0.1266693 0.44096226 0.1633378 -0.18430914 -0.23039985 -0.3673191 -0.3226612 -0.30459443 0.2829616 -0.07124378 -0.30705017 -0.0068495385 0.1585986 0.03544327 0.023271427 -0.14708355 0.362157 -0.32842857 0.44245145 -0.45971662 0.44167772 -0.35566574 -0.438005 -0.079107195 0.085774906 -0.0432555 0.14305276 0.046425253 -0.2786185 -0.07789871 0.09911521 0.23727177 -0.18129039 -0.049639486 -0.287239 0.31745112 -0.015184673 -0.13604513 0.31848872 0.3279742 0.07786149 0.01931135 -0.21235515 -0.12691963 0.24736771 0.29277778 0.30547264 0.08658423 0.15187559 0.766488 -0.122634545 0.004311003 -0.08561457 0.23295684 -0.15235025 -0.0241334 -0.28535643 0.034156643 0.0016643386 -0.48930293 -0.06262715 0.25596806 0.279651 -0.37062997 0.15914267 0.09211093 0.2964759 -0.07567927 -0.18138152 -0.23067404 -0.25790092 -0.32300287 -0.47904754 -0.17708282 0.21003796 -0.32290342 -0.20326133 0.24508284 -0.0043588206 -0.120209694 0.15454686 0.038520984 -0.5622976 0.37972045 -0.108915515 0.011452519 0.051738743 -0.014582623 0.05073872 -0.11154915 0.27226833 -0.07873967 0.5556954 -0.28927085 0.061872758 0.010623909 -0.48551023 0.4870563 0.038825586 -0.13232285 0.1408259 -0.050990004 0.16647586 -0.04567683 -0.14833693 0.01612167 -0.027885828 -0.28361857 0.17901301 0.14663422 -0.22820699 0.12115814 -0.043417066 0.119078785 -0.11496433 -0.118801475 -0.20718855 -0.1354825 0.24436696 -0.044517733 -0.44668505 0.2177666 0.35011446 -0.21351504 0.2387328 -0.3928406 -0.271477 0.26326826 -0.12838842 -0.15796351 -0.30349752 -0.07763132 -0.22955841 0.22695747 -0.18031216 -0.011567514 0.37663555 0.29099956 0.14915165 -0.25008902 0.2236072 -0.0265462 -0.23171417 -0.10551424 -0.22870135 -0.15296495 0.3022895 0.13290033 -0.05424533 -0.22213796 -0.096779354 -0.44118476 -0.18045586 0.09868916 0.2697451 0.28457478 0.4324258 -0.23402649 -0.14243855 0.34860888 0.010386914 0.018647604 -0.18137303 -0.046706982 -0.026062995 -0.0049937963 0.09463216 0.19951475 -0.3582689 -0.14873286 -0.14391813 -0.29775417 -0.043516014 -0.10932287 -0.16455291 0.13507916 -0.046487346 -0.3492623 -0.35453627 0.42632765 0.18534751 0.089579776 0.31813186 -0.052653596 -0.02250954 0.22764218 -0.058595166 -0.010672245 -0.057592332 0.30874395 0.24996445 -0.37225884 -0.26320648 0.23527917 0.12350722 -0.23177639 -0.51582986 0.041633256 -0.24503782 0.36898652 -0.3686657 -0.22202787 -0.06155405 -0.11771723 -0.05836653 0.0455933 0.15627341 0.0070255026 -0.25911117 0.2805885 0.26728296 -0.2632026 -0.18946421 0.24208385 0.07769943 -0.040364783 0.38684127 -0.514777 -0.55294645 -0.08682176 0.08430334 -0.16889057 -0.16560775 -0.0029835328 -0.16618265 0.01283088 -0.15122849 -0.3114686 0.115268394 0.28705144 -0.22432938 0.1275467 0.06477683 -0.024004413 0.16864008 -0.13628232 -0.34018937 0.109392986 0.00724426 0.2723638 0.21594454 -0.2977386 -0.0632091 0.2716493 -0.21853846 -0.14729443 0.2286976 -0.26511925 0.12789747 -0.046049356 0.58212036 0.08915578 -0.16629963 -0.3723917 0.059033204 -0.24721411 0.040617768 0.08146577 0.17753462 0.067618996 0.29276884 0.107237786 0.1589177 0.07369469 -0.20564654 -0.21286565 0.17115974 -0.39608103 0.008137599 -0.22499765 0.28383666 -0.055807333 -0.18103132 -0.12243136 0.15414216 0.002514474 -0.3671748 -0.27681363 -0.23425378 -0.06771439 0.08173096 -0.18843177 0.17379211 -0.073090516 0.12113997 -0.14225475 0.13522848 -0.21763945 -0.5450791 0.0560254 -0.068781786 0.5424224 -0.3271708 -0.03400363 0.1502163 -0.08179413 0.16259116 -0.20539288 0.26259413 0.09535414 0.0077755414 0.5712996 0.41403353 -0.09412446 -0.00080315024 -0.33161908 0.16859022 -0.14795658 -0.02815639 -0.29720116 0.04951363 0.09420621 -0.023148648 -0.095011115 0.17452633 0.004763879 0.051074967 -0.33226272 0.08285412 -0.16782005 -0.18576737 0.031231726 -0.10880124 -0.20776504 0.27261215 -0.30133688 -0.13453579 -0.1338194 0.055071793 -0.025236048 0.56512916 0.34193316 -0.13197124 -0.24570145 -0.27484837 0.32969573 -0.03571181 -0.023871146 -0.03412962 -0.21384558 0.013665635 0.40298787 -0.1598986 -0.20441374 0.08924099 0.0035102442 -0.12830757 0.035298258 -0.30168205 0.45337525 -0.41536865 -0.004069239 -0.14174993 -0.1796009 -0.10508977 -0.09214759 0.19111815 -0.08441872 9.629503e-05 -0.4104892 0.12681073 0.014194652 0.2370245 0.19000074 0.15701264 0.03005639 0.13249433 0.17155287 0.14338492 0.077211834 0.09757106 0.0395941 -0.04274695 0.37118965 -0.15291622 0.001446547 -0.11772749 0.04465641 0.1445153 -0.28327668 0.2714875 0.09942177 0.1250476 -0.095184386 0.32793033 -0.11364501 0.08663531 -0.55544645 -0.08221798 -0.2576247 -0.016811717 0.087546244 0.33185723 0.10674629 0.28461546 0.11403725 0.40341872 -0.1731444 0.027384713 -0.06624207 -0.029240966 -0.11167982 0.22302294 0.14569382 -0.31395316 -0.21271448 -0.083354086 0.27373838 -0.06902058 -0.39266625 0.17350732 0.03326775 -0.06528928 -0.1419192 0.29562366 0.17779762 0.33024812 -0.071156085 0.22350107 0.12507924 0.32425225 -0.1145482 0.026785739 0.0048226602 0.22235279 0.18679291 -0.039811738 0.03499435 -0.12540157 -0.40861493 -0.26218274 -0.410849 -0.043802842 0.37914062 -0.08680786 -0.29854667 -0.48875785 0.15213819 0.24549423 -0.028441273 -0.04775256 -0.3328624 0.22039583 -0.29014418 0.15660292 -0.18071762 0.18833949 0.028761972 0.08815028 0.13867079 0.083894655 0.18491566 -0.3848375 0.03478071 -0.04291355 0.05280097 0.37107235 -0.17381117 -0.2566172 -0.022030912 0.07685342 0.3174948 -0.48964888 0.1547807 0.14729705 0.42509866 0.25107366 -0.043961726 0.04442913 -0.09032203 0.56710386 0.037999995 0.09034468 0.7033762 0.06965825 0.00086670276 0.13296548 0.24640514 0.12463672 0.08692373 -0.056368724 -0.03400803 0.10348967 0.18824987 0.3678934 -0.054695755 -0.046761386 -0.1712312 -0.07359499 -0.36183366 0.7778421 0.095499024 0.24214125 -0.073705316 -0.02971384 -0.20285559 -0.17638573 0.123291045 0.16913292 0.3760358 0.06408523 0.06288749 -0.012949258 0.0934895 -0.112600654 -0.09658367 -0.23391807 -0.09626384 0.118041456 -0.0165587 0.42379254 -0.022156637 -0.2740606 -0.046772737 -0.24247782 -0.04988242 0.26911277 0.06441121 0.15940058 0.21601568 0.07118026 0.112040445 -0.06792544 -0.24479118 0.013509317 0.13489977 -0.41524947 0.19941308 0.3795808 -0.08790363 -0.27609602 -0.19124782 -0.2609455 0.01053353 0.09654103 0.021997713 -0.15855184 0.12886651 0.010333851 -0.13594586 -0.107120454 0.22522229 -0.050775446 -0.18484086 0.3273355 0.22072196 -0.2785407 0.30907178 -0.0029466886 -0.1635819 -0.099548295 0.03350159 -0.10747458 0.019381456 -0.022893602 -0.14401633 0.09737412 -0.52688265 0.14548075 0.2462858 -0.14966771 -0.04785029 0.5214247 -0.15341909 -0.14743811 0.19159865 0.08143184 -0.41337717 0.021725364 -0.036774766 -0.13726656 -0.12540717 0.13730443 0.35792565 -0.106117986 -0.14744186 -0.31329829 -0.5299673 -0.06755382 -0.0049940497 -0.26416463 -0.2981552 0.2786741 -0.21673264 -0.072516344 -0.20984629 0.3513742 0.059192248 0.18280216 -0.058102503 -0.25484052 0.41430914 0.07015159 -0.19535418 -0.077776015 -0.3800585 0.10564717 -0.053181276 -0.10254878 -0.03374402 -0.03424678 0.06529513 -0.15970914 -0.27494955 0.17645228 -0.24788223 -0.15364406 -0.020624474 0.109587744 0.2290628 0.1056884 -0.11496659 0.16420726 -0.28166783 -0.51249796 -0.3236414 -0.14934298 -0.31079045 0.3185746 -0.24205834 0.20616955 -0.3156762 -0.0069781654 -0.47872895 0.4222153 -0.31931043 0.15368533 0.2917929 -0.30948836 0.4390537 -0.08664845 -0.05683355 0.23429292 0.078983255 0.046501838 0.22827739 0.04844314 0.28247997 0.45242482 -0.25869337 -0.21211925 0.21492621 -0.46402967 0.30768648 0.3848061 -0.18565361 0.083656825 -0.098195724 -0.1729674 -0.38236052 -0.16145325 -0.3066684 -0.19518329 -0.020104807 0.00019270927 -0.15445906 0.060225766 -0.17628027 -0.33091184 -0.00080712885 -0.07141149 -0.45324132 0.66483545 0.21845067 -0.08689405 -0.35321003 -0.34234554 -0.048779227 0.21722999 0.5143337 0.116328195 0.04597306 0.040776633 -0.19172361 -0.15965894 0.054918498 0.52537775 -0.12674356 0.30547306 -0.10174623 -0.13260876 -0.26693955 0.032855883 -0.37467298 0.08489187 -0.16988228 -0.07535233 -0.19875051 0.29596576 -0.14864999 
94화_잠은행上/94화_잠은행上-035.xml 0.006847075 0.36461723 -0.39255336 -0.12357351 0.09701004 0.13620357 0.27648947 -0.07298317 0.16078284 0.41450122 0.22321695 0.3370399 0.6100728 0.2510888 -0.26004097 -0.26278055 0.0021759272 0.25009188 0.14380804 -0.044139 -0.35882935 -0.2911108 0.11110557 -0.15936314 -0.19678667 -0.16753416 0.18108179 -0.24194808 0.3264736 -0.5595011 0.3450682 0.030464225 -0.1813201 -0.076541275 -0.18902376 0.093005694 0.1679488 -0.3070316 -0.3598961 -0.49448586 0.0690917 0.4712696 -0.035688143 0.2816524 0.015019635 -0.14551577 -0.059015546 -0.32383698 -0.19859116 0.3766857 -0.27089354 -0.013330749 -0.20638183 0.3405613 0.040849715 -0.03829762 -0.030754909 0.11446245 0.03624831 0.017951477 -0.13861702 0.3474231 0.2930362 0.10970746 0.10114949 -0.1828201 -0.11343084 0.09503646 0.03136908 -0.08971662 -0.31271982 -0.26315355 -0.011146662 -0.024226632 0.17747952 -0.38614753 0.25635603 -0.08818459 0.07604592 -0.07659475 -0.08493833 0.013173189 -0.11965096 -0.2615204 -0.2314669 -0.08232388 0.29172516 0.30956706 -0.0288784 -0.16762224 -0.0492902 -0.066250674 0.119618855 -0.20704052 -0.095114335 0.0047021853 -0.08516655 0.1944839 0.117149204 -0.12850259 0.230505 0.0010041936 0.24667951 -0.221505 -0.09628155 -0.28895757 0.04766374 -0.021385977 0.21687111 0.02296847 0.16594332 0.15969399 -0.30028978 -0.21853304 0.22020596 -0.025766714 -0.21261336 -0.020267844 -0.049962617 0.5244937 -0.13264488 0.15898724 0.14231965 0.076188765 0.18289416 -0.04220249 0.5205515 -0.12621295 -0.36812648 0.05914392 0.085670866 -0.22253542 0.109236486 -0.103381604 -0.22088887 -0.074411616 0.013612407 0.005964062 -0.21749106 0.30626106 -0.38236672 0.2577841 -0.009889737 0.010739566 -0.1548386 0.017031927 0.49671587 -0.01911169 0.14880465 0.015993753 0.12169627 -0.019529292 0.088299826 0.01802684 -0.23923963 -0.24432224 -0.36792937 -0.16637656 0.33113477 -0.4135538 -0.16919109 0.15195608 0.123798646 0.1037656 0.26303673 -0.16927928 -0.1505429 -0.33268535 -0.13476688 -0.27886713 -0.052053157 0.20878325 -0.0047303354 -0.04546772 0.33890924 -0.22174843 0.07399831 -0.064654134 0.28464192 0.19319922 0.07534637 -0.015470551 0.17407022 -0.35946518 -0.044220466 -0.06540136 0.26110393 -0.02020182 0.3162987 0.0051875967 -0.03338577 0.043577753 -0.025116112 0.12508538 0.1413309 -0.0044415593 0.023494696 0.21584478 -0.13595979 0.083543494 0.29036012 0.22745559 0.03895936 -0.08423808 0.21495266 -0.033659235 0.25482553 0.09213482 -0.15795977 -0.059978463 -0.22704561 0.04550714 -0.18204083 -0.11050666 -0.35323307 0.13328913 0.16311704 -0.24061438 -0.31616288 -0.10717435 0.16413933 0.10817042 -0.07692516 -0.08187095 0.025802804 0.36642912 0.18333729 -0.40079278 -0.015040875 -0.16732822 0.17368278 -0.087118104 -0.24947107 0.4050406 -0.16209105 -0.17214613 -0.044955052 0.0539849 0.23373458 0.19886829 -0.21530074 -0.08761434 0.31076214 0.047884636 -0.06749978 0.1305303 -0.10779597 0.030574001 0.30219242 0.052829437 -0.16647074 0.068774514 -0.1099787 0.14247702 -0.38401058 0.2346937 -0.1425884 -0.3877156 0.15761048 -0.14699964 0.49171266 0.25283337 0.09723654 0.278976 0.1486371 0.1700603 0.058489595 -0.16674343 0.12925698 -0.13997136 -0.30689898 -0.069254085 0.11456092 -0.25465143 0.13607666 -0.2799165 0.47818306 -0.1287019 -0.050644826 0.28445554 0.20281826 -0.34627998 -0.022769468 0.14089577 -0.033880915 0.06754141 0.07083418 -0.2225285 0.14921112 -0.11300185 0.06675801 0.16374664 0.08516154 -0.1387471 0.21215445 -0.20289916 -0.18615179 0.241725 0.14175543 0.13097799 -0.18329968 0.24655536 -0.19335787 0.07838652 0.080924444 0.080132686 -0.068611056 -0.07855155 0.2733922 0.042715803 0.11494317 -0.17935744 -0.42812023 0.13776106 0.10828254 -0.04332824 -0.19502017 -0.33145154 0.14926945 -0.11872609 -0.1553207 -0.25935078 -0.3033622 -0.27906206 0.032644846 -0.12383482 -0.01755379 -0.06627027 0.22368458 -0.00504867 -0.022568176 0.34419796 -0.13476112 0.22416599 0.028759116 -0.26653296 0.21725969 -0.0850726 -0.24505204 -0.054020945 0.08364927 0.026292738 -0.30381176 0.18304308 -0.027168384 0.17831962 0.21439679 0.08258052 0.17203853 -0.08771057 -0.26113248 -0.087836355 -0.080748916 -0.35406175 0.39435205 0.32310236 -0.10282197 0.37182993 -0.19785337 -0.028178016 0.0117019 0.26389343 -0.01286975 -0.15489575 -0.2933527 0.23567677 0.2436395 -0.36951292 0.14190213 -0.32459393 0.21133877 0.102910385 0.16706866 0.042153966 -0.06079057 0.2879984 0.20436032 0.27391008 0.03860317 -0.17346731 0.15119022 -0.26948383 0.07775122 -0.025452785 -0.004931433 -0.08180542 0.02462969 0.05883128 -0.098558456 -0.29061714 0.047476396 -0.11731298 0.031774897 0.33725828 -0.079520926 -0.22603577 0.18180375 -0.07022325 0.015368852 -0.02018404 -0.2814325 0.05512889 0.22093041 0.08663617 0.032903537 0.23378304 0.122105315 -0.1379964 -0.090239555 -0.019628227 -0.24311204 -0.25872323 0.025737725 0.07475759 0.10495525 0.028577857 0.06304961 -0.0042365375 -0.016124396 0.2618307 0.19870369 -0.056201894 0.25804883 -0.057725288 0.18598992 -0.0019841876 0.1403089 -0.031239886 0.06963697 0.28341943 0.10560076 -0.074371904 -0.012751369 0.056451093 -0.06475749 0.029937038 -0.10203794 0.055399314 -0.31820494 -0.017389435 -0.032371778 0.05839153 0.2760358 0.27419108 -0.13820797 -0.1185374 -0.12868685 -0.013351437 0.022114895 -0.2181646 -0.04873206 0.18743496 0.19044346 -0.13776259 0.10867948 0.29267454 0.19052988 0.08872298 0.02277503 -0.09608564 -0.037294496 -0.1102164 -0.2180368 -0.017253567 0.35564476 0.020290112 0.10396035 -0.32653236 0.24484257 -0.021535221 -0.18220674 0.028902471 -0.52813286 -0.09712039 0.02777874 -0.101053245 0.11892328 -0.07803713 0.13256463 0.1928276 0.20297223 -0.041344784 -0.027571164 0.15526395 0.24423178 0.087460265 -0.19397865 0.1876466 -0.1707367 0.12567781 0.16089362 -0.07645235 -0.0880012 -0.0764695 0.27514273 -0.0009624277 -0.22251661 0.1781819 -0.059817746 -0.14160353 0.0022179016 0.06211697 0.0046115946 0.04030002 0.30715418 -0.012339742 0.019643813 -0.0833372 -0.00078640244 0.071819805 0.2728584 0.021804137 -0.28555882 -0.0277918 -0.14443515 -0.07582164 -0.10794587 0.04600919 -0.15045153 0.0067612384 0.04899417 -0.10496146 -0.07438281 -0.093550175 -0.06042132 -0.03514262 -0.19044963 -0.04394789 0.0046133744 -0.016555319 -0.17437975 0.11283882 0.10858407 -0.041855678 0.28280193 0.0632834 -0.12141143 -0.22789244 -0.19056723 0.10133144 -0.09681273 -0.013312678 0.013516333 0.13119695 -0.06791829 0.12542474 -0.2979778 0.23540598 -0.20290403 -0.2185467 0.21424553 -0.11034161 0.0008374325 -0.17925791 -0.24195117 0.017280294 0.0050467 -0.056753762 0.06906545 0.2253783 -0.03416764 -0.3095069 -0.11111921 -0.27570805 0.1167194 0.19899613 0.002725712 0.044304363 0.038935807 0.24163549 -0.11825584 0.039704204 -0.123433255 0.08629551 0.023823258 0.0005135153 0.14631635 0.24749804 -0.039073195 -0.057747025 -0.021301957 0.28061768 0.17363657 -0.02561945 0.010905912 0.018083906 -0.17229834 0.054739624 -0.28984356 -0.17348792 -0.12465069 -0.013734552 -0.007277489 -0.32988286 -0.0009823528 -0.04945097 -0.019941399 -0.06404141 0.059005372 0.012992499 -0.2834254 -0.008030057 0.11986098 -0.06961399 0.16134268 -0.11348518 0.037080523 -0.003078333 -0.10605827 0.087512664 -0.006420276 0.051179353 -0.17641218 -0.17492707 0.15247884 0.055863485 -0.2492305 0.16560037 -0.02850489 0.27694482 0.02532627 0.110937625 -0.012006582 -0.18640043 -0.008843425 -0.10507207 0.17147431 0.022636767 0.10825294 0.030554552 -0.042258833 -0.35060623 -0.06747076 0.101406254 -0.0013733592 -0.12208049 0.22759005 0.20008427 -0.046636097 0.22351052 -0.03612706 -0.16466676 -0.045800228 -0.08306908 0.07400285 -0.21230589 0.12310393 -0.029047746 0.097022384 0.09377765 -0.13644801 0.17098759 -0.39900658 -0.08279356 0.03341241 -0.18684909 -0.032414954 0.11386569 -0.1157182 0.078411035 0.016145729 -0.28984976 0.06257836 -0.16867034 0.15853067 0.14127678 0.09034672 -0.1772768 0.008726802 -0.07175417 -0.19491544 -0.18657675 0.36997864 -0.07343033 -0.04560326 0.016934961 0.13858958 0.14958301 -0.018902104 -0.14934677 0.103726834 -0.20243101 0.010018155 -0.3222956 -0.15094195 -0.09484274 0.039515257 -0.034237064 -0.061193686 -0.10480095 -0.0751913 -0.17255528 0.0009817737 -0.017394263 0.11500792 -0.09435633 0.19940297 0.09564247 -0.21391004 0.09986318 
94화_잠은행上/94화_잠은행上-027.xml -0.30029267 0.48063716 0.046739776 0.19840693 0.5596522 0.24008322 -0.22500086 0.23316492 0.6675585 0.016017511 -0.06492273 -0.44115466 0.6703363 0.12310769 -0.8716292 -0.013454989 -0.9524628 0.28676337 0.19907129 -0.44445217 -0.7807059 -0.044861227 -0.43080154 -0.7797282 0.10371628 -0.058743834 0.24539092 -0.49147886 0.3509304 -0.3133806 -0.54777706 -0.348973 0.3349237 -0.77677464 -0.18819296 0.2513828 0.22907567 -0.3558988 -0.016374856 -0.44061834 0.35699245 0.69956523 1.3786108 0.099536866 -0.1368463 -0.35659188 0.13963553 0.17928585 0.25581768 -0.06922755 -0.36311105 0.5614858 0.12513098 0.27590293 -0.07390185 -0.5693063 -0.16480839 -0.59242046 0.5747414 -0.5795879 1.17799 0.8058028 0.9863383 0.5064586 0.18053654 -0.43182018 -1.3138463 0.2999652 0.10076271 -0.25400153 0.54755044 -0.29061744 0.26607996 -0.6892543 -0.2106051 -0.39379594 0.45273593 0.5689712 -0.40643555 0.22720698 0.10313347 -0.2193582 -0.09974618 0.48416364 -0.25906003 -0.12795976 0.22400162 0.09936783 -0.3260594 -1.0339202 0.26266515 -0.30505788 -0.32693496 0.31326962 0.36887392 0.048758008 -0.09195301 0.14168787 0.7016189 0.19649473 -0.26007432 -0.08289753 0.023773268 0.17279074 0.07804085 0.2856984 -0.66861635 -0.35733926 -0.77154785 -0.5182715 0.20334844 0.7836935 -0.7753258 0.8164156 -0.49591824 -0.5080866 -0.16186215 0.80028784 0.45257193 -0.36868697 -0.83140445 0.09543926 0.30892536 0.5612435 -0.5057043 0.0942505 -0.16671541 -0.28673995 -0.4229864 1.1332843 0.646819 0.39771727 -0.5044027 0.2332508 -0.10024244 0.24024493 0.40106025 0.5328063 0.09197841 0.39702484 -0.3204292 -0.51332116 0.08460693 -1.0987089 0.18588124 0.1606591 0.06358502 1.0419394 0.11958033 -0.22793534 0.08970149 -0.27778584 0.56414205 0.4223372 -0.42738405 -0.7266517 -0.6638198 -0.551662 0.19917758 -0.38468963 0.36248252 -0.14345807 0.1256755 0.37261778 -0.1211977 -0.09226461 0.40951648 0.25775182 -1.0322253 -0.19911744 -0.69813186 -0.43094447 0.86513484 -0.32094443 -0.03852929 -0.19840476 0.50618875 0.005027786 -0.022604048 -0.71571916 -0.174416 0.014515169 0.6114267 0.3220495 -0.9461829 -0.20530124 0.49641415 1.1106492 -0.13629189 -0.6492075 0.54253006 -0.41566405 -0.035288736 0.2285244 0.09359169 0.6785544 -0.6158502 -0.2357899 -0.16609162 -0.66707915 0.2503297 -0.27359083 -0.27805597 0.10952704 0.4882916 0.27667564 0.40535367 0.9536229 0.04183059 -0.077771366 0.2267274 0.7963912 0.57768834 0.29397282 -0.45296916 -0.14052455 -0.3623926 0.0816969 0.03775862 0.036341906 0.22903784 0.24387266 -0.028086253 -0.24686281 0.24396682 0.7437158 0.036758795 -0.22888368 0.33204776 0.13059334 -0.010134019 0.036324095 0.19662808 0.47295925 0.9660623 0.17527281 -0.74056 0.0067658126 -0.31377426 0.47649592 -0.8060527 0.3687973 -0.24419743 0.23090532 0.59123677 0.008360181 -0.008117795 0.47431612 0.20375025 0.2622049 0.10435282 -0.5146154 -0.38041782 -0.054446563 -0.6293725 0.24249269 0.029055938 0.04265277 -0.03345658 -0.2732885 0.075106665 -1.3389935 -0.38128874 0.04946518 0.121825844 -0.3486256 -0.43537548 -0.5929629 0.37475973 -0.4269929 0.653526 -0.21702753 0.5555232 -0.031141073 0.10040877 -0.9579979 1.4674146 0.4745357 0.93350565 -0.011704601 1.2642901 0.16897073 0.07469769 -0.20231384 -0.47432327 -0.7463583 -0.7304859 -0.50885355 0.6325 -0.12347072 -0.09803094 0.44642687 -0.33263236 -0.5780746 0.2938155 0.18005612 -0.6682851 -0.9427047 0.4555649 0.2519803 0.4464298 -0.0012124777 -0.34212178 -0.40231082 -0.16655113 -0.08353269 -0.73409486 -0.6135221 -0.4083862 -0.106863946 -0.0888825 -0.36088255 -0.3706317 0.27926302 -0.10132959 -0.041398674 0.13488412 -0.4673062 0.10661148 -0.26072007 0.24356723 0.3657615 0.14461572 -0.32720965 -0.868654 -0.4694145 1.182372 -0.67037106 -0.15497564 0.16164084 1.129899 0.56910425 -0.113239884 0.23086572 -0.47218344 0.34879914 -0.2203943 0.35207888 -0.481959 0.05474715 -0.014305413 -0.7637074 0.011294216 -0.30306435 0.0561519 0.3643439 0.6199361 -1.2381232 0.13025317 -0.073343486 -0.7158448 0.43119222 -0.11662941 -0.011270434 -0.50661814 0.18915084 -0.74322903 -0.09151499 0.45915934 0.63717175 -0.41560668 -0.09466648 -0.06465593 -0.28893337 0.46347117 -0.56700957 1.103021 -0.8900181 -0.4869355 -0.6130636 -0.88464487 -0.07275853 0.056445405 0.36784354 0.042825602 0.115725145 0.413284 0.4496764 -0.17695278 -0.5774619 -0.091107756 0.102882415 -0.46752286 0.1458132 0.12300815 0.59563625 -0.5360427 0.08833313 -0.31046253 -0.19990979 -0.45259586 -0.043309562 -0.030794814 0.7199889 0.03435598 -0.043228507 0.33633587 0.034324482 -0.4482333 -0.30998144 -0.59485054 -0.9576258 0.06683178 0.18906185 0.49172652 -0.5098864 -0.23004274 -0.59767336 0.41717145 0.14058298 0.089958265 0.209866 0.34456912 -1.0274426 -0.39532152 -0.2333458 -0.3301775 -1.1419506 -0.3018822 0.25056326 0.20917276 -0.15033561 0.3528328 -0.24565677 1.0555401 -0.11912836 1.016787 0.15985367 0.20286964 0.46934775 0.28930265 -0.6085664 0.5243217 0.47499382 0.063306734 0.2617812 0.46063986 0.29639095 -0.202261 0.17140462 0.06660395 -0.55398625 1.3987095 -0.20325126 -0.352734 -1.0248194 -0.4474323 -0.5833224 -0.5848497 -0.30785745 0.025095023 -0.6397283 0.05998023 -0.20173252 0.22932428 0.43640998 -0.25405365 0.06710903 0.4257728 -0.41254783 0.4204419 -0.8173734 0.45188057 1.099067 0.41998464 -0.5831253 -0.3541058 0.39805272 0.13566364 -0.11631463 0.059372924 0.21844554 -0.3751135 -0.86541843 -0.443234 0.024355292 0.3579885 -0.08894907 -0.0515197 0.22923541 -0.17740957 -0.20970032 0.59830236 0.3627701 0.55303276 0.07681199 0.7362314 -0.60924697 0.99011135 -0.17955224 -0.2557029 0.45838612 0.39923403 0.70229036 0.7298814 0.4644624 0.3141695 -0.17126928 0.5097071 -0.19592293 0.15847448 0.1669819 0.233474 0.33133757 -0.20480676 -0.16813296 -0.53862983 0.16342187 0.22138727 -0.86562026 -0.4496337 -0.043929085 -0.07234115 -0.03167388 -1.0021327 0.2671331 0.17784289 -0.05869162 -0.603104 0.65067214 -0.45337623 -0.050631598 -0.52531016 0.40399992 0.045982905 -0.0907056 -0.29238337 -0.74691474 0.56688356 -0.31336844 0.6269481 0.04621899 0.6366096 0.04841415 0.4448917 -0.37934628 -0.9926103 -0.26317605 -0.18467523 0.38536495 0.32600945 -0.041898668 0.07323462 0.58777183 0.15742484 0.4691622 -0.998686 -0.83647656 0.32628998 -0.3054428 0.64901584 0.27356136 -0.327023 0.5476216 -0.09486747 0.0875491 -0.27641648 -0.5071857 -0.41577134 0.22445515 0.36141258 0.22483824 -0.08758935 -0.40319705 0.22562085 1.5394032 -0.021555677 0.27816233 0.10358661 0.50947165 0.48462093 0.40690327 -0.013623014 -0.62865365 -0.45547703 -0.35551834 0.17278475 0.11190742 0.47268233 -0.30225667 -0.17583305 0.68606997 0.54746825 0.11503631 0.44016725 0.05130803 -0.6696669 -0.10823436 -0.33110443 -0.6124471 -0.59086263 0.5075879 0.41072583 0.012646817 -0.2877437 0.3166797 0.67715806 -0.18008094 0.36496052 -0.27813256 0.27872628 0.59178364 -0.26973858 -0.063420355 -0.42093208 0.15699434 -0.30679142 -0.48234192 -0.31808674 0.8813143 -0.13050821 0.3047689 -1.1328703 0.1307006 0.34117854 -0.20610169 -0.34573752 -0.55339766 -0.3024376 -0.1630131 0.7353347 -0.29828763 -0.43268698 -0.30203593 0.1172404 0.057892743 0.4572928 0.32347876 0.2893657 -0.46970242 -0.39851052 0.13037613 0.24632703 -0.45440117 -0.53818905 -0.11164755 -0.25036454 0.06155038 -0.17495874 -0.013533324 -0.74527484 0.23218885 0.28572676 -0.28976527 -0.14119124 0.12123737 -0.072470546 0.029551655 0.7831204 -0.16033608 0.06813177 -0.5020666 -0.4814719 0.12821335 -1.5750277 -0.097222306 -0.33534622 0.36841327 -0.034694165 -0.9402251 0.66690004 0.0316157 0.1361118 -0.34907293 -0.17504236 -0.38811147 0.59641165 -0.6138303 0.3775453 -0.3532824 -0.2256855 0.20123827 0.34019643 0.5207367 0.55624974 -0.22327265 -0.38110498 -0.30573094 -0.58613 -0.6352339 0.45784023 0.4372677 0.6016768 0.5596353 -0.10764496 -0.061875608 -0.5186925 -0.008001968 1.0121623 0.51144904 -0.032321855 0.81335855 0.3314579 0.3938608 -0.18214682 -0.4577905 0.6481752 0.52260935 -0.18514906 -0.22085394 
94화_잠은행上/94화_잠은행上-021.xml 0.035159152 0.0020347303 0.10532317 0.24407777 0.1280146 -0.056764886 -0.14470245 -0.053397596 -0.0021619932 0.13487686 0.030454483 -0.013564965 0.0026826968 0.080860525 0.019037744 -0.016579116 0.11063791 0.0667832 -0.041706536 0.109066054 -0.0035356544 -0.055645715 0.105160095 -0.06844322 0.15086727 -0.08778921 0.24360988 0.00975942 -0.29363897 0.8246799 -0.25990647 -0.064261265 -0.0021405707 0.08866263 0.030198 -0.12956427 0.046485536 0.027616862 -0.10073679 -0.079075895 -0.27712676 -0.13323486 -0.119033 0.026340721 0.038304828 0.17371035 -0.105574705 -0.15203607 -0.083504006 -0.11644612 0.12256826 0.11672583 0.05776948 0.13133876 -0.08808135 -0.097493395 -0.087084115 0.07063189 -0.030451095 -0.056665286 -0.22397844 -0.12182898 0.05079554 0.24031802 0.069484755 -0.084654905 -0.0029158385 0.2687974 0.060905926 -0.043912146 -0.061803292 0.061345503 -0.0543108 -0.029818775 0.007698474 -0.040165488 0.050586645 0.137992 0.18625118 -0.05801223 -0.12814227 -0.050685685 0.09152191 -0.12716481 -0.015357782 0.20046705 0.09560968 -0.08047575 -0.19046718 -0.07339873 0.15567303 -0.08619381 -0.08485318 -0.16746643 0.006401953 -0.024010975 0.03588378 0.18845475 0.018609624 -0.091110475 0.11155366 0.17114368 0.15159974 -0.15264697 0.04441716 0.14656644 -0.09158343 0.039726052 0.10847092 0.12951463 0.039835773 -0.15366258 -0.046800993 0.04880836 -0.10428569 0.017598156 0.093155205 0.1673752 -0.02761235 0.17924187 -0.0633628 0.29942518 -0.050128188 0.1054488 0.029964728 -0.0057843965 0.14059328 0.011324884 -0.3036887 -0.09025498 -0.100588575 0.1292359 -0.12333521 -0.07865044 -0.004963469 -0.018583016 -0.1586824 0.14210385 -0.035334554 0.0039038854 -0.1555929 -0.028969536 -0.22098753 0.016983457 0.058684446 -0.006353558 0.12235852 -0.06718868 0.122321635 0.004801414 -0.025563344 0.16088668 0.14009906 0.028709473 -0.06983379 -0.029777585 -0.07251049 0.09554378 0.07513323 -0.1259912 -0.046913337 -0.06327466 0.09956208 0.08723801 0.05699705 -0.012453781 -0.14498414 -0.15874133 -0.062610626 -0.15213323 -0.02368584 -0.11123212 0.08388126 -0.22150162 -0.040930927 -0.23559882 -0.16854675 0.008649081 0.2102234 0.27304378 0.07893736 -0.113794304 0.049493764 0.034854006 0.33871883 -0.100641064 0.082569554 -0.13808928 0.073249966 -0.12245635 0.027950892 -0.12081916 0.037306737 0.33069494 0.18929866 0.13234124 0.10863388 -0.15647052 -0.27227035 -0.17036097 0.17441174 -0.3180897 0.17188023 -0.30332655 -0.17380369 -0.14626138 -0.096382685 0.06260305 -0.026839439 0.17769383 -0.21269667 -0.20381863 0.00018625488 -0.19846925 -0.123969436 0.025811113 0.2197531 -0.042846296 -0.19147849 0.25768372 0.1033561 -0.039460577 -0.25621098 0.035292715 0.039287873 0.12737662 0.045890484 -0.252552 -0.11864477 -0.019396164 -0.068618394 0.039048627 -0.01437442 -0.00977121 -0.042115476 -0.052265376 0.1509123 0.103991024 -0.019408569 0.16788138 0.025652923 -0.009677051 0.010414439 0.13507177 0.08948921 0.01383897 0.05122271 0.038868807 -0.08861652 0.03502939 0.008762728 -0.08837065 -0.048043407 0.008574867 -0.13819103 0.18847348 0.05213776 -0.0760042 -0.05272981 -0.023802403 0.16415502 0.07215122 0.21192494 0.036593735 0.16917482 0.1303861 0.017621802 -0.06604688 0.06804811 -0.06982512 0.013901135 -0.13185742 -0.0019593874 -0.15740563 -0.024154631 -0.22121911 -0.013244081 -0.09843485 0.04845734 -0.18137714 0.02102983 -0.034354005 -0.17806222 -0.017613055 0.18163434 0.025212193 -0.02339694 -0.11493528 0.13065653 -0.16825889 -0.15764563 0.039944805 0.073136784 -0.08950701 0.018282264 -0.08068028 -0.083492205 -0.10639546 0.0084184045 0.12522024 0.20620589 0.42006037 -0.5004893 -0.15403444 -0.17125519 0.09228438 -0.09956684 0.020526 0.14311506 -0.06484729 0.04605117 0.036140636 0.013346871 0.15433186 -0.008827966 -0.2167409 0.07490328 -0.062018476 -0.023092598 -0.051711835 -0.16057271 -0.018117847 0.1259099 0.018650806 -0.019295122 0.035421625 0.08178208 0.02838772 0.10392834 0.077325165 0.055402584 0.07004087 -0.102117054 0.15210962 0.11429642 0.010574821 -0.11001973 -0.042648174 -0.08312762 0.08983546 -0.0065760002 -0.09224021 -0.058022097 -0.10203718 -0.036936637 0.14882322 0.016561955 -0.10146159 -0.0645731 0.09577853 -0.13433203 0.06961354 -0.012833698 -0.017733255 -0.19395249 0.053039003 0.07060728 0.09393085 -0.056532957 -0.029663857 -0.03692214 0.1905951 0.10613863 0.09498548 0.20067315 -0.0010923598 -0.03425495 0.2991472 0.018587254 -0.042100716 -0.027763955 0.22196142 0.10716185 0.18484187 -0.037577357 -0.2213755 0.015870184 0.016848762 -0.021286542 -0.1121206 0.04750995 0.2026014 0.047038667 0.019664153 -0.10766106 0.037122685 -0.022157606 -0.14291897 -0.0045150965 0.012057501 -0.01843792 -0.05533051 -0.033145472 -0.009045329 -0.061893925 0.28699088 0.037105076 0.060320217 -0.02623603 0.04814412 0.11888909 -0.1105609 0.06482153 -0.10282074 0.12763935 0.12157527 -0.12724327 0.04807955 0.034525003 0.2205435 0.0065615764 0.13747229 -0.12139969 0.042146523 -0.01427947 -0.043686945 -0.11931474 0.15251172 -0.015521258 -0.08508007 0.013501811 -0.009519866 0.06310199 -0.01455851 -0.040610775 -0.016557166 0.006390438 0.086030096 0.13914603 0.13081086 0.081438914 -0.007569988 -0.09998022 0.2191788 -0.13202567 0.067534 -0.025758032 0.04817684 0.042297427 -0.14532849 0.066237785 -0.03985112 -0.0151696075 -0.05004615 -0.040160906 -0.12230762 -0.24388565 -0.13030912 0.07207127 0.07726717 -0.094333805 -0.02048349 0.13460013 -0.16063128 -0.05691473 0.0722338 0.06460499 -0.07296221 0.09645867 0.15113018 -0.044494815 -0.07064717 -0.028684108 0.15557313 0.06371482 -0.12692939 -0.046922516 -0.20463225 0.14395227 -0.11225737 0.03653882 -0.031610552 0.0972769 0.07826759 -0.16873366 -0.05837363 0.14792751 0.04781811 0.10771506 -0.0021288558 -0.11196796 0.080151364 -0.09439487 -0.24437642 0.095971055 -0.1261936 -0.020589113 0.029126018 -0.13540933 0.08928577 -0.006666311 -0.17593163 0.0554084 0.008605722 -0.036939874 -0.09748514 0.21888728 0.07919752 0.081931435 0.08284023 0.12766126 0.07671164 -0.015605015 0.14339003 -0.062080953 -0.00625545 0.10484024 0.09202586 -0.035749342 0.0932064 0.11417045 -0.0014066569 -0.13250004 0.049226385 -0.17819299 -0.16953981 0.031175729 -0.042643398 0.102737196 -0.025850246 0.019211628 -0.09680852 0.056960687 0.04605567 -0.23721045 0.107427664 0.050413143 -0.062177654 0.076061085 0.099147946 0.014583968 -0.08321233 -0.033338934 -0.035498258 -0.09868522 0.09101763 -0.010139851 -0.05886428 -0.049700975 -0.0031254147 -0.30076864 -0.16938548 -0.048862353 0.046737112 -0.007797053 -0.08869716 -0.049597606 0.14087433 -0.11824192 -0.016095856 0.09703856 -0.18688723 -0.010230543 0.022075813 0.06485251 -0.12673761 -0.028477287 0.044901814 0.008463667 0.12246312 -0.16426614 0.002522842 0.11241515 -0.11517603 -0.05501396 -0.035059303 -0.15125206 0.042306397 -0.03029007 -0.104272194 -0.16104704 0.062784575 -0.012365767 0.18410404 -0.10611093 0.039484344 -0.120816916 0.06160029 0.20009656 0.03836656 -0.14903054 -0.12191327 0.06353086 -0.18142566 -0.03034731 -0.08302539 -0.058255732 0.04120197 0.19545332 0.013583642 0.080998994 -0.14279275 0.02082265 0.055056546 0.15219365 -0.0686384 0.09889895 0.0735632 -0.041344512 0.06774374 0.037422534 -0.12984225 -0.13479498 -0.11433869 0.15034762 -0.010310082 -0.12999971 0.15242654 -0.07613716 0.20324339 -0.12136862 0.16308044 -0.026845466 -0.08574833 -0.13910386 -0.054664124 -0.085504815 -0.18590085 -0.078454606 0.12974238 0.18820436 0.17216249 -0.048097156 0.16888554 0.04332878 0.07258958 -0.16520222 0.0283256 0.0007490238 0.039379086 -0.018994248 0.037196383 -0.09746038 -0.2842775 0.020610599 -0.09566336 -0.028824514 -0.2784529 -0.17203599 0.116026916 -0.049232323 0.11016324 -0.0026308694 0.05667235 0.12209683 0.05484627 0.08647241 -0.2608051 0.10177209 -0.03271713 0.012570923 0.08089233 -0.27106968 0.037051544 -0.02351519 -0.031631522 0.099136956 0.13434777 0.08301377 -0.03855787 0.0073778243 0.078934744 -0.0024094896 -0.09937107 0.0772438 0.0817267 -0.13668989 0.016306603 0.097292714 0.058571197 0.021304475 -0.11261142 -0.07784027 -0.0010992286 0.023762524 -0.09909241 -0.06593406 0.18373135 -0.19399503 0.40461755 0.029376924 -0.1369271 -0.05386672 -0.14475696 -0.20752425 0.025910469 -0.024425626 -0.08233406 -0.04019856 0.15797387 0.06002017 -0.12052825 0.019571912 0.20083003 -0.12674056 0.13125844 -0.19327965 -0.3631536 0.0026621458 0.17294747 
94화_잠은행上/94화_잠은행上-029.xml 0.15970977 0.19245248 -0.42512202 0.0773319 0.009020562 0.16132005 -0.14459807 0.015503155 0.3076364 0.119676456 0.2640046 0.17780644 0.30835524 0.54055095 -0.69560367 0.12245541 -0.08518256 0.05001608 -0.12517862 0.1602567 0.11840636 0.09873728 -0.09820275 -0.1365997 -0.19832417 -0.013050658 -0.089937486 -0.026329815 0.32903194 -0.5803125 0.5668513 0.45314366 -0.4129231 -0.41714817 0.061133504 -0.15937762 0.104533516 -0.093237706 -0.13871339 -0.3034523 0.067240976 0.22239047 0.075287804 0.086065516 0.025799997 0.16741554 -0.047252715 0.135316 -0.1435181 -0.029244734 0.15823582 0.17654724 -0.053770084 0.018629657 -0.10837956 -0.17498578 -0.0672989 0.10054362 0.004393107 -0.20552953 0.18724015 0.0005244418 0.098296404 -0.17438576 0.052738763 0.10042682 -0.17363326 -0.47642633 -0.06377978 -0.058756053 -0.21945086 -0.2640074 0.27333233 -0.16636774 0.035077702 -0.086606115 0.20494683 0.038547654 0.17728533 0.21265149 -0.20610411 0.06317444 0.072996005 -0.13898073 0.07788999 0.10431537 0.12144498 0.09400232 -0.20954639 0.038626213 0.2921173 0.0018313809 -0.14600202 0.24351616 0.0932763 0.2428942 0.110474326 0.29990903 -0.28834718 -0.0014072731 0.067077644 -0.031599052 0.26858735 0.36582544 0.061957017 -0.058032684 -0.11861459 0.0556867 -0.38887057 -0.120498694 -0.075200036 0.00704466 0.05662995 -0.32055253 0.1738667 -0.065379836 -0.047987025 0.007616078 -0.17074816 0.18910724 0.2684927 0.0979729 -0.20385523 0.009884179 0.115010075 -0.0414563 -0.024090515 0.30330995 -0.06539826 0.2936582 0.0276093 0.053106267 0.1076539 -0.42254093 -0.1548602 0.119852714 -0.061190955 -0.1612986 -0.04769191 -0.039380852 -0.35085028 0.30044025 -0.31443086 0.20070826 0.02462677 0.082818344 0.16429955 0.025060482 0.16353448 0.081801794 -0.4164436 -0.29572493 -0.13633253 -0.024361584 0.1314596 0.04402565 -0.001759635 0.085205436 0.3935442 -0.24049091 -0.2486593 0.36047947 -0.21493898 -0.06483609 0.40435886 0.006870343 -0.13323186 -0.07203882 -0.1724611 0.08576506 -0.1538857 0.27129877 0.2780968 -0.1767394 0.004920661 -0.15706691 -0.23263557 0.2922019 0.08903468 0.24973509 -0.16130269 0.10757667 0.0973219 0.029942729 -0.10500287 0.12516284 -0.34401459 0.20227833 0.004591765 0.32178655 0.09598271 -0.20702882 0.019749692 -0.12364297 0.31214467 0.18777089 0.013082264 0.21916826 -0.3490387 0.20529985 0.21757275 0.004452369 0.30920562 -0.1626338 -0.11019045 -0.14157058 0.31559536 -0.33189702 0.25313333 0.10856634 -0.17523763 0.037493173 0.06353015 -0.22337511 -0.15800418 -0.025562877 0.20339985 -0.23961616 -0.20938666 -0.005210029 0.16996747 -0.099230945 -0.26099437 -0.07635273 0.017361147 0.24693386 0.13800782 -0.28843004 -0.29306045 0.12768626 0.25057197 0.2823062 -0.15375511 0.089557916 -0.12505151 0.026922937 -0.2792413 -0.04165461 0.0747673 -0.059217043 -0.10806099 0.25936297 0.24429846 0.1817437 0.08277006 -0.028584775 -0.028751506 0.21824385 0.24810097 0.2598838 -0.097903036 -0.00054316805 0.12108942 -0.030597256 -0.08029527 0.28674623 -0.03309707 -0.29565334 -0.076091744 -0.09636688 -0.0062201205 -0.07915105 0.18976276 0.25462973 -0.18575886 0.20077068 -0.09583956 0.35093874 0.0029469216 0.15010974 -0.17579287 -2.18807e-05 0.30405104 -0.09313165 0.016438432 -0.04838913 0.3058372 -0.20551449 0.08605615 0.16036232 0.31346887 0.15646541 0.009040696 0.14862667 -0.14917402 -0.02079382 -0.27882472 0.12259742 0.25142995 -0.020880623 -0.055059567 0.24221931 0.1565896 0.08988897 -0.0011959408 -0.34913376 0.17460145 0.18886209 0.043565437 0.13397022 -0.050815657 -0.016839143 -0.06621474 -0.10657656 -0.08993299 0.09368843 -0.048290048 -0.2111884 -0.2545259 0.054133747 -0.025515977 -0.060953606 0.17487401 -0.04828759 0.22037803 -0.00023464528 -0.15142854 0.015101505 0.36401933 0.115465365 -0.02517717 -0.11667432 -0.040339984 0.0029041742 0.014157842 0.21118757 0.08483454 -0.16424358 0.1822318 0.096627615 0.048424862 0.34672946 -0.07158015 0.016078746 0.14368837 0.010650543 0.097423285 0.26755407 -0.092090115 -0.25264636 0.008053346 -0.020555532 -0.22788095 0.3221865 -0.056541324 0.17748608 0.08929787 -0.03213839 0.11543939 -0.083379984 -0.14759335 0.07724624 0.21857253 -0.08476787 0.23605053 -0.062240403 0.34871724 -0.12139048 0.27734068 0.05251075 0.061773963 -0.21137564 0.014578849 -0.25734675 0.09809236 -0.022417149 0.14668478 -0.06628898 0.1684408 -0.17266813 0.029457146 0.122060455 -0.27975884 -0.25329438 -0.0052902517 0.17980523 0.14259367 0.265757 0.40389413 0.11541847 -0.08327348 0.037134558 0.20280685 -0.109685026 0.21516234 -0.075900316 -0.10099051 0.091009304 0.08723446 -0.19163346 0.12918076 0.1433138 0.40284893 -0.0364602 -0.20926295 -0.029883113 0.12593077 0.21558608 0.014655102 0.04954914 -0.1699206 0.23536079 0.2563667 0.01709418 0.13137706 -0.1073741 -0.07067862 -0.07151647 0.11862988 0.039435852 0.041217495 -0.2305362 -0.17538889 0.056736045 0.27664486 0.0465549 -0.12081509 -0.0007006493 -0.055762555 -0.044968132 0.2568856 -0.24942584 -0.19228955 -0.05950959 0.29619914 0.050942667 0.16234004 0.021482646 -0.049235396 0.1501876 0.07001101 -0.10545681 0.023804262 -0.10859706 0.08010371 -0.04579828 -0.23444554 -0.06714419 -0.33369496 0.009826275 0.028208064 -0.12438345 0.16261226 0.0873451 0.4193278 -0.43170822 -0.1647896 0.033907745 0.17114344 0.039673455 -0.05312814 0.12795913 0.24962606 -0.0590064 0.12971033 0.2330379 -0.07067083 0.077275276 -0.051304616 -0.05257821 -0.0025454462 0.19008636 -0.2752892 0.088924594 0.08385828 0.2539552 0.22488028 0.17925866 -0.125576 0.012080249 -0.33834735 0.21654184 -0.2930979 0.05767662 0.074248694 0.04146617 0.11230341 -0.15716745 0.39106488 -0.25648847 0.0012640192 0.06777531 0.06703413 0.019129187 0.092541166 0.14407842 0.020951862 0.1943386 0.036528014 -0.22221822 0.05916206 0.10218145 0.2379336 0.11167272 -0.02431067 0.0121023785 -0.04354988 -0.08458473 0.02883187 -0.19870095 -0.1173602 0.32169968 0.23977831 0.12541556 0.3245577 -0.018509373 -0.16254497 -0.36030304 -0.13744263 -0.042522956 0.059979413 0.13584904 0.032653805 -0.043306213 0.16331477 0.13987026 -0.16367668 0.045960885 -0.17335398 0.13622569 -0.036897946 -0.06163231 0.07828571 -0.005752282 0.26307693 -0.06683744 -0.100172184 0.037556853 0.039910275 -0.079354115 -0.082971744 0.0628807 0.0010457925 -0.035730116 0.24055246 -0.050046083 0.09506277 -0.03458655 -0.2143221 0.111292906 -0.013609265 0.06213126 -0.2562696 0.005725546 0.26028135 0.04971338 0.035974022 -0.33202592 -0.08565536 0.09093244 -0.22090502 -0.08461559 0.053817388 -0.17501989 0.20634447 -0.19438408 0.018636586 0.004721052 0.07819872 0.010464728 -0.21392995 -0.020730035 0.22839075 -0.24609177 0.18754186 0.12641807 0.13017166 -0.10443221 0.014511304 -0.13473894 -0.112349525 -0.29165015 -0.09829279 -0.05502793 0.04801982 -0.07547036 0.087920524 0.07002318 -0.121758014 0.016924478 0.1298907 0.24691892 0.052744523 0.17318393 0.008247321 -0.015725102 0.044454813 -0.05682515 -0.34507212 0.30604738 0.078356676 0.106691256 -0.1312954 -0.057719138 0.20786108 0.0015850916 -0.14973842 -0.21152207 0.0065755523 -0.40368465 0.019996278 -0.067364685 0.084306516 -0.145796 -0.48215067 0.19476618 0.34057814 -0.071594685 0.11710983 -0.0057306634 0.004059958 0.14979573 -0.6463201 -0.17530318 -0.1810358 0.1958957 -0.061966076 -0.19595377 -0.28631747 -0.15973306 0.23722096 0.42724177 0.30424744 -0.3743201 -0.030923212 0.04680722 -0.020110793 -0.021430438 -0.005900825 0.27450156 0.004405575 -0.40606228 -0.1548491 0.14328304 -0.09663578 0.17526913 0.15115699 0.05587262 -0.012092777 0.067130856 -0.16537353 0.09446355 0.28142715 0.046644744 -0.061169315 0.12121761 0.08955295 0.014818645 -0.10269491 -0.07219801 0.110020675 0.20523609 -0.13862869 -0.05728892 0.16233201 -0.25180972 -0.14539902 0.375429 0.42419878 0.07040728 -0.37494728 -0.047229186 -0.007037648 -0.29430038 -0.027779775 0.11798775 -0.35862103 0.18764098 0.06416682 0.19278766 -0.22100003 0.25103822 -0.09138105 0.17898199 0.110679485 0.17201538 0.042929806 -0.05104724 0.09287049 0.02248747 0.20402797 0.073601 -0.10496106 -0.055410497 -0.08982091 -0.4196244 0.03272037 0.1975029 -0.049883995 -0.01584288 0.08896506 -0.30058333 -0.20913826 -0.22573407 0.074425764 -0.35107014 -0.3352791 0.18673022 0.28369147 0.05229588 
94화_잠은행上/94화_잠은행上-022.xml -0.1278737 0.2923153 -0.13984124 -0.23021328 0.10887205 0.044049628 -0.040577427 0.011069193 0.04094032 -0.039612442 0.09378218 0.23869614 0.08123824 -0.003573507 0.32330573 -0.06075173 -0.016780768 0.044189528 0.116871715 -0.063468784 -0.04845377 0.036408342 0.06099329 -0.06737932 -0.054159425 0.007834189 0.014831923 -0.041495644 0.0253 -0.01570423 -0.17296919 0.09280287 0.042432617 -0.032912403 0.077706404 0.05523298 0.14024106 0.059659272 0.035983216 -0.1624597 0.106206566 0.21997868 -0.059985057 0.03712447 -0.09070613 0.020096198 0.020571243 0.07241665 0.14538328 0.022910891 0.04693456 -0.13292667 0.08184884 0.11238076 -0.063354544 -0.010650646 -0.034984987 0.028476946 0.09353846 -0.005658217 0.09264406 0.25615767 0.2122601 -0.080391474 0.20827845 0.1714689 -0.08141761 0.04418841 -0.15960073 -0.1108771 -0.008203721 0.020927867 -0.05155149 -0.08580223 -0.12002376 -0.13597779 0.2771758 0.028629502 -0.16475658 -0.04900139 -0.0076545803 0.066914655 -0.029628556 -0.041194454 0.006889929 0.010347774 0.040646285 0.009785708 -0.019082947 0.04248328 0.042457044 0.048714727 -0.012510097 0.02154037 0.06143695 -0.08617078 -0.045110848 -0.0009910254 0.005837856 0.05344397 -0.030315075 -0.04640074 -0.0031941808 -0.10747433 0.025428569 -0.03462351 0.07808844 -0.058173638 -0.18409757 -0.043430872 -0.17807738 0.07526758 -0.029303161 -0.10341756 0.094311975 -0.14279798 -0.04572041 -0.017729495 -0.090441525 0.04424268 0.15196744 0.035422433 -0.08297466 0.1596657 0.15963 -0.25803128 -0.115239225 0.093431056 0.039289154 -0.112395585 0.03424848 -0.0068387566 -0.036463886 0.13965696 0.03637041 0.17056024 -0.006267594 0.16115606 -0.018028438 -0.10638721 -0.27022338 0.34092364 -0.20744106 -0.028707206 0.09503013 0.077900365 0.12746197 -0.12116545 0.116472244 -0.09351492 0.0537883 -0.22003695 0.12806898 -0.002481056 0.20351583 0.017920569 -0.011774896 0.15253487 -0.072234124 -0.16212721 -0.025700133 -0.047658797 0.016839532 0.0963072 0.064419374 -0.070387125 -0.02526163 -0.03103856 0.05299216 -0.17980783 -0.12763831 0.15171704 0.11813515 -0.1581752 0.23852369 -0.10573968 -0.004687151 0.19614588 0.04405517 -0.19249132 0.07452067 -0.030595556 -0.028284669 0.10780742 0.057509348 0.033261202 -0.030823082 -0.19319806 0.016340468 -0.067463316 0.027126104 0.008918554 -0.10806896 -0.016147507 0.16263223 0.07673554 -0.07162218 0.00946263 -0.03531845 -0.15857026 -0.02116189 0.012369385 0.06021921 -0.05022275 -0.020340696 -0.16877118 -0.38973522 -0.1479868 0.09357254 0.039077234 -0.14903012 0.00034508732 0.085006 -0.077965304 -0.00619108 -0.10070473 0.021053199 0.04296437 -0.21569525 0.30617747 0.18846178 -0.15219252 -0.20242701 -0.066333525 -0.009473124 0.23244202 0.03758478 -0.09143015 0.0010037113 0.07440719 0.11116531 0.17252639 -0.21623117 -0.09225127 -0.16248465 -0.13331348 -0.262539 0.07941019 0.01638693 0.13746995 -0.06848009 0.05067463 -0.031392813 -0.21524785 0.098366305 0.07440916 0.13222967 0.07769559 0.2936806 0.0717438 -0.1794926 -0.1170135 -0.14400856 0.14077383 -0.091214955 0.18114868 -0.12180528 0.06831116 0.013831545 -0.08015498 -0.012769744 -0.040954597 -0.11267467 -0.0028120182 0.09797442 0.07467103 -0.12513228 0.020594925 0.06406546 0.0046592182 0.19442359 -0.047319364 0.2699651 0.038075715 -0.031595103 -0.08953168 0.10148111 -0.10914313 -0.028542288 0.15529329 0.07027351 0.18254422 0.10272421 -0.054886207 0.040323403 0.03615089 0.18429098 0.11625615 0.029379588 0.010426005 0.0070926747 0.019535918 0.091516815 -0.24886368 -0.08805534 -0.044679012 0.1218674 -0.03632347 0.001791232 0.006620883 -0.16462317 -0.06781365 0.12381836 -0.0675503 0.18001276 -0.0051741377 0.1792585 -0.021075115 0.016447838 0.091227114 -0.13586837 -0.018609418 -0.1347552 0.07129064 0.013942869 0.016027305 0.064813696 0.02949073 0.109718636 -0.18436258 0.03830438 -0.09367438 -0.061696082 0.021511188 0.076163225 0.10791135 -0.008244038 -0.009888435 0.076578654 -0.1491208 -0.112309955 0.10416161 -0.035942476 0.20249495 -0.005260258 -0.019179594 -0.1572731 -0.0989604 -0.27496618 0.05305793 -0.077603295 0.15766086 -0.19360247 -0.08623382 -0.07034903 -0.07909528 -0.04342545 0.009428056 0.25630844 0.13200381 0.03897806 -0.049502775 0.04342049 0.12806562 0.05838072 0.05945421 -0.029547451 -0.018678408 0.06851551 0.10925042 -0.037367806 0.113794565 -0.26863205 -0.14652078 -0.06294684 0.009233557 -0.055204272 -0.06894334 0.10407023 -0.18661809 0.030354163 -0.010296784 0.08948897 0.21863934 0.14522949 0.19821581 0.17664489 0.09536176 0.01227892 -0.08347969 -0.11036697 0.023758281 0.07647157 0.21266656 -0.046665452 -0.02671869 -0.047558676 0.18903264 -0.20678662 0.07444775 -0.12321018 -0.029210165 0.09560476 -0.03542449 -0.015799196 0.102240264 0.1675077 -0.13725695 0.07287905 0.0039244024 -0.082020804 -0.07966238 0.039832592 0.086436234 -0.03430624 0.2239587 0.23613504 0.08223899 -0.048623335 -0.045366615 -0.21398014 -0.15140192 0.07236045 0.015161316 0.03771424 -0.052434526 -0.077686936 -0.13652626 0.06154585 0.23558027 0.048007295 -0.0409021 0.123888694 -0.31620252 0.020194646 -0.19437584 0.04373915 0.13925627 0.10932104 0.07748847 0.18762428 -0.01300301 0.013465725 -0.0552417 -0.09184742 0.12806287 -0.14984639 0.20859885 0.12919012 -0.093072884 0.16741401 -0.08695923 0.12026043 0.17876515 -0.041905053 -0.06607422 -0.044103578 0.1523809 0.11055803 -0.08584525 0.058468886 0.08745875 -0.0026863187 -0.25296092 0.15466271 -0.10006952 -0.20866087 0.08877087 -0.06981493 0.08527383 0.10422698 -0.07719091 -0.22742574 0.048284717 0.14299777 0.04566319 -0.05204728 -0.14685619 0.042737126 0.014578601 -0.17840421 0.020383107 -0.031710103 -0.04885684 0.1394993 0.008136582 -0.056231942 -0.011298083 0.10892566 -0.033470497 -0.2563749 -0.08786609 0.003932993 0.15220818 -0.0037560684 -0.0896056 -0.14988025 0.014230984 0.089418344 -0.17218378 0.0033871569 0.11971152 0.13587253 -0.00620266 0.060730975 -0.11543733 -0.155218 -0.025939442 0.06171629 0.09427361 0.0023849986 -0.0087558925 -0.0664375 -0.08604495 0.06287068 -0.09213775 -0.1241381 -0.09490513 -0.057992034 0.10638442 0.085189395 0.15676922 -0.001231545 -0.048166715 0.0022504441 0.024150964 0.026572552 -0.062017158 -0.18286237 -0.04686784 0.028574942 -0.20624825 -0.0074546053 -0.11651546 0.07325147 -0.005104543 -0.07391447 -0.082954824 -0.13583267 -0.02487186 0.037791956 0.017317954 -0.08190105 -0.15020546 0.08784782 0.018524349 -0.04096692 -0.23278908 -0.29288054 -0.025992546 -0.046445847 0.15938799 -0.047087125 -0.16546392 0.057863843 0.06319613 -0.078274645 0.032303542 0.004540734 -0.045870602 -0.10345264 -0.04097227 -0.0871376 0.03906028 0.06377152 0.1512307 -0.07764783 -0.051062103 0.007833971 0.06357638 -0.10947192 -0.2030934 0.24699295 -0.05019191 0.015111859 -0.099168375 -0.05159226 -0.061154425 -0.02046483 0.019151112 0.1014158 -0.013813339 -0.022337075 0.07142341 -0.009051741 -0.027166843 0.17254268 -0.05127765 -0.14754584 -0.0743914 0.114628986 0.053693887 -0.0152456 -0.14907616 -0.027442012 -0.019381918 -0.04315339 0.13752007 -0.046424717 -0.10742585 0.0743382 0.23335437 0.06212938 0.021571731 -0.1703881 -0.24674577 0.07689631 -0.061124787 -0.0024013869 0.10592468 0.026723444 0.112792626 -0.035550945 0.035887748 -0.05630083 -0.033485435 0.12362351 -0.07414761 0.103933856 -0.061162665 0.1769239 0.09234451 -0.14391086 0.0029746592 0.045420166 0.07935101 -0.021999165 0.11242065 -0.0297448 -0.03834523 0.14205934 0.18276691 0.17700753 -0.056948673 -0.1660569 0.034467142 0.06778132 0.14493525 -0.010708667 0.05530375 0.01564693 -0.02609048 0.013941358 -0.012789215 0.024143336 0.014121918 0.04528729 -0.0051056757 0.16826189 0.03516461 -0.015601398 -0.052563548 -0.074265 0.017045751 0.06756471 -0.119300626 0.37748867 -0.34437066 -0.041864455 -0.09008221 -0.083830595 -0.12713405 -0.11951761 0.08681874 0.07345036 0.106389366 0.044667333 0.002811442 0.09247929 0.12477892 0.0854674 -0.11619502 0.083921514 -0.16960824 0.10957306 0.101671994 -0.09158152 0.0052401377 0.0102615785 0.17206669 -0.0998081 -0.13780682 -0.027871188 -0.013246566 -0.0151572 -0.023339435 -0.03217792 -0.11294259 0.059265476 -0.059913825 0.1345877 0.05373069 0.067637615 0.013602123 -0.09929085 0.070096634 0.0014641508 -0.007874961 -0.13889241 -0.09295124 -0.05637842 -0.124541394 -0.122822985 0.16698462 0.023573017 -0.14011496 0.1187694 0.2026867 -0.03855422 -0.15474913 
94화_잠은행上/94화_잠은행上-023.xml -0.43313402 0.0057673454 -0.084449396 -0.053332478 0.10399543 -0.013776306 0.025426568 0.4282459 0.11557803 0.14147078 0.0987712 0.019445412 -0.31011268 -0.17657398 -0.048301287 -0.21573994 0.09104971 0.07950615 -0.27655533 -0.15715507 -0.0052523646 0.07879813 -0.054741777 -0.16076997 -0.3423793 -0.02887868 0.07874177 -0.17672081 -0.15929277 -0.2519393 0.23521595 -0.027489677 0.26062822 0.056290194 0.017998008 0.44827244 0.05119386 -0.00830962 0.20674229 -0.08096984 0.031954706 0.111826956 0.3119993 -0.2429731 -0.33339947 -0.52414304 0.028721217 0.4413053 0.20722885 -0.13856708 -0.11661088 -0.35975516 -0.0029030705 -0.016677659 -0.16334997 0.06185548 -0.26424354 -0.08850476 0.20685345 0.0058743656 0.089091815 0.20914268 0.042108588 0.2091686 -0.16087231 0.08750347 0.16045341 -0.034698993 0.107877344 0.14927351 -0.50938946 -0.047504432 -0.12014915 0.19190459 -0.34666783 0.033657424 -0.047779344 0.044961456 -0.19822748 0.21352759 -0.017232269 0.23710416 -0.2541725 -0.005554462 -0.17286664 0.040149096 -0.036860183 -0.1455318 -0.14560516 0.10587431 0.082527176 0.10088439 0.030940522 0.01713648 0.07043261 -0.24862258 -0.04194759 -0.016188405 -0.035516102 0.2020627 -0.07343786 0.19139598 0.032507036 -0.15647794 -0.21902575 -0.06805253 -0.27357268 -0.061641075 -0.2146596 0.008659979 0.11779599 -0.008569023 -0.18607667 -0.014911987 0.03435179 -0.04274127 -0.13961461 -0.24704725 -0.14470091 0.1425918 0.2989684 -0.08950914 -0.04147862 -0.14812809 -0.16058882 0.038756605 0.19139935 0.036524646 0.108662374 0.19540685 0.14848003 0.1955474 0.31565565 -0.06235178 -0.061510667 -0.034086727 0.030056298 0.12473667 0.18535382 0.09292966 -0.13330935 0.30049253 -0.17348325 -0.05366818 0.14224137 -0.05060245 0.31591362 0.047941808 -0.010958868 -0.21624304 0.057838697 -0.30228806 0.07066041 0.29180723 0.21210273 -0.06812965 -0.0013114884 0.1451403 0.05880055 -0.11896594 0.025513541 -0.12855989 0.078315556 0.01459066 0.06436562 -0.2439005 0.22013707 -0.16663966 0.058648985 0.026294556 0.04896541 0.105792046 0.11874377 0.1342652 0.11753578 0.11995433 -0.16939573 -0.07154821 0.05550873 -0.0769194 0.003798876 -0.050927065 -0.07304565 -0.007598294 0.39519414 0.046705607 0.1744599 -0.4372368 0.034486353 0.446126 0.26742935 0.24816404 0.21224995 0.21287343 -0.1017066 -0.008239284 -0.14260523 0.0885035 0.1349785 0.045047715 -0.07656984 -0.1747105 -0.111501746 -0.0155344065 0.30259666 0.270124 0.23713067 0.2914511 0.029008266 -0.0025247356 -0.2144289 0.34856963 -0.15791555 0.029511856 0.37854135 -0.16202341 0.32109278 0.1490178 -0.08129192 0.1763571 0.20178202 -0.11364128 0.094874665 0.3014646 -0.025455628 0.09076076 0.0063821534 0.061933912 -0.24010822 -0.3466395 0.16708946 0.092303395 -0.08000156 0.018712021 0.16132441 -0.044500053 0.041525833 -0.025632 -0.306729 0.013926372 -0.1563925 -0.15291628 0.06993067 0.15709269 -0.18039227 0.07818081 0.086393066 0.18361682 0.30062348 0.036287617 -0.15722996 0.3701489 0.008775884 0.018845942 -0.061176352 0.029946372 0.15651192 -0.19262828 -0.14989598 -0.0066047222 0.019730076 0.010993096 0.07526807 0.016257301 0.017740697 0.1932031 -0.26121643 -0.09999348 0.2442135 -0.21671669 0.08048162 -0.16830507 0.14829452 0.06022875 0.21376854 -0.023829453 -0.15667412 0.048918884 0.052455217 -0.12335485 -0.08721331 -0.007472834 -0.0075496007 -0.11216234 0.12856917 -0.14418152 0.14728418 0.39846957 -0.04551676 0.1734058 -0.008486417 -0.03717058 -0.019632764 -0.11446521 -0.032087173 -0.08570452 0.06571146 -0.23465389 0.14146888 -0.13973497 -0.1820539 -0.1843386 0.23380955 0.08945271 -0.046772834 -0.102445945 0.17484377 -0.03976159 -0.27381593 -0.11342658 -0.03717871 0.043186404 -0.040098015 -0.06029265 -0.058427304 -0.1618214 0.15209901 0.15825573 -0.07391688 0.11381772 0.22422263 0.030190647 -0.31786725 0.09119905 -0.088867255 -0.047221713 0.031767342 -0.02944006 -0.16746771 -0.05275192 -0.043369226 0.021359632 0.08444634 0.27259618 0.14326541 -0.19151162 0.24542648 -0.061767146 -0.20597215 0.0898221 0.0089914985 0.06601152 -0.05953214 -0.0034568578 -0.013636565 0.051922616 0.115219355 0.05890301 0.31264535 0.06281068 -0.073659614 -0.047161303 -0.269097 -0.048305187 0.18589875 -0.0071230233 -0.0021977983 0.22155638 0.09890502 -0.14974838 -0.18240547 0.109439224 0.21594596 -0.0112000685 -0.55782586 0.05905082 0.04805182 -0.39983758 -0.078253224 0.16422345 -0.006927181 0.23048934 0.08525294 -0.056182973 -0.19521654 -0.09780575 0.029405285 -0.07413664 0.23383218 -0.037440035 -0.1500104 -0.045131307 0.2777094 0.10954213 0.1090999 -0.059631955 0.000918651 0.09914212 -0.25007915 -0.13410866 0.25098428 -0.14414582 -0.2545326 -0.12000055 -0.31144226 -0.15527058 -0.056675322 0.12816145 0.009198457 0.34859097 -0.37673393 0.33660626 0.057751212 0.4979686 -0.22443865 0.27468944 0.25974703 0.018317461 -0.035356153 -0.026064292 -0.11876858 -0.005093742 -0.06900911 -0.45829135 -0.021663703 -0.020667013 -0.15780714 -0.0906862 -0.15811083 0.023877941 0.1349715 0.32708558 -0.085293174 -0.28732237 -0.04277215 0.21190766 -0.05578099 0.09395122 0.1458555 0.1471967 0.0808608 0.13352 0.1644485 -0.2762086 0.12658148 0.23681466 -0.11464602 -0.11721995 0.0007791211 0.05970378 -0.012429878 -0.23287112 -0.06966905 0.070920214 -0.110633284 -0.16891661 -0.005783787 -0.031074211 0.1267655 0.2312688 -0.18139118 -0.08060858 0.1665512 -0.13323642 0.24363148 0.18618615 0.06207027 0.04232384 -0.16626358 0.22549568 0.09974219 -0.31236538 0.09240776 0.0012217653 0.022612257 -0.04718822 -0.0527154 -0.28637144 0.09393293 0.0848339 -0.2658525 -0.38905877 -0.021742696 0.103103295 0.15175153 0.1333658 -0.12476672 -0.07808416 -0.038072463 -0.027104951 -0.16235223 0.23668009 0.09428966 -0.08972728 0.02416617 0.026205592 0.08642289 -0.11876436 0.019246358 -0.010800844 -0.0012138421 0.045985863 0.04130186 0.19097203 0.15123332 0.2108134 -0.2408232 0.082860224 -0.13905144 0.0028605827 0.034038153 -0.04762201 0.106886566 -0.089119114 0.0070049297 -0.10287799 -0.15450461 -0.053657446 0.048142076 0.045689493 -0.13719682 -0.067864686 -0.17161897 0.1195792 0.070483305 -0.25620842 -0.038028922 -0.1355326 0.06434192 -0.11506231 -0.013318947 0.04701435 -0.17432007 -0.20281282 -0.008448478 0.0704995 -0.019796912 0.1601413 -0.26037517 -0.2726517 -0.14936982 -0.07607671 0.17847008 -0.02083258 -0.065282635 0.15587689 -0.215675 0.080436684 0.2788593 0.49123234 0.017634463 0.14872086 0.036879674 -0.056313343 0.093895 -0.040255196 0.15005872 0.3137003 -0.13527493 -0.17259456 0.010072026 -0.02739266 -0.084394604 0.07980394 -0.12280932 -0.012227647 0.16306579 -0.11457617 0.15960136 -0.25893745 -0.13535637 -0.10817394 -0.05920878 -0.33308145 0.02719288 -0.030817335 -0.026479749 0.30402866 0.20222048 0.4074516 0.22045828 -0.23409373 0.059538774 0.051915288 -0.21475168 0.1457682 0.11675554 0.18283588 0.023220435 0.032960545 0.07258566 0.14176458 0.11265228 0.40716437 -0.10437758 0.054239824 0.24397898 -0.03533181 -0.14548457 -0.119842604 -0.22529373 0.073226646 0.06780942 -0.09011664 -0.035285726 -0.13818116 0.07023586 0.039490998 -0.21740584 -0.15090129 -0.25687408 -0.14544341 0.102692395 0.026411492 0.09117607 -0.13095064 -0.14926374 -0.057722915 -0.055468384 0.20997469 -0.118380055 0.0643923 -0.11080239 0.08091497 0.027192654 0.1749404 0.20706125 0.118954524 0.0099161 0.041863017 0.20752649 -0.08048467 0.044950232 -0.36649823 0.22741179 0.14026427 -0.023908745 -0.20703766 0.30247372 0.03184446 0.027520869 -0.033440605 -0.16265397 -0.19505312 0.075009435 0.15326698 0.106633544 0.095463574 0.23393139 -0.011905329 0.021981519 -0.11344007 -0.05961123 -0.07846768 0.092741966 -0.21646333 0.040238462 -0.23381779 -0.07427035 0.04814106 -0.23065981 0.10400338 -0.028616795 0.026711864 -0.12795487 0.105926774 0.13772798 0.023661613 0.24142554 -0.018133707 0.07996811 -0.08504855 -0.038550317 -0.041724715 0.058577105 -0.069462866 -0.08353252 -0.13613577 -0.04654327 0.40003714 -0.4674699 -0.56989205 -0.13601194 0.10182541 -0.07496518 -0.011227574 -0.11669478 0.083999544 -0.33929634 0.110672414 0.06602059 0.16862214 0.055633157 -0.14620614 0.25823778 -0.27642962 0.10480845 0.100915074 0.07473318 0.09523253 -0.019595109 -0.15991281 0.056713805 0.19719675 0.12595432 0.2127153 0.111471266 0.0077491477 -0.118562385 0.02193236 
94화_잠은행上/94화_잠은행上-009.xml -0.274415 0.7102262 -0.7689877 -0.5186667 0.67807406 -0.19737346 -0.056780867 0.15386924 0.54325557 -0.4856823 -0.17501456 0.27529433 -0.5452473 -0.34334755 0.12618878 -0.15640995 -0.3868236 -0.12643799 -0.30774784 -0.115859725 0.17362863 -0.34394306 -0.14887641 0.20757219 0.18058403 0.28317302 0.076947294 -0.25608715 0.11075785 -0.19932105 -0.37120038 -0.024952412 0.19900838 -0.41368267 0.10017465 -0.2505761 0.32053825 -0.052850116 -0.12412109 -0.2603131 -0.27234548 0.037317134 -0.19421157 -0.1578682 -0.16262099 0.21674898 -0.32255888 -0.2007237 -0.21717088 0.22997338 -0.091600865 -0.20350876 0.11883684 0.070670255 0.32124975 0.109307565 0.37385875 -0.51633394 -0.069814764 -0.29842618 0.22521958 0.1689756 -0.06246098 -0.2852261 -0.18108022 0.42293707 0.42363235 -0.36226878 -0.014622629 0.08050482 -0.18265238 -0.04080932 0.25277105 0.44418207 -0.090839684 0.1768359 -0.44033483 0.3104443 0.068973124 -0.3043313 0.36490166 0.18754609 0.10144416 0.7938813 0.59722406 0.71680427 -0.20322263 -0.51619035 0.10323465 -0.40530306 -0.0007577166 0.48166323 -0.10840191 -0.090745315 -0.13736118 0.22191769 -0.04484099 0.16970988 0.0103249615 -0.20581861 -0.3867478 0.6411096 0.25293726 -0.09457139 0.21317714 -0.046591897 0.34130853 -0.1938546 -0.09224084 -0.2610685 -0.106751665 -0.2809444 -0.11351763 0.13866556 -0.087139696 -0.35636142 0.12777652 -0.32044145 -0.18525344 0.08450747 0.10521301 0.28779057 -0.3625435 -0.43293446 -0.52532893 0.16158387 -0.3504713 0.7033284 -0.016749237 0.4570095 -0.082995206 -0.18078664 -0.33193514 0.5612947 0.17471012 -0.3140058 -0.30293107 -0.0050023943 -0.11951631 0.34138644 0.0080026295 0.14412571 0.1868088 0.14065418 0.101634994 -0.094326116 -0.2446933 0.026975492 -0.1312364 -0.27500334 -0.6127071 -0.053186268 -0.20657018 -0.07918058 0.19060773 0.14217204 -0.4728887 -0.06545797 0.29494834 0.39752084 0.27052203 0.13603194 0.05442858 -0.008785218 -0.07397029 0.10771416 -0.08993897 -0.24398613 -0.17813104 0.21352448 0.14155662 0.16574022 0.20126125 0.349198 -0.5345325 0.29980072 0.11402009 -0.5380748 -0.08330602 -0.37941158 -0.0009461276 -0.17014064 0.219166 0.6115803 -0.19062924 0.12045408 -0.16399316 0.09490293 -0.14946581 0.263267 0.04909506 0.37115756 -0.4766298 0.028722359 -0.022816 0.14245103 0.4188776 -0.10211401 -0.0043936633 0.32552242 0.45483017 0.12611629 0.4252044 -0.4975671 -0.0009509176 -0.19149642 -0.096398875 -0.33351302 -0.14169155 0.2643325 0.42738524 0.4437061 -0.35901064 -0.22949731 0.24036917 0.053710353 -0.22456071 -0.36450168 -0.056428686 0.108097136 0.2902215 -0.16010587 -0.78991115 -0.07364422 0.06345486 -0.20164719 0.5410721 0.12220797 0.0822815 -0.005040765 -0.13896996 -0.041000575 0.0148082 -0.404669 0.15488599 0.1512291 -0.036333703 0.368856 -0.33278006 -0.35519236 -0.0918489 -0.36314303 -0.16304305 0.05443806 -0.007835969 0.04958238 0.12861516 -0.44256306 0.09594233 -0.5502067 -0.4814071 0.25846 -0.0875399 0.106781036 -0.15880507 -0.040191427 0.22729172 -0.238624 0.112774536 -0.060302503 -0.5269297 0.2221382 -0.071372844 0.17043675 0.11361196 0.115609154 0.41594663 -0.19265774 -0.634803 0.25777107 -0.23902819 -0.816898 0.45926696 -0.071603656 -0.13587755 0.11347144 -0.1353053 -0.19916812 0.14857171 0.16903459 -0.057396553 0.16416278 -0.040103093 -0.20425607 -0.12088897 -0.42132512 0.1388591 0.23571232 -0.021925887 -0.018482935 -0.2447584 -0.050027937 -0.15592013 -0.33807048 -0.23791534 -0.23833847 -0.10467671 -0.46076232 0.39086848 0.15521237 0.32026476 -1.057626 0.53188217 0.07988992 -0.31295243 0.47158045 0.67873967 -0.106854096 0.11720975 -0.0071625793 -0.1105942 0.011619605 -0.29115626 -0.06376496 0.066116065 0.17759314 -0.20561618 -0.14447567 -0.013646495 -0.2968408 0.099725574 0.5471715 -0.29761356 0.10990269 -0.32416752 -0.43224573 -0.1907531 -0.34559754 0.012353774 -0.03505631 -0.25186723 -0.38481045 -0.33605975 0.18665859 0.114112556 -0.0070226295 -0.4848697 0.041305304 0.20761536 -0.05991961 -0.017325366 0.0719323 -0.241654 -0.20995179 -0.13343821 0.6015846 0.20621605 0.31230104 -0.39945918 0.05581137 0.09739523 -0.02949958 0.00073712366 -0.18518251 -0.5330238 -0.17362717 -0.12248169 -0.22859947 0.40498233 -0.0354176 -0.36818632 -0.036560174 -0.0789355 -0.11824653 -0.32229155 0.052405447 -0.17939241 0.045364987 0.1441072 -0.13953777 0.057793327 0.39431012 0.06955717 0.45125073 0.5614648 -0.04056373 -0.1771555 0.20338431 -0.2140581 -0.31344408 -0.0027511213 0.44468302 0.60996383 0.2047308 0.21636446 -0.010183128 0.17860022 0.5403748 -0.47057295 -0.39968976 -0.015158378 -0.51899844 0.2579708 0.49747923 -0.0012368243 0.14659357 0.47256276 0.24559063 -0.14192662 -0.1656095 -0.24010047 0.17425564 -0.0339827 -0.30559412 0.46881264 -0.16627496 -0.09695577 0.2072561 0.15805095 0.2913419 -0.0045849564 -0.2523275 0.46182263 0.07343844 0.37885955 -0.10000926 -0.19999747 -0.65074384 -0.2032012 0.068588875 0.01139839 -0.17028293 0.15631813 -0.26884136 0.18137239 -0.1524515 0.24591902 0.09196585 0.37346572 0.1512801 0.16957173 -0.16721281 -0.052105818 -0.16841292 -0.07435515 -0.006947995 -0.34441668 0.6601188 0.27691063 0.16935681 0.16631359 -0.052520033 -0.07132676 0.24267092 0.22217211 -0.113909885 0.31119993 0.4283531 -0.20547615 -0.16210748 -0.16944903 0.1949996 0.11330113 0.061120834 0.26364437 -0.15712994 -0.11827632 0.15004641 -0.12274585 0.23113444 -0.13825327 0.53085524 -0.19267452 0.33382347 0.098184034 0.51525325 -0.03410475 -0.2830599 -0.38943064 0.04468391 -0.17974056 0.10112805 -0.08981995 0.32946616 0.27454284 -0.2789148 0.021341704 -0.10949122 0.4452868 -0.35545105 0.28893295 -0.4019494 0.12663937 0.1393762 -0.3498019 -0.26504225 0.09493665 -0.2755639 0.3589365 0.12563944 -0.0018249862 0.67823845 -0.08435699 -0.10797922 0.29581866 -0.3603197 0.41254708 0.43009067 0.18153998 0.021983568 0.1058331 -0.26284307 0.05031319 -0.22267641 -0.12786719 -0.20679665 0.22571048 -0.28014266 -0.1631074 0.56736493 0.08951694 -0.075836904 -0.30395597 -0.04522599 0.073249154 0.5973644 -0.6142979 -0.10625163 0.13923132 0.26920733 -0.00316298 -0.22203216 0.22960138 0.19613136 -0.072606295 -0.07427196 0.23820965 -0.49673662 -0.29242224 0.18107975 -0.15770632 0.061087217 -0.5157876 -0.18620427 -0.02267095 -0.29542166 0.2799363 0.3872855 -0.39162743 0.52791893 0.046505515 0.5021971 -0.2860595 0.043035235 0.11894341 -0.08216556 -0.12962478 -0.09911645 -0.45642543 0.30559835 -0.59333086 -0.16735995 -0.55181813 0.42266357 0.22642016 0.30080628 0.3899023 -0.10497071 0.30034506 0.30317062 -0.07979627 -0.39690468 0.15787494 -0.17774558 -0.19579929 -0.039463982 -0.15929803 0.087750256 -0.31292006 0.22981375 -0.36776128 -0.113678925 -0.055339307 -0.34885967 -0.25674084 -0.2217351 0.2691149 -0.24662481 0.18038236 0.3704044 0.37747633 -0.11484661 -0.3814341 0.12224759 -0.27293265 0.2670067 0.05357259 0.22297274 -0.19454812 0.21523401 0.2729154 0.2721526 0.33629683 0.19471188 0.16368683 -0.19088647 -0.20608555 -0.174229 -0.6885985 0.030454192 0.23826373 0.062527895 -0.10399907 -0.25253153 -0.89048016 0.5413151 0.25302276 -0.5387057 0.22833703 -0.40781063 -0.4003247 0.42922363 -0.022036603 0.2212648 0.19390526 0.44829008 0.16482042 -0.36504552 0.03247694 0.04731454 0.74241424 -0.068850994 0.2798216 -0.18897007 0.41519046 0.0060616434 -0.024770513 -0.07069776 0.40183654 0.039519895 -0.02379281 -0.49056435 -0.21879238 -0.20276819 0.04883042 0.22025527 0.19254796 -0.4258457 0.5399635 0.034060966 -0.14857443 -0.079513475 0.25177297 0.13518709 0.028757848 0.15406372 -0.4810376 0.021167116 0.12711227 -0.07252362 0.23457888 -0.031015541 0.15933916 0.22124064 0.45141938 0.57340336 -0.013020661 0.3312414 0.34256637 0.16699603 -0.09225204 0.0427968 0.074784756 0.08108171 -0.15346998 0.2347186 -0.1334071 -0.05860309 0.14620198 0.10017039 0.08613908 -0.20428818 -0.36616015 -0.5369523 -0.17172532 -0.13448435 0.18371686 0.058862787 0.06394406 -0.30212355 0.2187049 -0.069010526 -0.34547505 -0.037715483 0.071997486 0.04355318 -0.3592337 -0.09276461 -0.57357544 -0.23481025 0.2869354 0.33705148 0.5483748 -0.19546424 0.07511446 -0.13174012 -0.16249463 -0.09521752 0.2821718 -0.059698384 
94화_잠은행上/94화_잠은행上-039.xml 0.3813666 0.6380105 0.64710253 -0.23819627 0.91264313 0.37691903 1.1368893 -0.5709264 -0.065966204 0.33795223 0.6820736 0.14599176 -0.0056902394 0.16177961 0.18742052 0.06263954 -0.23621657 0.2434727 -0.4214234 -0.26107243 -0.0146812275 -0.03418827 -0.45153695 0.09757188 -0.3021793 -0.24528703 0.51420873 0.0891656 0.917798 -0.505116 0.5487433 -0.15674457 -0.18066797 0.3475897 0.084511586 0.1090558 0.5157277 -0.1455475 0.15548465 0.15083972 0.67247546 -0.25467032 -0.1878953 -0.5284027 0.15997158 0.60771096 -0.40770072 -0.446892 -0.8728291 0.73736966 -0.24823122 0.6762025 -0.12309324 0.14779964 -0.4367268 -0.2139312 -0.11700904 -0.23728558 0.47760817 0.07583277 -1.2311602 0.12348243 0.24494618 0.063234866 0.10838093 0.25600743 -0.073590696 -0.0072335857 0.19610727 -0.38705614 -0.17458919 0.11945666 -0.5280783 0.25916484 0.503849 -0.2639435 -0.133849 -0.21573621 -0.5883554 0.18254966 -0.030535571 -0.19108121 0.17325757 -0.19450915 0.20099856 -0.18956055 -0.32149506 -0.32490465 -0.17341653 0.14558396 0.24153742 0.12394832 -0.2643518 -0.12755647 -0.3008545 -0.38800395 0.10151806 0.2514465 -0.022209138 0.58375156 0.5736329 -0.15283206 -0.27523032 -0.34472993 -0.032491304 -0.20554559 -0.25043038 -0.048189845 -0.74849755 -0.4455535 0.057051465 0.67276734 -1.2061031 0.7794232 0.22444469 0.052941915 -0.4043511 -0.4287808 0.46837327 0.62624866 -0.19625637 0.123628594 -0.32140598 0.7397334 0.39699414 0.1614361 0.4826059 -0.24280192 -0.10721133 -0.65087634 -0.5508559 0.27188614 -0.24379173 0.34746596 0.19878346 0.6343652 -0.3137403 0.470971 0.3705921 0.14764881 0.34096602 0.50522596 0.31772694 0.9897593 -0.38942906 -0.16070129 0.9384413 -0.377952 -0.21066913 -0.009805609 0.3263199 0.41851878 0.067999646 -0.040344328 -0.52253556 -0.16137312 -0.098588064 -0.7630545 -0.98561233 0.2980392 0.58255094 0.011796489 0.59591407 0.08345936 0.11683978 0.06838887 -0.3257764 0.61845255 0.9784924 -0.6900255 0.3317034 -0.07048498 0.16242978 0.029497236 0.016229862 0.70023936 0.1192077 0.5610925 0.106392965 0.24102594 0.02703476 0.60810304 -0.5179756 -0.03937713 0.09482079 0.5588933 -0.058593217 0.035357557 1.0526686 -0.21665925 0.72791547 -0.5781529 0.025684573 0.19196117 -0.4523823 0.10966994 0.089177534 -0.22287244 -0.010609068 -0.61037964 0.40225506 -0.15822844 0.7363878 0.26242176 -0.7523291 -0.22519968 0.16040012 -0.26347852 -0.23129062 -0.13641897 0.36004135 -0.14086448 0.1477365 0.3840256 -0.22134946 -0.30142236 -0.12708345 -0.10585607 -0.99693346 -0.44681954 0.10343231 0.21076605 -0.56066936 -0.7881433 0.23903552 -0.47208264 0.46482262 -0.53167564 -0.33719277 -0.31479356 -0.20486246 1.1852448 -0.24861474 -0.45643768 0.4778639 0.23621404 -1.3207994 0.30553767 0.82847553 0.17910296 0.35266528 0.23413682 -0.027661886 0.548191 -0.20683384 0.38450813 0.20403501 0.083411224 0.67116505 0.18847628 -0.69149 -0.21824212 0.19405425 -0.7659008 -0.39482144 -0.09375073 0.35767794 1.0678202 0.021125052 0.044964265 0.3007541 -0.64128876 -0.3362409 0.30755854 -0.015383114 0.065376624 -0.24406047 -0.36554208 0.7612238 -0.066070214 0.49828637 -0.22571908 0.44943994 -0.72470015 -1.0161585 0.24685241 0.26405454 -0.27828503 0.15506707 -0.38108644 -0.06694755 -0.2155005 -0.45533502 -0.30011114 0.43380713 -0.14309725 -0.3602901 0.39820337 -0.06302947 -0.095908046 -0.5915974 -0.4219557 0.9979631 0.28792334 0.24217263 0.24055007 -0.80326915 -0.17261067 -0.12968308 0.31414977 -0.13995227 0.6393383 0.19370311 -0.4308932 -0.3065477 0.0840557 -0.57598394 0.09645625 -0.07140056 0.7330341 -0.32227775 0.9920871 -0.4120769 -0.42832705 -0.11911428 -0.21033017 -0.0113923345 -0.53678584 -0.13394178 0.25732207 0.40757966 -0.3474321 0.35270154 0.25596952 -0.19584107 -0.12420648 -0.4662242 -0.4799086 -0.5117255 -0.04414505 -0.27162817 0.19066337 -0.6950212 -0.1730428 -0.36465174 -0.012351576 -0.0036011636 0.019180287 -0.17876986 0.22958839 -0.34683806 0.13834803 -0.69529426 -0.60404605 0.5165225 0.3710926 -0.17010264 0.331104 -0.008466804 0.13503724 -0.08603888 -0.18949835 -0.008013532 -0.17190763 -0.22305231 0.9283001 0.24269553 -0.20210348 0.8302552 -0.098456085 -0.015449163 0.60319644 0.49265745 5.9969723e-05 0.662924 0.04547185 -0.05181037 -0.67523926 0.9751674 -0.58707136 -0.7377241 0.23092866 -0.83240944 -0.116786756 -0.5689306 0.10368816 -0.3648512 0.0113862045 -0.051871087 -0.26983353 -0.12096579 -0.15804136 0.05903637 -0.22543494 0.30090362 -0.04438463 -0.00083119795 0.14885661 0.24576382 0.16622831 -0.0012708306 0.23430222 -0.24519488 0.69128716 0.019844867 0.3664664 0.39516804 -0.07675847 -0.12602499 0.27132252 0.35387978 -0.39494973 -0.2078763 0.052441128 -0.14045891 0.16349968 0.082165405 0.14614388 0.20046456 -0.8152355 -0.1917777 0.09950779 -0.19465141 0.8886229 0.071588024 -0.52616596 -0.21560504 0.07097014 -0.35912922 0.38994083 0.1580769 -0.14276522 0.376637 0.32754433 -0.5237351 0.16727783 0.24044442 0.5537578 0.45166653 -0.35757962 0.351046 0.56027 -0.24346295 0.32110175 -0.23894355 -0.8028121 0.08770401 0.15032078 0.29752177 0.6723822 0.21716547 0.10876949 -0.41872266 -0.23744115 -0.1691044 -0.013420545 0.11643802 0.21880311 -0.00072626886 -0.18157719 0.33804074 0.22774522 0.48953432 0.16118403 0.78099656 -0.27689135 0.6486444 -0.2993152 -0.19279097 -0.33680174 0.537806 -0.18537803 -0.23819752 0.30664808 0.1608775 -0.33263475 0.08269953 0.6856983 0.38796636 -0.004066243 -1.033895 0.38485155 -0.34601256 1.0816642 0.027840728 -0.018796269 0.07924801 0.5866316 0.672467 -0.35058823 0.4709579 -0.6125104 0.10748579 0.18330981 -0.27192298 -0.068474054 0.61611545 0.11910665 0.32231686 -0.14753173 0.029519217 -0.43991062 -0.0025476124 0.44909284 0.29400197 0.1944472 -0.05132465 0.4788988 -0.07957994 0.280853 -0.78120583 0.44386047 -0.10717878 -0.16838633 0.59143215 -0.17062071 -0.45700702 -0.1751213 -0.77071553 0.8774232 -0.06942851 0.10944106 0.107551396 -0.471845 -0.54312515 0.55381185 -0.26709867 -0.25567326 -0.11412178 -0.13168201 -0.24082558 -0.2901755 -0.28922144 0.10662383 0.79568785 0.52236956 0.5004286 -0.05819236 0.17280734 0.23158917 -0.35161012 0.8235682 -0.28531346 0.15774655 -0.043142073 -0.39194852 0.20082076 0.366106 -0.0084185 -0.48863307 0.68253016 0.92612195 -0.2231032 1.0103933 0.20251143 -0.4624144 0.21776956 -0.35364783 -0.23861575 -0.40926608 0.13377228 -0.2849154 -0.02474323 -0.23630175 0.41883013 0.1933334 -0.3035817 0.035217844 0.3342492 0.49512732 0.60586697 0.100960225 0.22338489 -0.46333194 0.5646884 0.83069783 -0.41668928 0.5119484 -0.70266706 0.23592848 -0.010235756 -0.34070855 -0.30739078 -0.74478686 -0.21416104 -0.000585692 -0.18329151 -0.5411295 -0.6564313 -0.005119715 -0.6194019 -0.3337066 0.062369943 -0.13649969 0.054639753 -0.570698 0.28205454 -0.0077259913 -0.14535904 0.4399806 -0.46185493 0.57894444 -0.5626937 0.259714 -0.21825394 0.050261315 -0.51468813 -0.13616388 0.026663598 0.42529398 -0.7312849 0.15172568 0.064057365 0.4440406 -0.21335632 0.7190609 -0.44524342 -0.29885623 -0.27883568 0.21465191 -0.140017 -0.35361898 -0.033768788 -0.16679595 0.0053973934 0.30227324 0.63554263 0.6923836 0.38968584 0.04130227 -0.03145989 0.1583329 -0.108091876 -0.7120871 0.39294875 0.15299743 -0.82088417 -0.038539514 0.2654323 0.078831404 -0.04966047 -0.4756349 0.25035834 0.14310522 0.103299916 0.06778968 -0.030878637 0.08681989 -0.12321814 -0.8485763 -0.19596519 0.7101694 0.6382406 0.3629209 -0.291344 0.44150278 -0.13781433 -0.40176332 0.6888157 -0.09378438 0.038768534 0.34852788 -0.5532026 -0.24274115 0.43411046 -0.6620335 -0.2585197 0.29932198 0.058363505 0.46947712 -0.04863801 0.15431549 -0.3431933 -0.4751666 0.15774757 0.3932163 -0.24122354 -0.19820893 0.084210165 0.16241507 -0.314942 -0.5366256 -0.76245064 0.23343605 -0.44347808 0.37677696 -0.47475916 -0.07159328 -0.84321326 0.6468761 0.5584942 0.2524564 -0.10037692 0.4188161 -0.37385753 -0.49266803 0.16017006 0.2095732 0.20630458 0.21742877 0.41097632 -0.05747772 -0.28369933 -0.14138176 -0.370569 -0.60391295 0.005836102 0.6028103 -0.061072204 -0.82367927 
94화_잠은행上/94화_잠은행上-033.xml -0.6269038 0.36655125 -0.34415027 -0.39434743 0.028309543 0.031675216 0.15509555 -0.029315572 -0.32231665 -0.29608953 0.0226718 0.35128745 0.4614715 0.551821 -0.40308282 0.060988944 -0.0075212917 -0.056813058 0.16244832 -0.25536552 0.33976907 -0.17684588 0.22564244 -0.5129076 0.042878896 -0.40362713 0.3191234 -0.33770317 0.16249907 -0.21556252 0.4325691 -0.03875939 0.18700854 -0.39039 -0.18442193 0.008466182 0.077851966 0.2429899 0.15220879 -0.5713715 -0.14117786 0.22810297 -0.14391862 0.25620377 0.08348672 -0.08587598 0.027601158 -0.24539492 0.04849778 0.11031928 -0.15791667 0.4007617 -0.36980057 0.45398682 -0.099624895 -0.24425398 0.17865267 -0.089663535 -0.19031422 0.22576672 -0.1021833 0.099420935 -0.21688354 0.19282499 0.0027385156 -0.3808236 0.038485058 -0.028967759 0.01032733 0.14243808 0.20456427 -0.46557617 0.14747004 0.26992017 -0.08602627 -0.07407807 -0.033494934 0.056203358 -0.33551645 -0.36489245 -0.1880419 -0.14673059 -0.25330484 0.26548094 -0.24025469 -0.1240143 0.09963445 0.36433935 0.5046467 -0.20596498 0.16941473 0.13814919 0.16645947 -0.23314492 -0.1767488 -0.44139284 -0.15948333 0.17620914 0.07893818 -0.049589932 0.06990287 -0.16606662 0.16168682 -0.18637358 0.24080162 -0.082179174 -0.07432883 0.030849284 0.32667285 -0.06930821 -0.28710595 0.5643257 0.024334839 -0.15946524 0.027432492 -0.10209994 -0.21157622 -0.360075 0.2431777 -0.14225525 0.2148327 -0.087252066 0.0774325 -0.2045844 0.21786714 -0.43620032 -0.26705348 -0.18889245 -0.1695333 -0.017422026 -0.13158038 -0.35574144 0.12555157 0.2508902 0.4779559 -0.0043625287 0.4194374 -0.06899418 -0.14203328 0.14373289 -0.012599964 -0.07220309 0.4636719 -0.29431683 -0.034234297 -0.24470083 0.013724497 0.13412495 -0.03267628 -0.1901249 0.15579945 0.30907485 -0.031000152 -0.20892563 -0.38526642 -0.3309063 -0.44140637 0.047777258 -0.09142372 0.1279386 0.041896775 0.19690554 0.012904495 0.04205837 0.15413779 0.15144727 -0.27472973 -0.41959438 0.2582744 0.07602661 0.0001373887 -0.15472147 -0.20071678 -0.23122993 0.45416903 0.09234524 0.07418424 -0.2754286 -0.002084685 -0.13657407 -0.2439143 -0.06842445 -0.08510321 -0.60418 0.25771472 0.016130334 0.29300502 -0.5827857 -0.26108962 -0.45328566 0.22447185 0.091047786 0.18177895 0.46832174 0.37129578 0.11881302 -0.28049535 -0.021244569 0.4669587 -0.1578944 0.37346476 0.4687149 -0.076140136 -0.3153345 -0.02964299 -0.17409933 -0.10323113 0.13159186 -0.069661096 -0.06229355 0.27993464 0.09419718 -0.16912882 -0.22954687 -0.29453418 -0.043136977 -0.008525173 -0.20133732 -0.47226208 0.109333724 0.33587617 -0.110983394 0.07305066 0.080796316 0.17568514 -0.015407483 0.07237127 -0.17908429 -0.26140934 -0.09504442 0.25573903 0.084604755 -0.51370645 0.17555282 -0.024771053 -0.08330002 -0.09820907 -0.13242331 0.086758934 -0.2481753 0.108147696 -0.23022297 -0.09329557 0.07099302 -0.17350426 -0.011852533 -0.100129366 0.030999694 0.025442738 0.08373265 -0.051494546 0.55143154 0.32736555 -0.098567866 -0.023207098 0.08402757 0.26882595 -0.48089683 -0.2270709 0.0026883385 0.37943292 0.49649477 -0.32022226 -0.03491784 -0.22809222 -0.14011702 -0.1757695 -0.057617676 -0.034992203 0.004235844 -0.0028029582 -0.16479799 0.022198996 -0.29585096 0.41794023 0.30931342 0.12986195 -0.433089 0.2411726 0.035460882 0.082887284 -0.37091333 0.24665383 0.014250061 0.26949054 0.037717056 0.28857717 -0.047701012 0.32247996 -0.22747087 -0.06998612 -0.24019131 0.23265752 0.02880482 0.029372415 -0.35066247 -0.005359809 -0.027730674 0.04094396 0.022466376 0.25593618 -0.22970596 -0.048138283 0.34334636 0.20407633 -0.03293587 -0.30865937 -0.15505981 0.11221653 -0.23411396 -0.018516626 0.2822994 -0.11184327 0.29981744 0.12069842 -0.3955261 -0.40477276 -0.047890823 0.75087994 0.1639617 0.38095292 0.4564588 -0.22200716 0.37622938 -0.2695134 0.034975514 0.003438463 0.114342675 0.0071727885 -0.17399365 0.074138895 0.38702512 -0.48990688 0.19864964 -0.15279573 0.3384139 0.18629245 -0.24969697 -0.054148506 -0.033798628 -0.41528141 0.004778679 -0.039857965 0.20575164 -0.13860595 0.23032437 0.5905787 -0.22228757 0.5622814 -0.035828106 -0.19276331 -0.6396189 -0.07100144 -0.55267245 0.053551257 -0.39228803 0.02944403 0.36008608 -0.39684713 -0.044901475 -0.1995883 0.0636965 -0.254694 0.21818501 -0.1776052 0.26752198 -0.31381673 -0.072501116 0.1008203 -0.29067895 -0.13383411 0.10228728 0.1576166 -0.049334347 -0.40165734 0.27765387 -0.23132369 -0.10397743 -0.22479796 -0.20527814 0.30206192 0.1536971 -0.13761477 0.12287425 0.29454345 0.2411834 -0.21910805 0.20151584 -0.12874788 -0.097379744 0.03505128 -0.18775916 -0.15944412 0.27726108 -0.058670774 -0.027275061 0.11646584 -0.28567466 -0.117385976 -0.25956163 0.16351297 0.116120294 -0.081661105 0.16654919 -0.062334638 -0.18451332 0.27921924 0.09489581 -0.26234487 -0.4965348 -0.37532005 -0.18513243 -0.1596903 0.38932127 0.3748148 0.2781552 0.38508058 -0.1535757 0.35904592 0.03055959 0.02173325 0.2933509 -0.59337616 -0.15172619 -0.04259841 -0.090521485 0.2744751 -0.03898456 -0.051558 -0.11584305 0.13405396 0.04047827 -0.19980314 0.1749036 0.09789854 0.24755202 -0.044250757 0.044112455 -0.45020983 -0.11122839 -0.31540245 0.10246071 0.15305793 0.17360851 0.2558357 -0.38450631 0.0052572987 0.4327472 0.13106863 -0.23068345 -0.10906839 0.68056476 0.37048274 0.01789343 -0.020705085 0.12939781 0.1147331 -0.12330258 0.06471815 0.060569912 -0.10653337 -0.27562147 0.061947238 -0.11172877 0.28278643 0.22553262 0.0078019327 -0.21491289 0.026149001 -0.080428064 -0.19699141 -0.052913934 -0.22352783 0.38266167 0.2981696 0.09696515 0.14673609 0.09420088 0.1173601 0.38015223 -0.2179746 0.30031154 0.14915696 -0.2596093 0.06602745 -0.011522919 -0.40667993 0.0939815 -0.028397903 0.17052631 0.22055459 -0.040680896 -0.09773047 0.1883997 0.29019582 0.38688573 -0.19155142 -0.18868798 -0.36586267 -0.20832118 0.26013038 0.07096735 0.32286486 -0.21859853 -0.09093641 0.46543968 0.27564114 0.10484244 0.1041287 0.1737149 0.15203995 -0.50923085 0.24564704 -0.000530916 -0.25006306 -0.25915188 -0.10562863 -0.12525892 -0.06933116 -0.01370095 -0.24012779 -0.09690234 -0.16651873 -0.13395375 -0.038013007 0.40459487 -0.098377615 -0.14387 -0.09796883 -0.3463208 -0.21345793 -0.41007453 0.023364186 -0.0008924703 0.17684352 0.17090058 -0.17508426 0.40045995 -0.17836449 0.21324953 -0.10760417 0.10016766 0.008758278 -0.040630084 -0.09297927 -0.029885165 -0.3825731 0.42292178 0.0314508 -0.057969734 0.0063926405 0.19008064 0.03702406 0.043589607 -0.27837604 -0.103650086 0.22415993 -0.017900502 -0.40513688 0.08966958 0.016538015 0.023401013 -0.10430094 -0.29942274 -0.084340274 0.16504344 -0.08575409 0.081340276 -0.12973347 0.13842347 -0.5508326 -0.13779847 -0.074535914 -0.16352384 -0.050020188 -0.08114002 0.11388334 0.2750919 0.020514082 0.33798546 0.34295258 0.2949584 0.0923934 -0.14826477 0.25189424 0.058279008 -0.08927219 0.33661208 0.027043229 0.079185635 0.16620696 0.20693152 -0.0031898222 0.110063426 -0.21749328 0.32932967 0.16666864 0.3336235 -0.0954909 -0.11474739 -0.19216838 0.19651186 0.13189094 -0.0622832 0.18567555 0.3237641 0.28069943 -0.19049847 0.07852352 0.0767508 0.058671977 0.27371818 0.09967424 -0.04656702 -0.18882374 -0.1275529 -0.07938568 -0.088711284 -0.24120441 0.35546193 -0.17296967 0.32973334 -0.088070214 -0.07527964 -0.04601295 0.0062769926 -0.2605654 0.33122358 0.14263886 0.31938896 -0.090256155 -0.08297906 -0.14169295 0.002052953 0.14097722 -0.21764565 -0.02241832 0.12900448 0.12948152 -0.07249175 -0.13848032 0.035002246 -0.1798557 0.03951609 -0.055285033 -0.20648591 -0.08233735 0.15298036 0.035580657 0.18853334 0.31189594 -0.07115996 0.017855048 0.23003504 0.06630316 0.4025285 -0.3506601 -0.03636407 0.089249246 0.40546462 0.2530174 -0.037093323 -0.21750472 0.055740945 0.25623968 -0.043809008 -0.0024212203 0.021048516 0.08787514 0.35717747 0.15096831 -0.24085161 0.4000104 0.107277885 -0.2693478 0.32676995 0.22951755 0.20827174 0.29229328 0.14282924 0.16117172 -0.07577987 -0.010477006 0.089298725 -0.3684388 0.0041353554 -0.07174927 -0.079725236 -0.1822962 -0.34501767 -0.10533939 0.108916864 -0.23055005 0.30644494 0.019435974 0.27873835 0.0348473 0.49338794 -0.15958533 -0.21107334 
