32 700
94화_잠은행上/94화_잠은행上-020.xml 0.0029276446 -0.18722452 0.41889045 -0.0025969248 0.1483548 -0.09784133 -0.051321656 0.36280096 -0.096386194 0.19654731 -0.27266225 0.17028295 0.0028804727 0.2542647 -0.072775625 0.033549942 0.06950712 0.13874641 0.01028678 0.010367478 -0.1785478 -0.03322634 -0.20488463 -0.023901401 0.07754808 -0.028874699 0.19883756 0.13529284 0.105620794 0.067465775 -0.083425276 0.2769074 -0.22070923 -0.01887124 0.090436496 -0.1451517 -0.04735392 0.19391128 -0.17160448 -0.34180674 -0.037213817 0.109496154 -0.09997662 -0.13161522 -0.36442658 0.10029446 -0.076425016 -0.011175188 0.0690369 0.2795703 0.07246988 0.12746763 0.05179158 -0.047131963 -0.21923856 -0.034646712 -0.1541364 0.1447598 0.27555537 -0.12448305 -0.045077827 -0.024472877 0.050528437 0.36000615 -0.104745805 -0.018935584 0.033176582 -0.10127272 0.011514122 -0.023568988 -0.04308935 -0.020163624 0.207797 0.074245356 -0.13670118 0.1643141 0.29257315 0.056894984 -0.0017751156 0.08935393 0.054152686 -0.06796902 0.16120146 -0.31130818 0.12476178 0.055209316 -0.1507145 -0.08232273 -0.02091512 0.004167983 0.06029761 -0.04530518 0.11254477 -0.21951726 -0.22784884 -0.10292826 -0.068499476 0.395905 0.16399984 -0.1345558 -0.004608369 -0.048970383 0.04678423 -0.13999385 -0.00026955176 -0.068260625 -0.059916425 -0.016027967 -0.17751528 -0.08810994 0.18415348 -0.37596303 -0.17886381 -0.11771814 0.1445713 0.04350001 -0.049544826 0.10095767 -0.37775707 -0.14276682 0.04145871 -0.30504984 -0.018180741 0.2461156 -0.045340996 -0.15186279 0.070631586 0.025478775 0.017941898 -0.014184338 0.03617314 0.030534325 0.058556445 -0.163017 0.02198298 0.10943377 -0.112665825 0.08954071 -0.013406783 -0.21490403 0.035869382 0.12370171 0.09428614 -0.29023615 -0.066514924 0.08368661 0.086187124 -0.103487074 0.14919299 0.14438103 0.026383577 0.23509672 0.049487177 0.1421424 -0.013922957 0.20961192 -0.26513958 0.0053519197 0.17540567 0.081535414 -0.046283513 -0.23085761 0.09897436 -0.07792192 -0.100273326 -0.018747076 -0.1389603 -0.10919352 -0.29379162 0.17091519 0.27417454 -0.14308509 -0.004487269 0.07890167 0.04992 0.04500684 -0.11285819 0.063000746 0.070711814 0.025862856 0.19809765 0.10184214 0.11039951 -0.3060882 0.130911 0.07798871 -0.019009093 -0.16599129 -0.02672715 0.06342916 0.024520535 -0.071913876 0.07381512 -0.24004279 -0.11824777 0.15023136 0.24530803 -0.108979166 -0.060812484 -0.13839747 -0.095283024 -0.21316011 -0.007110063 -0.022310605 -0.11957067 0.13450249 -0.2908731 -0.18966459 -0.13554876 0.2934303 -0.070368774 -0.1266023 -0.040909857 0.0015632551 -0.12757343 0.06996517 0.08286672 -0.09312857 -0.15476896 -0.013341578 0.22191155 0.05486154 0.1085458 -0.03267893 -0.04339729 0.06968148 -0.28676626 -0.23194902 -0.0796677 0.008517215 0.27188465 -0.07684571 -0.13710754 0.27844393 -0.076564945 0.10613413 -0.04396453 0.21442404 -0.19229324 0.008143988 -0.006919719 -0.056886084 0.05564589 0.17523932 -0.00501474 -0.023772312 -0.080868356 0.094564356 0.02545545 -0.17799412 0.1279665 -0.11756685 -0.25052753 -0.18140903 -0.118574254 0.0140574565 0.15927084 0.06467806 -0.05310862 0.18588279 0.13045548 -0.03561425 0.28674325 0.25667962 0.18264987 0.05569618 0.028199662 0.053458877 -0.0073635913 0.0063828523 -0.056560334 -0.0482925 0.12998556 0.17495541 -0.15277873 -0.107334174 0.22069712 -0.048026815 -0.0025897354 0.0741491 0.046626065 -0.12480761 0.03179058 0.103315234 0.04006079 -0.032378566 -0.027679546 0.18254833 -0.25274912 -0.071011215 -0.27312657 0.14463502 0.07581387 0.013903404 0.03665349 -0.113133945 0.00780929 -0.014301302 -0.019441104 0.12288288 -0.01360016 0.03723075 0.060796946 -0.1342619 0.033010144 -0.17546754 -0.17522755 -0.051580757 0.034588724 -0.17262197 0.049084507 -0.16734834 -0.1631904 -0.0064326758 0.04839286 0.31044582 -0.08745597 -0.11183101 0.19696712 0.06812014 -0.009422719 -0.16935158 -0.17968749 -0.019586977 -0.19103704 0.06903214 -0.17256482 0.05048815 -0.16647103 -0.010733184 -0.12790005 0.10807901 -0.08887043 0.08232825 0.07165329 -0.0062504397 -0.013039303 -0.013479087 0.007888931 0.04626759 0.161265 0.081676826 -0.22608046 0.20227502 0.09482142 -0.15234102 0.09767643 -0.05262638 0.09534539 0.04053161 -0.032985326 0.060190152 -0.04752345 0.2043958 -0.078861475 -0.10742843 0.0017175016 -0.05630532 0.26000035 -0.077595495 -0.13504 0.25373664 0.13215266 -0.027301354 -0.16497308 0.0960874 -0.056470018 -0.16727783 -0.083187394 -0.016875464 0.05030048 0.11385504 -0.01513944 0.13776445 0.16157019 -0.029359847 0.08400195 0.25029442 0.20885737 -0.1252033 -0.05792254 0.07591297 -0.12320173 -0.2562416 0.12892596 -0.15215437 -0.083719 0.027299348 -0.32248124 -0.09258594 0.104427114 -0.17266859 0.06649139 -0.06178875 0.0015208124 0.12175484 -0.13226224 0.022801124 -0.13984449 -0.10952158 -0.07610973 -0.09792192 -0.18167184 -0.15975271 0.027200291 -0.4328293 -0.25179476 0.034680624 0.008083889 0.01955506 0.21891771 0.05164667 -0.049294207 0.10567089 -0.012913897 -0.12303453 -0.093782485 -0.10363565 0.041452896 0.026471067 0.0035522159 -0.028043246 0.21387246 -0.27782324 -0.083373174 -0.03395943 0.008371031 -0.06792868 0.072766095 0.17080173 0.0059665362 0.10159891 -0.14251103 0.039808195 -0.05664714 0.23976238 -0.07831607 -0.009561246 -0.076784 -0.26928052 0.044336405 0.06758087 -0.046269502 0.2834554 0.05316307 -0.2967187 0.27503455 -0.049976148 0.17044693 -0.09214376 -0.12326157 -0.076979764 0.25228012 0.095508896 0.34703484 0.34901258 0.039710466 0.096911035 0.1685214 0.3056497 -0.0532669 0.10140189 0.1449031 0.19843218 0.11383889 0.050647892 0.13362335 -0.14620775 0.0063405023 -0.21403351 -0.14419304 0.22413026 -0.24904393 -0.048190694 -0.040859923 -0.26389644 -0.09487587 0.11045148 0.1846454 0.05572356 -0.15941039 -0.08006027 0.144992 -0.038495388 0.14823845 -0.091579996 -0.20052338 0.0729739 -0.1232213 0.22743182 0.25203133 -0.013092624 -0.08130302 -0.061779577 -0.083311245 -0.013218737 0.22475182 0.06531497 0.007331467 0.015544513 0.24399483 0.26603696 0.094062746 -0.04222764 0.2199363 0.1043494 0.09842388 -0.14469396 -0.15383218 0.11907301 0.22343412 0.3544721 -0.18971369 -0.06390977 0.258423 -0.023013463 -0.19611627 0.12089538 0.04760502 -0.023834547 -0.061270367 0.09227292 0.025303772 0.33965865 0.044405647 0.04674272 -0.16787778 -0.15785164 0.0018236248 -0.037054062 0.012646647 0.17929843 -0.22917433 0.06279046 -0.06556266 -0.06518069 -0.032372158 0.061675455 -0.19813737 0.04986964 0.11078211 -0.018030321 -0.032644298 8.249395e-05 0.0660351 0.28554 -0.105882786 -0.036937486 -0.3955092 0.1118945 -0.102834895 -0.10068118 0.090906374 -0.24588752 -0.06534098 0.103864394 -0.12640488 -0.012443229 -0.23078096 -0.03788381 0.0015242946 -0.036216628 -0.015734076 0.048343588 -0.096471496 0.036896087 -0.2999324 0.07799682 0.080678724 -0.17312536 -0.16221695 0.122553006 0.44657785 -0.08773389 -0.12648638 -0.11427952 0.36643484 -0.111916065 0.26470444 -0.20024708 -0.06760873 -0.04314793 0.016486917 0.009960368 -0.16227631 0.18516654 -0.037593286 0.096740805 -0.25372925 0.023240073 -0.020173958 -0.16076228 0.016143579 0.07274368 0.3252051 -0.04540279 -0.15840177 0.29868278 -9.5130716e-05 -0.028943533 0.08975799 -0.0018394875 -0.08042906 0.052034874 0.14111672 0.20588937 0.07712608 -0.19395868 -0.044630855 -0.17071076 -0.14839093 0.2760122 0.3006978 -0.080503136 0.15726972 0.34726438 -0.17679065 0.015501666 -0.16171056 -0.055805564 0.13773344 -0.30014881 0.14544848 0.06577461 0.047920614 0.36303955 0.0622913 0.08004404 0.05849987 0.19998012 0.15442576 -0.23198526 -0.28240314 0.15896992 0.08130131 -0.08389565 0.26751718 -0.06919915 -0.18820919 0.40111217 -0.017116072 -0.24945362 0.071115755 -0.23941489 -0.22225848 0.06848632 -0.13957204 0.348512 -0.22058873 -0.26883912 0.14885798 -0.029866967 0.04955157 0.2232327 -0.075057454 0.13949075 0.10143196 -0.11395937 0.017184686 0.18060857 -0.16501682 0.14417319 0.14137779 -0.19631775 -0.34131524 -0.16392007 -0.27207986 0.10493938 0.076075666 0.19890764 -0.27716312 -0.12882888 0.11505391 -0.19513856 -0.1998757 0.14076349 0.037041467 0.2813054 0.112879984 -0.09752783 0.31371015 0.19014543 0.05852079 -0.25782424 0.17615801 -0.024592604 -0.013382881 0.14232767 0.3441255 -0.013489951 -0.17546086 -0.04162642 -0.0054601626 -0.29091668 -0.039093304 0.06574195 0.08178221 -0.05621106 0.054834154 -0.022981254 
94화_잠은행上/94화_잠은행上-005.xml -0.04612919 0.1560431 0.10770573 0.021629168 0.0394258 -0.2508572 -0.0860547 0.01610494 0.1584399 0.022977365 -0.13537166 0.07542527 0.00010010352 -0.04978902 -0.17948942 -0.18477759 -0.11538329 -0.07118531 0.16339041 -0.15791237 0.016600221 -0.23653267 0.16532463 -0.18255219 -0.0085348 -0.08276413 0.17155491 -0.006881699 0.16555601 -0.07479857 -0.03542087 -0.10053026 -0.09581055 -0.03702361 -0.031351354 -0.049615502 0.19482693 0.0038668364 -0.20035104 -0.3120993 0.04128298 0.3649637 -0.12598765 0.048884496 -0.09525838 0.08314044 0.014578121 -0.0021100056 -0.07283502 0.053057235 -0.04090132 -0.1241202 -0.3119039 0.1414244 -0.15602349 0.067790054 -0.078459635 0.042502075 0.13637047 0.16446015 0.14036022 -0.016063064 0.15714976 0.17771052 0.1534369 0.116852924 -0.048549484 -0.003893619 0.10319757 -0.2259485 -0.10262255 -0.037686285 -0.30206358 0.0018261032 -0.22309488 0.09500834 0.06186275 0.18999004 -0.13674976 0.041522734 -0.07281465 0.02449482 0.34546825 -0.17640471 0.010188449 -0.07058237 0.029108282 0.12582546 0.04168939 -0.033536315 -0.02527064 0.03458963 0.11947532 -0.21485373 -0.027638718 -0.040933125 -0.07424649 0.02524909 0.18220654 -0.1486713 0.090058856 0.12923405 0.081197545 -0.14637792 -0.021206524 0.11276414 -0.11014411 0.22991613 -0.17862207 0.0072376765 0.04301185 -0.023935614 -0.15725988 -0.17975867 0.010742901 -0.16375665 0.14868368 0.06507309 -0.32487258 -0.12280305 0.03365902 -0.21615987 0.06399912 0.2933371 0.042589962 0.04711871 -0.12899184 -0.06939754 0.10127112 -0.023409475 0.019973716 0.08100551 -0.057310876 -0.07974064 0.096624926 0.17997581 -0.011434421 -0.052698083 -0.05342318 -0.24086957 -0.090276 0.09280946 -0.0037710043 -0.0680217 0.047270328 -0.122189 0.1531138 -0.0042181304 0.036104903 0.052351784 0.009608822 0.019585326 0.06850906 0.23690236 -0.13634203 -0.05786834 -0.15816891 0.06824612 0.11954125 0.02096045 0.10840148 -0.14204678 0.16122356 -0.012199264 0.12154347 0.07269354 -0.026645415 -0.101251304 -0.009765404 0.029108426 0.060121633 -0.07851422 0.036710955 -0.11473554 0.16183081 0.0693406 0.15499833 -0.06933417 0.009891786 -0.01380451 0.13010527 0.026382085 0.03766177 -0.21023147 -0.034037977 -0.00066159293 -0.08054917 -0.10962515 -0.17999272 0.054754525 0.11625905 -0.1764327 0.056425415 0.105860844 0.060995236 0.12250419 -0.08054729 -0.08936118 -0.13480638 -0.14304 -0.17998475 -0.12224388 -0.032707818 -0.29165673 -0.2181528 0.06909709 -0.40079713 -0.055719912 -0.07192026 0.3604266 -0.23806414 -0.13570349 -0.16608661 -0.06548673 0.044909008 -0.033119574 0.084572576 -0.15951744 0.0052000075 0.17108312 0.12155791 0.045904897 -0.22397098 0.030255131 -0.09921835 0.05920612 0.0072454712 -0.20812444 -0.055866815 -0.046675406 0.14986627 -0.007680563 -0.18640122 0.15487587 -0.11569546 -0.12820755 -0.17040977 0.08347283 0.050327234 -0.065412864 -0.07892932 -0.1323693 -0.008859883 -0.076911 0.027819796 -0.01143617 0.085556164 0.09718229 0.23597476 0.037862707 0.020297367 -0.17349689 -0.12275906 0.102608725 -0.23564982 0.124677286 0.18827075 -0.070434 0.05513249 -0.12905383 0.34693944 -0.012973527 0.33983457 0.15528612 0.13850182 0.016976539 -0.1109252 -0.016092118 -0.07379236 -0.12068494 0.13015382 -0.112792864 0.1442533 -0.14572573 -0.22052662 -0.22796938 0.17071974 0.11829006 0.17353085 0.018053472 -0.005488356 0.11649935 0.06257971 -0.00032916665 -0.10003315 0.07797104 -0.021755157 0.0680822 -0.18756287 0.14415695 0.18108836 0.09859714 0.13875644 -0.15241504 0.186003 -0.03197933 -0.06280372 0.13754633 0.14409272 0.124081336 0.19506507 -0.04744504 -0.14115766 -0.002950117 0.12364665 -0.28739786 0.05298179 -0.08026884 -0.13541399 -0.19862139 0.15289518 -0.09430969 -0.13310575 -0.12112178 0.017043281 -0.105391994 -0.09288212 -0.027051978 -0.020064916 -0.030034175 0.08840563 0.03429621 -0.28170085 0.0243272 -0.09540119 0.24606586 0.03820893 0.16351297 -0.0784536 -0.051313534 0.0441381 0.079692334 0.04831217 0.2284457 -0.0061321286 -0.10787579 0.015464425 -0.19361684 0.01203656 0.23974133 0.073286474 -0.02099597 -0.16846573 -0.22371283 -0.10493742 -0.049326852 -0.02036222 -0.14011104 0.26795214 0.17357968 -0.08369915 -0.11918553 0.009390788 0.011028871 -0.05681502 -0.3108238 -0.02708922 -0.0158064 0.020689351 0.10826644 -0.0016224462 0.11830952 -0.06540862 -0.06264737 0.028456708 0.15303779 -0.07556991 -0.24228019 -0.07362393 -0.1307089 0.11636461 0.07083796 0.10906698 -0.0056476183 -0.01814054 0.1611461 -0.006219681 0.22633027 0.09636176 -0.16849855 -0.027488662 -0.24736845 0.15095532 0.14943649 0.066529945 0.016021848 0.011480745 0.10243982 -0.39317164 -0.04828059 -0.07617127 -0.15320313 0.10717729 -0.051514596 -0.22450861 0.0125580635 -0.19618873 0.136369 -0.048492115 0.027931027 -0.16679984 -0.00887673 -0.10826834 -0.072573684 -0.18249497 0.13250381 -0.006055682 0.041767687 0.061748695 -0.076320834 -0.177864 -0.26411688 -0.021387538 -0.038961954 0.15084843 0.021852072 -0.05032122 -0.091715276 -0.101900145 0.23312657 -0.04638169 0.00083077396 0.036259968 -0.042754903 -0.050985094 0.0066540623 0.023298634 0.012808999 0.21843116 0.13345674 0.08362468 0.095201224 0.10056828 0.000615092 -0.2304915 0.0817924 -0.041135933 0.112529606 0.027849605 -0.087030225 -0.0013668373 -0.0011126458 0.06293357 0.22033155 0.19429438 -0.28818592 -0.056411453 0.09936185 0.17458403 -0.061398294 -0.19806787 0.113075614 0.16507941 -0.08587015 0.18160284 0.13974434 0.036461473 0.26039636 -0.10413614 0.31772774 0.039288476 -0.0012647494 -0.003065033 -0.00862503 0.041196655 0.12510605 -0.14708969 -0.20611137 0.14063647 -0.046143323 0.020275032 0.084485404 -0.1584478 0.0026260815 0.025330223 -0.10535421 -0.035239227 0.014493236 0.15337245 -0.08226366 -0.20326833 -0.121914975 0.04200844 0.2092334 0.07643255 0.06342174 -0.11200898 -0.06927456 -0.0318944 0.1541542 0.07731852 0.060523193 0.229246 -0.15189937 0.053880922 0.015734993 0.14802964 -0.2580929 0.07761371 -0.056225277 0.26750034 0.0055508213 0.09493589 -0.2232552 0.25450367 0.07594707 -0.2990818 -0.107066 0.003847148 0.34307218 0.10768523 0.100881055 -0.17902315 0.10440628 0.06432405 -0.13602984 -0.105661206 0.006939593 -0.14823735 -0.14847231 -0.038485017 -0.13173145 0.16830479 0.108845636 -0.14820126 0.15675278 -0.016134504 -0.015544883 -0.085438 0.08978286 -0.1279855 0.04316319 -0.13656726 -0.03464839 0.14924246 -0.065278605 0.040477805 0.023149867 -0.026494732 -0.08874653 -0.22156464 0.09011328 -0.07943779 -0.12642619 0.1270253 0.1490957 -0.072714746 -0.021950295 -0.11713657 0.10152149 -0.00047927475 -0.07570802 0.04049642 0.1613715 -0.02446961 0.1143311 -0.03742735 0.14184198 0.14778635 0.036385354 -0.06522994 -0.0735554 0.026362792 -0.01989656 -0.16801165 0.10975246 -0.16950208 -0.011461882 0.1708813 0.19701746 0.08572845 0.081219 0.30407137 0.039105967 -0.1915051 -0.16316938 0.06898105 -0.022754773 0.020144809 -0.12356618 0.24620792 0.0004429482 0.10851817 0.19434366 -0.08571823 -0.004590067 -0.11523628 0.011194745 -0.12833942 0.1434136 -0.086683415 -0.0067345453 -0.040703636 -0.09772506 0.095209286 -0.10311454 -0.021895526 0.1008424 -0.27464217 -0.07578507 0.05993104 0.076989084 -0.032590553 -0.13685006 0.03874275 -0.14328358 0.02804543 -0.04254226 -0.1848759 -0.16063552 0.0035784543 0.2000051 0.02989023 0.078137174 0.21904814 0.24230635 0.037335575 -0.0038133725 0.0836128 -0.0028123693 0.03432156 -0.21989827 -0.17442986 0.08650659 -0.12302834 0.26884037 -0.053644925 -0.08826327 0.06269275 0.18230402 -0.049837403 -0.20941156 0.07975989 0.16450089 0.19716391 -0.03704343 0.07432911 0.08124353 -0.15280958 0.10622446 -0.05011625 -0.11204104 0.02149993 -0.034839325 0.04941687 -0.037995234 0.03898087 -0.1637817 -0.14473432 -0.19063655 0.08998331 -0.011671344 -0.14402805 0.2975063 -0.098762125 -0.003523571 0.034652345 0.033565268 0.093355104 0.13576522 -0.15353969 0.057500508 0.101628244 -0.11094081 -0.12254509 -0.035148785 -0.2665505 0.110654905 -0.010182573 0.046665814 -0.22846112 -0.20324074 0.33035576 0.026885211 -0.25256103 -0.1082535 -0.054147433 0.04460011 -0.018438686 -0.0781992 0.14245969 0.14419812 0.1705631 -0.18337616 0.12766051 -0.100773685 -0.09294462 -0.026988674 0.081950784 -0.17740993 -0.10140209 -0.16410929 -0.015819138 0.025609424 0.07540209 -0.11319853 -0.09096046 -0.03729318 0.017476197 -0.16124545 
94화_잠은행上/94화_잠은행上-028.xml 0.33696526 0.06536137 0.22652964 -0.117049545 -0.12917998 -0.20927335 -0.29427105 0.4271826 -0.3785056 0.09840178 0.31909698 0.3711301 -0.15400682 -0.21265988 -0.06896874 0.16774799 0.117572226 -0.20161135 0.051185388 -0.34889543 0.37524396 0.05739066 0.33615768 -0.14982903 -0.13355595 -0.27309397 0.20483676 0.0021635988 -0.49664736 0.05515948 -0.19562401 -0.26841003 -0.521555 -0.33459312 -0.32574683 -0.31887466 -0.19456641 0.024641274 0.020612061 0.14645827 0.03375172 0.021992974 0.2369383 -0.37454003 0.010896353 0.12317909 0.29214358 0.121668376 0.33149025 -0.11260675 0.0018575994 -0.08129758 -0.16066739 -0.008324792 -0.12848118 -0.2091228 -0.3293947 -0.4329547 -0.10946147 0.22256078 0.4203347 -0.11620739 0.16787387 -0.03568883 -0.3202567 0.10984554 0.1923498 0.05740662 -0.08523468 -0.10403384 0.1429189 0.32831037 0.39053085 -0.33252746 -0.31511343 0.06675186 -0.2921861 -0.09852011 0.05526783 -0.3351125 -0.23604214 -0.02172807 -0.23407716 0.14867014 0.187076 -0.48785767 -0.26883557 0.2809738 0.06988168 0.04670738 -0.04709431 0.13046679 -0.09773621 0.3324965 -0.3715679 -0.1947115 -0.3167178 0.54133105 -0.42246214 -0.0019700618 0.28960177 0.25086907 0.29529154 -0.37209037 0.31396836 -0.058554903 -0.32011718 0.112590976 0.0053035896 -0.25712296 -0.15473603 0.15201649 0.22948152 0.1709524 -0.28350887 -0.29365435 0.1183798 -0.102376744 -0.2644255 -0.21416302 0.4066212 -0.32632923 -0.17959318 -0.26419288 0.08021048 -0.22525604 -0.054806843 -0.025512928 0.3026773 0.18513256 -0.18588433 -0.036262743 0.28446606 -0.23110752 0.16162352 -0.004270087 -0.0697958 -0.02484879 -0.19061218 -0.11937555 -0.2208685 0.31663787 -0.00357121 -0.013909553 0.5003584 -0.12956832 0.5127933 -0.063872576 0.4361506 -0.5279857 0.11550648 -0.15043044 0.2140282 -0.12252584 -0.17399853 0.12164779 0.14032924 0.06006671 0.0037461887 -0.04125302 -0.061845526 0.0024240683 0.10748781 0.12771747 0.24979776 0.21828933 -0.2935874 0.027475307 -0.20986411 0.040250137 0.044135876 0.31553707 0.06066839 0.081771925 -0.15972787 0.33591312 -0.1112463 0.23910567 -0.08984317 0.037131626 0.324462 -0.40750545 -0.06490611 0.04698867 -0.32948 0.30669102 -0.010350106 -0.021521514 0.003091391 0.35704476 0.12009698 -0.015673308 0.564839 -0.3047601 0.30473292 0.21235673 0.22566792 -0.016315807 0.045671787 0.06380388 0.03262983 0.401315 -0.22381377 0.12157371 -0.21493006 0.20547326 -0.42874917 0.25386092 -0.28521073 0.37341005 -0.12099655 -0.2951259 0.1447953 -0.14703855 0.030483253 -0.24986857 -0.02574696 0.02724367 -0.03006189 0.2833172 -0.11314366 -0.16205943 -0.23969235 -0.08936354 0.15363899 -0.051294103 0.22192314 -0.38937297 -0.3181504 -0.07542251 -0.09347873 -0.14005917 -0.23067595 -0.073501565 -0.09950285 -0.31412172 0.19266014 -0.15271674 0.1958418 -0.23624457 0.06542884 0.4488302 0.020615492 0.06524097 -0.10626262 0.19602324 -0.18652217 0.33989212 0.37346876 0.14664887 0.49916148 -0.19419758 0.1913832 0.24707243 0.043537524 -0.15674062 0.11461642 0.18234695 0.28610545 0.1901916 0.27716565 -0.04567755 -0.10763991 -0.36737666 0.11086568 -0.20190579 -0.10710629 0.46406975 0.5300914 0.14920783 -0.015967 0.3348005 -0.09945933 0.17839488 -0.6254495 0.18195154 0.14494959 -0.18591358 0.121091194 -0.029093537 0.3894358 0.18818301 -0.16978809 -0.03556311 0.11496589 0.11532358 -0.31898594 0.35082713 0.0025909431 -0.08906696 -0.055143125 0.15594654 0.19921002 -0.2253236 -0.12555413 -0.07751731 -0.08393271 -0.291815 -0.30189177 0.17203003 0.19221343 -0.034803182 -0.104015954 0.19058481 -0.070859246 -0.0057540024 0.4206292 -0.10310586 -0.10670534 0.1868933 -0.20502526 0.2775913 0.0034383633 -0.16576058 0.40714157 -0.024927072 0.14847587 -0.0056200456 0.104192756 -0.18570766 0.009087619 0.029050212 0.01849047 0.027503552 -0.3357719 -0.18980137 -0.034078732 -0.47438815 -0.025021477 0.0061888197 -0.1961078 -0.23747279 -0.27902386 -4.169039e-05 0.0744283 -0.35096186 -0.30511424 -0.23299627 0.21085994 -0.02662108 -0.015043172 0.20254843 -0.33461538 0.1901997 -0.1182062 0.20949434 0.14375193 0.19634995 0.15036258 0.057321444 0.1410226 0.046506774 -0.037426136 0.1494103 -0.13653442 0.05100241 -0.06814994 0.14264335 0.094773926 0.3496831 -0.5924865 0.2415344 0.034165546 -0.379726 -0.28709757 0.06885352 0.070795745 -0.2863606 -0.016517857 -0.07167416 0.15538058 -0.11046924 0.12288568 0.13390453 0.13437726 0.25037748 -0.2954297 0.15102728 0.37464565 0.091880836 -0.28067538 0.5236474 -0.14174123 0.3486932 -0.38636842 0.017488742 0.06548636 0.09000041 -0.17455456 -0.15939493 0.13701178 0.13656239 0.2518078 0.027462007 0.02021177 0.10685659 0.090371765 -0.007107143 -0.26308295 -0.023579266 -0.053058527 0.4261151 0.27533826 0.21114859 0.1595498 -0.2282484 0.03035142 -0.18941061 0.2930845 -0.36945683 -0.2662077 -0.21409424 0.04965135 -0.37071812 -0.14834975 0.1453374 0.43473825 0.23468776 -0.1962958 -0.10025886 -0.025500916 0.24495587 -0.31520244 -0.21177332 0.4967236 0.15455502 0.4818001 -0.054540962 0.23252255 0.20754965 0.01867276 -0.23487794 -0.08025614 0.07333102 -0.10037235 0.13604294 0.25024867 0.26032087 0.040749233 -0.24158789 0.089456476 -0.37253717 0.29433703 0.19156066 -0.11149469 -0.3180964 -0.32391992 0.11663065 0.102956995 0.30205142 0.42032152 0.012964611 0.19927706 -0.1309859 -0.08315084 -0.18421191 -0.28387725 0.34222355 0.264472 0.32908362 0.071375996 0.042518828 0.054017078 -0.22023825 -0.27831054 -0.14446504 0.570959 -0.09459849 -0.546088 -0.22464964 -0.36822134 0.34499606 -0.21718273 -0.0025600307 -0.31464076 0.50466996 0.113699935 0.06304432 0.2526252 -0.527629 0.14045379 0.13266855 -0.27293387 0.5366268 0.26072162 -0.39036208 -0.013114444 0.5385919 -0.086485356 0.08900961 0.0019525492 0.28824434 -0.044179037 0.023262652 0.27519983 0.045893576 0.37317976 -0.071179904 -0.34308016 -0.13663077 0.07049894 0.2246553 0.23223287 -0.19026996 -0.30213127 -0.31811208 -0.12704284 0.16467099 -0.011716974 -0.009202595 -0.1286844 -0.28538895 -0.09213642 -0.13620494 -0.2524217 -0.18471822 -0.29060188 0.054948315 0.18041107 0.16156659 0.23863606 0.050637767 -0.13984314 -0.12106289 -0.27508914 -0.17485562 0.12136438 -0.17889662 -0.044092406 -0.0368071 0.33460256 0.14919339 -0.0073677218 0.10205252 0.38078922 -0.30870438 -0.2343309 0.07278853 0.39555934 -0.28912348 -0.06246224 0.00900118 -0.1850229 -0.048143055 0.3684211 0.45629272 -0.35653287 -0.43064582 0.36499804 -0.09325187 -0.19237567 -0.097556576 -0.44545397 -0.43107143 0.24110866 0.16234747 -0.19410469 0.16670252 -0.12859437 -0.06471085 -0.3449503 0.42303976 0.11635072 0.23588364 -0.03496267 0.4364633 0.34207553 -0.28446254 0.14793316 0.25846863 0.39129516 0.30103216 0.2203094 0.041755226 -0.5381782 0.11128042 0.4933771 -0.45171636 0.09161804 0.122829735 -0.2130033 -0.24105853 0.105798654 0.21860102 0.08530439 0.10117548 -0.05115084 -0.4726037 -0.38511854 -0.040207297 -0.21656051 -0.28847277 0.4375341 0.28243253 0.17767745 0.5093721 -0.0760677 -0.12302504 0.05041071 -0.29983535 -0.13751957 0.18397795 -0.1193379 -0.12030735 0.093493894 -0.13954644 -0.21759874 -0.116003394 -0.080266416 -0.27485615 -0.38578156 0.1464813 0.01578082 -0.050876655 -0.36347908 -0.25024086 0.082452945 -0.19543067 -0.17375244 -0.13790968 -0.28468484 0.1618685 0.35948557 0.3445572 -0.4748323 -0.24055916 -0.49400932 -0.29861808 -0.19922511 0.4034051 -0.10079535 -0.4469077 -0.08922407 -0.3789013 0.20062512 -0.266289 -0.16734633 -0.051120076 -0.018738009 0.33723804 0.14178967 0.10547695 0.195723 -0.09114932 -0.065573186 -0.11435086 0.10063145 0.15556547 0.1424663 -0.518093 -0.14314431 0.18210223 -0.024650257 -0.12551329 0.27364466 0.055556897 0.08434118 0.55113435 0.48717085 0.19987518 0.008387664 -0.015821043 -0.13809332 -0.14045118 -0.38827732 0.09304801 -0.43097693 0.09729771 -0.45786032 0.63858426 -0.6952453 -0.14498459 0.13886704 0.23251322 0.013575678 0.18311904 -0.116211094 -0.2595932 -0.12862915 0.2533101 0.087606266 0.39268455 0.15272562 0.23748323 -0.29942703 -0.016782792 -0.037923828 -0.16204058 -0.43723458 0.085054025 -0.16496818 0.011750173 -0.3617639 0.0057242867 0.11759152 -0.07632257 -0.11049064 0.30847523 -0.008630521 -0.35700077 
94화_잠은행上/94화_잠은행上-035.xml 0.21771346 -0.07388977 0.05317361 -0.006891567 -0.08582176 0.079388164 -0.032383204 -0.0032869498 0.0076364423 0.053426787 0.03534874 0.16879483 0.0944941 0.09664142 -0.13003996 0.039967794 -0.02639466 0.041402467 0.09321892 -0.23219632 -0.0544168 -0.091342874 0.16688529 -0.08281364 -0.086726524 -0.05253265 0.1025167 -0.014377765 -0.10281006 0.31625292 -0.20104763 0.046387646 0.017238459 -0.053869423 -0.025117068 -0.058281835 0.13079429 0.011389308 -0.22682177 -0.22644094 0.06521577 0.17145947 -0.01948286 -0.0059287795 -0.015940417 0.047806572 0.13832821 0.029864263 -0.009043489 0.074709706 -0.057872638 -0.012937349 -0.09723838 0.16005385 0.011721926 0.10335098 -0.06136364 -0.020974353 0.13712797 0.07801207 0.076765776 0.14294027 0.015427901 -0.024534212 0.0791958 0.020773346 -0.004099841 -0.16975546 -0.010567402 -0.10533823 -0.1255253 0.04662396 0.028477136 -0.07724498 -0.067628905 0.041268878 0.0014772053 -0.016184878 0.0019577823 -0.19317879 -0.034018274 -0.012901756 0.11955719 -0.114471726 -0.020926872 -0.001434722 0.053587034 0.13232915 0.017925892 -0.069834866 0.08009618 -0.068685204 0.1269918 -0.14757603 -0.006164631 -0.018697139 -0.001675133 -0.0067824954 0.006342564 -0.005227528 0.06989253 0.16630462 0.14641888 -0.0013539455 0.04320152 0.06978253 -0.029077487 0.037686504 0.11999713 0.08508728 0.028085645 0.089938596 -0.0627008 -0.07227955 -0.05081854 -0.14985923 -0.047881555 0.17613982 -0.04948749 0.06465882 -0.023202673 -0.10144073 0.011659043 0.066782996 0.04785119 -0.07162048 -0.019888042 0.0011431556 -0.026604472 -0.0574344 0.06401344 0.00023928257 0.01211271 -0.02738853 0.098123014 0.025821729 -0.051770553 0.023814319 -0.14927803 -0.10789909 -0.20819478 0.19069777 -0.19173878 0.09922869 0.053917956 -0.025951292 0.13210198 0.038146712 0.025836982 0.059073977 0.088197455 -0.008460256 -0.035741292 0.110904984 -0.0024602828 -0.10597554 0.008565863 -0.037795603 0.15043814 -0.01486931 0.025018109 -0.012202633 0.03645649 0.059350725 0.17617774 0.09094763 -0.14327355 -0.02145643 -0.12718731 -0.13646913 0.031471815 0.03180561 -0.0035348681 -0.18494457 0.057036582 -0.04415386 0.113369375 -0.060070883 0.03133715 -0.008916284 0.13246378 -0.06479076 0.07840302 -0.13022739 -0.051500615 -0.1415696 0.14869377 -0.08704962 -0.082596175 -0.11357226 0.10868606 -0.117353104 0.056520488 0.12686105 0.1950531 0.13939324 -0.09821178 -0.13203178 -0.089252904 -0.09817354 -0.06125278 0.08002462 0.011919642 -0.04731261 0.014186372 0.13435265 -0.12045637 0.027838556 0.046244934 0.0040215473 0.019081585 -0.037937164 -0.035602573 0.019434085 -0.083792426 -0.049905475 0.07003113 -0.25314814 -0.04809636 0.20615074 0.12205327 -0.044410273 -0.15453143 0.05065737 0.10084203 0.10857508 0.02070872 -0.15574364 -0.013777245 -0.0042461148 0.17733271 -0.033835255 -0.05959828 0.014792522 -0.15308078 -0.23726827 -0.082226925 0.18208493 -0.12151366 0.07923983 -0.062331125 -0.056038886 -0.04923299 0.038540225 0.06492133 0.11000996 -0.009304701 0.083317384 0.12586434 0.02664811 -0.014904492 -0.0038000764 -0.122620724 0.0716646 -0.17864537 -0.007066202 0.051599868 -0.058273643 -0.07662327 -0.18838783 0.046726022 0.12841687 -0.04060433 -0.026327105 0.033503205 0.06102517 0.07967329 -0.08210625 0.049236752 -0.16906798 -0.030379357 -0.1231172 -0.0819888 -0.12408964 -0.20872965 -0.0606268 0.08310578 -0.05995348 0.05182883 0.043006413 0.08863842 -0.14056852 -0.04534726 -0.022167802 -0.0032518355 0.06855142 0.07352054 0.14964773 -0.091719605 0.09733146 0.09743994 0.064804494 0.13055742 -0.15557347 0.04378727 -0.10157548 -0.06571162 0.1962833 0.09915576 0.07649352 0.12154006 0.11400284 -0.0326129 0.029351579 0.11836487 -0.043876316 -0.016466629 -0.12200555 0.22446637 0.070857644 -0.011968661 0.31477895 -0.12390348 0.016545717 -0.091010556 0.034826573 -0.063442364 0.038555127 -0.0011453877 0.045950342 0.033842873 -0.015705528 -0.13596778 -0.11621318 -0.1227737 0.031783763 0.035906818 -0.0006223582 -0.011343405 -0.04684454 0.025322212 0.11575688 -0.15115285 0.07404192 -0.060243163 0.0064177993 0.031350188 -0.10685617 -0.090936676 0.094785064 -0.014220508 -0.04882048 0.041807406 -0.20630322 -0.15033217 -0.031775244 0.056833204 -0.07102149 0.04938913 0.07384521 -0.08461014 -0.15827733 -0.0032852453 -0.09463107 -0.039907604 -0.09159162 0.01319653 0.15458046 -0.026785636 -0.01545518 -0.008572924 0.052313063 0.0044950135 0.019468058 -0.074692585 0.24028972 -0.04545418 -0.11611441 0.020635232 0.07422432 0.08013196 0.16345404 -0.011477634 0.08404372 -0.018203659 0.14458174 0.0889946 0.037428692 0.10372018 -0.16849887 0.021552244 -0.13060838 0.078669615 0.03977698 0.012504104 0.13957398 -0.029651934 0.1621816 -0.24372357 -0.061642494 0.009711257 -0.07498129 -0.023071246 0.036309067 -0.06522131 0.010223217 -0.030844342 -0.13813786 0.052733596 -0.0501673 0.043638732 0.026150437 0.09850444 -0.039029513 0.023879705 0.08642969 0.005885135 0.08521513 0.088063575 0.06622554 -0.088346936 -0.14332262 -0.102990486 -0.0329148 0.08808797 0.09047801 0.041003913 -0.08145022 -0.056998864 0.09976381 0.034264438 0.0446975 0.08413831 -0.0937012 -0.07002396 0.011175709 -0.012203797 -0.060835168 -0.119482845 0.0038178193 0.08590803 0.0009062292 -0.015224732 0.013446211 -0.114485815 0.07777456 -0.12132222 0.12175706 -0.0013033857 -0.1302636 0.08439206 -0.0443994 0.057992294 0.21025397 0.15033177 -0.19033374 -0.039809193 -0.00011691101 0.061524197 -0.018474987 -0.09806649 0.15702572 0.0568565 -0.041301787 0.085741386 0.12307523 -0.042473335 -0.005616056 0.06576627 0.13753405 -0.10184119 -0.06542619 0.01474198 -0.03950063 -0.027424032 0.013541498 -0.062140856 -0.099202104 0.0512631 -0.084692806 -0.043994833 0.09201492 -0.16841745 0.1307451 -0.023819864 0.008897395 0.12404269 0.023818498 0.002220341 -0.064869426 -0.037705906 -0.026247906 -0.025804807 0.077028625 0.23960267 0.014571967 0.123254016 0.18994878 -0.1192972 0.05363504 0.06956704 0.13419153 0.13848728 0.020057231 -0.023523191 0.016297651 0.033345506 -0.09472535 -0.043932065 0.007797324 0.13760214 -0.066651925 0.009652758 0.009758419 0.0020873912 0.009309906 -0.093188144 -0.046932388 -0.08760574 0.09062596 0.09451467 -0.0023219297 -0.014866086 0.12378283 -0.102357306 -0.13337234 -0.017571019 0.076081514 -0.018347219 -0.053434428 -0.018904738 -0.16063252 0.10364649 0.1402667 -0.12877169 0.108888716 -0.104022995 -0.078779295 -0.040896226 0.00092103763 -0.20211588 0.060912386 -0.078740396 -0.04225254 0.14897904 -0.019177297 -0.13163476 -0.2562363 -0.26399478 0.13840346 -0.22470295 0.11471317 0.018722845 -0.056569114 -0.03423981 0.063164994 -0.09523249 0.030332543 0.0966962 -0.08461515 0.005816991 -0.050138548 -0.083079815 0.011777791 0.09998583 0.066727415 -0.046628483 0.08851808 0.14535387 0.1284637 -0.1585003 -0.087446466 0.18383864 -0.048917223 -0.107173935 -0.04165246 0.06702487 -0.017012551 0.010408456 0.056096572 0.13190183 0.03756805 0.012848603 0.049128704 -0.096868426 0.028831834 0.07932408 0.010861718 0.11460247 -0.01243639 -0.010578879 0.04814556 0.006469765 0.10020592 -0.0497055 0.0083011305 -0.0104374625 -0.07253293 0.062357888 -0.05478074 0.10723581 -0.028715877 0.057242367 0.017881658 -0.09699391 0.00042554142 -0.032557916 0.12732358 -0.07310525 0.16046816 0.024916714 -0.017656194 -0.10855449 -0.0038800007 0.1478269 -0.039877057 0.08463306 -0.025387896 -0.023137761 0.010776786 0.025594998 0.17797056 -0.07934952 -0.049480245 0.064436994 -0.03401767 0.055742435 0.010313431 0.114926435 -0.04948485 0.06966235 0.26515904 0.15157256 0.101374574 -0.00084144203 0.049355857 -0.12561265 -0.025045458 0.094300956 0.016775794 -0.088696495 -0.014637363 -0.082550846 0.07100342 0.11714022 0.053953763 -0.00644804 -0.026924117 0.036893297 -0.058836907 -0.1559691 0.082280666 0.08329146 0.09882703 -7.181144e-05 -0.122746 0.087632194 -0.02696589 -0.020788478 -0.03566564 0.02355367 0.10083415 -0.08054117 0.0977858 -0.051667858 -0.1783624 0.15114556 0.07285877 -0.043697093 0.060633693 0.025236348 0.10068724 0.0049791555 -0.2088476 0.053646196 0.06311861 -0.020687645 0.14110214 -0.11203354 0.004779917 -0.20432766 -0.178929 0.04517839 0.12492743 -0.11280349 -0.056748822 -0.101329625 -0.07910584 -0.06357882 0.12908629 0.18475227 -0.0062019248 0.05085304 -0.031614397 -0.077555925 0.00275903 -0.06280871 -0.119915985 -0.05792878 -0.01953695 -0.09507532 -0.038877983 -0.085329965 0.064789005 0.00025455724 -0.076765396 0.020172466 -0.09754569 0.024054604 -0.14448391 
94화_잠은행上/94화_잠은행上-027.xml 0.17793265 -0.14791362 0.30744958 0.110646844 0.19060144 0.023112155 0.14289981 -0.07593783 -0.05348859 0.05325011 0.083946794 0.24335785 0.09464038 -0.038576163 -0.029287549 0.017390091 -0.05102333 0.10614277 0.06775581 -0.2836762 0.11766369 -0.16538498 0.058411337 -0.063117675 -0.26228356 0.044975773 0.22935276 -0.025054066 -0.13171159 0.38151434 -0.1647982 0.11197278 0.22818935 -0.06474878 0.017190471 0.088583484 0.2480195 -0.4305426 -0.19079433 -0.31644326 -0.10987385 0.053955276 -0.00960795 0.045410182 0.12919763 -0.03496198 -0.08933769 -0.071836166 0.025222573 0.0100063775 -0.121811464 -0.21127649 -0.19413418 -0.1634691 0.08548607 -0.0054058754 0.09452958 -0.31154191 0.14566045 -0.047016855 -0.20570405 0.02200628 -0.2692758 0.105254516 0.07394614 0.2304312 -0.01625521 0.09488054 0.21244165 0.062236674 -0.109311365 0.32461601 -0.16442987 -0.027273765 0.05706808 0.07453424 -0.046300747 0.15313469 0.086731486 -0.083573595 0.068980016 0.014726867 -0.16152844 -0.1025225 -0.11572793 -0.030477762 0.10932193 0.21847478 -0.04970881 0.28767478 0.37624297 0.031268295 0.019578725 -0.10333099 0.3666423 0.055267673 0.044908714 0.010271738 -0.18433243 -0.12767504 0.13894731 0.051218644 0.32841325 0.023136843 0.2507332 0.13753818 0.081130974 0.011611434 0.22545204 0.021376837 -0.08923723 -0.17372188 -0.2773555 0.025698332 -0.100824736 0.06311102 -0.031209797 0.18378572 0.21013759 -0.060107607 -0.1354761 -0.08506826 0.16772608 0.05347134 0.10432251 -0.08790514 0.026238197 -0.023583405 -0.07781015 -0.064730495 0.052868616 -0.071100816 0.08575776 0.04145799 -0.062045906 -0.044152927 -0.2135639 0.073509775 -0.07168737 0.008040736 -0.29404026 0.054986957 -0.036424305 0.14974293 -0.1550048 -0.12161801 0.22359909 0.22446725 -0.17860635 -0.04876506 0.06378981 -0.043368712 -0.13213962 -0.014363851 -0.099432565 0.057206254 0.16611503 0.03969279 -0.025035052 0.09557654 0.056223124 0.009665306 0.17361169 0.2450484 0.21978363 -0.013657728 0.12107174 0.015322478 -0.061389763 -0.116474696 0.0034404746 0.27094045 -0.1399112 -0.117171906 -0.0066897185 -0.032999367 0.18349738 -0.35599855 -0.38633573 -0.076412 0.14536557 -0.014239603 0.13116018 -0.052447382 -0.123325706 0.02458087 0.06227879 -0.018020216 -0.0203478 -0.055593967 0.09280156 -0.05978959 0.08531132 0.12744771 0.12256885 0.25574356 -0.13594751 -0.024517441 -0.10366746 0.023332391 -0.055209808 -0.29145423 0.043929007 -0.016938353 -0.072630584 -0.008440993 -0.091954745 -0.39575216 0.107235 0.14884694 0.11408387 -0.10465095 0.17556176 0.024214758 -0.025125068 -0.15834066 0.12458951 -0.33576658 -0.12938859 0.23710352 -0.050631445 0.106791124 -0.26770043 0.14143276 0.09704562 0.32446072 0.0037294035 -0.10193233 -0.10323431 -0.032313943 0.07487981 -0.03828724 -0.13996099 0.27250612 -0.14815025 -0.43457952 -0.057932537 -0.13823932 0.13411507 -0.12945533 0.006243674 -0.4013826 -0.10747674 0.15503486 0.039500255 -0.023686506 -0.12201134 0.024121623 0.1089513 0.029957667 -0.054717705 0.050049353 -0.24688768 0.109056816 -0.14353536 -0.17798187 0.0069811624 -0.02029608 -0.20460173 0.018579822 -0.08917846 -0.06581544 -0.13624175 -0.09565576 0.13668744 -0.07379009 -0.10538828 -0.20626968 0.07895474 -0.17533408 0.24036378 -0.0784127 0.0548895 -0.13175336 -0.22894542 0.04109016 0.09064502 -0.045049243 0.1146275 -0.1782187 -0.29423642 0.0848277 -0.14729607 0.0838003 0.0068174694 0.11627358 -0.19775267 -0.14131378 0.22435911 0.010267751 0.087652616 0.006642191 0.40762055 0.015560744 -0.114753306 0.16939303 -0.39398667 0.07818959 0.17840213 0.27195272 0.020784928 0.03826053 0.010070165 -0.032434117 -0.08723693 -0.04790801 -0.010875889 0.06037723 -0.07802402 0.0152429575 0.15297572 0.04612755 -0.008480381 0.11296229 -0.07729059 -0.16075812 -0.26258284 -0.12898798 0.11014941 -0.26234624 0.13241804 -0.09207396 -0.112044856 -0.056464292 -0.15880041 0.182164 0.4540623 0.021164129 0.08200312 -0.27985084 0.27735767 0.2104986 0.08048949 0.018510127 0.07572065 -0.040039875 0.023151748 -0.04281253 -0.14879231 -0.09260164 -0.032507237 -0.12137072 0.1678303 -0.2899744 0.19961211 -0.24452373 -0.11561821 -0.00079793966 -0.07417623 -0.11741475 -0.12665711 -0.06041071 -0.25111452 0.06172856 -0.014107305 -0.19444992 -0.057460614 -0.005119762 -0.07427826 -0.28347203 0.012031784 -0.18918915 0.057392284 0.027413767 -0.3297987 -0.046041813 -0.024619022 -0.020281909 0.38956752 -0.0017949156 0.15432136 0.13571829 0.060156923 -0.029609384 -0.09127406 0.07299725 -0.000692747 0.119262196 0.29327112 -0.13288221 0.21204989 -0.16187353 0.08221023 0.03673738 0.010799456 -0.16186121 -0.008121002 0.10788528 -0.17831045 0.109574065 0.07272965 -0.044397164 0.054359242 0.06265341 0.12702912 -0.012198997 0.06429686 -0.00880775 0.23206648 0.0955968 0.07080708 0.19549002 -0.24740276 -0.18565421 0.233702 0.24154153 0.0015919147 0.047344584 0.068395756 -0.07588644 -0.33337584 -0.09181542 0.036444854 0.007239925 0.1314691 0.21623868 0.018265707 0.03897473 -0.067121804 0.084942095 0.15313983 -0.015669744 0.0076360228 0.11968459 -0.058482725 -0.026774274 0.15075456 -0.029783811 0.010499067 -0.102255456 0.14846818 0.16735052 0.20335922 0.056663964 -0.20549777 -0.028954495 -0.048649415 -0.14307888 0.091726854 0.04005816 -0.107843526 0.045199733 0.033007275 -0.22676985 0.34310895 0.080113105 -0.039387576 0.041073896 -0.13777998 -0.07886378 0.052105326 0.007873469 0.12154413 -0.08741849 -0.035856046 -0.030567337 -0.0019957428 -0.118333794 -0.049954437 -0.013989847 -0.06655135 0.039867125 -0.092043586 -0.117781565 0.1649516 0.14263536 -0.09528389 -0.037404377 0.21238157 0.116369225 -0.011455429 -0.08223466 0.029145416 0.031758264 -0.24114348 -0.09221078 -0.10893223 -0.23298658 0.03414746 -0.20012435 -0.05521279 -0.03185717 0.113395706 0.11147125 -0.080205366 0.11759166 0.20213719 0.40672597 -0.3204971 0.16483961 0.120616704 0.04677569 0.32178324 -0.027398702 0.031504977 0.18872549 0.12542741 0.16253893 0.07021243 -0.19922036 0.21758056 -0.111893214 -0.066931844 0.09853847 -0.062161334 0.2830067 0.049159355 -0.039254308 0.13646184 -0.16337843 0.12873065 -0.01348829 -0.083348416 0.07100671 -0.24692623 -0.06675319 -0.10696624 0.05384981 -0.02471592 -0.24054503 -0.017743502 -0.15942559 -0.056870792 -0.1510309 -0.19482464 0.1847867 0.020865839 -0.0880654 0.17281456 -0.042878464 -0.10555477 -0.023114312 0.13292296 0.16143918 0.13415329 0.009165454 -0.23271194 -0.18407446 -0.27054545 0.06606557 -0.14057682 -0.003942677 -0.008775321 -0.101801865 -0.11519992 -0.22285645 0.06292179 0.035175588 -0.050941113 -0.20096949 0.025940228 -0.050506763 -0.12574603 0.12578788 0.024241274 -0.19258782 0.14863752 0.014994928 0.059606045 0.11265938 0.027361816 0.09471299 0.08810169 -0.20847498 0.15453616 0.045443676 0.11730671 -0.29796153 -0.14583965 -0.0139667075 0.06038626 -0.06977163 0.06278153 -0.2109146 -0.019555477 0.06292532 -0.25324473 0.015424825 -0.106487446 0.058594737 0.09376805 0.1049807 -0.04194673 0.22315316 -0.04485648 -0.020955957 -0.2688864 0.06948153 0.08893823 0.03828456 -0.024801549 -0.020740233 -0.002786306 0.06531625 -0.18508014 0.049376313 -0.21293603 0.20643403 -0.08584746 -0.11347827 -0.21284075 0.13649961 0.14567679 0.0024003298 -0.11731459 0.20090131 0.017316803 -0.16871479 -0.24151883 0.044778664 0.13380569 0.10414485 -0.13890892 -0.2493299 -0.1995191 -0.08388867 0.010129389 0.2776637 0.09962234 -0.033673916 -0.12858681 0.14480332 -0.025196966 -0.11388348 -0.016676107 0.114995815 -0.05589817 -0.10530929 -0.0075050187 0.07981298 -0.23269498 0.07879172 0.18575352 0.18564166 -0.105547115 0.011631905 -0.19334087 0.0066210995 -0.016774533 -0.37703764 -0.17636205 0.045631763 -0.0220834 -0.01639272 -0.2355665 0.25046027 -0.38890865 0.1878677 0.14845961 -0.17368715 0.09428447 0.013138258 -0.21391469 0.23570347 -0.06454468 -0.34043992 -0.2960251 -0.0120721 0.0854591 -0.00036747276 -0.022381198 0.10835511 0.060664456 -0.26146394 -0.09626384 -0.16376613 0.2995333 -0.03139342 -0.09061339 -0.3436983 -0.04089832 0.03965544 0.11315653 -0.05225452 -0.49650168 -0.046289194 0.08779785 0.06289102 0.011650083 0.057638526 -0.058877412 -0.00838447 -0.14036654 0.09695241 -0.013123135 0.13908018 0.016384294 0.15699375 0.020512022 -0.3548786 0.13912392 -0.017557807 -0.084825926 -0.28615913 0.020087473 -0.098626725 0.05555589 -0.24129565 0.16028753 -0.13424706 
94화_잠은행上/94화_잠은행上-021.xml 0.05501999 -0.041093137 0.042031694 0.04410235 0.0030226563 0.03741277 0.03299401 0.065709524 -0.073380135 0.09397721 -0.0346609 0.1285495 -0.01925517 0.042838726 -0.019004803 0.04740421 -0.0023526635 0.038605075 -0.026908677 -0.017875677 -0.06954381 0.06317667 -0.007880595 -0.050893623 0.009962701 -0.020068051 0.04329147 0.001191963 0.015981194 0.045934387 0.06945264 0.045909017 -0.07438552 -0.046084676 -0.004016184 -0.07112698 -0.0012391072 0.023393804 -0.099224634 -0.17693429 0.014606389 0.051962893 -0.058028724 -0.0011045508 -0.06422638 -0.042629585 0.07200509 -0.014217745 0.024783555 0.06928748 -0.09966033 0.10869886 0.02881076 0.049737282 -0.06680562 -0.029382741 -0.015249377 -0.024209835 0.09724991 0.0103859175 -0.11090507 -0.02072961 -0.002812445 0.1224281 -0.092368595 -0.06276219 0.017965075 0.06810167 0.046002183 -0.0074465377 -0.045666467 0.00973652 0.09380659 0.04393624 -0.02313497 0.0649047 0.13309886 0.06062965 -0.048252217 0.043821417 -0.11358521 -0.019259514 0.07585782 -0.104520135 -0.017311335 -0.032767054 -0.027179742 -0.0095912265 -0.056932397 -0.013790225 0.07818309 -0.0356439 0.08557179 -0.1278956 -0.08558784 -0.06482429 -0.004604116 0.09585873 -0.0142508475 0.0026510872 0.061970234 0.033082295 0.056021888 -0.044240624 0.014516096 0.12429451 -0.07951508 -0.05114862 0.06956842 0.04338187 0.05602197 -0.100805886 -0.018836278 0.015730368 0.0093960995 0.024922209 -0.009361193 0.065581985 -0.080791496 0.0045606694 -0.10586214 0.04465185 -0.07377698 0.06901965 -0.0402121 -0.10666927 -0.05468456 0.07461618 -0.05351952 -0.06703315 0.0012165984 0.063655436 0.059437856 -0.13165185 -0.04225956 -0.092128694 0.0015300676 0.016843444 -0.040687226 0.028503908 -0.08927625 0.06688571 -0.047943532 0.036674198 0.0297428 0.004094504 0.050311327 0.034042 0.06544257 0.0529153 0.046386562 0.10705261 0.07851855 0.04215635 -0.07067768 0.0008484096 -0.13819252 -0.0019887546 0.07751909 0.03155344 -0.036208637 -0.035119005 0.008135454 0.08731648 -0.031547 -0.03104593 -0.04647988 -0.016895702 -0.03364586 0.057328958 0.09370387 -0.01495182 -0.13993527 -0.09357957 0.06678925 -0.109453134 -0.032934282 -0.021414712 -0.010551704 0.08195918 0.029718058 0.041617524 0.03182517 -0.0023730737 -0.0071112467 -0.04296764 0.06660257 -0.11835271 0.0045269355 -0.03162274 -0.046218254 -0.048588067 0.04295403 -0.049570166 0.08202099 0.052615322 -0.028657367 -0.079305306 -0.04478562 -0.1174098 0.010271522 -0.030450597 0.021684332 0.02634129 -0.018401379 0.059370123 -0.045665305 -0.023932049 0.053702917 0.03457494 0.005389392 0.004078418 0.007865552 0.06043368 -0.09328711 0.011154615 0.02343072 -0.047455132 -0.16102998 0.08272903 0.0777801 0.003916905 -0.023999829 0.014786543 -0.028185075 0.021818636 -0.053148888 -0.06770834 -0.08619415 0.060557712 0.11458561 -0.0032562427 0.020202916 0.009973414 0.13316882 0.039526824 -0.01573886 0.087547034 -0.049996916 0.065288626 0.0115901455 -0.041428525 0.034889672 0.04472824 0.048928622 0.04699348 -0.011937147 0.06488398 0.077177495 -0.029338483 0.013748411 0.01648706 -0.037412796 -0.093708105 -0.01245829 -0.021716904 0.011610176 -0.000119915785 -0.07070094 0.04316188 0.0347044 -0.0016330299 0.024793625 0.041745875 0.027168408 0.04304768 0.073400654 -0.02679938 0.012704093 -0.1350674 0.004409599 0.02346609 0.061780967 -0.0073559093 -0.038465157 -0.013584504 0.07909062 -0.10579933 0.07806911 -0.02701669 0.036464866 -0.10691617 -0.08976576 0.06641085 0.024495013 0.033469133 -0.02468405 0.008484368 -0.010147668 0.0062137498 -0.06277489 -0.025755929 0.12874703 0.05436246 -0.0004746858 -0.01950317 -0.0031922015 0.0476802 0.120573916 0.06812846 -0.010766558 0.06304796 -0.04497789 -0.05855771 0.019223077 -0.036098108 -0.10318544 -0.013794841 -0.006907398 -0.104502566 0.17461614 -0.27397278 -0.099312924 0.09218392 -0.013571928 0.07028411 -0.051063884 -0.0847949 0.061842028 -0.04297524 -0.015405999 0.004160403 0.0050457437 -0.024537887 -0.026157403 -0.030391654 0.044100273 -0.0042390996 -0.0915488 0.10164498 0.036362033 0.056714933 -0.06650486 0.010581174 -0.01963851 -0.055486623 0.020502238 -0.03462388 -0.024478355 0.0032648356 0.020066055 -0.06802652 0.03163431 0.021140784 -0.002444895 -0.077657044 0.10301779 -0.058847614 -0.053911474 -0.066686235 -0.049335815 -0.005444783 -0.061626803 -0.07432955 0.058914416 -0.039982744 0.05962035 0.072528146 0.088558 -0.025349226 -0.117606 0.021547081 0.07601177 0.0454611 -0.019528333 0.08879693 -0.0017540264 0.0012790199 -0.022311846 0.036008965 0.05287534 0.1128723 -0.0004310526 0.06865914 0.019356493 -0.0011543647 0.076127216 0.1357365 0.120453216 -0.028497724 0.06579421 0.05341982 -0.015006772 -0.06138671 0.08254699 0.022921069 0.0038685468 0.07024571 0.024249721 -0.04453668 0.10423348 -0.11077163 0.054433353 -9.639507e-05 0.055302195 0.047064304 -0.058005787 -0.033982545 -0.082681105 0.056375112 0.04745052 0.03746173 -0.018148534 0.0124671785 0.14260328 -0.06169093 -0.06277034 -0.021332115 0.031258173 0.09793723 0.027280448 0.06414046 0.023850398 0.011061447 -0.0020173858 0.046330035 -0.052760303 -0.02340743 0.034188025 0.05061476 0.095940866 -0.00090475084 0.015151402 -0.11647439 0.008132765 0.081554525 0.11869298 0.015612675 -0.00078714784 0.0641509 0.059850425 -0.061195582 -0.07400904 0.01318847 0.01925222 0.08710336 -0.031864304 -0.08731396 -0.020440828 -0.044139657 -0.00030930928 -0.014950089 0.060609624 0.118321106 -0.01565808 -0.09091749 0.014480324 -0.007965369 -0.012812559 -0.05723894 -0.027843168 0.029594481 0.028876856 0.03099586 0.09028178 0.10164951 -0.042418998 0.013221376 0.005525189 0.05728027 0.026485698 -0.059010155 0.009092636 0.03216474 0.102570005 0.023630269 0.06461836 -0.049619183 -0.083863266 0.024456419 -0.07827265 0.08495984 -0.0373305 0.08821356 -0.0140318815 -0.06005028 -0.0020591675 0.043709923 0.03554436 -0.0037993952 0.010286469 -0.02197898 0.033352613 -0.03287063 0.016701378 0.010660878 0.0015134598 0.067200765 -0.006569058 0.046426456 0.04167519 -0.01224165 0.029913887 0.022835167 -0.070541985 -0.04120071 -0.06318756 0.012313868 -0.02207824 0.012852448 0.07353107 0.023653025 0.08989543 0.09042899 0.047719665 0.03488122 0.10678857 -0.06301685 -0.06548621 0.05641294 0.05552354 0.04949114 -0.063039176 -0.0014900004 -0.04063726 -0.016725384 -0.09405865 -0.011793535 0.03952754 -0.025771823 0.037472483 0.021762177 0.03353978 0.04478549 0.03266623 -0.020879772 -0.034841236 -0.03560688 -0.022019928 0.0025046626 -0.069846086 0.031254023 -0.04237808 0.062318556 -0.052652914 0.025161326 -0.11097739 -0.023198534 -0.13931176 0.07561494 -0.039149087 -0.027888345 -0.021062452 0.065835945 -0.07740305 0.078806244 -0.04153374 -0.048640277 -0.019944938 0.007406632 -0.07819726 -0.10999261 -0.050308235 -0.033753026 0.05872604 0.059585348 0.023658505 -0.03832633 0.044572406 -0.06314556 -0.030506104 -0.032151654 -0.046313412 -0.012460009 0.06766596 -0.047614805 -0.028828138 0.056989625 -0.05342262 -0.0067382073 -0.09623086 -0.0077513363 0.04287075 -0.12331694 -0.003917112 0.024868894 0.12559263 0.05229718 0.07046052 -0.029605454 -0.05574659 -0.010935513 0.023552049 -0.029686267 -0.016249826 0.044740412 0.051905252 0.031057473 -0.0030363689 -0.03808534 0.027142435 -0.11450848 0.005337688 0.04526066 0.06859697 0.05681681 -0.109587535 0.14659277 -0.021184284 0.12114435 0.0097000925 -0.019633563 0.0008581062 0.07427661 0.04567784 0.022026865 0.12488805 0.0003794005 -0.00096972554 0.016201837 -0.0714412 0.15544361 -0.025664674 -0.11813237 0.00051160256 0.12548608 -0.05282532 -0.085437335 -0.021394493 -0.08771751 -0.034423985 0.031407166 0.03357027 0.024216395 0.027555542 0.015980253 -0.062360276 0.036453135 0.05098353 0.0481993 -0.011482188 -0.050473448 -0.10831501 0.0003373452 -0.026173256 0.009122147 0.18719715 -0.029978426 0.021143956 0.10783097 -0.08630252 -0.0060267793 0.021537645 0.00039453394 -0.27384657 0.31557262 -0.30969304 0.26793006 0.0581399 0.0878695 0.020037225 0.011245342 -0.06351216 -0.027787887 -0.0385526 -0.064188786 0.050488546 0.03675561 0.085280806 0.12807353 -0.015061575 0.07695346 -0.090909295 -0.11947618 -0.10146204 0.005765413 -0.050333604 0.10432409 -0.013383411 0.054302827 -0.10423618 -0.006506037 -0.036159314 -0.007103386 -0.06144722 0.05271963 0.090026446 0.025771061 0.009809361 0.11640199 0.056534898 0.024398144 -0.02034949 -0.09392483 0.028130317 -0.020770239 -0.015642876 0.032770906 0.067618616 0.0037350971 -0.105296224 0.049186848 -0.04097127 -0.029133173 0.011054199 -0.09465113 0.0050407425 -0.09692426 -0.00670354 -0.056156214 
94화_잠은행上/94화_잠은행上-029.xml -0.04782177 0.12711324 -0.019508416 0.004930127 -0.019213587 0.08880344 -0.058097772 0.11794159 0.07866241 0.07133935 -0.07223967 0.049348142 0.063906394 0.049441136 -0.06262676 0.0374765 0.0010826715 0.06737648 0.013243507 -0.04250552 0.050101716 0.048940998 0.085269324 -0.10744674 -0.033276115 -0.09339863 0.0257814 -0.046055883 -0.23893963 0.4320792 -0.3185117 0.20295793 -0.06132304 -0.020167574 -0.011375033 -0.10761918 0.05082229 -0.06530135 -0.0994343 -0.16065522 -0.019643493 0.071526416 -0.06722854 -0.04689038 -0.026132816 0.037557628 0.013432387 0.049708106 0.016439559 0.041490793 -0.072158955 0.036960285 -0.017666971 0.025520716 -0.08493749 -0.08368993 -0.033553965 0.02492536 0.026506664 -0.0634204 0.005782728 -0.0113154985 0.031061225 -0.05815288 -0.06962245 0.014577689 0.029927937 0.05000808 0.059394646 0.02265259 -0.17180145 0.026058361 0.05335522 0.018661737 -0.09027966 -0.0031483923 -0.00018690497 -0.061202407 0.08491171 0.030292792 0.006196651 -0.0147814555 -0.020716699 -0.057297453 -0.024101438 0.006260921 -0.0064648646 0.06525941 0.0046480736 -0.0033571064 0.04236391 0.051915348 0.06741609 -0.09297302 0.008678047 -0.09292384 0.06459916 0.10238448 0.037866015 0.05019362 0.054712128 -0.0064564566 0.0035633654 -0.038448904 -0.0045090932 0.01357908 -0.11800613 0.051381227 0.01186083 0.047237426 0.088489324 -0.034229096 -0.038719147 -0.06455394 0.027306635 0.017856501 0.027625827 0.017778512 -0.07560954 0.07768327 0.0525087 0.03662385 -0.023137154 0.051596016 0.013997115 -0.038874038 -0.094130926 0.036849648 -0.036300626 -0.18628873 0.00792707 0.017317673 0.11493368 -0.066061355 -0.10397441 -0.028760398 -0.09861351 -0.006014001 0.011781403 0.030831452 -0.046090506 -0.023548404 0.0071305553 -0.028528867 0.052531846 -0.043669347 0.053363726 0.032131366 0.049613185 0.032437902 0.0271436 0.0743588 0.015810462 0.010832305 0.030445982 0.007610355 -0.03126704 -0.055496413 0.038321536 0.020374354 -0.0073417746 -0.06686906 0.02264835 0.031279825 0.09720835 -0.029477974 -0.070050396 -0.06836266 -0.12469929 -0.0628633 0.04555063 -0.0055630105 -0.053113386 -0.11534401 0.070449896 -0.06292581 -0.020222532 0.05683889 -0.023998665 0.063903674 0.060748115 -0.008663899 0.017361173 -0.08536009 -0.0066346624 0.010737661 0.09901551 -0.09347381 0.026565213 -0.062551335 -0.03754531 -0.054985147 0.043254156 -0.009904927 0.045103032 0.054434147 -0.0857132 -0.019623194 -0.039981004 -0.11226545 0.005349715 -0.032122705 0.030888518 -0.0051417397 0.040240396 0.021568077 -0.04394627 -0.061468434 0.030811138 0.08648463 -0.054226384 -0.021825071 0.11617126 -0.08184635 -0.03595845 0.029671796 0.12652391 -0.0052174395 -0.0006838899 -0.023382857 0.04719679 0.013263436 -0.087485276 0.04255638 -0.052346706 0.034949902 -0.04912041 0.007838013 -0.10720772 -0.023519356 0.09811122 -0.03184777 -0.10802653 0.023306224 -0.13854393 -0.21800198 -0.0029600547 0.0064672898 -0.047160856 0.023991149 -0.12849896 0.17067255 -0.014916746 0.033893082 0.058621977 0.016149132 0.0522848 0.033201095 0.0019105546 0.093087144 0.08906678 0.03260794 -0.0006722875 0.016063683 -0.027869252 -0.06526268 0.0116689 -0.0075655 -0.05430304 -0.03355218 0.079456694 -0.099606164 0.01612287 0.010381486 0.03552166 0.05355069 -0.032508098 0.017112073 0.0710488 -0.07427903 -0.010986284 -0.056691714 0.08217508 -0.04529281 -0.09118817 -0.008781476 0.03907164 -0.063133076 0.0633817 0.055935897 0.09712697 -0.044394635 -0.035991006 -0.025701378 0.012156243 0.0147194145 -0.03376815 0.021952782 0.031514622 0.067722715 -0.09619117 0.11624339 0.057569787 0.015026217 0.00078418414 -0.046324093 0.08549323 0.09579579 0.07128143 0.04281117 0.06298285 0.082791544 -0.07287858 -0.017351246 0.024395324 -0.027238607 -0.056995053 0.043744955 0.22997716 0.121032715 -0.17518796 0.39419058 -0.051556237 0.07344529 0.05099151 0.06592069 -0.015808616 -0.05122776 0.048715018 -0.04614078 0.011702148 -0.00751881 -0.021191332 0.010780503 0.021702878 0.012574789 0.0582675 -0.053937305 -0.117542244 0.015848896 -0.023204627 0.105517186 0.050843332 0.002875742 -0.032052808 0.1266581 -0.03136549 0.029743541 -0.011582979 -0.052771233 0.02513087 -0.050966606 -0.023434727 0.06017438 -0.008061813 -0.014667998 -0.04384128 0.055465177 -0.045935534 0.012118695 -0.063920155 -0.07473134 -0.034781907 -0.07088322 0.15294671 -0.09617074 0.046335336 0.012019814 0.07294445 0.012374355 -0.024524895 0.050755873 0.068784796 -0.028489143 -0.14896677 0.0094825765 0.03700722 -0.10303977 0.00182318 -0.039438814 0.063384585 0.099984966 0.028180951 0.07743182 -0.014130288 -0.05502265 0.040612802 0.061258856 0.07847401 -0.0056447014 -0.035579357 0.057751466 -0.0382838 0.027555108 0.056561545 -0.025439141 -0.005999054 0.023376083 -0.07406495 -0.06092648 0.10115526 0.0028372882 0.08009031 0.07544083 -0.009969836 -0.076237656 0.01506235 -0.068500996 0.012912227 -0.043781538 -0.00088297256 0.0099328 0.038224656 0.045659088 0.057637405 0.044676695 -0.037933405 0.043361064 0.025133636 0.047640298 -0.07108653 0.020246517 -0.072728105 0.019718474 0.091593474 0.072820984 0.020354092 -0.048891433 -0.043312393 0.05971841 0.09606077 0.015569983 0.037785158 -0.11296583 0.0031707413 0.0011060627 0.1894744 0.04473518 -0.0031483208 0.048732255 0.017598921 -0.038010776 -0.059460185 0.050285157 -0.08962735 0.034925185 -0.119388185 0.020245843 -0.08414967 0.057607036 0.017763587 -0.009906696 0.029028356 0.009267759 0.076878354 -0.085191436 0.0023637025 0.034420848 -0.0760713 -0.037575666 -0.09733485 -0.08536538 0.064774424 0.04690562 0.13139328 0.03882861 0.045184705 0.07303813 -0.05997339 0.10828263 0.061731584 -0.08922964 -0.02182604 0.05056226 0.07638365 0.12932591 0.012314114 -0.104682714 0.022282904 0.02288338 -0.08610143 0.029333014 -0.07995862 0.013968705 0.07275106 -0.02443654 -0.0325667 0.01245519 0.07047997 -0.022560405 -0.054132342 -0.0034211918 -0.005205162 -0.03001232 0.059961524 0.044115674 -0.0636525 0.040937636 -0.014774424 0.02830945 -0.034825653 0.069895074 0.008390363 0.058207862 -0.04218999 -0.013466732 0.030921753 -0.030799739 -0.038083304 0.025963865 0.051289592 0.030853124 0.028114717 0.062548816 0.046457805 0.013812936 -0.04217616 -0.02733434 -0.09500213 0.13524368 0.033992026 0.0676367 0.008300924 -0.00063678174 -0.10437446 -0.0038084711 -0.043336824 -0.038576383 -0.022337662 0.007566438 -0.092194974 -0.06235416 0.03858123 0.0056646145 -0.03794994 0.061372433 -0.046876132 -0.058197573 -0.0867215 0.04404944 -0.029087389 0.022497889 -0.01752942 -0.077694155 0.017982097 -0.04219418 -0.151772 -0.11167851 -0.1682502 0.099736996 0.027244858 0.008801134 -0.008338221 0.03213917 0.023212865 0.017603533 -0.024575874 -0.08059684 -0.0066779735 -0.06631984 -0.045882188 -0.021672295 0.04897687 0.033263214 -0.040436324 0.005461842 -0.018696578 -0.0312562 0.032613415 -0.04350569 -0.06771899 0.03189832 0.06726688 -0.03593964 0.08630205 -0.011535138 -0.0703567 0.0153642595 -0.009951077 0.07075493 0.0036662186 -0.042967714 0.0298833 -0.052719034 0.0056181084 0.014872791 0.09578 -0.037166994 -0.025268767 -0.037238 0.0127879875 0.03264097 0.038946167 0.01690527 -0.0036005548 0.03608063 0.036834396 -0.010291888 -0.017799607 0.06702762 -0.02695037 -0.009778121 -0.012902137 -0.034719758 0.11386089 0.0018157944 -0.06998276 0.0692837 -0.13590738 0.02597255 0.05598466 0.022389295 -0.038599014 0.07603872 0.0035261528 0.08090503 -0.0114522595 0.029854424 -0.0145420795 -0.06454728 -0.03930058 0.053253863 -0.09783203 -0.09069092 0.07748825 0.11836637 -0.045163766 -0.056454666 -0.051139865 -0.05467167 0.13656211 0.3114687 0.3644449 -0.028144328 -0.055610076 -0.048747305 -0.0010693602 0.039106205 -0.03930452 0.06608122 0.051633287 -0.1014399 -0.016820513 -0.00797868 0.044225775 0.017024599 -0.01713262 0.06656064 0.025286164 0.011399666 -0.00932469 -0.09468284 0.025296645 0.058460634 0.04175775 0.0009098291 0.019650424 -0.0126512665 0.0490323 0.049186252 0.06410625 0.033045318 -0.06988277 0.043721296 0.03555888 -0.16013461 -0.052454438 -0.011180835 -0.016513832 0.064022355 -0.05384787 0.01807676 0.03566489 -0.06722262 -0.08087306 0.08207022 -0.06545213 0.03683007 -0.040941495 0.01938957 -0.03557879 0.06252023 0.0024087029 -0.027343286 -0.030531136 0.0011939325 0.012215007 0.0017334399 0.00542895 0.06806729 0.15196373 0.101675145 0.015877195 -0.030756287 -0.020687567 0.032247785 -0.03059228 0.013938658 0.0656245 0.016166817 -0.060052704 -0.038596377 -0.022073591 0.022775847 0.04805054 -0.058785904 -0.0516679 -0.08378601 -0.02736782 -0.114243045 
94화_잠은행上/94화_잠은행上-022.xml -0.058890067 0.14357778 -0.06630924 -0.090344034 0.031458274 -0.10371466 -0.03379634 -0.022065327 0.07730437 -0.024055436 -0.037642837 0.028801933 0.0006602587 -0.0011975523 -0.083841085 -0.055197563 -0.02876082 -0.0051480317 0.11150764 -0.09168355 0.05138607 -0.0460203 0.07479767 -0.060085937 -0.030740142 -0.05287531 0.083431266 -0.04972153 0.050629273 -0.12734607 0.09964393 -0.087282926 -0.017014628 -0.042176448 -0.019098386 -0.061033465 0.017016575 0.0006725655 -0.042598836 -0.06650782 0.083497785 0.10916257 -0.00479737 0.025002643 -0.014276911 0.020885048 -0.01601571 0.030847346 -0.051044643 0.0059666215 -0.036144737 -0.039132398 -0.0993398 0.07593666 -0.05000652 0.0137860235 -0.05205647 -0.039450355 0.028520083 0.038950317 0.0621204 0.04434335 0.07991425 0.053517636 0.0024456135 0.02911935 -0.035034213 0.017771909 0.031392034 -0.0076441215 -0.08062758 0.012009867 -0.11859727 -0.022602137 -0.071641676 -0.00015146783 0.033344824 0.07002267 -0.11751658 0.01057174 -0.014384862 0.019324636 0.06353145 -0.0059944773 0.028998975 -0.0070763864 0.04744018 0.06669281 0.03333528 0.0024981003 0.0064266413 -0.025266122 0.03413123 -0.09004974 0.028966378 -0.03759439 0.009024011 0.011447862 0.081616215 -0.1062333 -0.0107337255 0.08583467 0.0653289 -0.049075857 0.008407211 -0.0065945834 -0.037694536 0.08658533 -0.06639391 0.017500188 -0.029497659 0.04063835 -0.06627971 -0.05548975 -0.028495817 -0.073186636 0.038380604 0.0487066 -0.08762923 -0.0030171028 0.035245642 -0.027717082 0.033240326 0.0613204 0.031123884 0.022874989 -0.05177746 0.0015725456 -0.009011259 -0.034922145 0.035591267 0.028800014 -0.019181652 -0.03722227 0.033889346 0.040069416 -0.0024727653 0.0068973545 -0.05586567 -0.15235409 -0.12439148 0.067934185 -0.031940922 0.026406787 0.07029681 -0.022403575 0.11305888 -0.025394153 0.0063830605 -0.009554979 0.013689404 -0.01798841 -0.012500033 0.13452768 -0.06455009 -0.016140752 -0.028622104 0.011897537 0.10082414 -0.010927532 0.028863473 0.02567095 0.07009897 -0.0057146116 0.089626536 0.059836246 -0.010040453 -0.051669918 0.018951602 0.0022604852 -0.029387107 -0.014712352 0.061145455 -0.095144406 0.046437427 0.0012907094 0.042301156 -0.0035038197 0.0017782588 -0.012968559 0.03549964 0.0068148104 -0.02159614 -0.06749822 0.006939537 0.023461532 -0.028857265 -0.019446146 -0.065821774 0.00754494 0.046658114 -0.050844096 0.017991368 0.025068805 0.06124566 0.042770416 -0.049563408 -0.041701417 -0.056048553 -0.09234764 -0.007468281 -0.07583334 0.0077284733 -0.065378904 -0.08070007 0.0036504436 -0.15842499 -0.05050209 -0.0068875104 0.088964745 -0.11544868 -0.06875825 -0.058822826 -0.022332676 -0.010445081 0.0021899217 0.04067763 -0.05689642 0.017805386 0.02766293 0.046540126 0.01051105 -0.066962376 0.013495489 -0.032052394 0.019243348 0.026466576 -0.117200255 -0.0444919 -0.07427256 0.042789094 0.009255237 -0.035459068 0.05598111 -0.0031819816 0.0863577 -0.05399553 0.03986764 0.025560401 -0.004845197 -0.09266075 -0.0076024397 -0.042054664 -0.0038284129 0.027916081 0.036209174 0.039893247 0.06102793 0.06646279 0.013077278 0.00105149 -0.043925673 -0.07089747 0.03324345 -0.13191707 0.06953749 0.060482785 -0.008133498 0.0034260093 -0.06834623 0.16717927 0.05794045 0.13822104 0.075334474 -0.019193549 -0.028033143 -0.09120613 -0.013146109 -0.014644515 -0.016297476 0.081361055 -0.045914438 0.042641263 -0.060798205 -0.050976407 -0.08299069 0.03602252 0.026529782 0.02569126 0.008148306 -0.02247737 0.041102737 0.015323642 -0.03402395 -0.01930743 -0.013835883 0.025184702 0.11873083 -0.058999546 0.032229215 0.0722204 0.03842665 0.014476064 -0.11867087 0.038133234 -0.020619651 0.015158269 0.065201655 0.057254564 0.031829968 0.04087682 -0.00020128551 -0.063884966 0.018963985 0.042670086 -0.06380305 0.01926095 -0.05839371 -0.051918607 -0.030633269 0.0070866933 0.036238026 -0.085153125 -0.069567315 -0.0019026356 -0.058659878 -0.033808853 0.017270885 0.03294106 0.005961694 0.012079431 0.05104163 -0.13710457 -0.011148529 -0.05078966 0.07566668 0.037462916 0.06098959 -0.017247476 -0.05720749 0.014989274 -0.001290462 -0.009747897 0.084553465 0.01237913 0.00031039928 -0.02392602 -0.06699677 0.008659884 0.11660667 0.002011625 0.009981845 -0.082042255 -0.10816175 -0.03330398 -0.03004327 -0.019800194 -0.04088156 0.09831324 0.066029005 -0.046808697 -0.049401082 -0.0031535518 -0.0143759865 -0.06198653 -0.045164928 -0.011974062 -0.0076129613 0.0006908467 0.03717327 0.0066104904 0.05052937 -0.022216981 -0.047361605 -0.014158035 0.04263567 0.02267265 -0.103211574 0.011250298 -0.057683032 0.069642186 0.010484512 0.027689194 -0.017196868 -0.029703613 0.08559102 -0.009225693 0.040007103 -0.000213366 -0.054248124 -0.005102406 -0.07160513 0.043589637 0.080804974 0.03487251 -0.024404418 0.0024024528 0.053826746 -0.23123465 -0.051177166 0.011982461 -0.04681989 0.025988437 -0.015445584 -0.12598896 -0.041168906 -0.055318143 0.045736417 0.029737484 0.010115939 -0.033852033 -0.024616554 0.020256802 -0.018712118 -0.075874016 0.06346869 0.047831513 0.04354596 0.042680956 -0.035290357 -0.046181045 -0.09906878 -0.016266229 -0.024134424 0.029559372 -0.03161909 -0.021134939 -0.050615214 -0.05280879 0.09748643 0.02483181 0.05209261 0.008224898 -0.0053058937 -0.022392634 -0.035113834 0.026771024 -0.0412107 0.081972025 -0.009142071 0.038597323 0.035511978 0.04617908 -0.025511649 -0.1032787 0.03308947 -0.016420962 0.13310702 0.053699255 -0.05606961 -0.012611305 -0.033043116 0.041992806 0.11007194 0.041245878 -0.11449695 -0.05355915 0.07001966 0.058592986 -0.03221654 -0.102689594 0.073087275 0.08553505 -0.06267893 0.07844826 0.032217525 0.028836457 0.06960025 -0.049252927 0.081137836 0.032768067 -0.027361777 -0.025668135 -0.015187399 0.014030467 0.022911524 -0.03968044 -0.06317061 0.06991146 -0.01758933 -0.031771008 -0.013020414 -0.09039134 -0.0009101757 -0.012878632 -0.034719933 0.031796187 -0.017291816 0.09986734 -0.030299053 -0.08389991 -0.09682353 -0.0031022034 0.10823145 0.033458464 -0.01906313 -0.02078205 0.013072798 -0.014691291 0.02620288 -0.0053398125 -0.0059202695 0.105641216 0.00746656 0.062255487 0.0093113 0.08627795 -0.09020263 -0.0009492738 -0.054967105 0.061336644 -0.016703397 0.02745453 -0.116394415 0.036302134 -0.015653407 -0.13934131 -0.0229288 -0.015126489 0.13472673 0.04608223 0.018948417 -0.08713725 0.047426164 0.0073168664 -0.016246144 -0.04899293 0.02398454 -0.0063884174 -0.05652266 -0.025810681 -0.076319486 0.08439301 0.038034048 -0.09754674 0.08708017 -0.011615194 -0.058550816 -0.040978905 0.008065561 -0.048123173 0.027139053 -0.049201094 -0.035973676 0.068912886 -0.037772052 -0.00440945 -0.05959898 -0.053956266 0.029177457 -0.08972346 0.064471364 -0.053252555 -0.031739093 0.07869625 0.010293513 0.0074054375 -0.0018518846 -0.03656789 0.0315873 0.029162882 -0.004650521 0.005926966 0.067142844 -0.027668998 0.054779798 0.011318808 0.054468285 0.08580616 0.076506004 -0.0364639 -0.049431197 0.10082723 -0.028470432 -0.030676542 0.0007865668 -0.024598096 -0.038422354 0.021346798 0.085534714 0.035375066 -0.030150272 0.13912952 0.015258662 -0.07049395 -0.01640489 -0.0046076523 -0.0847442 -0.0023940874 -0.013846444 0.06693594 0.05526949 0.03438052 0.108212106 -0.0019663654 0.0115487045 -0.0714173 0.009482853 -0.044953417 0.08104706 0.022078065 0.029174194 0.009299814 -0.020399155 -0.018881086 -0.113012426 -0.0058803163 0.01753689 -0.093881235 -0.03196633 0.04103795 0.021855388 0.040449925 -0.06228357 0.00091338874 -0.031148149 0.0063479333 -0.049221646 -0.047363512 -0.029902756 0.047371447 0.09636399 -0.014771778 0.039962135 0.06786661 0.03919075 0.008414918 0.025439054 0.05359675 0.017039815 0.013544518 -0.15068366 -0.16509147 0.049826242 -0.035893735 0.104278475 -0.05261696 -0.008098181 0.032344572 0.12022677 -0.0049753166 -0.062339634 -0.01258897 0.05875033 0.08980885 -0.0079411045 0.022048138 0.029511772 -0.06891687 0.05009356 -0.0385177 -0.03003042 0.035790488 0.032470934 0.16127759 -0.23652536 0.20204107 -0.21791105 -0.057950616 -0.09979626 0.033141658 0.0186486 -0.02719577 0.08814647 -0.003294242 -0.018688915 -0.01873396 0.044024073 0.03645066 0.00587086 -0.011928811 0.035346586 -0.020991726 -0.08444318 -0.03667087 -0.015658641 -0.09311409 0.009266635 -0.043970577 0.014766123 -0.048535418 -0.090213895 0.07188141 -0.042032696 -0.07754183 0.0031744963 -0.067192115 -0.049512513 -0.0408494 -0.05140121 0.09163323 0.07064686 0.11537164 0.010646915 0.04616162 -0.028793676 -0.02778174 -0.011400635 0.06539694 -0.061475456 -0.055306718 -0.056017146 -0.025378145 0.03483492 0.016229143 -0.060016282 -0.04813824 0.00069641415 0.03739765 -0.08015093 
94화_잠은행上/94화_잠은행上-023.xml -0.012892033 0.10934703 -0.07321142 -0.0011821756 0.05452215 -0.07314513 0.04243127 -0.08685858 0.10780868 -0.025555158 0.0708473 -0.002823329 0.036079876 -0.0936648 -0.03913477 -0.01982643 -0.0004543251 -0.07143493 -0.00823356 -0.099889435 0.07621094 0.022387024 0.08774633 -0.03496729 -0.03453182 0.071751885 0.041721776 0.057247862 -0.06938386 -0.054661173 0.033821177 -0.017805185 -0.015203464 -0.03186164 -0.0033381502 -0.026802737 -0.045180727 -0.07021797 0.008014578 -0.03926523 0.09757059 -0.048169445 0.0418163 0.059027676 0.053029876 0.064322636 -0.0053335405 -0.043434378 -0.04761674 -0.07979125 -0.049934547 -0.037203897 -0.0963688 0.123036444 -0.023991209 0.04305402 -0.0441583 -0.07277556 0.05153277 0.10299904 0.06913363 0.041878436 -0.0025477062 0.07232559 0.030500876 0.016638156 0.015464049 0.056591544 -0.01486154 -0.053420577 -0.06828245 0.03676131 -0.1290982 0.0071365805 -0.0359119 -0.018689424 -0.019297175 0.032220528 -0.06841159 -0.021816451 -0.045311525 -0.023890246 0.03680118 0.011053034 0.021237466 -0.051489916 0.062012237 0.055494294 0.026222931 -0.041067805 0.07681213 -0.010856752 0.0064652036 0.011132489 0.02686061 -0.0058658053 -0.06328821 -0.011987875 -0.013582432 0.020207023 -0.058263585 0.12026269 -0.0038389144 -0.03893376 0.0049008187 0.03348842 0.05610875 0.05900384 -0.035348758 0.014128661 -0.11652364 0.03006009 -0.02994931 0.023999069 -0.048584655 -0.04119618 0.033542126 0.002267478 -0.018142968 -0.023851015 -0.026068805 0.07928802 0.0045247856 0.1072153 0.016733816 0.052990388 -0.038506024 -0.019171199 -0.011993182 0.011733626 -0.00051055773 0.03861779 -0.01558998 -0.036769025 0.034382746 -0.04816105 0.009448001 -0.0014806332 0.07482481 -0.09992804 -0.033431556 0.050480846 -0.06437722 0.10012971 -0.006022383 0.006833756 0.020697072 -0.005981435 0.0038809723 -0.0040251617 0.020866293 0.015488513 -0.046192016 0.05948629 -0.044069376 0.036655016 -0.023019081 -0.004940865 0.10383778 0.011856463 0.025551956 0.055542905 0.006936472 0.01602462 0.124203704 0.12406183 -0.055804953 -0.013875263 -0.05220465 0.02410414 -0.04405965 0.051837467 0.025312 -0.100899786 -0.021062557 -0.047999445 0.07516547 -0.029632406 0.00075186574 -0.0017662228 -0.020242015 -0.009675296 -0.07911076 -0.007790484 0.0131651405 0.08719287 0.08725337 0.03792886 -0.06534674 -0.0013659957 0.08864287 0.008025651 0.033256255 0.07900577 -0.02215883 0.07227656 -0.0431421 -0.101054735 -0.041101456 -0.07643785 0.046030764 -0.05356937 0.06264472 0.005256044 -0.016704688 -0.043531254 -0.13467525 -0.046611324 0.03867178 0.06283498 -0.010232622 -0.018221512 -0.017876832 -0.039994504 0.04153364 0.06561648 0.0034051766 -0.05156882 0.009648881 -0.01526754 0.03976682 0.08943579 -0.057868015 0.032964546 0.06574158 -0.035107546 0.051259182 -0.0029374198 -0.03635349 -0.050963853 -0.03232936 0.025419038 0.058035955 0.043560084 -0.026988233 -0.051098425 -0.031094262 0.06272772 0.09586757 -0.06337153 -0.019215086 -0.02546891 -0.017294463 -0.0004814058 0.023788592 0.0494333 -0.0819079 0.08835939 0.17363425 0.040789247 0.06108024 -0.0022927346 0.029467288 -0.012153939 -0.03995326 0.036338415 -0.008033077 -0.031173633 0.04440523 -0.06953793 0.14399245 0.13340876 0.048579857 0.014409386 0.004499803 0.015937839 -0.03655167 -0.028519724 -0.06827426 -0.019772185 -0.002156438 0.0031625868 -0.05095388 -0.079759024 -0.07105823 -0.09822224 -0.0067476113 0.06905334 0.06677234 -0.04694038 -0.052190237 -0.0076298937 0.032492712 -0.043587286 -0.007720848 0.027497064 -0.0037033875 0.018128898 -0.018725434 0.06177188 0.06759977 0.034674637 0.010241885 -0.050956678 0.009195714 -0.029473685 -0.0548353 0.06767663 0.019610863 -0.017872151 0.020640198 0.06284365 -0.09831689 0.01859201 -0.023127642 0.04077204 0.05223556 0.012717116 -0.10333639 -0.020394366 0.015713427 0.059740543 0.036839355 -0.058586705 -0.025064532 -0.07223807 -0.06250204 0.01182046 -0.038057465 -0.046606734 0.0638497 0.079525694 -0.07938131 0.045171693 -0.08530703 -0.025581148 0.030974962 -0.0031549411 -0.0053973515 -0.042525258 0.095624186 -0.04548984 -0.066270806 -0.020764608 0.021399919 -0.040798683 0.005517825 -0.06195632 0.030242616 0.045386683 -0.042161662 0.009276453 0.027880521 -0.124950506 0.00039001714 -0.0329319 0.038213726 -0.019846624 0.09169999 0.061395124 -0.019407326 0.0043262346 0.02941474 -0.09869079 -0.082478456 -0.036046617 0.033243712 0.013233546 0.09435758 -0.04777837 -0.029804325 -0.057087205 0.013782568 -0.04030321 -0.04166808 0.04970764 -0.041338515 -0.026846414 -0.07488398 0.04658774 0.05810389 0.066386655 -0.0654142 -0.014766766 -0.039550085 0.055472035 -0.031347625 0.037727643 0.004304573 -0.11594552 -0.047241587 -0.11478166 -0.011407381 0.07883976 -0.010668366 0.010824029 0.004908532 0.10936443 -0.1456343 -0.0049388832 0.059341796 -0.040550165 -0.012474225 -0.0064845146 -0.107576154 -0.011677508 -0.026455555 0.044228844 0.006436139 0.03455861 -0.030221067 0.040060062 0.03111069 0.015140718 -0.07040535 0.04858769 -0.04826392 -0.0011060496 0.10356668 -0.051223863 0.027854033 -0.10049717 0.02540512 0.015301693 0.055324435 0.019846937 0.0072620893 -0.009040429 -0.032434605 0.031591345 0.0017684832 0.08129871 0.00089928246 0.0069724736 -0.084400326 0.040013045 -0.018089633 -0.053197708 0.07212702 -0.04489312 -0.011842006 -0.017051792 0.029949406 -0.055644494 -0.057021633 -0.038083714 0.0033572589 0.073226795 0.08263312 -0.013668392 0.026303349 -0.038088366 -0.022694772 0.015237759 0.087065265 -0.045997493 -0.026427664 0.111251555 -0.03611627 -0.025486197 -0.071096234 0.04656674 -0.049466785 0.033256263 -0.053024128 0.0033860933 0.026528273 0.08290624 0.029167572 0.043937054 -0.026892008 0.0028920362 0.0032822886 0.015785147 0.07057947 0.0018984945 0.0060374206 -0.072281025 0.071144775 -0.026451599 -0.020500261 -0.053825602 -0.0009349143 0.0035486543 -0.059641495 -0.0197241 0.120256364 -0.005243653 0.060207862 0.022383697 -0.044558126 -0.029791212 -0.018619284 0.027491614 0.064596616 -0.02446818 0.0017887609 0.014657794 -0.011371921 -0.0061423876 0.010421672 0.0063081696 0.1050252 0.029248865 0.036440983 0.046497937 0.01531035 -0.05411185 -0.059109844 -0.049211822 0.09323067 0.01429243 0.05785513 -0.07893625 -0.028949322 -0.022935214 -0.084103495 0.04879649 -0.093549274 0.06642192 -0.057513896 -0.052942578 -0.029479679 0.06849392 -0.0315163 0.018275328 -0.07410111 0.049349412 0.023029594 0.025484962 -0.07125845 0.08272614 0.12416497 0.020213842 -0.117324196 0.0745128 0.018105865 0.016869603 0.03537094 0.013371336 -0.061754268 0.09645546 -0.046533402 0.015293178 0.0688624 -0.060792617 -0.017059058 0.006270753 -0.02096266 -0.08145305 -0.13183218 0.0114407 -0.0121347355 0.05015741 0.10515864 0.0042022867 0.035792865 -0.060663454 0.03762102 -0.007890632 0.03430904 -0.001338004 -0.012999462 0.07049962 -0.08277323 -0.0065355133 -0.00019027214 0.08653519 0.106625386 0.058895033 -0.055189013 0.010408816 0.06708899 0.0012337263 -0.025870647 0.011301184 0.014452475 -0.02243379 -0.015577223 0.0777691 0.054929454 0.030831978 0.035761937 0.09646204 -0.050432507 -0.045683164 -0.09582304 -0.087528184 0.028280076 -0.017394938 0.025678638 -0.022290071 0.0094784675 0.13735925 -0.012146995 -0.061964367 0.015172087 -0.074256055 0.031490818 -0.023450593 0.053207476 0.09508978 0.03894725 -0.017470604 -0.15028533 -0.01867168 -0.018190125 -0.07348695 -0.05385618 -0.0020647019 0.032161474 -0.07990422 -0.034128398 -0.09073461 0.01727246 -0.027348196 0.019920845 0.010842075 -0.018423786 -0.017910019 -0.0069848537 0.03229954 0.020501813 -0.01978583 -0.040016454 0.020940034 0.05585791 0.058784068 0.053198233 0.02352529 0.020836925 0.019679677 -0.08646322 -0.009734767 -0.004968806 0.014830598 0.0029907492 0.0036045234 0.07458715 0.02091545 -0.109132856 -0.0032118766 -0.09671982 0.046341617 0.029546876 -0.06896328 0.008579169 -0.01983868 -0.1239629 -0.09470853 -0.009387251 -0.013730533 0.08882888 0.009208185 0.07737905 -0.16433226 0.13007936 -0.14989439 0.01970476 -0.02844775 0.0007028284 0.03441785 -0.017848076 0.084826104 0.023735264 -0.048401885 0.035870235 0.058204237 0.026218645 -0.028358156 0.017843008 0.06030263 -0.029119238 -0.02198791 -0.04897987 -0.04447695 -0.07269309 -0.0013671084 -0.10324129 -0.1467344 -0.045202814 -0.077987015 -0.071257606 -0.027315628 0.051242463 -0.0132058235 -0.0067279693 -0.064153865 0.008288596 -0.048223898 0.079500586 0.021990592 0.035790086 0.01998722 0.040214837 0.024764879 -0.009546151 0.017262695 0.0008907804 0.032475747 -0.010881449 -0.07946798 -0.020706419 0.013319302 -0.041487683 -0.02646895 -0.0634539 0.05614069 0.07303387 -0.05273542 
94화_잠은행上/94화_잠은행上-009.xml 0.008191919 -0.15251908 -0.064562306 -0.06576206 -0.10811668 -0.07329208 -0.021256726 0.065419525 0.19142553 0.1227708 0.05402282 -0.026376303 0.0033810004 0.051498793 -0.0019447645 0.16124448 0.09765431 0.06280559 0.03324219 -0.17551225 0.009188364 -0.12898624 0.077587664 -0.09378069 0.19709358 -0.07285663 0.045145027 0.024219505 -0.11040686 0.20489025 -0.21485019 0.074397996 -0.030330475 0.0020110104 -0.11481827 -0.09891951 0.111863464 -0.024031697 0.06392474 -0.10376023 0.18650413 0.048285887 0.04075806 -0.062452555 0.10770288 -0.036483638 -0.07753502 0.0115517 -0.12882474 -0.036049515 -0.13365027 0.027249735 -0.16979349 0.072186165 -0.12579839 0.11120811 -0.024176273 -0.031553313 -0.14414816 -0.06538435 -0.027506225 0.015579183 -0.043473095 -0.020138288 -0.086367115 -0.08537747 0.054762483 0.12874664 0.051213004 0.021479031 -0.039872073 0.004651482 -0.20943755 0.12566681 -0.05671763 0.0909493 0.02395772 0.04286822 -0.1002916 -0.06804712 0.028433237 0.20341288 0.08779073 0.16260737 -0.030843219 -0.08165784 0.13949914 0.10442185 0.21714322 0.07643988 -0.15914297 0.051996645 0.02020043 -0.0237674 0.12293433 -0.031328317 -0.09043048 0.08483882 -0.14354718 -0.1308394 0.13000685 -0.06324839 -0.06210816 0.015962364 -0.0505983 0.019550614 -0.05221927 0.079145834 0.0040092226 0.03394119 0.08809698 0.06338499 -0.05956073 0.01631933 -0.02372069 -0.11749527 0.17223784 -0.15408483 0.006702829 -0.08095397 -0.0271229 -0.07039568 0.043404616 0.08723448 0.034627873 -0.0109971445 0.0065445676 -0.020766769 -0.16136292 -0.12272545 0.0376706 0.097286336 0.0014582321 -0.015871499 -0.033563044 -0.0963087 -0.08460056 0.049440607 -0.09506979 -0.14796522 -0.0037344273 -0.07035193 -0.000788779 0.0597713 0.071883366 0.12940773 0.02662893 -0.09286934 -0.07315566 -0.015974842 -0.046541344 -0.21737246 -0.14658386 0.03573978 0.06864719 -0.08444221 -0.1959626 -0.23278928 -0.1523375 0.08610235 0.1370022 0.119026706 0.031779654 0.0040788027 0.22315642 -0.00616969 -0.1730648 -0.03966555 -0.03783214 -0.068759486 -0.06810091 0.17281435 -0.13779993 0.06392275 0.06849485 0.123145424 -0.0860464 -0.1890708 0.019983664 0.145356 -0.107886285 0.11224553 0.06724605 -0.09685001 -0.030761149 -0.037576392 0.15801084 -0.013764205 0.042526405 0.03390855 0.03658838 0.08858099 -0.17525202 0.24236912 -0.042455327 -0.11528371 -0.13587774 0.16259617 0.03808914 -0.07343468 0.16618231 0.0033208304 0.09135732 0.06768933 0.07973524 0.07522766 -0.11040039 -0.16561684 0.14069328 -0.038342368 -0.052279986 -0.161406 0.012660062 -0.17279929 0.046143323 0.027750438 -0.019906182 0.11264342 -0.14678603 -0.014775509 -0.03395258 0.122541 -0.060215265 -0.085534826 0.17628954 0.16635595 -0.014122876 0.012649286 -0.053106587 -0.04710392 -0.02721338 0.0735333 -0.069113016 -0.12393548 -0.32778072 -0.12724333 -0.12138107 -0.08145922 0.12728952 0.15418318 -0.21294892 0.21576059 0.04637544 -0.14151408 0.108327806 0.040663667 0.15823287 0.059797894 -0.044709913 0.12307765 -0.0051335846 -0.038705792 -0.026817985 0.056205437 0.033383764 0.19398886 -0.023200259 -0.08440717 0.022745471 -0.05092232 0.13803166 -0.025986463 0.013752617 -0.14808951 0.06507743 -0.035045758 -0.1449183 0.1019039 -0.0019531762 -0.08145856 0.1649634 0.053164136 0.11093574 0.052625224 -0.047426477 0.07430103 -0.06889779 -0.06583953 0.031633183 0.14099517 0.04734263 0.050815724 0.13146985 -0.08407952 0.01766312 -0.055671774 0.10246294 0.006254747 0.056866117 0.054046214 0.0012616882 -0.034112014 0.017153537 -0.124188066 0.049997352 0.10222499 0.03861287 0.23127434 0.20807444 0.08747631 0.11632743 0.041747935 -0.13890642 -0.056218427 0.035836015 0.15296736 -0.16937922 0.05336515 -0.059626408 0.018503888 -0.2655697 0.16715401 -0.18651608 0.07276859 0.0014196537 -0.12814258 0.032526202 -0.13060454 -0.023601001 0.028114244 -0.028949186 0.02320426 -0.0020494673 0.05799874 -0.029160408 -0.085399434 0.10671818 0.07525642 -0.07233798 -0.0008414368 -0.1059974 -0.08211873 0.06546569 0.0742372 -0.18761382 0.13543731 -0.07148648 0.12818632 0.043193266 0.105044946 -0.15360796 -0.004112411 0.18034059 0.0076120347 0.073643014 0.017113317 0.032789066 0.11944878 -0.14156947 -0.0009498356 -0.032192696 -0.14221829 -0.026287548 -0.14204197 0.12805562 -0.13030457 0.20744067 0.11764592 -0.00023478325 -0.013202243 0.12184885 0.076418474 0.21022789 0.019461395 -0.061336808 0.015248093 -0.07499385 0.018207915 0.027789593 -0.05880352 0.05357176 -0.031863265 0.18677819 -0.21886608 -0.117063954 0.060836338 -0.01331213 -0.104740225 0.077564746 -0.17817912 -0.038820848 -0.002447952 0.18378207 0.06112098 0.049128115 -0.15120247 0.16478997 0.09340491 -0.10133518 -0.10824962 0.13117322 -0.17387442 0.09181326 0.1544542 -0.10103028 -0.1728276 -0.01292818 0.021267999 -0.0542286 0.09406479 -0.017510679 0.11253421 -0.031033166 0.0068877577 -0.051816627 0.28160203 -0.007858887 0.04177943 0.08461951 0.24058461 0.08185075 0.079828635 -0.04119782 -0.07466894 0.36523947 0.013477611 -0.044888772 0.070285395 -0.06586251 -0.016136821 0.09513604 -0.083433986 -0.13009821 -0.030376535 0.095578164 -0.04911631 0.06215882 0.24094991 0.103117034 -0.19108963 -0.04344411 -0.105342016 -0.06898709 2.876135e-06 -0.0099775065 0.03924469 0.0010914505 0.10229328 0.029229134 0.23922895 0.055608716 -0.0956337 -0.05916077 -0.06968069 0.04963551 -0.16555731 0.116502866 0.039596908 -0.03247573 0.044754803 -0.17897332 0.0705104 0.007636645 -0.18707827 0.09727722 -0.020887926 0.10200708 0.003814197 -0.06553405 -0.052604586 0.049901113 -0.11790185 -0.040584497 -0.03881626 0.05477601 0.19834195 -0.028739925 0.0692386 -0.047984667 0.005738723 0.036927253 -0.076437205 -0.124511175 0.095210746 0.06632702 -0.025008403 0.008159859 -0.19008237 -0.016049646 -0.15534267 -0.14099056 0.010998428 -0.15741193 0.067713924 -0.028119622 -0.13532504 0.066932306 0.006928161 -0.108919166 0.14432469 -0.009038363 0.10072635 0.07871771 0.011689296 0.18972862 0.033633027 0.11548856 -0.024849428 -0.07141481 -0.028562728 0.004101305 0.072675616 -0.10572842 -0.019197552 0.017743269 -0.05621054 -0.116074845 -0.17483948 0.13992947 0.014124893 -0.007485155 -0.05652447 0.11673385 0.046283703 -0.16677946 -0.030745901 0.10926038 -0.23636691 0.17119865 -0.0761593 0.025707265 -0.039724365 0.107194185 -0.14108065 0.15436235 0.06904811 0.06582284 -0.015213996 -0.10208176 0.06546822 -0.035351463 -0.009787306 0.022963224 -0.16019845 0.11003035 -0.10555198 -0.079716176 0.06449904 0.25236642 0.07436408 -0.047552653 -0.05743199 0.11225908 -0.036046345 0.107026115 -0.19095007 -0.21444681 -0.17776005 -0.06169618 0.05830678 -0.0012635586 -0.027066356 0.07325462 0.2768369 -0.062421303 -0.09204384 0.1718182 0.0475699 0.077658325 0.05382062 -0.03382206 0.012002955 0.09960313 0.016982388 0.080791235 -0.06872371 0.02277425 -0.18168041 -0.13715303 0.2599364 0.16954607 -0.029524121 0.07716192 0.07497318 -0.0123653095 0.07847235 -0.05140419 -0.08505675 -0.101180136 0.11109051 0.1467002 -0.043113157 0.050143734 -0.055465803 -0.04248434 0.055047862 -0.11426517 0.015559599 -0.1376463 0.08838387 -0.042626854 0.09066081 0.049334444 -0.23671594 -0.057003856 0.04958568 0.04802859 -0.10554935 0.01687035 -0.16091685 0.079454556 -0.18165043 -0.1891312 0.15765537 -0.06935412 -0.045863684 -0.05139519 0.03342567 -0.10143845 -0.09408879 0.30180734 0.014403857 -0.18624982 0.030330477 -0.06772427 -0.08862312 -0.07417035 0.1036938 0.16834322 0.09223377 0.028921826 0.047827385 0.11855452 0.046661332 0.024835378 -0.12529051 0.04989412 -0.11850464 0.14429995 -0.06455674 0.10453683 -0.057688978 -0.010958297 0.17477076 -0.121536486 0.09291446 0.097224936 0.13351233 -0.12278257 -0.012818764 -0.02334388 -0.108708456 0.13433959 -0.10247939 0.23285787 -0.20146255 0.09194183 -0.18679908 0.057087556 0.19030666 -0.00031092073 -0.004867668 -0.11642857 -0.11788869 0.0019459575 -0.15026641 -0.16345577 0.085235566 -0.00066966185 -0.04512889 -0.017478287 -0.12651265 0.012284832 0.037500285 -0.07814576 -0.0650186 -0.01854685 0.08107347 0.16048564 -0.11147353 -0.060929917 -0.047189362 -0.042777028 0.003575962 0.1281364 -0.15338616 -0.15350418 -0.18865824 0.0032951233 -0.09504093 0.05979308 0.08914922 0.099509045 0.0058211624 -0.05206492 -0.051986746 -0.059689175 0.14047721 -0.15661666 0.0357686 0.24571954 -0.14321257 0.16558154 0.106290236 0.054972883 -0.01671447 0.024399064 -0.07966259 0.06615409 -0.052017465 
94화_잠은행上/94화_잠은행上-039.xml 0.063830316 0.1953735 0.48463744 -0.07811694 -0.028294224 0.2722899 -0.0909081 -0.25306785 0.12801199 0.288377 -0.006810341 0.17613675 0.25501242 -0.016844654 -0.013022384 0.07202444 0.08495746 0.079496786 -0.15447894 -0.07903709 0.035780214 0.14402634 0.32567087 -0.25514552 -0.3642058 0.12032939 0.044542346 -0.046401028 -0.40370834 0.381995 -0.21007296 0.042416338 -0.024385106 -0.069603436 -0.30118138 -0.09165582 0.020186504 -0.20612381 -0.028244369 -0.48426208 0.1697358 0.2312422 -0.08877167 -0.06341862 -0.18802474 -0.03342883 0.21808279 0.06550891 0.17684223 0.1302329 0.12584011 0.08203955 -0.038249202 -0.08011779 0.1592053 0.022451255 -0.024362316 0.08855565 0.05685302 -0.23992579 0.035798863 -0.1365 -0.12920314 -0.07297993 0.0019739566 0.16978742 -0.1358735 -0.088442594 0.23375714 -0.10942707 -0.38371736 0.16232601 0.18580236 0.038995486 0.070132785 -0.049849976 -0.12307835 -0.17837848 0.033170234 0.39589602 -0.058906637 0.12954217 -0.1493755 -0.097870834 -0.08088316 0.010527056 -0.11643163 -0.14047082 0.08423416 0.17308459 0.090282656 -0.071617216 0.1739022 -0.0032245184 -0.0017690082 0.044750318 -0.026503619 0.13080725 0.082255594 -0.0015391539 0.2282314 0.10640703 -0.019908369 -0.057084266 0.11731467 0.12400761 -0.1054618 0.08501056 0.025583895 0.050352894 0.11441223 -0.17809846 -0.28159684 0.01840486 0.15862797 -0.20627363 -0.08208762 0.016562864 -0.01887959 0.1763708 0.16641831 0.0458133 0.17995958 0.16333614 0.26972803 -0.24956731 -0.11998397 0.042727616 -0.0026321984 0.19429483 -0.22947645 -0.2801003 -0.017814474 -0.15848312 -0.098895356 -0.15339184 -0.1287399 -0.029433962 -0.10373668 0.033352476 -0.19645494 0.21850911 -0.086864434 0.11875053 -0.116036996 -0.013092866 0.2458756 0.06674808 -0.06451904 -0.019090604 -0.20224312 0.014465716 0.27367818 -0.075652264 -0.03148229 0.0023360346 0.045042887 0.08795536 -0.015988445 -0.12715405 -0.01875244 -0.12333902 0.014711482 0.17592914 -0.3591352 0.14409554 -0.29355273 0.21936697 -0.1703833 0.0623943 -0.08165641 0.02932389 0.06897958 -0.22297363 0.29881614 -0.24570575 0.17945495 -0.078812 0.113494635 -0.014801803 0.24535987 -0.017754948 0.14506932 -0.0077729756 -0.07323436 0.04073293 0.06540176 0.047121216 0.09002873 -0.0271525 -0.07823759 -0.33884418 0.3279601 -0.029806634 0.14489286 0.120922714 -0.0026793662 -0.3799087 -0.114958785 -0.4362105 0.10022401 -0.31789133 0.17324148 0.082408085 0.052484237 -0.111425124 0.15425919 -0.36655432 -0.0110878665 0.11771412 0.07478344 -0.11349769 0.12002904 0.1696294 0.10427168 -0.03325103 -0.07363962 -0.03798765 0.12257981 -0.01393696 0.37791526 0.11386377 -0.23307529 0.19197525 0.07850395 0.053146753 0.00016309235 -0.32528263 -0.15472944 0.00017341909 0.12508294 0.12682036 -0.03146498 0.10614495 0.29731497 -0.24154872 -0.28218168 -0.1739418 -0.18663865 -0.18743569 -0.059983775 0.2954544 0.026922518 0.016928216 -0.21152633 -0.09687133 0.08516996 -0.024495471 0.3754587 0.22852433 0.18117353 0.06687846 -0.004287279 -0.13766013 -0.12621865 -0.18314962 -0.0052356585 -0.05504863 0.053104095 -0.059393443 0.20629556 -0.026348596 0.18463896 -0.14517015 0.13636658 0.05217958 -0.29641306 -0.22323495 0.16897117 0.09608899 -0.14771587 -0.07329749 0.20838621 -0.11766659 -0.07893308 -0.06792803 -0.15454867 0.0366777 -0.071175896 -0.3323753 0.015179053 -0.17293924 -0.27243745 -0.21721771 0.16096103 -0.33159724 0.00904998 -0.09606882 -0.0072819763 0.12616807 -0.034138814 0.11243492 0.065721445 0.010050493 -0.0697328 -0.025058532 0.22317006 0.20725213 0.09050289 0.032822404 -0.22146241 -0.09558415 -0.101146914 -0.1626743 0.028962858 0.002797636 0.06257548 -0.03735156 -0.019594453 0.41650814 0.1521269 0.27945602 -0.26735955 0.054116294 0.12077907 0.2267164 -0.010539493 -0.029371655 -0.007605725 -0.113701016 0.030927883 0.36196983 0.004033409 0.1128282 0.17259732 0.0777962 0.12808041 -0.21840125 -0.14948471 0.027563762 0.13652393 0.2581153 -0.022778364 0.0259442 0.066324055 -0.019468304 0.12240441 -0.2672106 -0.18416019 -0.123454496 -0.11689446 -0.22818042 -0.07067941 -0.15537393 0.13429326 -0.11760982 -0.04955759 -0.1929377 0.18345425 -0.15540986 0.044152316 -0.23605084 0.09331895 -0.24402985 -0.08033563 -0.15510373 -0.0645819 0.09255802 0.16857012 0.019872844 0.01304307 0.18670252 0.026658034 -0.25365868 0.32465753 0.061003495 -0.01785589 -0.13231878 -0.27696356 -0.10671859 -0.07707646 0.09157796 -0.19475241 0.07449408 0.081997305 0.20752111 0.048521336 0.26609868 0.123985745 -0.035023727 0.05235773 0.013353751 0.09994699 0.12991811 0.19601731 0.10236718 -0.049988326 0.24808288 0.06366076 0.2214797 0.063136555 0.07560271 0.06323433 0.037901063 0.1622837 0.09428308 0.10653712 -0.095863976 -0.109553225 0.041235756 0.063067146 -0.19925812 0.3062374 -0.12223479 -0.053852234 -0.21869698 -0.25254303 -0.036281757 -0.11016605 0.044860546 -0.009588455 -0.18807259 -0.059118282 -0.044349868 0.0021861773 0.06955886 0.08837562 -0.14039037 -0.1865214 -0.06517917 0.019113017 -0.012260528 0.18020591 -0.017594576 -0.29859707 0.15232904 0.23844685 -0.028342508 -0.09161319 0.24375343 0.08876322 0.12228299 0.07028154 0.022616424 -0.32544672 -0.119046524 0.042374764 -0.17426673 -0.1273008 0.1678432 0.08726994 0.16039737 0.06763301 0.06060264 0.009112692 -0.12846199 0.14675912 0.39351785 0.32015458 -0.23674612 -0.00626523 -0.11339397 0.23613057 -0.14353524 0.31790152 -0.16344127 0.1464324 0.18605687 -0.38237512 0.37432206 -0.04760257 -0.061850205 -0.051335696 0.023738684 0.05009527 0.003496332 -0.104990914 -0.017688258 0.15321521 0.41589752 -0.11661626 0.17305812 0.07629666 -0.07193923 0.0086448295 -0.22503498 0.07672564 -0.15241891 0.04707356 -0.100775346 -0.2349295 -0.282574 -0.013486217 0.05276113 0.20554118 -0.02272428 0.14398637 0.114320055 -0.27350682 -0.13050874 0.29730055 -0.05971875 0.22270703 -0.08675841 0.1825065 0.09407283 -0.013416384 -0.1328622 0.22527392 -0.042560026 -0.06267814 0.09085219 -0.03689122 -0.063735895 0.24097237 0.09378565 -0.18865642 0.00014823636 -0.27994582 0.15919493 -0.07666673 0.2518011 -0.41010076 -0.12061998 -0.26787487 0.02164096 -0.18963699 -0.20350963 -0.23311862 0.029226413 0.14869681 -0.31955728 0.04932519 -0.08828155 -0.21063693 -0.13795668 -0.07777146 0.082029924 0.3575713 0.101282045 -0.10189055 0.4275962 -0.09763879 0.23209763 0.1323485 0.055437297 -0.048628353 -0.17370103 -0.18424718 -0.005599 -0.06294274 -0.115457274 -0.22704959 0.23050484 0.22240087 0.06644089 -0.03523181 0.099248834 0.17314385 -0.11543575 0.20258535 -0.098690875 -0.028743621 -0.014762924 0.14280993 -0.23597571 0.098427676 0.06419907 0.067897744 -0.039667174 -0.20123996 -0.0031787935 -0.021193203 -0.24532048 0.16177908 0.15429169 0.12539607 0.08316735 0.2901527 -0.1916428 0.15103447 -0.15416011 0.28759378 -0.032362632 -0.0069288407 0.096289426 0.12640871 -0.15718208 -0.009093572 -0.14993367 0.1624423 0.09480785 0.44765556 0.06672687 -0.26732677 -0.10019979 0.036606207 0.08186989 0.3708157 0.07149267 -0.15197591 -0.06306199 -0.20003635 0.11465355 -0.005223251 -0.4217475 -0.27415583 0.09580893 -0.27601293 0.11007965 -0.010774706 0.15133443 -0.12781787 0.21687074 -0.15967086 -0.012418563 -0.23312248 0.25805548 -0.06383545 -0.12590379 -0.081107534 0.053440355 -0.14947896 -0.40239927 0.10757056 0.28268665 0.03360039 -0.05440597 -0.08978114 0.1629599 -0.16638945 0.25707608 0.01563234 0.022849558 0.07225346 0.167808 -0.3450884 0.25402763 -0.17846055 -0.096906476 -0.2190713 0.050762076 -0.11913498 0.05992774 -0.19977625 -0.33796945 0.14918333 -0.14930205 0.13222213 -0.08067646 0.15442637 0.029265469 0.310655 0.08520751 -0.124558054 0.076947376 0.15535374 -0.062953815 0.053015623 0.13741326 -0.00042792186 0.16894342 -0.11002557 0.1964971 0.11923627 0.12962216 -0.12071254 -0.13436697 0.16833873 0.17435358 -0.32037336 0.2053329 0.31596395 -0.1713676 0.041815765 0.021142533 -0.19042554 0.20172442 -0.08478144 -0.041428845 -0.1672029 -0.19494931 -0.08771708 0.07007429 0.14324114 0.10526429 0.036285117 0.09747381 -0.1727423 -0.18177457 0.07549002 -0.12986884 -0.0055286977 0.03401399 -0.06599513 -0.046924703 0.02209773 0.06703586 0.20489213 -0.080629095 0.094738476 -0.051781606 -0.042168893 -0.019465994 0.2509126 -0.2980765 -0.025963832 0.060275704 0.035704024 -0.33666193 
