49 700
/root/meme-glossary/test_data/4_label_xml/94화_잠은행上/94화_잠은행上-020.xml -0.3422433 -0.13747172 -0.18588738 1.0501748 0.13473623 -0.21629703 0.4691716 0.82938623 0.16059248 0.0019310713 -0.5640163 0.55729944 0.43472046 -0.34696326 -0.39362738 0.2703905 -0.56935036 -0.730921 -0.78053427 0.025372755 -0.41379887 0.10036914 0.45615658 0.010715505 0.48604867 -0.36264104 0.51417065 -0.4962426 0.206834 -0.16185242 -0.19813094 0.035979263 -0.3463905 -0.41296455 0.012319207 -0.00023930769 0.533532 -0.8352453 -0.17084575 -0.45256972 -0.24345665 -0.6324092 0.2174341 -0.08657876 -0.5921973 -0.059084903 -0.3341554 0.4173 0.22946088 0.022111377 0.4080623 0.10910817 0.120412275 0.4367629 0.0021659336 1.0002286 0.11600113 0.12777495 -0.52742845 -0.34505114 0.04063274 0.29491025 0.621338 -0.45438582 -0.8398422 0.006909331 -0.30834138 0.45146927 0.28115773 0.23297274 0.13498215 -0.19825481 0.8412265 -0.15523243 0.460605 0.19348752 0.6719316 0.42491966 -0.3557787 -0.6651521 0.6220418 -0.39352924 -0.8993014 0.16115236 0.25491822 0.004076799 0.228509 0.7143612 -0.8445139 -0.38144454 -0.3680026 -0.33243316 0.19788298 -0.8477983 0.09986295 -0.20438531 0.5020645 0.066085935 -0.3387607 0.10881575 -0.19888465 -0.15847413 -0.059485458 0.14620952 -0.10587013 -0.5136829 0.49276686 -0.23657791 -0.25976786 0.2289487 0.4924574 -0.07340072 -0.14068596 -0.307545 -0.24918693 0.6003587 -0.70628214 0.6051185 0.2574347 0.3616011 0.7662313 0.16556315 0.54226035 -0.44959778 -0.6316525 -0.1875366 0.44047618 -0.1747866 0.14733289 -0.6943213 -0.130379 -0.29614764 0.34677678 0.5576043 -0.24778514 0.043119095 0.6663294 0.57654136 -0.40791535 0.18094334 -0.22095501 0.1484134 -0.55773723 0.14014004 -0.24996231 -0.23010193 -0.27127403 0.2966584 0.4375019 -0.4729151 0.13206762 0.5096401 -0.42139983 0.73037076 0.14943455 -0.2917316 -0.1525468 0.1880337 0.51042616 0.33934122 0.16493341 -0.14909956 -0.36203107 -0.2530691 -0.41820306 0.547052 -0.5854144 0.3407966 -0.6656958 -0.5977154 0.66797304 -0.70335114 0.13000605 0.17975926 -0.22072577 0.23836593 -0.35107273 1.057487 0.29451466 -0.21623729 0.11695981 0.23482296 -0.5014849 -0.15465543 -1.382416 1.0824094 0.3143147 -0.07333719 0.16375598 0.172689 -0.3240294 -0.40192255 -0.2943985 -1.0525943 0.053011566 -0.3252308 0.13263057 0.0887159 -0.94062614 -0.8115973 0.276728 0.004418294 0.08568627 -0.68960905 0.12775278 0.16423802 0.15480098 -0.4597177 -0.81748056 -0.3876017 -1.0015888 0.8769726 -0.39434204 0.255813 0.58719176 0.5161931 -0.42249054 -0.8117579 -0.3227608 -0.19231364 -0.27579936 -0.09045323 0.15098727 0.4069211 0.41236624 0.75381625 -0.50256824 -0.49646425 -0.24170443 -0.004274577 0.28136405 0.30190438 -0.4324746 -0.023190755 0.96062267 0.80751055 0.2113964 0.044605315 0.3231 -0.14921105 0.06014953 0.98315877 0.3178771 0.36572143 0.08330572 -0.3037636 -0.45360062 -0.64208674 -0.5795988 -0.015565572 -0.32930085 -1.128886 -0.48324177 0.4934256 -0.46589667 -0.5769216 0.107649885 -0.674808 0.1548625 0.018239558 0.79369545 -0.1358346 -0.33777294 0.41365024 0.2655415 -0.054691195 -0.51672643 0.331375 0.09987377 0.80217713 -0.7231536 -0.48813996 0.3679833 0.6511308 -0.58671165 -1.0031352 0.22304687 -0.1455435 -0.30623144 0.1341819 -0.3103454 -0.26562223 -0.7696337 -0.3124892 -0.2384734 -0.31199542 0.40752786 0.526698 -0.23820631 -0.2809688 -0.26234162 0.35638842 0.11675501 -0.03281512 -0.62196416 -0.27835134 0.24274807 -0.24128632 -0.00141867 0.8278215 -0.13952933 0.33944196 -0.8196956 -0.69802344 -0.30538318 0.45348716 -0.78891134 -0.7582981 0.24175869 -0.13331959 -0.4241104 0.3406424 0.4846244 -0.045422625 0.51572526 0.87218857 0.5377733 -0.5155641 0.45503187 0.018554091 0.32686833 0.17700362 0.6936941 -0.4645943 -0.39924845 -0.24114834 -0.67887634 0.40773878 0.2530511 -0.03979981 0.18212342 -0.23700815 -0.12586053 -0.54526675 -0.41468227 -0.0761365 0.197573 -0.5462452 -0.9480929 -0.1915048 -0.035735976 -0.40315923 -0.45605093 0.39463657 0.0464324 -0.40335703 -0.6022083 -0.5248055 0.37448287 -0.65194225 -0.13981108 -0.03365942 0.23814094 -0.71975565 -0.38646826 -1.1085073 0.23816161 0.36019063 -0.29853892 -0.3838259 0.005332993 0.31233972 -0.025775364 0.7048061 -0.7927536 -0.28600833 0.4179587 0.24635199 0.430629 0.013705432 0.24772441 0.01802826 -0.32014894 0.046438795 -0.3050455 -0.49406552 0.491243 -0.07485652 0.23442101 0.7646407 0.82657635 -0.32983148 -0.36407027 -0.1719118 -0.79191935 -0.4248681 0.20890206 -0.0800271 -0.63262296 0.07070928 0.44014567 -0.4930111 0.21594039 0.43284392 -0.287701 0.32280606 -0.3789019 0.5921436 0.26400638 0.48653826 -0.07985066 -0.115857065 -0.58504987 0.46684417 -0.00772814 -1.1727562 0.70938706 0.237847 0.73214805 -0.03488332 -0.07692004 0.4897384 -1.0987555 0.429043 -0.6776082 -0.25859955 -0.29083055 0.24726675 -0.50570756 -0.3583836 -0.39809462 -0.6316855 -0.2985459 -0.16283344 -0.56275076 -0.2665483 -0.18916164 -0.1417984 0.4993996 0.2530042 0.15828685 -1.4009871 -1.0318063 0.1474341 0.30483717 0.007935385 -0.38294083 0.12685023 -0.37907848 -0.19446573 0.03923025 0.128856 -0.050559968 -0.101177976 1.0695925 -0.45020232 -0.15220901 0.51499397 0.11521705 -0.54497117 -0.3523466 -0.037948098 0.17643665 0.081166886 0.139707 0.8056756 0.6775211 0.53263885 -0.7134883 0.39814147 0.5536585 -0.7015757 -1.2065738 0.34390634 -0.45643663 1.1461943 -0.5190434 0.3720791 0.8353376 -0.09887305 -0.15156741 0.32689995 0.44163054 -0.16110408 -0.0673771 -0.05801809 0.18345736 -0.6503133 0.35634726 -1.2415708 -0.20690441 -0.13554704 -0.13991308 -0.1989731 0.3995503 -0.4039862 -0.497145 -0.13741606 0.88215554 -0.017320454 0.29951966 0.3794299 0.23875462 0.47618335 0.33085054 -0.15075049 0.8769125 0.83046407 -0.36733466 0.7531643 -0.13335475 0.9507772 -0.48110843 -0.9195623 0.18188539 0.028121475 0.09799044 -0.0039176843 -0.122880094 0.50524867 0.12569511 0.3508852 -0.879069 0.24195485 0.5866682 0.27782816 -0.07571166 0.46272123 -0.69999313 -0.6233185 -0.1754484 0.19357108 -0.6092252 0.73673344 -0.44525635 0.8653409 0.61048263 -0.06792937 0.9677663 -0.42466778 -0.60797656 0.61057544 -0.37456784 0.24017493 0.3095702 0.14451396 0.3688817 0.46296674 -0.041730266 -0.10772153 -0.01617073 -0.13141674 0.40998238 0.2820551 -0.0073737307 0.095371425 -0.9539473 -0.5040165 -0.3499779 0.11183339 -0.13247351 -0.59453046 0.52423656 -0.042114656 -0.38417405 0.17196026 -0.5504302 0.20398794 0.032635037 0.6776523 0.39437002 0.32515323 -0.67737097 -0.048533734 0.5434139 0.29263693 0.29749456 -0.1536181 -0.4709866 0.13464735 -0.6893393 0.04622134 0.108489394 -0.075207345 0.08346677 -0.08107273 -0.22853935 -0.21676517 0.16990487 -0.39733046 -0.28531978 -0.14476755 0.30355263 -0.19112572 0.14829165 0.39784285 -0.7230067 0.033295296 0.118970655 0.49408674 0.5447016 0.10698664 -0.72804594 -0.1521877 -0.30750856 -0.42097306 -0.49879918 -0.14473063 -0.077166915 0.7102861 0.00841707 0.10448571 -0.7403004 -0.5607847 0.9074859 0.5049633 -0.45958537 -0.8621954 -0.033441335 0.3230018 -0.075351 -0.047363162 -0.29273635 -0.6944009 0.1571392 0.3477674 -0.022021374 0.9547391 0.45320505 -0.07236199 0.592935 0.53463846 0.22930413 -0.12688689 0.24947664 -0.1152251 -0.90413225 -0.1295012 -0.32063743 0.2615314 -0.5145847 -0.091425836 -0.8077817 0.78644764 -0.4344434 0.015707135 -0.114798784 0.14106847 -0.054896414 -0.9148299 0.37321442 0.11672552 -0.24022701 -0.22219084 -0.44186458 -0.15496916 -0.027323067 0.6564406 -0.07259332 -0.5440241 -0.17948443 -0.16482852 0.6481503 0.50837505 -0.21899557 1.0565131 -0.5003247 0.7665844 0.030606827 -0.05651629 0.03754471 0.5935166 -0.39686 1.2628342 -0.30071104 -0.06775742 0.58430207 -0.30085683 0.15464458 0.55771625 -0.48728713 0.1268723 -0.5541796 -0.6110299 -0.3735249 -0.16760355 -0.047476094 -0.11939945 0.43452996 -0.38881016 -0.37937784 -0.55718774 0.4791114 0.14664802 -0.04955008 -0.8726896 0.24824338 0.2970107 0.26291704 -0.26929414 0.36440843 -0.10376732 -0.74354285 -0.22769958 -0.016447943 -0.7156781 0.2044212 0.29510394 0.16195601 0.84213734 
/root/meme-glossary/test_data/4_label_xml/94화_잠은행上/94화_잠은행上-005.xml -0.10863153 -0.14536929 0.4007156 -0.005058434 0.25933853 -0.3829125 -0.08398595 0.09630879 0.257419 0.17590514 0.06874014 -0.37170643 -0.2490153 -0.13093542 0.24092175 -0.3034982 -0.25660083 -0.60460323 0.0013651501 0.018457944 0.06688741 -0.40958524 0.5099181 0.076113194 -0.42148438 -0.3185911 0.48899433 0.5497406 0.25626007 0.2447796 -0.05685855 -0.4593279 -0.48398137 0.7044795 0.16032611 -0.17650327 0.78052753 0.03734601 -0.04493657 0.09882727 0.08936173 0.41574797 -0.33546406 0.15258548 0.23831293 0.5680597 0.39730927 -0.06059615 0.0012751537 -0.3016917 0.16390844 -0.46341482 -0.2910071 -0.051081426 0.14001435 0.24467662 -0.860157 0.39006788 0.24768484 0.5547109 -0.15499681 0.7689365 0.17931548 0.5291869 -0.63211936 -0.21679598 -0.6876189 -0.43291432 0.07180047 -0.33435008 -0.7243701 -0.14365093 0.21151482 -0.20470418 -0.9297277 0.38526872 -0.12065466 -0.14975959 -0.32898626 -0.32851413 -0.052098576 0.53018105 0.19994529 -0.66976166 0.16142188 0.6729009 -0.49605155 0.15023176 -0.18531756 0.35908782 0.9312612 -0.71224946 -0.107796 -0.23376764 -0.20277447 0.27101618 -0.16022597 0.20745656 -0.3870449 0.26740047 -0.040640138 0.3291906 0.6672751 -0.3632226 -0.7009443 -0.115296125 -0.39054582 0.07813619 0.18818337 -0.4413348 -0.23466016 -1.3745362 -0.09291428 -0.9011076 0.4864668 -0.6632913 0.21679462 0.18682848 -0.59690946 -0.085664496 -0.40378752 -0.34795052 -0.31987363 0.9687502 -0.79135495 -0.64075494 -0.8362884 -0.10261207 0.45041236 0.64463025 -0.080472074 -0.079076104 -0.109074734 0.021899994 -0.21531363 0.099954255 0.12326759 0.67754805 -0.005932768 0.022698019 -0.2527289 0.013736897 0.03125799 -0.11588844 -0.019422563 -0.13222058 -0.24265403 -0.093045816 -0.11183604 -0.024109168 -0.199461 -0.12140818 -0.8232702 -0.28950074 0.21786529 -0.58486944 -0.27110398 0.7613828 -0.3119435 -0.5666753 -0.039377052 -0.40203357 0.53817034 -0.7570313 0.50392354 0.25435388 -0.12905674 0.8536563 -0.36819762 -0.3388802 0.7543947 0.14422505 -0.56393385 -0.094156906 0.19077465 0.014744215 0.52549344 -0.48611096 -0.24647132 0.18245015 0.17289926 -0.35327393 -0.10406839 -0.8198485 -0.3180906 -0.59697473 0.28569028 -0.08777238 -0.78469384 0.41335675 -0.0823548 0.3849701 -0.6782361 0.8446311 -0.45246604 0.055754032 0.25182933 0.1442611 -0.17774944 0.06673073 -0.0027616122 0.28746656 -0.12659284 -0.6637172 -0.2866005 0.19403261 -0.89842147 -0.8614371 0.40704623 0.3537619 1.033401 -1.1237205 0.11068827 0.22328025 0.133364 0.5314537 0.051792473 -1.1347843 0.28834558 0.14288865 -0.04533179 -0.55967194 -0.3375793 -0.23652901 0.013411337 0.3285462 0.25735566 -0.27895823 -0.5821581 -0.36809787 0.48791268 -0.3559307 -0.5601785 -0.7212866 -0.08188342 0.32412523 -0.2522415 0.6521681 0.21814533 0.21712188 -0.020524709 -0.69719994 0.5631138 -0.37152073 -0.44468176 0.00017321964 0.4910927 0.08496066 0.6102142 -0.8602607 -0.5620999 -0.17098643 -0.60188144 -0.1315139 -0.3038604 0.10757776 -0.21531035 -0.03197939 0.30103076 -0.47081572 -0.0101367105 0.8002855 -0.18667395 -0.15001595 -0.48633617 -0.15212418 0.29801273 -0.6997229 -0.39721364 -0.056023512 -0.19046439 0.05432699 0.35477874 -0.49205077 -0.55543846 0.5395808 -0.23058555 -0.07388979 -0.41374785 -0.062697865 0.008404056 -0.03871029 0.017146237 0.26961607 -0.09453449 0.7337963 0.11346438 0.07550637 0.4680735 0.4125885 -0.020352468 -0.17239779 0.45227435 0.45499602 -0.48208642 0.17218322 0.19270793 0.40739307 0.47204617 -0.57156926 -0.15031314 0.6760734 -0.14199567 0.38614365 -0.40889832 -0.50956655 0.09356942 0.52032214 0.46961185 0.46393865 -0.30534846 0.20852873 -0.18012396 -0.19597079 -0.05823337 0.12622839 -0.18531261 -0.36411586 0.30625063 -0.32024854 -0.04792186 0.17966108 0.113841675 0.1220758 -0.13289645 -0.24658263 0.31057677 -0.10681923 -0.17710869 -0.2242775 0.10811687 0.20518886 -0.52388036 0.55466163 -0.512109 -1.1966721 0.101375766 -0.475256 -0.53486866 0.5014152 -0.21180585 0.2920254 -0.48943552 0.004983825 0.7228905 0.7805873 0.14384045 -0.4385488 0.063641004 0.17967281 0.3913609 -0.04675799 0.18922506 -0.13096638 -0.2703086 0.44316098 -0.56256855 -0.26702496 0.032399554 0.5008564 0.446414 0.24073456 0.22603306 0.13681869 -0.14801744 -0.38688067 -0.42471063 0.3409914 -0.72599137 0.24085592 0.5764531 0.4136209 0.09811586 0.0022642415 0.38160807 0.89898133 0.42060092 0.007964274 -0.5306525 -0.9735385 -0.24478698 0.30031475 0.47919905 0.2388249 -0.005267972 0.33042017 0.49401924 -0.5440019 -0.14048316 -0.46297798 -0.25711897 0.20856987 -0.06485555 -0.17887856 0.5925904 0.15389368 -0.47248143 0.40218425 -0.03294968 0.18252997 -0.38122478 -0.53676176 -0.8638056 -0.35457078 -0.22627002 -0.25412488 0.06671051 0.21469837 0.93881994 -0.36915794 0.2991912 0.2495469 -0.61780727 -0.019944444 0.51653403 -0.3155856 -0.24602035 -0.7294931 0.18661486 0.14328659 0.40963376 -0.30396843 -0.780804 -0.51426876 -0.4153268 0.27776083 0.009745734 0.5826569 0.3606144 -0.39583507 -0.13351104 0.35370564 0.019465694 -0.06651173 -0.09595769 -0.14467162 -0.31232092 -0.07261277 0.014632331 0.24043539 0.23748635 0.4934412 0.08390784 0.012575567 0.11554138 -0.56606954 0.1985112 -0.1802056 -0.38463387 -0.48247358 -0.31373107 -0.5744184 -0.5292434 -0.49744207 -0.042421732 0.43828183 -0.072775826 0.6176225 0.25960767 -0.05797925 0.0807495 -0.41411144 0.7346337 -0.023109931 0.47493643 0.13521287 0.16239652 0.19761595 -0.65998477 0.40635416 -0.5942814 0.19797142 -0.07266255 -0.21317849 -0.31104872 -0.19670197 -0.36986724 -0.08958456 0.12385651 0.24645369 0.124974765 -0.78406054 -0.15968144 0.1555573 0.35625327 0.7698344 0.6912069 -0.5369584 0.12266032 -0.28008088 -0.4298707 -0.03757601 -0.22356763 0.6408394 0.6138793 0.25985754 0.068487756 -0.7205889 0.2928939 0.113580376 0.05362463 -0.112604864 0.19603856 -0.56109643 0.31737843 0.123445556 0.17909652 0.32700548 0.45566067 -0.40892553 0.2730669 1.1809319 0.22888364 0.21582487 -0.35871845 -0.93078667 -0.18784806 0.73051876 -0.5032061 0.053418234 -0.21708472 0.38496473 0.25129077 0.82778525 0.22472808 -0.28840864 0.10929815 0.0577192 0.34300932 0.2031606 0.17133737 0.027034536 -0.17978255 0.22992371 -0.05170674 -0.05525882 0.0618186 -0.3469881 0.05277027 0.1640863 -0.08009646 0.5237563 0.49236476 -0.028297871 0.0762964 0.26984972 -0.99009377 0.7763219 0.02174981 0.31020066 -0.29039246 -0.18096194 -0.4615811 0.35136685 -0.18555064 0.45348597 -0.30448237 -0.416884 0.040041056 -0.2616142 -0.14508611 -0.15672886 0.19874884 0.38399217 -0.50816315 0.23560241 -0.8548925 0.0039653764 -0.1396709 -0.10704078 -0.4351911 0.2598913 0.50616294 1.147989 -0.16523756 -0.76825804 -0.0532798 0.6995512 -0.2684472 -0.50433666 -0.33765018 -0.46283534 0.42510855 -0.37405416 0.23111977 -0.24051787 0.39663708 0.623368 -0.24433556 0.6023832 -0.20745589 0.036326192 0.24788465 -0.533101 -0.14867163 0.6513381 0.027823292 -0.39380866 0.12627776 -0.009176444 0.15488143 0.84434694 -0.5279386 0.137561 -0.113470204 -0.04005894 -0.04497305 0.19109705 -0.24202615 -0.34686345 -0.27563977 0.733517 -0.24425146 -0.67570037 0.38862923 -0.066079155 0.41065204 0.05352639 0.09333157 0.66369325 0.17254889 0.22815435 0.10295566 -0.054348342 0.065615624 0.8438084 -0.36791217 0.09541135 -0.056401394 0.4225287 0.16087654 -0.06801685 0.23903553 -0.3910731 0.58399403 0.29866254 -0.16013478 0.12156052 0.27397668 -0.022574808 0.82209426 0.5136981 -0.058608312 -0.53274536 -0.39612532 0.22555217 0.61588407 -0.35458416 0.030656867 -0.54642105 -0.7372416 -0.19937053 -0.26809973 0.13424236 -0.8540571 -0.37288016 0.25566158 -0.3126209 0.6133087 -0.34465465 -0.50037056 0.4453339 0.11998001 -0.24167362 0.082671516 0.3325482 -0.6699214 -0.07719597 0.6096677 0.1366044 -0.62035334 0.2975917 0.3686808 0.14796625 -0.31868124 -0.3885837 -0.22028898 -1.0280551 -0.023103118 -0.2784307 0.3779243 -0.2733585 0.2659831 -0.08808422 0.17401487 -0.028144024 -0.034869764 -0.124012865 -0.29655713 1.0678854 0.2110017 -0.35815504 -0.103406906 -0.44681758 -0.5441888 0.027412282 -1.1571908 -0.3367091 -0.30776381 -0.7021796 
/root/meme-glossary/test_data/4_label_xml/94화_잠은행上/94화_잠은행上-028.xml 0.07586218 0.5663673 0.22530198 0.49872062 -0.031224787 -0.20427728 -0.054002482 0.3590342 -0.55360144 0.042633533 0.062621474 -0.347648 0.4229142 0.4438811 0.015972476 -0.0068087736 0.050367594 -0.1589083 -0.19639699 0.27423215 -0.033409826 -0.09518856 0.16830125 0.40158647 -0.121841796 -0.55474246 0.34418672 -0.1510295 0.03964593 0.062054247 -0.44679385 -0.0017645136 -0.10694763 -0.22211644 0.3090524 -0.32433796 0.2992943 0.15351436 -0.168604 -0.27842623 0.60178864 0.5333361 -0.004269773 0.47974086 0.015798002 0.13892207 -0.28814927 -0.4130456 0.029513428 0.08735912 -0.1508511 -0.070994385 -0.26214465 0.18325916 -0.36218643 0.07218491 0.031492528 0.046465512 0.41819513 0.39356697 -0.024093192 -0.25176576 -0.29187328 0.08264767 -0.4213953 -0.054288615 0.030918196 0.003938347 0.022822544 0.02209296 -0.26710337 0.08460599 0.29957217 -0.12111302 -0.020929225 0.13718697 0.2599297 0.04229521 0.22582802 -0.11596094 0.06826864 -0.07259425 0.2253673 -0.25866094 0.17150107 0.009873997 0.03681597 0.19754866 -0.019421048 0.510976 0.15763454 0.062519744 0.18251744 -0.2180874 0.25849307 0.23091498 0.35711282 -0.13459137 -0.17849104 -0.020273361 0.3741122 -0.060087737 -0.0102500245 -0.121423334 0.40383518 0.2941096 0.24483216 0.4334838 0.53970546 -0.3020783 0.04330513 0.16031666 0.007907085 -0.23426358 0.09591269 -0.014665663 -0.06882473 -0.17485645 -0.22050592 -0.1923599 -0.19597328 -0.38927764 -0.30381343 0.18008323 -0.00765697 -0.1780748 -0.29033113 -0.18284984 -0.09195271 0.057934538 -0.11472668 0.006828472 0.13604781 -0.17311044 0.1932497 0.09309338 -0.35800314 -0.111605935 -0.2097502 -0.13889426 -0.098283276 0.13029844 -0.058611933 -0.22630304 -0.092370845 0.07247039 0.039306074 0.12610242 -0.33000487 -0.202264 -0.13360453 -0.107732296 0.15907711 0.28712228 -0.2670961 0.36564046 0.40690574 0.2488102 0.124693654 0.25371143 -0.4434558 -0.15057135 0.2800187 0.0459226 0.28257123 0.1105497 0.11911578 -0.11870295 0.18108878 -0.11007957 0.17013928 0.17217498 -0.2557344 -0.12793481 0.090621024 0.09289577 0.044695485 -0.13430585 0.0339818 -0.44330475 0.01593149 -0.25466177 0.0949782 -0.015170168 0.044033233 0.05421869 0.0454176 -0.09306975 0.62183076 0.013232771 -0.08557777 -0.18015331 0.5309834 -0.42801636 0.08205213 -0.20875067 -0.02023609 -0.14084697 0.023451699 -0.008254442 -0.64998126 0.21612945 0.49496007 0.34418985 -0.00046827644 -0.002081085 0.1958522 0.09837776 -0.42120716 -0.450722 -0.038846157 -0.30406606 0.1581881 0.032823913 -0.2755263 -0.1862448 0.2130707 0.01692447 -0.041835316 -0.34358257 -0.22107385 -0.019590616 -0.00011882186 -0.25313506 -0.13087305 -0.09533033 0.2696284 -0.68633074 -0.03315352 0.021018196 0.36995715 0.26218197 0.24758592 -0.048045486 -0.32917124 0.02973193 0.15226984 -0.24743646 -0.08257408 -0.19793993 -0.7687623 0.66482 -0.20779276 0.44378495 0.16653167 -0.15221101 -0.18630801 0.091773845 0.12644462 -0.23540938 -0.016922772 -0.49115118 -0.16568853 0.5135335 0.28185976 -0.48791635 0.14674659 -0.3752737 -0.16108383 -0.081190936 -0.42605805 -0.20557612 -0.9750278 -0.45614862 0.3748733 -0.22695512 0.69228226 0.079524025 0.06111385 -0.22800381 -0.491858 -0.1810616 0.026649185 0.031757172 -0.20916718 0.46829176 0.20723718 -0.21052308 0.09494753 -0.29580933 0.38300768 -0.15825824 -0.009426698 0.20957774 -0.13575377 -0.23612413 -0.25987554 0.18294361 0.29552573 0.23661964 -0.24189061 -0.38716644 0.17903133 -0.2078189 0.0051657036 0.2497111 -0.0053267777 -0.36748117 -0.06847876 -0.21333459 -0.34282875 0.36455908 -0.043007493 0.45062327 -0.109427325 0.0008985251 0.30735236 0.022279462 -0.62363774 0.2794077 0.09639971 0.15412696 0.22051136 0.34945133 -0.1417284 -0.17047165 -0.5205008 0.14734355 0.29712197 -0.3598593 -0.48323026 0.109090015 -0.09594823 0.12022353 0.080165654 -0.17486916 0.2473138 -0.332036 -0.09900776 -0.2560441 -0.10200569 0.100511394 0.15260571 -0.009437546 0.16530967 0.28433222 0.08977787 0.003604196 -0.2361156 -0.5064762 -0.0367624 0.4849369 0.09208069 0.10510792 0.22996554 -0.2668987 -0.03739216 -0.3293888 -0.117533796 -0.42908674 -0.19537458 -0.25739086 0.2145629 0.040921412 0.29261208 -0.31339356 -0.16396895 0.09292497 0.3152854 -0.12514824 0.21941055 -0.549569 -0.5261722 0.010848016 0.0067461133 -0.15151761 -0.0049792677 -0.2155788 -0.10099152 -0.40659717 0.19605735 0.2448001 0.45178074 0.37335253 -0.04668551 0.2651202 -0.31159717 -0.64480305 0.055804163 0.09805455 0.13331777 0.23971337 -0.13941813 0.33341897 0.28708953 -0.070724934 0.3020273 0.08889542 -0.12791562 0.05566335 0.27009767 -0.1975452 0.20933239 -0.2833692 0.24331746 -0.059254184 -0.538155 0.14839968 0.02316352 -0.16825244 -0.04498886 0.023768485 0.04185404 -0.0025647413 0.42860043 -0.043588683 0.21143976 -0.27851614 0.15926127 -0.08089934 -0.23304607 0.12686498 0.0785976 -0.83443034 0.0764556 -0.115064666 0.0347483 0.11785911 -0.40224838 -0.10141185 -0.08606493 0.4081121 -0.062289357 0.22865604 -0.1257486 0.42845088 0.02728916 0.12027342 0.39823893 0.28981316 0.012630776 -0.28482604 -0.16612211 0.031030715 -0.025493965 0.018600836 -0.011415221 0.0074685104 0.22606179 -0.35023528 -0.060054105 0.10004999 0.0657901 -0.049497247 0.058578745 -0.3469932 -0.058306172 0.17134161 0.22737099 -0.0018696077 0.026426964 -0.05507473 0.19004436 -0.10453306 0.43670726 0.18676563 -0.28419635 -0.12340069 -0.2559824 -0.01782814 -0.047369912 -0.08095499 0.05987293 0.056849018 0.015686411 0.3580878 -0.09211023 -0.096433535 0.5790551 -0.2024914 0.1003402 -0.01011515 -0.3179478 -0.10351115 0.0398525 -0.0407067 -0.018779255 -0.093832575 0.024680924 -0.18869057 -0.20551379 0.012442309 -0.013075982 0.35269982 0.18373379 -0.3572133 -0.18602195 -0.008355934 -0.29494292 -0.127469 0.2122468 -0.3844189 -0.22041062 -0.10788581 0.20518848 0.20067066 0.2940017 0.1330696 0.06306069 -0.69567126 -0.005885441 0.4692961 -0.005062796 -0.036535267 -0.32946953 -0.016265407 -0.03503813 -0.15704954 -0.0051337164 0.1895708 0.07539378 0.34002966 0.026442144 -0.008607212 -0.11553192 -0.13135222 -0.57799405 0.35278702 0.28603086 0.11597407 -0.1231129 0.019305132 0.11566819 0.057419397 -0.18133408 0.07832281 -0.14492878 -0.10365266 0.18095642 -0.04406225 -0.38892907 0.3295287 0.5161063 0.067682534 -0.10718018 0.0076303557 -0.056160618 -0.32379305 0.34474263 0.33243415 -0.54469496 0.086630225 -0.26672792 -0.22593233 0.3203459 0.42867726 -0.19936134 -0.16015947 0.5061085 0.10772516 -0.033527248 0.6611556 -0.14961165 -0.03718634 0.21451859 0.09015709 0.020693455 0.2005466 -0.14301555 0.27644414 -0.13626182 -0.14023255 0.022082165 0.19296964 0.2965899 -0.37344444 0.0216854 -0.24844804 0.29268187 -0.0468411 0.07505627 0.028184503 0.0518439 0.3813157 0.20317662 0.48901626 0.31334147 -0.25930756 -0.04441727 0.014567932 -0.041915957 -0.02531796 0.13307275 -0.058337376 0.12252033 0.21232024 0.05524587 0.11706869 -0.22611731 -0.012221269 0.26907793 -0.092442825 -0.06645202 -0.15513289 -0.5263931 0.12996373 0.07492846 -0.29100984 0.23878463 -0.19446647 -0.27577543 -0.4631067 -0.145964 0.33689108 -0.09524988 0.14275715 0.1889065 -0.07138246 0.013997609 0.35863233 -0.35893095 0.3635607 0.22912252 -0.10274348 0.03237914 -0.43230793 0.006327726 0.08036508 -0.34216875 -0.09050754 -0.5226797 -0.056506127 0.021512687 -0.190618 -0.20154066 -0.31986564 -0.13876313 0.19663362 -0.2143427 -0.059690744 -0.3563702 -0.030741826 -0.25810325 -0.5598492 0.101870075 0.29402775 -0.37984255 0.25435 -0.06615405 -0.1389322 -0.36873838 0.12780413 0.47720036 -0.17542914 -0.064068824 -0.13082826 -0.24221198 0.00242877 0.004223585 -0.1717777 -0.3860848 -0.187039 0.16580075 0.36342227 -0.2615053 0.27201965 0.42521384 -0.21407098 0.29166734 -0.04189977 0.23786959 -0.24870753 -0.008470103 -0.29843315 0.026980951 -0.38657773 0.30672157 0.124801576 0.029298384 -0.19463211 0.22016697 -0.043246437 -0.06874545 0.32826063 0.15103345 0.271431 -0.097746275 -0.08856219 -0.007776782 0.10774946 -0.10573067 -0.4528568 0.20491219 0.42068422 0.11292669 -0.18458614 0.25303796 -0.12221867 -0.5495126 0.14310282 -0.10046152 0.49683183 -0.0054682344 -0.016070165 0.26231074 -0.40514475 -0.27776656 -0.086327605 -0.014948603 -0.06370631 
/root/meme-glossary/test_data/4_label_xml/94화_잠은행上/94화_잠은행上-035.xml 0.028739385 0.08811166 0.25456107 0.36477867 -0.18592003 -0.079542555 0.31104082 -0.21266915 0.28533462 0.40502632 0.04220753 0.20916153 0.17413118 0.7835241 0.04943244 -0.37952745 -0.19164696 0.032898307 0.16114217 0.01980711 0.168879 -0.09537553 0.009389112 0.07278846 -0.14846106 -0.21547568 0.41224912 -0.045017313 -0.1127071 0.20853584 -0.023545023 0.20767656 -0.016411774 -0.5390741 0.09222117 0.0078852605 0.18136154 -0.3908002 -0.54005814 -0.70582086 0.09663191 0.016580336 -0.04554312 -0.41452134 -0.23264222 0.4595118 0.41285422 -0.055622265 0.23767382 -0.091537446 0.41775316 -0.48530966 -0.21647766 -0.05561926 -0.18293448 -0.2791127 -0.18063134 -0.09780029 0.34084135 0.2477546 -0.21023794 0.30694923 -0.19020607 0.20952202 0.11171016 0.5188007 0.12379095 0.09251031 -0.013318608 -0.10882142 0.18632333 0.29942122 0.20305334 0.2637502 -0.3632302 -0.09560015 -0.05348338 0.118706346 0.05123918 -0.12850559 0.26096103 -0.2734632 -0.18424061 -0.32673654 0.36104652 -0.06734738 0.2596251 0.6067796 0.5127667 0.738217 0.054258555 0.09196096 0.15250319 -0.15644883 -0.20589109 -0.49888593 0.1513972 0.09903763 0.10781183 -0.013323691 0.10044146 0.46090734 0.4726337 0.45637673 0.3583214 0.1119982 -0.36500937 -0.23958942 0.3554142 0.51358783 0.15298888 0.012273687 0.11104688 -0.2676966 0.03489732 0.4491997 -0.53757536 0.013544688 0.53159946 -0.13620217 0.36647573 -0.16939372 -0.015675226 -0.44796672 -0.2708114 0.4180501 0.0073675346 -3.5073077e-05 -0.12326555 -0.4753816 0.58704627 -0.06452395 -0.0488637 -0.5296354 0.071622744 0.05750108 -0.31902313 -0.33267635 -0.11362618 0.16057846 0.15166621 0.4308754 -0.33545744 0.12883024 -0.1811802 -0.25879425 0.040033363 0.27196035 0.3371139 -0.047659196 0.6204554 0.11591663 0.09340403 -0.01903723 0.27521142 0.039032843 -0.25766706 -0.32349727 -0.31132025 0.13693732 -0.008847535 -0.44248524 -0.12371051 -0.20386642 0.25661606 -0.14740045 0.061770856 -0.309901 -0.1629823 -0.15757667 0.40986124 0.30514714 -0.20431186 -0.2569038 -0.03728705 -0.24650806 0.09620371 -0.2916809 -0.003351961 0.66178 -0.17635114 -0.18435304 0.11039907 -0.15312813 -0.14142306 -0.07118122 -0.2065174 0.2085868 0.029238524 -0.36051497 -0.2832919 0.07104113 0.26670817 -0.109164126 -0.1400119 0.024848444 0.080470845 0.0715054 0.00413236 -0.20486012 0.39956096 0.31744045 -0.114825115 0.0011067732 0.5671259 -0.09132222 -0.46685156 -0.21534154 -0.34255907 -0.34443298 0.62703776 0.05788214 0.29899016 0.04618515 0.027896738 -0.17125092 0.7367726 -0.44968846 0.09431554 -0.00035478923 0.033647265 0.2932772 -0.34082615 0.25432035 -0.43801618 -0.25618306 0.102595486 -0.3075039 -0.09511586 0.3703736 0.52940303 -0.045917265 0.27965757 0.055618696 0.15713301 -0.023918264 0.178555 -0.45137066 0.03017235 0.08146122 -0.17732498 0.31947076 0.053451695 0.21492451 -0.15348928 -0.06740387 0.07925323 0.3318059 0.45038417 0.2051548 -0.044602316 0.3354741 -0.26448548 -0.06019098 0.04925286 -0.23139921 -0.030347932 -0.28387237 0.118897274 -0.39274463 0.20566425 -0.29100883 -0.82666576 -0.09773273 0.2999127 -0.1841317 -0.11099343 -0.44480386 0.40022594 0.30836162 0.061002597 -0.05518182 0.1251996 -0.05363954 -0.57593995 0.04064892 0.23127514 -0.38490805 0.51559925 0.17452227 0.29427755 -0.4108937 0.24155009 -0.21970113 0.23309362 0.31921145 0.087123595 -0.11907092 -0.3529378 -0.3218339 -0.055895034 -0.39658225 0.15827888 0.019927103 -0.28708574 -0.23670042 -0.310077 0.1378656 0.081075296 0.24052808 0.1438643 0.26991677 0.2719094 0.29143584 0.15779522 -0.20482543 0.32171223 0.07484375 0.10689347 -0.035984434 -0.38546476 0.26270163 -0.03630423 -0.16319974 -0.2673431 0.5093368 0.22199076 -0.3844071 -0.25976142 0.11943364 -0.46535724 -0.30519372 0.13895926 -0.13671392 -0.060597315 0.04352756 -0.41541666 0.2634644 -0.050365783 0.14331493 -0.13860613 0.002382006 -0.320424 0.09389984 0.3793477 -0.16558866 -0.15732728 -0.35831675 -0.40146798 0.008408189 0.12880985 0.20592903 -0.31547153 -0.46904236 -0.02357498 -0.012567214 0.15453067 0.061662097 -0.14644563 -0.30506316 -0.09693371 0.286762 -0.3660217 -0.17721398 -0.2982638 0.10070895 0.1553801 0.21210192 -0.39803603 -0.18411723 0.24727304 0.3462819 0.027980346 0.06713575 -0.09519051 0.17533025 -0.060880195 -0.70615405 0.16916375 -0.36076084 0.15108484 0.54566956 0.13076141 -0.3529724 -0.2217716 0.3125173 -0.027740914 0.023226347 -0.45253593 -0.124937065 0.06353472 0.47554365 0.22936857 0.54273653 -0.06015049 0.013263435 0.24264127 0.05175809 0.10635906 0.03919815 -0.3799782 -0.22609694 -0.9691416 0.21384746 -0.028815003 0.5048024 0.4730855 -0.17341863 0.41960034 -0.31730238 0.047095012 0.14985567 -0.39076188 -0.099358626 0.21433946 0.44568455 -0.23788626 -0.08123248 -0.22162867 -0.09786888 -0.115343526 -0.27496117 -0.1999628 0.027475528 0.4239127 -0.38034979 0.46662182 0.15109783 -0.015220762 0.09416989 -0.047578182 -0.5454836 -0.23630361 -0.17685023 -0.17927857 -0.03391796 -0.33440432 -0.19427642 0.08755652 -0.24107921 0.020660996 -0.06285914 0.27490395 -0.12068782 -0.13537288 0.23262587 -0.25486907 -0.068612255 -0.09298773 -0.11015047 0.23290591 0.26554835 -0.4679866 0.3206195 0.7122907 -0.07224396 0.1753125 0.43020663 -0.5221676 0.16123006 -0.020518376 0.32476318 0.6636775 0.12811778 0.21639535 0.3297434 0.057553604 -0.16037774 0.5544275 0.28221652 -0.14220855 0.08136561 0.50015116 -0.23220496 -0.1375156 0.4079369 -0.18673013 -0.28053617 0.2549584 0.41142458 -0.09462079 0.33415812 -0.47143292 -0.05114038 -0.26331338 0.069045275 0.38932952 -0.22845978 -0.07540087 0.001951354 -0.00073129794 0.15470618 -0.23852229 0.24539782 -0.07085164 -0.15073243 0.15772313 0.014403684 -0.057878736 1.0331174 -0.30805096 0.15726088 -0.065989606 -0.16505538 -0.0140131125 -0.44326392 -0.3531911 0.28270134 -0.0157355 0.63061136 -0.12417668 -0.11502475 0.19358738 -0.14809564 0.33482897 0.24194634 -0.32557046 0.44233215 -0.11529759 0.018169582 -0.058974966 -0.42591888 0.063817635 -0.113141 -0.4449656 -0.04205836 -0.03953349 -0.21719041 -0.12965736 0.142293 0.030796835 -0.103270076 0.42123428 0.11391586 0.08817086 0.39724892 0.07992106 -0.16645189 0.37437713 -0.05172292 -0.24194165 0.2740712 -0.1838123 0.13852504 -0.2026307 -0.08880551 -0.44014972 -0.52256715 -0.1416802 0.09451051 -0.075958036 0.37928918 0.09331526 -0.454814 0.19852966 0.20297018 -0.36829016 0.0062679565 -0.086152166 -0.29257393 0.28656322 0.13414812 -0.189833 -0.03187692 -0.18932387 0.6507439 0.23028441 0.100375466 -0.010636995 0.27447787 0.43344158 -0.16099603 -0.2597713 0.44464427 -0.43368387 -0.07866641 -0.16593304 0.35330924 0.15779904 -0.27686033 0.17856734 -0.16351481 0.53350246 0.13978252 -0.15781721 0.09339986 0.40663415 0.4666751 -0.33313844 -0.050356664 -0.025923477 0.108040795 0.3543262 -0.10725397 -0.10795759 -0.3668216 -0.40551338 -0.250816 -0.0035492014 -0.3811796 0.6903916 -0.18330024 0.20073505 -0.36830392 -0.45783392 -0.04126869 -0.15722418 -0.2336398 -0.017684191 0.49949273 0.09148697 -0.39509076 -0.3227923 -0.28593105 0.49189052 -0.14426653 -0.092205614 -0.18294327 0.5044357 -0.24332058 0.09699626 0.16744104 -0.3064955 -0.22897418 -0.057096515 0.054772597 -0.17614475 -0.05857694 0.5185846 0.2231349 -0.1413499 0.65520555 -0.070533976 -0.40744266 0.08022892 0.013182198 -0.49514416 0.005030726 -0.1632187 0.03352622 -0.085186996 -0.17659715 -0.2720372 0.109714285 0.18805467 0.4338399 -0.08261523 -0.31688744 0.36004215 -0.0707395 -0.20107785 0.08300009 0.34018728 0.07654464 0.18624732 0.07745179 0.748051 0.04010544 -0.031183938 -0.107732356 0.22700222 -0.13348907 0.06512189 -0.013814701 -0.111343406 -0.24201274 0.098970726 0.53590924 0.42770106 0.15926918 -0.18232785 0.24754569 0.43063298 0.21177702 0.20227756 -0.47126478 0.15993723 0.12757282 -0.50015104 0.20342971 -0.12697293 0.098698 -0.09970047 0.0909207 -0.459589 0.30550474 -0.2021888 -0.2792157 0.030567978 0.10272949 0.055317987 -0.13859133 -0.15242545 0.13103394 0.52807057 0.11810795 0.46765098 0.22489525 -0.3667124 0.4675612 -0.16160135 0.15886123 -0.38866815 -0.1013114 -0.1645504 -0.34869617 -0.49324268 0.09464113 0.4529932 -0.13661489 
/root/meme-glossary/test_data/4_label_xml/94화_잠은행上/94화_잠은행上-027.xml 0.17682198 -0.27212286 -0.18990405 -0.72552407 -0.26418406 -0.95165384 0.92319393 1.745975 0.7198809 -0.45233876 0.05394487 -0.19013351 -0.52198195 1.2339146 -0.30850998 0.38485396 0.028010413 -0.16490927 -0.14603537 0.0763586 0.30880314 -0.288418 -1.0361487 -0.5281598 0.12430622 0.4625118 -0.24412137 0.41413322 0.302345 1.2245026 -1.4580215 -1.2361827 0.5216781 0.50717485 0.15449879 0.02873291 -0.6034361 -1.2287661 -0.19351727 -0.4931885 -0.63652545 -0.31091645 0.467436 -0.77357817 -0.037176132 0.06306398 -0.118285775 0.13177276 0.19942681 -0.53579175 0.1751845 -0.13622084 -0.1614476 0.16761386 -0.7055696 -0.0866276 -0.9787004 -0.16261786 -0.13804904 -1.2706913 0.02873063 0.36596802 -0.48330024 -0.43743378 0.4395405 0.2946238 -0.47610494 -0.17965165 0.09625651 0.37043446 -0.55334646 0.6128048 -0.17268342 0.8142726 0.15829355 0.86655986 -0.9347088 -0.2469701 -0.16825032 -0.25080878 -0.78935456 -0.16428477 -0.79963994 -0.51560616 -0.40671974 1.0614468 -0.37702963 1.2122738 -0.86985135 1.0643926 0.7709991 0.33457938 0.9621894 0.33940226 1.0003062 0.9131921 0.442093 0.65140444 0.18403736 -0.6468108 -0.4618762 0.95930624 -0.20880762 -0.114501595 -0.43388927 0.08837515 -0.68072635 0.09198661 0.07967075 0.14722458 0.064541236 -0.86389184 -1.3279349 0.44139692 -0.44374925 0.06891708 -0.18930899 0.20745295 0.7631312 -0.6228723 -0.64701957 -0.44637007 -0.4546491 0.09389761 0.52685297 -0.12634766 0.21127433 0.5197623 0.19456702 -0.17040308 -0.33829212 0.5190782 -0.6547497 0.11483662 -0.457645 0.022251222 -0.25213027 -0.5336735 -0.3770176 0.7083714 -0.2734667 0.016600728 -0.69512254 -0.3356669 0.29992273 -0.25825706 -0.42480433 0.098423705 -0.10077108 1.116245 0.9507888 0.9773027 -0.4421856 0.036303848 0.23944409 -0.51464236 -0.38651022 -0.1706851 0.04852912 0.0897791 -0.08980763 0.6637598 0.5118448 0.25462273 -0.3378081 -0.2000277 -0.44644356 -0.52724344 0.1492219 0.48008645 -0.4402737 0.08861369 -0.32145578 -0.07334879 -0.6053188 -0.18112385 -0.21542181 -0.70595825 0.5050447 -1.3622928 -0.44848338 -0.3677402 0.7682492 -0.022453547 -0.28079736 -0.3041126 0.39292428 0.15395936 0.1519464 -0.027134618 0.12790143 -0.11547029 1.2193537 0.59729385 0.79325354 -0.23375806 -0.13879326 -0.2114814 0.42008576 -0.94724035 0.18891267 -0.4943319 0.095943205 0.07701501 1.0471216 -0.00035416428 -0.15485516 -0.8249283 0.833629 0.012431029 0.27582064 0.2640829 -0.44592828 0.5590477 -0.1799343 -0.9628236 0.13831365 0.94205904 -0.50999093 -0.15149704 -0.75625205 0.3208692 -0.29403684 1.2879604 -0.64737433 0.35696644 -0.61261714 0.91074765 0.7156296 -0.24824415 0.10475262 0.13205978 1.3746077 0.47301888 -0.3705349 -0.35655153 0.07595966 -0.505092 -0.68641317 0.38811648 -0.8694444 -0.97156596 -0.38146967 -0.055235356 -0.05717157 0.59067714 -0.2867074 0.18869017 -0.63950753 -0.3157135 -1.0521009 -0.14659873 -0.4253212 0.19277272 -0.11681843 -0.21350522 -0.25551218 -0.10718424 -0.9545977 0.46930873 -0.009491891 0.7588035 -0.14386362 0.7802573 -0.53116447 -0.5097564 -0.2176505 0.09857763 -0.057308972 -0.7189777 1.0046179 -0.6875799 0.0850403 0.31515706 -0.5166335 0.047466733 0.6613471 -0.45595944 0.54195 -0.21855664 0.54838777 -0.45785287 -0.13058236 0.3714902 -0.5518133 -0.04407078 -0.68475354 -0.907671 0.0003476143 0.17219597 0.27082148 0.24251662 1.2077215 -0.14496298 -0.06227665 -0.43812507 0.035713553 -0.12933311 -0.55647826 -0.016811423 0.22889343 0.10740854 -0.18113479 -0.5530456 -1.163342 0.64127934 0.88895303 0.36389232 -0.024312109 -0.8372495 0.096820295 -0.3195908 0.67530346 0.7620308 -0.042729825 -0.74633837 -0.5711577 -0.13986054 -0.108890235 0.34166333 0.040397212 -0.49491823 -0.17987454 -0.31794742 -0.43509486 -0.3944932 0.22451204 -0.6219913 0.06328261 -0.09937988 0.13427243 0.5509145 -0.16461185 0.54504293 -0.611177 -0.13962108 -0.2522959 1.4071426 -0.030836798 -0.23499317 0.3724602 -0.3939653 0.47470516 -1.1323106 -0.30343315 -0.7557928 -0.4900947 0.22656843 0.69063866 -0.15323782 -0.09783752 0.43506545 0.5425184 0.50514305 -0.044094935 -0.42340553 -0.58921796 -0.8661616 0.97298086 -0.29871887 0.6652229 0.55299324 -0.4262589 0.046092123 0.09020245 0.29158673 0.08353317 -0.02543892 1.2025039 0.06795557 1.0302941 0.33584142 0.43603304 0.44859636 -0.39835247 0.93504375 -0.22132063 0.16098864 0.66937417 -0.54671097 0.1784341 0.28503877 0.03582011 0.10280281 0.2800966 -0.23468435 1.0665638 -0.54524326 0.30562085 -1.7093109 -1.1007684 -0.8019741 0.3283437 0.18586385 -0.16759387 0.16261229 0.9114061 0.55323493 -0.110192224 -0.22987762 0.065657824 0.8988782 0.121911526 -0.055684477 0.49562863 0.72850955 -0.14189483 0.2996313 0.67753947 0.47144753 -0.7673954 -0.16030417 0.009246901 0.5111543 0.41282156 0.19138286 0.73315644 -0.7563686 0.31824678 0.21670789 1.1147149 -0.149723 1.1765821 0.19463229 -0.60143596 0.37043238 0.10911012 0.29573125 -0.60388106 -0.9593606 -0.16140907 0.68967456 -0.6089366 -0.7453966 -0.3066971 0.49820137 0.7043663 -0.04615611 0.16754395 -0.6357583 -0.1883275 0.69383585 0.90243423 -0.13534208 0.043217793 -0.29102138 -0.13698915 -0.96736956 -0.6498805 -0.38775435 0.48455936 -0.18696608 0.26736575 0.24916054 0.48171532 -0.7150657 0.12262811 0.7334392 0.27484778 0.47616702 1.2306621 0.549841 1.1257585 -0.196701 0.033824638 -0.7024673 -0.56595516 0.8028806 0.9207997 0.25986266 0.6471769 1.2831881 -0.16462132 -0.10679424 -0.09731344 -1.8100438 0.91204756 0.3440827 -0.510305 -0.8312193 0.24232468 0.2006062 0.38538557 -0.90541154 -0.6008512 -0.36775237 -0.24073124 -0.5155967 -0.26337293 -0.16568825 0.34867102 0.49088392 -0.00010818243 -0.16748667 -0.03631916 -0.6103183 0.3311712 0.3603214 -0.5185728 -0.63554907 0.9609313 -0.14116164 -0.7808898 -0.6485583 -0.6924641 1.0399067 0.6990525 -0.4929484 -0.13389042 0.09043354 0.3450883 0.51201284 0.047632605 0.31821445 0.44842726 0.09893165 -0.027420633 0.7422217 -0.88846356 0.28688204 -0.21108465 -0.46837604 0.6622828 -0.5975236 -0.1151129 -0.47063673 0.61308855 -0.22776513 -0.049788557 -0.6329011 0.6574663 0.6028949 0.82748497 0.33137462 -0.6674222 0.53543746 0.19551092 0.099759996 -0.122385845 -0.37475258 0.36394596 -0.9867315 0.1304191 -0.5319861 0.0937379 -0.31949648 -0.31234995 -0.3841189 0.05946523 0.948983 0.17930251 0.3308379 0.33151168 0.5423693 0.21685134 -0.400549 0.035755858 0.449754 0.059625834 -0.70094454 0.80697346 -0.07634936 -0.18700565 -0.44746342 0.35119736 -0.08647424 -0.13161376 0.07604368 -0.3386653 -0.14235884 0.4415526 -0.15703869 -0.070858404 -0.40977687 0.3652509 -1.1887025 -0.22954582 0.118686795 0.254849 -0.3593341 0.38878223 0.3637141 -0.31520328 0.87700945 0.69362843 -0.5042371 -0.11353965 -0.54919004 -0.20130764 -0.033094436 0.31127727 0.7925408 0.20760319 0.048540615 -0.7376938 -0.19685723 0.75489813 0.7703107 0.94254535 0.2762428 -0.009570748 0.50060844 -1.0045825 0.52412385 -0.50638884 0.72123337 0.73289466 -0.6077365 -0.19485433 0.124925196 -0.27861077 0.019592054 -0.46974644 -0.52764773 0.32811186 -0.50555086 -0.05244775 0.053416178 0.43473652 0.80180454 -0.19110721 0.6838642 -0.11683468 -0.37332517 0.5663429 0.4228845 -0.6742188 -0.29435888 -0.17290148 -0.59583807 -0.9058402 0.55232584 0.60042727 0.015426381 -0.5398498 0.76499474 -0.42461568 -0.42924753 0.088641465 -0.62994516 0.17540821 1.3487148 0.07066023 -0.06403671 0.18612933 -0.44888192 -0.4894727 0.13342047 0.7302881 -0.57400537 -0.26052517 0.040505275 -1.0570841 0.0010402426 -0.008427501 -1.1203068 -0.17510617 0.648916 -0.12168038 0.9623163 -0.24037996 1.3647375 0.259091 -0.6211508 0.9572971 -0.16797906 -0.57395595 -0.13803661 -0.28558588 -0.706303 -0.14709818 0.15473074 -1.1702629 0.9090145 0.19386682 -0.11153275 -1.0150368 0.4465912 -0.94527596 -0.13652806 0.9294441 0.53457874 0.18168822 0.37130484 -0.09193143 -0.041844696 0.011208713 -0.037419047 -0.13995147 0.5300226 0.19217575 -0.1725027 -0.009588361 0.54981005 0.4493177 -0.106755316 0.055678748 -0.21055193 0.8062576 0.7476113 
/root/meme-glossary/test_data/4_label_xml/94화_잠은행上/94화_잠은행上-040.xml 0.0 0.0 0.0 0.0 0.0 0.0 0.0 0.0 0.0 0.0 0.0 0.0 0.0 0.0 0.0 0.0 0.0 0.0 0.0 0.0 0.0 0.0 0.0 0.0 0.0 0.0 0.0 0.0 0.0 0.0 0.0 0.0 0.0 0.0 0.0 0.0 0.0 0.0 0.0 0.0 0.0 0.0 0.0 0.0 0.0 0.0 0.0 0.0 0.0 0.0 0.0 0.0 0.0 0.0 0.0 0.0 0.0 0.0 0.0 0.0 0.0 0.0 0.0 0.0 0.0 0.0 0.0 0.0 0.0 0.0 0.0 0.0 0.0 0.0 0.0 0.0 0.0 0.0 0.0 0.0 0.0 0.0 0.0 0.0 0.0 0.0 0.0 0.0 0.0 0.0 0.0 0.0 0.0 0.0 0.0 0.0 0.0 0.0 0.0 0.0 0.0 0.0 0.0 0.0 0.0 0.0 0.0 0.0 0.0 0.0 0.0 0.0 0.0 0.0 0.0 0.0 0.0 0.0 0.0 0.0 0.0 0.0 0.0 0.0 0.0 0.0 0.0 0.0 0.0 0.0 0.0 0.0 0.0 0.0 0.0 0.0 0.0 0.0 0.0 0.0 0.0 0.0 0.0 0.0 0.0 0.0 0.0 0.0 0.0 0.0 0.0 0.0 0.0 0.0 0.0 0.0 0.0 0.0 0.0 0.0 0.0 0.0 0.0 0.0 0.0 0.0 0.0 0.0 0.0 0.0 0.0 0.0 0.0 0.0 0.0 0.0 0.0 0.0 0.0 0.0 0.0 0.0 0.0 0.0 0.0 0.0 0.0 0.0 0.0 0.0 0.0 0.0 0.0 0.0 0.0 0.0 0.0 0.0 0.0 0.0 0.0 0.0 0.0 0.0 0.0 0.0 0.0 0.0 0.0 0.0 0.0 0.0 0.0 0.0 0.0 0.0 0.0 0.0 0.0 0.0 0.0 0.0 0.0 0.0 0.0 0.0 0.0 0.0 0.0 0.0 0.0 0.0 0.0 0.0 0.0 0.0 0.0 0.0 0.0 0.0 0.0 0.0 0.0 0.0 0.0 0.0 0.0 0.0 0.0 0.0 0.0 0.0 0.0 0.0 0.0 0.0 0.0 0.0 0.0 0.0 0.0 0.0 0.0 0.0 0.0 0.0 0.0 0.0 0.0 0.0 0.0 0.0 0.0 0.0 0.0 0.0 0.0 0.0 0.0 0.0 0.0 0.0 0.0 0.0 0.0 0.0 0.0 0.0 0.0 0.0 0.0 0.0 0.0 0.0 0.0 0.0 0.0 0.0 0.0 0.0 0.0 0.0 0.0 0.0 0.0 0.0 0.0 0.0 0.0 0.0 0.0 0.0 0.0 0.0 0.0 0.0 0.0 0.0 0.0 0.0 0.0 0.0 0.0 0.0 0.0 0.0 0.0 0.0 0.0 0.0 0.0 0.0 0.0 0.0 0.0 0.0 0.0 0.0 0.0 0.0 0.0 0.0 0.0 0.0 0.0 0.0 0.0 0.0 0.0 0.0 0.0 0.0 0.0 0.0 0.0 0.0 0.0 0.0 0.0 0.0 0.0 0.0 0.0 0.0 0.0 0.0 0.0 0.0 0.0 0.0 0.0 0.0 0.0 0.0 0.0 0.0 0.0 0.0 0.0 0.0 0.0 0.0 0.0 0.0 0.0 0.0 0.0 0.0 0.0 0.0 0.0 0.0 0.0 0.0 0.0 0.0 0.0 0.0 0.0 0.0 0.0 0.0 0.0 0.0 0.0 0.0 0.0 0.0 0.0 0.0 0.0 0.0 0.0 0.0 0.0 0.0 0.0 0.0 0.0 0.0 0.0 0.0 0.0 0.0 0.0 0.0 0.0 0.0 0.0 0.0 0.0 0.0 0.0 0.0 0.0 0.0 0.0 0.0 0.0 0.0 0.0 0.0 0.0 0.0 0.0 0.0 0.0 0.0 0.0 0.0 0.0 0.0 0.0 0.0 0.0 0.0 0.0 0.0 0.0 0.0 0.0 0.0 0.0 0.0 0.0 0.0 0.0 0.0 0.0 0.0 0.0 0.0 0.0 0.0 0.0 0.0 0.0 0.0 0.0 0.0 0.0 0.0 0.0 0.0 0.0 0.0 0.0 0.0 0.0 0.0 0.0 0.0 0.0 0.0 0.0 0.0 0.0 0.0 0.0 0.0 0.0 0.0 0.0 0.0 0.0 0.0 0.0 0.0 0.0 0.0 0.0 0.0 0.0 0.0 0.0 0.0 0.0 0.0 0.0 0.0 0.0 0.0 0.0 0.0 0.0 0.0 0.0 0.0 0.0 0.0 0.0 0.0 0.0 0.0 0.0 0.0 0.0 0.0 0.0 0.0 0.0 0.0 0.0 0.0 0.0 0.0 0.0 0.0 0.0 0.0 0.0 0.0 0.0 0.0 0.0 0.0 0.0 0.0 0.0 0.0 0.0 0.0 0.0 0.0 0.0 0.0 0.0 0.0 0.0 0.0 0.0 0.0 0.0 0.0 0.0 0.0 0.0 0.0 0.0 0.0 0.0 0.0 0.0 0.0 0.0 0.0 0.0 0.0 0.0 0.0 0.0 0.0 0.0 0.0 0.0 0.0 0.0 0.0 0.0 0.0 0.0 0.0 0.0 0.0 0.0 0.0 0.0 0.0 0.0 0.0 0.0 0.0 0.0 0.0 0.0 0.0 0.0 0.0 0.0 0.0 0.0 0.0 0.0 0.0 0.0 0.0 0.0 0.0 0.0 0.0 0.0 0.0 0.0 0.0 0.0 0.0 0.0 0.0 0.0 0.0 0.0 0.0 0.0 0.0 0.0 0.0 0.0 0.0 0.0 0.0 0.0 0.0 0.0 0.0 0.0 0.0 0.0 0.0 0.0 0.0 0.0 0.0 0.0 0.0 0.0 0.0 0.0 0.0 0.0 0.0 0.0 0.0 0.0 0.0 0.0 0.0 0.0 0.0 0.0 0.0 0.0 0.0 0.0 0.0 0.0 0.0 0.0 0.0 0.0 0.0 0.0 0.0 0.0 0.0 0.0 0.0 0.0 0.0 0.0 0.0 
/root/meme-glossary/test_data/4_label_xml/94화_잠은행上/94화_잠은행上-006.xml 0.0 0.0 0.0 0.0 0.0 0.0 0.0 0.0 0.0 0.0 0.0 0.0 0.0 0.0 0.0 0.0 0.0 0.0 0.0 0.0 0.0 0.0 0.0 0.0 0.0 0.0 0.0 0.0 0.0 0.0 0.0 0.0 0.0 0.0 0.0 0.0 0.0 0.0 0.0 0.0 0.0 0.0 0.0 0.0 0.0 0.0 0.0 0.0 0.0 0.0 0.0 0.0 0.0 0.0 0.0 0.0 0.0 0.0 0.0 0.0 0.0 0.0 0.0 0.0 0.0 0.0 0.0 0.0 0.0 0.0 0.0 0.0 0.0 0.0 0.0 0.0 0.0 0.0 0.0 0.0 0.0 0.0 0.0 0.0 0.0 0.0 0.0 0.0 0.0 0.0 0.0 0.0 0.0 0.0 0.0 0.0 0.0 0.0 0.0 0.0 0.0 0.0 0.0 0.0 0.0 0.0 0.0 0.0 0.0 0.0 0.0 0.0 0.0 0.0 0.0 0.0 0.0 0.0 0.0 0.0 0.0 0.0 0.0 0.0 0.0 0.0 0.0 0.0 0.0 0.0 0.0 0.0 0.0 0.0 0.0 0.0 0.0 0.0 0.0 0.0 0.0 0.0 0.0 0.0 0.0 0.0 0.0 0.0 0.0 0.0 0.0 0.0 0.0 0.0 0.0 0.0 0.0 0.0 0.0 0.0 0.0 0.0 0.0 0.0 0.0 0.0 0.0 0.0 0.0 0.0 0.0 0.0 0.0 0.0 0.0 0.0 0.0 0.0 0.0 0.0 0.0 0.0 0.0 0.0 0.0 0.0 0.0 0.0 0.0 0.0 0.0 0.0 0.0 0.0 0.0 0.0 0.0 0.0 0.0 0.0 0.0 0.0 0.0 0.0 0.0 0.0 0.0 0.0 0.0 0.0 0.0 0.0 0.0 0.0 0.0 0.0 0.0 0.0 0.0 0.0 0.0 0.0 0.0 0.0 0.0 0.0 0.0 0.0 0.0 0.0 0.0 0.0 0.0 0.0 0.0 0.0 0.0 0.0 0.0 0.0 0.0 0.0 0.0 0.0 0.0 0.0 0.0 0.0 0.0 0.0 0.0 0.0 0.0 0.0 0.0 0.0 0.0 0.0 0.0 0.0 0.0 0.0 0.0 0.0 0.0 0.0 0.0 0.0 0.0 0.0 0.0 0.0 0.0 0.0 0.0 0.0 0.0 0.0 0.0 0.0 0.0 0.0 0.0 0.0 0.0 0.0 0.0 0.0 0.0 0.0 0.0 0.0 0.0 0.0 0.0 0.0 0.0 0.0 0.0 0.0 0.0 0.0 0.0 0.0 0.0 0.0 0.0 0.0 0.0 0.0 0.0 0.0 0.0 0.0 0.0 0.0 0.0 0.0 0.0 0.0 0.0 0.0 0.0 0.0 0.0 0.0 0.0 0.0 0.0 0.0 0.0 0.0 0.0 0.0 0.0 0.0 0.0 0.0 0.0 0.0 0.0 0.0 0.0 0.0 0.0 0.0 0.0 0.0 0.0 0.0 0.0 0.0 0.0 0.0 0.0 0.0 0.0 0.0 0.0 0.0 0.0 0.0 0.0 0.0 0.0 0.0 0.0 0.0 0.0 0.0 0.0 0.0 0.0 0.0 0.0 0.0 0.0 0.0 0.0 0.0 0.0 0.0 0.0 0.0 0.0 0.0 0.0 0.0 0.0 0.0 0.0 0.0 0.0 0.0 0.0 0.0 0.0 0.0 0.0 0.0 0.0 0.0 0.0 0.0 0.0 0.0 0.0 0.0 0.0 0.0 0.0 0.0 0.0 0.0 0.0 0.0 0.0 0.0 0.0 0.0 0.0 0.0 0.0 0.0 0.0 0.0 0.0 0.0 0.0 0.0 0.0 0.0 0.0 0.0 0.0 0.0 0.0 0.0 0.0 0.0 0.0 0.0 0.0 0.0 0.0 0.0 0.0 0.0 0.0 0.0 0.0 0.0 0.0 0.0 0.0 0.0 0.0 0.0 0.0 0.0 0.0 0.0 0.0 0.0 0.0 0.0 0.0 0.0 0.0 0.0 0.0 0.0 0.0 0.0 0.0 0.0 0.0 0.0 0.0 0.0 0.0 0.0 0.0 0.0 0.0 0.0 0.0 0.0 0.0 0.0 0.0 0.0 0.0 0.0 0.0 0.0 0.0 0.0 0.0 0.0 0.0 0.0 0.0 0.0 0.0 0.0 0.0 0.0 0.0 0.0 0.0 0.0 0.0 0.0 0.0 0.0 0.0 0.0 0.0 0.0 0.0 0.0 0.0 0.0 0.0 0.0 0.0 0.0 0.0 0.0 0.0 0.0 0.0 0.0 0.0 0.0 0.0 0.0 0.0 0.0 0.0 0.0 0.0 0.0 0.0 0.0 0.0 0.0 0.0 0.0 0.0 0.0 0.0 0.0 0.0 0.0 0.0 0.0 0.0 0.0 0.0 0.0 0.0 0.0 0.0 0.0 0.0 0.0 0.0 0.0 0.0 0.0 0.0 0.0 0.0 0.0 0.0 0.0 0.0 0.0 0.0 0.0 0.0 0.0 0.0 0.0 0.0 0.0 0.0 0.0 0.0 0.0 0.0 0.0 0.0 0.0 0.0 0.0 0.0 0.0 0.0 0.0 0.0 0.0 0.0 0.0 0.0 0.0 0.0 0.0 0.0 0.0 0.0 0.0 0.0 0.0 0.0 0.0 0.0 0.0 0.0 0.0 0.0 0.0 0.0 0.0 0.0 0.0 0.0 0.0 0.0 0.0 0.0 0.0 0.0 0.0 0.0 0.0 0.0 0.0 0.0 0.0 0.0 0.0 0.0 0.0 0.0 0.0 0.0 0.0 0.0 0.0 0.0 0.0 0.0 0.0 0.0 0.0 0.0 0.0 0.0 0.0 0.0 0.0 0.0 0.0 0.0 0.0 0.0 0.0 0.0 0.0 0.0 0.0 0.0 0.0 0.0 0.0 0.0 0.0 0.0 0.0 0.0 0.0 0.0 0.0 0.0 0.0 0.0 0.0 0.0 0.0 0.0 0.0 0.0 0.0 0.0 0.0 0.0 0.0 
/root/meme-glossary/test_data/4_label_xml/94화_잠은행上/94화_잠은행上-021.xml 0.008441447 0.24639761 0.09406384 0.19917984 -0.017576406 0.49358383 0.2134909 -0.043874558 -0.25456166 0.5135011 0.04387553 -0.025902133 -0.16855484 -0.0442741 -0.029922806 -0.14182754 0.24663253 0.124035314 0.100770295 0.19824594 0.0757361 -0.365209 0.21066082 0.20823312 -0.24104233 0.1870227 0.22222373 -0.26668265 -0.0011183278 0.47253042 0.002713386 -0.07781897 -0.2980453 -0.13077603 -0.4405014 0.25403926 0.4278842 0.039413143 -0.16391806 -0.54423016 0.1490966 0.45027134 0.11055373 -0.29883617 -0.3089684 -0.2546581 0.30045694 0.3263172 0.17085835 0.31974557 -0.25141758 0.056190286 -0.17157997 0.28016755 -0.83832103 -0.4843602 0.18414299 -0.10610532 0.09553016 -0.09360683 -0.25931096 -0.34654552 -0.26432568 0.08930315 -0.054880604 -0.31195432 -0.05339747 -0.021150716 0.12179251 -0.02609216 -0.12368728 -0.18025376 0.06181895 -0.058173455 0.085096054 -0.21318667 0.017451385 -0.07991422 0.074237205 -0.0014528775 0.14147009 -0.29068765 -0.3596173 0.55450815 -0.0040601995 0.2525696 0.17574675 0.106012404 -0.15173228 0.009659499 -0.434611 -0.04668928 0.271349 -0.3945979 0.14834589 -0.3964654 -0.024423612 -0.14414704 0.029787736 -0.3072488 0.1569546 0.026407806 0.41602337 0.14243579 -0.14154075 0.45627552 0.044854324 -0.063791305 -0.34325638 -0.041579485 0.11270349 0.08512139 -0.5691491 0.051827885 -0.19767217 -0.13601853 -0.24757485 0.029026456 0.3300864 0.1165806 -0.22722696 0.03468636 -0.007068946 0.17050555 -0.22904629 -0.09255284 -0.08513902 0.06074021 -0.05192783 0.09673377 0.28353578 -0.051011894 0.31809333 -0.0721017 -0.04071668 -0.13117847 0.06985558 -0.067489415 -0.008456835 0.19463213 -0.29103565 -0.08156251 -0.32992175 0.22154483 0.3708249 -0.62052655 0.38054466 0.052845072 -0.31392986 0.056774933 -0.030763842 0.20406146 -0.13797587 0.0170183 0.10508777 0.08017398 0.2210443 0.09784241 0.22629334 0.5120472 0.033861242 0.14937116 0.0097448295 -0.28310886 0.1384636 -0.18075737 -0.12983783 0.1281419 -0.802692 -0.31919095 0.6266508 0.2894192 -0.011337812 -0.27059335 0.0842844 -0.43529978 -0.04073565 0.17704819 0.12287787 -0.24063084 0.1678495 -0.18330152 0.12762254 -0.033867713 -0.12621114 0.15360211 0.070142 -0.5650152 -0.3569151 0.49353993 -0.34674153 -0.5365141 -0.08731773 -0.18320715 0.22808078 -0.3152969 0.14858127 -0.17714252 -0.3307153 -0.32434368 0.4018697 -0.88560635 -0.1467967 -0.5779465 0.09754645 0.20115753 0.09581577 0.1741904 0.1860454 0.4798021 -0.3340208 0.15696357 0.21859577 0.22685842 -0.2728956 -0.15530705 -0.005920655 0.025854599 -0.08330651 0.099982135 -0.1886193 0.13102289 -0.23056613 0.03592298 0.2400932 -0.2501871 -0.017760415 0.010529617 -0.3901864 0.36653572 0.0920401 0.025281455 -0.37959966 -0.002888549 0.49001503 0.2991967 -0.07517317 0.4883148 0.39032525 0.6948513 -0.16901287 0.10422339 0.0064921645 0.22593106 0.17811473 0.109150074 0.13457525 0.040373873 -0.23049751 0.102698416 0.22204782 -0.44614786 0.10333224 -0.14347178 -0.11793962 -0.1457337 0.049272623 0.17867821 -0.2420709 0.17740679 -0.05657242 -0.18713772 0.07912938 0.06953808 0.045372922 -0.26529607 -0.21497026 0.07904158 -0.09956975 -0.108665824 -0.19418888 0.3045887 0.26092198 -0.25098398 -0.2105415 0.17810418 0.00861543 -0.27278793 -0.1618378 -0.18677785 -0.34107673 0.07603836 -0.20626232 0.25642726 -0.151812 0.18272299 -0.3758328 0.067113675 -0.15112713 0.15671746 -0.0423277 -0.095794246 0.28198087 0.22804086 -0.02424028 -0.07375459 0.34885776 -0.14184082 -0.15431266 0.23419619 -0.137105 -0.5048052 -0.22739631 -0.28682807 -0.012083873 -0.087653294 -0.18638852 -0.12142475 0.30738217 0.23051563 0.12230195 -0.074347086 0.20568319 0.040510323 -0.15872611 0.179709 0.09393556 -0.15756802 0.14614339 -0.053406645 0.11620641 -0.12423157 0.2937816 -0.13061525 0.098350056 0.44697574 0.18700087 0.12933207 -0.44378904 0.07800613 0.025750194 0.03987162 0.42828935 0.018091306 -0.18878725 0.064606816 0.25711724 -0.010820844 -0.4641258 -0.100469604 0.043522693 -0.21282177 0.16374062 -0.22488967 0.4261863 -0.15034033 0.681953 -0.181494 0.07264565 -0.65973383 -0.12256038 0.03682931 0.011937265 -0.50761825 0.23434338 -0.051264904 -0.0992268 0.15598132 0.31579244 -0.092904694 -0.32472697 0.052184545 0.246769 -0.2838832 0.07895115 0.33078963 -0.38287768 0.021540008 0.5836483 -0.16254793 0.25850132 0.026208099 0.2927378 0.1018674 0.28729796 -0.07611972 0.094575174 0.26590765 0.22667652 0.0284519 0.41722548 -0.047847908 -0.14310494 0.04837363 0.0835264 0.3737374 0.37164322 0.42955804 -0.04713268 -0.17504476 -0.14027698 -0.18380526 0.82808626 0.19836485 -0.088223495 -0.07835701 -0.013150257 -0.002893235 -0.7851388 0.18549556 0.17971255 -0.064030886 0.25105992 -0.10720325 0.26967755 -0.06723013 -0.021105524 0.03395147 0.39058772 -0.29671645 -0.28471607 -0.09399539 0.2016764 0.3034807 -0.058248222 -0.34085426 0.06346645 0.2035658 0.031186821 -0.078960106 -0.24626021 0.17850834 0.33921653 0.25284377 -0.06998023 0.077799 0.1462664 -0.28689528 0.28438547 -0.04709853 -0.18188293 -0.010913598 -0.2858964 -0.37044862 0.26627198 -0.13446575 0.029936027 -0.35707456 0.10115847 -0.027472503 0.0149553595 0.04387424 0.13657159 -0.049647894 -0.03849776 0.16233197 -0.12295609 0.3154005 -0.26262647 -0.4269692 0.18000986 0.022581346 0.17946368 0.1589066 0.12373192 -0.0076319003 -0.13796324 -0.008034916 0.1461732 -0.3155654 0.06415948 -0.5767766 0.15954709 0.23587558 0.15173692 0.050426066 0.14811173 -0.005826732 -0.18391384 0.239686 -0.058596153 0.15863225 -0.10453795 0.30811837 0.22314122 0.044988796 -0.42373714 0.059891902 0.19962364 0.33889315 0.3238652 -0.42195454 -0.16306439 -0.20673758 -0.32435414 -0.027504243 -0.34389043 -0.057328932 0.2854198 0.23650646 -0.1437747 0.10621404 0.30280554 0.4062905 -0.1852343 -0.16606216 -0.11700489 -0.09464259 0.17617564 -0.12622307 0.0990455 0.23249975 0.43541393 -0.2467584 0.13320708 -0.51762515 0.19765319 0.022249447 -0.026780823 0.030610194 0.25135383 -0.046704106 -0.06323502 0.11023139 -0.0667878 -0.12898257 -0.55002517 0.19573465 0.040769067 0.09412715 0.08861187 0.043670632 0.06500092 0.15074623 0.22321546 -0.09792376 -0.11936241 0.077809155 0.032616023 -0.23228839 0.13091806 0.34969753 -0.51081127 -0.33339125 0.16610858 0.21143386 -0.18119952 0.05872381 0.23529778 -0.1681573 -0.34270877 0.05639079 0.29764158 0.42770603 0.1294858 0.112195194 0.39203334 -0.083381 0.2657361 -0.1430846 -0.23087534 -0.2129883 -0.23150526 -0.3916527 0.26069957 -0.10366582 0.025949974 0.007963259 0.42591968 0.1723423 0.13268872 0.26940402 -0.23950592 -0.13653928 0.13737084 -0.051849127 0.25618485 -0.05995689 -0.2103284 -0.06858081 -0.042278487 -0.28874543 0.19843082 -0.12897386 -0.08343053 -0.13471654 0.30643752 -0.12790242 0.01572343 -0.26449415 -0.11878896 0.26941186 -0.124237314 -0.11382094 0.06654376 -0.21004891 0.4794969 0.0381449 0.06481565 -0.03437399 0.1675563 -0.044849984 0.4246934 0.042229764 0.22540782 -0.014647319 -0.22998412 0.41900924 -0.17006212 0.3449846 0.044929955 0.28229547 0.07325863 0.50376666 -0.12428665 -0.053708762 -0.0976393 -0.05275489 -0.049063127 -0.06429157 0.018838303 -0.020560881 -0.41523364 -0.7476849 0.5865543 0.44641748 -0.07008125 -0.26167843 -0.30981863 -0.03707028 0.2517115 0.11052135 -0.2018432 0.11507076 -0.23249954 0.11461845 -0.020101367 -0.107807346 0.009309452 0.05751241 -0.19995822 0.14827129 -0.39095494 0.2972663 -0.29451218 0.012939605 -0.009480699 -0.49906498 0.15979424 -0.21969907 -0.108597055 0.51357627 0.20948413 -0.01564011 -0.2934439 0.33999166 0.109998696 -0.04555909 0.19872823 0.46929508 0.48506796 0.38036123 -0.09806337 -0.42299402 0.056752637 0.1537836 0.39031523 -0.020865384 0.6130776 0.087775394 -0.0142778875 0.09932025 -0.31600726 -0.090314016 0.17389964 -0.17169975 0.15673174 -0.23788339 0.21880609 -0.34310633 0.0972987 0.19600354 -0.41695026 0.09651028 -0.039785255 0.24994043 -0.25468904 0.0818287 0.042409636 0.36694658 -0.71670914 -0.6787355 -0.4441695 -0.57942975 0.15508571 -0.16410539 0.15233514 -0.04838619 -0.04109303 0.5602812 0.14551903 0.32109234 0.11709724 -0.20041516 0.11747062 -0.16857962 0.4646236 0.08043374 -0.27538154 0.67652965 
/root/meme-glossary/test_data/4_label_xml/94화_잠은행上/94화_잠은행上-029.xml -0.607562 0.49894407 0.4876602 -0.057877142 -0.035607725 -0.20766921 0.46600124 0.15264377 0.056330092 0.5323957 0.23683561 -0.18641159 0.025547514 0.23121442 0.042275026 0.21106505 0.28348503 0.111406006 0.171851 0.22823289 0.28943673 0.2002575 0.24011888 -0.031683754 -0.22851528 -0.43010297 0.24813893 0.44764784 -0.1142362 0.47931188 -0.46743277 0.51159847 -0.17214768 -0.05863675 0.081394956 -0.34633604 0.27951628 -0.07687655 -0.014329699 -0.27679092 -0.25372794 0.32555124 0.016885841 0.039155826 0.086573765 0.16712734 0.15888336 0.28121844 -0.048378814 -0.13858421 -0.22641404 -0.4158012 -0.0033303036 0.5009449 -0.22230607 -0.0590777 -0.34626564 -0.019445138 0.18049668 0.35057926 0.1393731 0.7140998 -0.020395858 0.51480466 -0.43240649 0.12395399 0.36372066 0.07947691 0.31979978 0.18710576 -0.44945526 0.17742117 0.05116626 0.62459403 -0.21129568 -0.61393166 0.04209928 0.7183149 -0.2656516 0.17563446 0.39240497 -0.30785003 -0.04760298 0.21409054 0.49866164 0.16882011 0.18318966 -0.1582244 0.33013684 0.32438067 0.46638379 -0.09520618 -0.4152328 -0.44492045 0.086276986 -0.025060376 0.14262992 0.5324335 -0.025354693 0.59806174 0.43230107 0.17047545 0.42665556 -0.15145373 0.12962766 0.12859423 -0.6585272 -0.006653377 0.09971497 0.13421091 0.55119365 -0.1438601 -0.017506894 0.34265715 -0.0046973377 -0.05479853 0.2897597 -0.0849906 -0.5011924 -0.061330847 -0.11922932 0.37928575 -0.26187325 -0.18823445 0.025213862 -0.6117881 -0.36535993 0.4397545 0.015135437 -0.5943771 -0.20685656 0.04707472 0.5080574 -0.7793753 -0.3245522 -0.11065372 0.20001633 0.2051334 0.34890103 -0.0920526 -0.27410975 -0.10391322 -0.2948669 -0.39292532 0.023796707 0.03389624 0.16700587 0.23917304 -0.28469044 0.08566973 -0.015686247 0.3727628 0.4500051 -0.4580864 0.10827925 -0.15454485 -0.14450024 -0.05309025 0.06795915 -0.059839655 -0.20519336 -0.3522272 -0.31253126 0.031935852 0.64545184 -0.114990845 0.006154067 -0.2506701 -0.29693905 -0.17568924 0.116172194 -0.08485921 0.1758172 -0.09013322 0.105350696 -0.09846866 0.13713461 0.015390602 -0.2824616 0.07511049 -0.0037181808 0.3818256 0.10872741 -0.073616125 -0.27015945 0.013598648 0.16378334 -0.16097777 0.1447213 0.08825287 0.02984795 -0.56316876 0.22981048 -0.2524204 -0.26123205 -0.005046381 -0.28041652 0.15383667 -0.38608178 -0.48055634 -0.0697875 0.15649578 0.07734542 -0.439438 0.17222975 -0.28224197 -0.34907502 -0.43054953 -0.4698677 0.021629835 -0.10955602 -0.24921751 0.08168978 -0.2588934 -0.35909808 0.05030593 0.3974663 -0.0881908 0.011742221 0.1323436 -0.06620583 0.42814785 0.1515799 0.027667318 -0.33416203 0.08993456 -0.16183472 -0.2754688 -0.5587133 0.122073255 -0.08393504 0.27961713 -0.14407593 0.09519287 -0.28626457 0.010433574 -0.0020996598 -0.66592103 -0.47412124 -0.3568957 -0.04298932 0.12630418 0.006817253 0.28586787 -0.2364598 0.026749946 0.10490579 0.33115125 -0.14941844 0.19807799 0.25138336 0.0061175176 0.091879606 0.22220767 0.3694407 0.3807464 0.4850626 0.028088788 -0.12823628 0.31245384 0.43621624 0.1834494 -0.12589704 0.035601128 0.2991584 0.055241466 -0.03197374 0.45544297 0.14542265 0.11204963 -0.13135405 -0.36171874 0.11748425 0.40771738 -0.27642816 -0.26502323 0.048128117 -0.026909927 -0.27685472 0.23381416 0.21923536 0.353175 -0.044963017 0.23774621 0.14166504 0.2550231 -0.20757051 0.34043777 -0.2686527 -0.13785814 -0.27528933 0.31096557 0.49603072 -0.30065128 -0.3403875 -0.2552743 -0.047874007 0.14544119 0.42436796 0.16136408 0.013526701 0.099673785 0.1961622 0.12600693 -0.006560431 0.067370206 0.3944005 -0.103818215 0.30356652 0.2163526 0.6282184 0.33968472 0.5364966 -0.063267715 0.27690914 0.38455757 -0.15565255 -0.30340627 0.63013536 -0.24827088 -0.04285517 -0.016421152 -0.4834005 0.101573214 0.19543712 0.0023291674 -0.08560967 0.093991436 0.11533705 0.091479756 -0.08040666 0.028253688 -0.13759317 -0.12786876 0.37327486 0.10468932 -0.21377555 0.20770116 0.26840135 -0.38855308 0.27232137 0.3905644 -0.507665 -0.05818229 0.08691292 -0.080698766 -0.37495095 0.3513767 0.063320436 -0.20222232 0.014188998 -0.028984273 -0.087780155 0.5258374 -0.44174916 0.31557328 0.055421725 0.35840866 0.12072078 -0.09797462 0.07248083 0.13787085 -0.37097806 0.490943 -0.21213672 -0.09704508 -0.23188765 -0.12257302 0.04140458 0.085843034 -0.15764797 -0.1180611 0.09942786 -0.15832885 0.19121878 0.31774992 -0.057714216 -0.147154 -0.3359601 0.19573726 -0.1357487 -0.24740921 -0.032648895 0.013264147 -0.2701899 -0.04022246 0.25935382 0.12918778 -0.15514743 0.27454168 -0.06368605 -0.19063716 -0.10690974 0.28325796 0.27670473 -0.036109045 0.2608327 -0.30380973 0.25354743 -0.24596994 -0.25299492 0.13877171 0.085146345 -0.08532797 0.21759868 0.257046 0.014088045 -0.34102058 0.31558076 -0.0052015088 -0.33709013 -0.39233422 -0.17412293 0.14388461 0.41951838 0.16465001 0.16296084 -0.067404084 0.18173154 0.21292591 -0.13020042 -0.03202149 0.13387352 -0.25053763 0.22418277 -0.1527913 -0.06345324 -0.19656047 0.07401541 0.20392324 0.16482161 0.54578364 -0.0458736 0.06858078 -0.50835395 -0.21789618 -0.11548897 -0.19667785 0.11639317 0.29287872 0.679699 -0.092506506 -0.24589355 0.28353205 0.017310526 -0.12779942 0.33100188 0.31778967 0.014130462 -0.552999 -0.47894946 -0.76393324 0.34599304 0.13264923 0.5551069 0.2482471 0.50727606 0.18988533 -0.12099656 0.4992777 0.24076904 -0.539784 0.13523273 0.30755726 0.07554361 0.7174938 0.027041161 -0.484303 0.16297214 -0.035199072 -0.07578717 -0.15974064 0.04044681 -0.048446704 0.3108762 -0.06606004 -0.13732931 0.18935046 0.16497536 0.21576336 0.12990601 -0.3080828 0.17078562 0.18920271 0.09022637 0.14396273 -0.12491667 0.25613442 -0.47307566 0.38500246 -0.16585945 0.3731843 0.22817646 0.1960874 -0.1012906 0.020016095 -0.056153934 -0.14038865 -0.0043519405 0.048429508 0.22760732 0.3922945 0.39763784 -0.3414076 0.16876842 -0.045799058 -0.1113177 -0.06819733 -0.2861232 0.030966368 0.28421667 0.28145257 0.001469685 -0.047792774 -0.17225523 0.103184715 0.04692504 -0.0528431 -0.0654156 -0.21286999 -0.09050541 -0.516655 0.29813716 0.3010811 -0.3175142 -0.06948193 0.2277003 -0.28484398 -0.1184012 -0.32945257 -0.3398389 0.20337535 -0.41802153 0.14006262 0.19118468 0.15860856 -0.5322779 -0.14309195 0.039501566 0.10741356 -0.14263643 0.20687135 -0.12768048 0.18087833 0.20533586 -0.021267937 -0.035669904 0.076015025 0.2676504 -0.39584166 -0.112557545 -0.11821559 -0.19364662 -0.42864704 0.038434375 -0.08484946 -0.34080002 0.09085887 0.009502185 0.17782588 0.21643026 -0.20886059 -0.010735582 0.04591486 -0.17519566 -0.08897058 -0.2751316 -0.10636455 -0.041543286 -0.42996326 0.26211384 -0.21497962 0.23585182 0.08268421 -0.028178478 -0.09424501 0.17356053 0.021831205 -0.28807524 0.23112814 -0.21149379 -0.34167823 0.4334592 0.06934795 0.3212131 0.08496197 -0.29705885 -0.39815497 -0.121118955 -0.32828054 0.40287724 0.17500706 0.21099322 0.1333327 -0.1660985 0.22817676 -0.3141352 0.119003825 -0.03979069 -0.13885891 -0.33675575 -0.041954745 0.013530452 0.11142237 0.33340803 0.22688481 -0.42159843 -0.2031285 0.22108324 0.09090682 -0.27151275 -0.26804012 -0.35820648 -0.040336583 -0.40450418 0.22965638 -0.35106254 -0.27673945 -0.15027104 0.6173129 0.22990532 -0.049410567 -0.021501653 -0.15855199 -0.123656765 0.118624836 0.5307217 -0.05644483 -0.620326 0.27538133 0.092005715 -0.035291724 0.36342946 -0.071796805 -0.7168968 -0.063042894 -0.35503456 0.032903153 0.17392635 -0.15248877 0.11954514 0.12341211 0.062385414 -0.25848627 -0.4949541 0.0629821 0.023305269 0.55597013 0.26615217 0.15672837 0.36919308 0.082731806 -0.0735375 0.38579676 0.11440749 0.08978885 0.15644485 0.2326982 0.12469179 -0.09530644 -0.00060816936 0.21534713 -0.059963703 -0.22404166 -0.45805085 -0.32286683 -0.18170998 0.08338456 0.0270866 0.37128037 -0.1940989 -0.17922738 -0.18575458 -0.1738329 -0.048262794 0.55483365 0.3947217 0.19521557 0.09761 -0.13784456 0.12981223 -0.13568456 -0.1328237 0.27931046 -0.12615053 0.42541495 0.1595691 -0.049473673 0.16086827 0.038795277 -0.009826434 0.042658642 -0.13217627 0.05538197 0.11356807 -0.01575962 -0.86384726 -0.54574853 0.20421126 -0.40492433 
/root/meme-glossary/test_data/4_label_xml/94화_잠은행上/94화_잠은행上-002.xml 0.0 0.0 0.0 0.0 0.0 0.0 0.0 0.0 0.0 0.0 0.0 0.0 0.0 0.0 0.0 0.0 0.0 0.0 0.0 0.0 0.0 0.0 0.0 0.0 0.0 0.0 0.0 0.0 0.0 0.0 0.0 0.0 0.0 0.0 0.0 0.0 0.0 0.0 0.0 0.0 0.0 0.0 0.0 0.0 0.0 0.0 0.0 0.0 0.0 0.0 0.0 0.0 0.0 0.0 0.0 0.0 0.0 0.0 0.0 0.0 0.0 0.0 0.0 0.0 0.0 0.0 0.0 0.0 0.0 0.0 0.0 0.0 0.0 0.0 0.0 0.0 0.0 0.0 0.0 0.0 0.0 0.0 0.0 0.0 0.0 0.0 0.0 0.0 0.0 0.0 0.0 0.0 0.0 0.0 0.0 0.0 0.0 0.0 0.0 0.0 0.0 0.0 0.0 0.0 0.0 0.0 0.0 0.0 0.0 0.0 0.0 0.0 0.0 0.0 0.0 0.0 0.0 0.0 0.0 0.0 0.0 0.0 0.0 0.0 0.0 0.0 0.0 0.0 0.0 0.0 0.0 0.0 0.0 0.0 0.0 0.0 0.0 0.0 0.0 0.0 0.0 0.0 0.0 0.0 0.0 0.0 0.0 0.0 0.0 0.0 0.0 0.0 0.0 0.0 0.0 0.0 0.0 0.0 0.0 0.0 0.0 0.0 0.0 0.0 0.0 0.0 0.0 0.0 0.0 0.0 0.0 0.0 0.0 0.0 0.0 0.0 0.0 0.0 0.0 0.0 0.0 0.0 0.0 0.0 0.0 0.0 0.0 0.0 0.0 0.0 0.0 0.0 0.0 0.0 0.0 0.0 0.0 0.0 0.0 0.0 0.0 0.0 0.0 0.0 0.0 0.0 0.0 0.0 0.0 0.0 0.0 0.0 0.0 0.0 0.0 0.0 0.0 0.0 0.0 0.0 0.0 0.0 0.0 0.0 0.0 0.0 0.0 0.0 0.0 0.0 0.0 0.0 0.0 0.0 0.0 0.0 0.0 0.0 0.0 0.0 0.0 0.0 0.0 0.0 0.0 0.0 0.0 0.0 0.0 0.0 0.0 0.0 0.0 0.0 0.0 0.0 0.0 0.0 0.0 0.0 0.0 0.0 0.0 0.0 0.0 0.0 0.0 0.0 0.0 0.0 0.0 0.0 0.0 0.0 0.0 0.0 0.0 0.0 0.0 0.0 0.0 0.0 0.0 0.0 0.0 0.0 0.0 0.0 0.0 0.0 0.0 0.0 0.0 0.0 0.0 0.0 0.0 0.0 0.0 0.0 0.0 0.0 0.0 0.0 0.0 0.0 0.0 0.0 0.0 0.0 0.0 0.0 0.0 0.0 0.0 0.0 0.0 0.0 0.0 0.0 0.0 0.0 0.0 0.0 0.0 0.0 0.0 0.0 0.0 0.0 0.0 0.0 0.0 0.0 0.0 0.0 0.0 0.0 0.0 0.0 0.0 0.0 0.0 0.0 0.0 0.0 0.0 0.0 0.0 0.0 0.0 0.0 0.0 0.0 0.0 0.0 0.0 0.0 0.0 0.0 0.0 0.0 0.0 0.0 0.0 0.0 0.0 0.0 0.0 0.0 0.0 0.0 0.0 0.0 0.0 0.0 0.0 0.0 0.0 0.0 0.0 0.0 0.0 0.0 0.0 0.0 0.0 0.0 0.0 0.0 0.0 0.0 0.0 0.0 0.0 0.0 0.0 0.0 0.0 0.0 0.0 0.0 0.0 0.0 0.0 0.0 0.0 0.0 0.0 0.0 0.0 0.0 0.0 0.0 0.0 0.0 0.0 0.0 0.0 0.0 0.0 0.0 0.0 0.0 0.0 0.0 0.0 0.0 0.0 0.0 0.0 0.0 0.0 0.0 0.0 0.0 0.0 0.0 0.0 0.0 0.0 0.0 0.0 0.0 0.0 0.0 0.0 0.0 0.0 0.0 0.0 0.0 0.0 0.0 0.0 0.0 0.0 0.0 0.0 0.0 0.0 0.0 0.0 0.0 0.0 0.0 0.0 0.0 0.0 0.0 0.0 0.0 0.0 0.0 0.0 0.0 0.0 0.0 0.0 0.0 0.0 0.0 0.0 0.0 0.0 0.0 0.0 0.0 0.0 0.0 0.0 0.0 0.0 0.0 0.0 0.0 0.0 0.0 0.0 0.0 0.0 0.0 0.0 0.0 0.0 0.0 0.0 0.0 0.0 0.0 0.0 0.0 0.0 0.0 0.0 0.0 0.0 0.0 0.0 0.0 0.0 0.0 0.0 0.0 0.0 0.0 0.0 0.0 0.0 0.0 0.0 0.0 0.0 0.0 0.0 0.0 0.0 0.0 0.0 0.0 0.0 0.0 0.0 0.0 0.0 0.0 0.0 0.0 0.0 0.0 0.0 0.0 0.0 0.0 0.0 0.0 0.0 0.0 0.0 0.0 0.0 0.0 0.0 0.0 0.0 0.0 0.0 0.0 0.0 0.0 0.0 0.0 0.0 0.0 0.0 0.0 0.0 0.0 0.0 0.0 0.0 0.0 0.0 0.0 0.0 0.0 0.0 0.0 0.0 0.0 0.0 0.0 0.0 0.0 0.0 0.0 0.0 0.0 0.0 0.0 0.0 0.0 0.0 0.0 0.0 0.0 0.0 0.0 0.0 0.0 0.0 0.0 0.0 0.0 0.0 0.0 0.0 0.0 0.0 0.0 0.0 0.0 0.0 0.0 0.0 0.0 0.0 0.0 0.0 0.0 0.0 0.0 0.0 0.0 0.0 0.0 0.0 0.0 0.0 0.0 0.0 0.0 0.0 0.0 0.0 0.0 0.0 0.0 0.0 0.0 0.0 0.0 0.0 0.0 0.0 0.0 0.0 0.0 0.0 0.0 0.0 0.0 0.0 0.0 0.0 0.0 0.0 0.0 0.0 0.0 0.0 0.0 0.0 0.0 0.0 0.0 0.0 0.0 0.0 0.0 0.0 0.0 0.0 0.0 0.0 0.0 0.0 0.0 0.0 0.0 0.0 0.0 0.0 0.0 0.0 0.0 0.0 0.0 0.0 0.0 
/root/meme-glossary/test_data/4_label_xml/94화_잠은행上/94화_잠은행上-019.xml 0.0 0.0 0.0 0.0 0.0 0.0 0.0 0.0 0.0 0.0 0.0 0.0 0.0 0.0 0.0 0.0 0.0 0.0 0.0 0.0 0.0 0.0 0.0 0.0 0.0 0.0 0.0 0.0 0.0 0.0 0.0 0.0 0.0 0.0 0.0 0.0 0.0 0.0 0.0 0.0 0.0 0.0 0.0 0.0 0.0 0.0 0.0 0.0 0.0 0.0 0.0 0.0 0.0 0.0 0.0 0.0 0.0 0.0 0.0 0.0 0.0 0.0 0.0 0.0 0.0 0.0 0.0 0.0 0.0 0.0 0.0 0.0 0.0 0.0 0.0 0.0 0.0 0.0 0.0 0.0 0.0 0.0 0.0 0.0 0.0 0.0 0.0 0.0 0.0 0.0 0.0 0.0 0.0 0.0 0.0 0.0 0.0 0.0 0.0 0.0 0.0 0.0 0.0 0.0 0.0 0.0 0.0 0.0 0.0 0.0 0.0 0.0 0.0 0.0 0.0 0.0 0.0 0.0 0.0 0.0 0.0 0.0 0.0 0.0 0.0 0.0 0.0 0.0 0.0 0.0 0.0 0.0 0.0 0.0 0.0 0.0 0.0 0.0 0.0 0.0 0.0 0.0 0.0 0.0 0.0 0.0 0.0 0.0 0.0 0.0 0.0 0.0 0.0 0.0 0.0 0.0 0.0 0.0 0.0 0.0 0.0 0.0 0.0 0.0 0.0 0.0 0.0 0.0 0.0 0.0 0.0 0.0 0.0 0.0 0.0 0.0 0.0 0.0 0.0 0.0 0.0 0.0 0.0 0.0 0.0 0.0 0.0 0.0 0.0 0.0 0.0 0.0 0.0 0.0 0.0 0.0 0.0 0.0 0.0 0.0 0.0 0.0 0.0 0.0 0.0 0.0 0.0 0.0 0.0 0.0 0.0 0.0 0.0 0.0 0.0 0.0 0.0 0.0 0.0 0.0 0.0 0.0 0.0 0.0 0.0 0.0 0.0 0.0 0.0 0.0 0.0 0.0 0.0 0.0 0.0 0.0 0.0 0.0 0.0 0.0 0.0 0.0 0.0 0.0 0.0 0.0 0.0 0.0 0.0 0.0 0.0 0.0 0.0 0.0 0.0 0.0 0.0 0.0 0.0 0.0 0.0 0.0 0.0 0.0 0.0 0.0 0.0 0.0 0.0 0.0 0.0 0.0 0.0 0.0 0.0 0.0 0.0 0.0 0.0 0.0 0.0 0.0 0.0 0.0 0.0 0.0 0.0 0.0 0.0 0.0 0.0 0.0 0.0 0.0 0.0 0.0 0.0 0.0 0.0 0.0 0.0 0.0 0.0 0.0 0.0 0.0 0.0 0.0 0.0 0.0 0.0 0.0 0.0 0.0 0.0 0.0 0.0 0.0 0.0 0.0 0.0 0.0 0.0 0.0 0.0 0.0 0.0 0.0 0.0 0.0 0.0 0.0 0.0 0.0 0.0 0.0 0.0 0.0 0.0 0.0 0.0 0.0 0.0 0.0 0.0 0.0 0.0 0.0 0.0 0.0 0.0 0.0 0.0 0.0 0.0 0.0 0.0 0.0 0.0 0.0 0.0 0.0 0.0 0.0 0.0 0.0 0.0 0.0 0.0 0.0 0.0 0.0 0.0 0.0 0.0 0.0 0.0 0.0 0.0 0.0 0.0 0.0 0.0 0.0 0.0 0.0 0.0 0.0 0.0 0.0 0.0 0.0 0.0 0.0 0.0 0.0 0.0 0.0 0.0 0.0 0.0 0.0 0.0 0.0 0.0 0.0 0.0 0.0 0.0 0.0 0.0 0.0 0.0 0.0 0.0 0.0 0.0 0.0 0.0 0.0 0.0 0.0 0.0 0.0 0.0 0.0 0.0 0.0 0.0 0.0 0.0 0.0 0.0 0.0 0.0 0.0 0.0 0.0 0.0 0.0 0.0 0.0 0.0 0.0 0.0 0.0 0.0 0.0 0.0 0.0 0.0 0.0 0.0 0.0 0.0 0.0 0.0 0.0 0.0 0.0 0.0 0.0 0.0 0.0 0.0 0.0 0.0 0.0 0.0 0.0 0.0 0.0 0.0 0.0 0.0 0.0 0.0 0.0 0.0 0.0 0.0 0.0 0.0 0.0 0.0 0.0 0.0 0.0 0.0 0.0 0.0 0.0 0.0 0.0 0.0 0.0 0.0 0.0 0.0 0.0 0.0 0.0 0.0 0.0 0.0 0.0 0.0 0.0 0.0 0.0 0.0 0.0 0.0 0.0 0.0 0.0 0.0 0.0 0.0 0.0 0.0 0.0 0.0 0.0 0.0 0.0 0.0 0.0 0.0 0.0 0.0 0.0 0.0 0.0 0.0 0.0 0.0 0.0 0.0 0.0 0.0 0.0 0.0 0.0 0.0 0.0 0.0 0.0 0.0 0.0 0.0 0.0 0.0 0.0 0.0 0.0 0.0 0.0 0.0 0.0 0.0 0.0 0.0 0.0 0.0 0.0 0.0 0.0 0.0 0.0 0.0 0.0 0.0 0.0 0.0 0.0 0.0 0.0 0.0 0.0 0.0 0.0 0.0 0.0 0.0 0.0 0.0 0.0 0.0 0.0 0.0 0.0 0.0 0.0 0.0 0.0 0.0 0.0 0.0 0.0 0.0 0.0 0.0 0.0 0.0 0.0 0.0 0.0 0.0 0.0 0.0 0.0 0.0 0.0 0.0 0.0 0.0 0.0 0.0 0.0 0.0 0.0 0.0 0.0 0.0 0.0 0.0 0.0 0.0 0.0 0.0 0.0 0.0 0.0 0.0 0.0 0.0 0.0 0.0 0.0 0.0 0.0 0.0 0.0 0.0 0.0 0.0 0.0 0.0 0.0 0.0 0.0 0.0 0.0 0.0 0.0 0.0 0.0 0.0 0.0 0.0 0.0 0.0 0.0 0.0 0.0 0.0 0.0 0.0 0.0 0.0 0.0 0.0 0.0 0.0 0.0 0.0 0.0 0.0 0.0 0.0 0.0 0.0 0.0 0.0 0.0 0.0 0.0 0.0 0.0 0.0 0.0 0.0 0.0 0.0 0.0 0.0 0.0 0.0 0.0 
/root/meme-glossary/test_data/4_label_xml/94화_잠은행上/94화_잠은행上-022.xml 0.060270485 0.331946 0.07992663 0.21042998 -0.26818192 -0.12233464 -0.325962 -0.3457594 -0.06916646 0.37062007 -0.1293141 0.3565934 -0.018959083 -0.13714214 0.29052317 -0.2005854 -0.05388873 0.26938647 -0.16199714 -0.22540809 -0.33872935 -0.28083423 0.38663822 0.0042829793 0.15525796 0.013065979 0.19832657 -0.3957723 0.24246463 0.27394667 -0.10441239 -0.22743154 0.09117453 0.08217389 0.1883287 -0.28315982 0.10369551 0.40831688 -0.4202414 -0.3443532 0.024608597 -0.10782592 -0.05155531 0.31927568 -0.13067587 -0.14649504 -0.45879078 -0.00045850873 0.13118064 -0.021182593 -0.12521683 -0.12947397 0.17558965 0.11524691 0.048220895 0.04749418 0.2763163 -0.5713573 0.17417541 -0.081898995 -0.13887241 0.19725196 0.27102572 0.09726612 -0.22474962 -0.44131666 -0.46591753 -0.080641635 0.24610242 0.091249414 -0.20363197 0.33805954 -0.29451504 -0.33513874 -0.2775447 -0.058658555 -0.18824941 -0.3856997 -0.032770704 -0.039428897 -0.21577367 -0.124929935 0.5875863 -0.36960575 0.13171987 -0.21486369 0.25231686 -0.36090684 -0.011303753 -0.10166231 0.16262782 -0.009818822 -0.3666375 0.27941006 0.20358446 0.37521628 0.35254425 -0.15021618 0.32277524 -0.41274008 -0.006145954 -0.10401796 -0.113080844 0.015659511 0.12879822 0.11538864 0.38141736 0.27004474 0.2348656 0.21824642 0.2463375 0.59587115 -0.0089606885 -0.18025425 0.30540472 0.37204677 0.1947078 0.025881682 0.43701214 -0.024512108 0.43807653 -0.37682384 0.089267395 0.20841436 -0.22637719 -0.0423544 0.26695693 0.15654176 0.01308219 -0.15286392 0.19504559 0.050933458 -0.24772257 0.28484115 0.24707352 0.01987049 0.06623316 0.0800156 -0.1800271 -0.30809623 -0.29738757 0.17363381 0.33703324 0.24198383 0.09594478 -0.08296897 0.079319134 -0.2852582 0.19362956 -0.30084586 -0.06289772 0.017509416 -0.15031667 0.38339484 0.19813696 0.0076926015 0.23027816 -0.32437998 0.093324944 -0.101217486 -0.025463507 -0.058330208 0.15773103 -0.03976743 -0.07947934 0.03098604 0.13844119 -0.060596734 0.00709749 0.02678965 -0.17430264 -0.1801055 -0.007133927 -0.12211789 0.22909546 -0.11037033 0.42537704 -0.27345893 -0.03786698 -0.21313404 -0.15432663 -0.13901004 -0.12443468 -0.008287564 -0.21484989 0.06658704 -0.07836887 -0.29790908 0.05660067 -0.014549106 0.35002872 0.2514472 -0.2984429 0.2672162 -0.07429625 0.27385044 -0.22549707 0.0639104 0.37922245 0.41500878 0.46878043 0.41969803 0.24456333 0.3175399 0.12405801 0.30383655 0.2784364 0.29046726 -0.26315993 -0.35658675 0.31651536 0.21999124 -0.24699777 0.29181036 0.09967643 0.15914592 0.095511116 -0.12029219 -0.040442258 0.24300575 0.12847736 0.097440094 -0.17217481 0.007014945 -0.10388771 -0.032460738 -0.21728782 0.15675668 -0.30610943 0.068241455 0.23971738 -0.053307567 -0.12483067 -0.20544246 -0.055922396 0.2653872 0.051205486 -0.37356248 -0.08774982 0.36446035 -0.5115328 0.2452637 -0.31982777 -0.28426355 -0.02447483 0.040869333 -0.007253997 -0.36081636 -0.3471157 -0.1462328 -0.042408004 -0.06776186 0.020548731 0.15962112 0.11766443 0.18739933 0.07989949 -0.3381794 -0.63094145 -0.31246632 -0.036262378 -0.059805226 0.19688483 0.5194474 0.033683598 0.02983839 -0.28786558 -0.07461406 0.22923553 -0.0337298 0.47514033 0.11183108 0.19447082 -0.014570773 -0.17961375 0.10472189 0.13061276 -0.0097628515 0.096181676 -0.20278542 0.09676949 -0.00532043 0.04614127 -0.4183808 -0.077272594 0.4708074 0.06698387 0.45994878 -0.33857352 0.10939235 0.24036682 0.27309912 0.09745206 -0.33965313 -0.07298434 0.10517472 -0.20547459 0.019454412 0.21528985 -0.014982104 -0.09638899 0.3437815 -0.51910925 0.36985898 0.25316176 -0.08722984 -0.25869504 -0.5681944 -0.06610114 -0.3910848 -0.06979527 -0.017178267 0.28572518 -0.37844944 0.16306043 -0.4821056 -0.2727199 0.314452 -0.02940627 0.008161917 -0.1729465 -0.1644472 -0.29598844 -0.01625624 0.17295882 0.030469507 -0.051605336 0.31870982 0.25466466 -0.37764898 -0.16956186 0.1054089 -0.04827279 -0.06666912 0.045589194 -0.3658747 -0.36458197 -0.039199453 0.18722185 0.59946007 0.073213294 0.06961577 -0.08315919 -0.399869 0.023086928 0.26042455 -0.25326806 0.047952987 0.21123934 0.13004518 0.3599975 0.21422632 -0.14096303 0.094948485 0.03859438 -0.14403301 0.1587637 -0.14961495 -0.2709496 -0.05119031 0.04035124 0.23527531 -0.13257615 -0.18771891 -0.14750184 0.71654886 -0.018877469 -0.5831517 -0.08367905 -0.20197722 0.14914954 0.5799954 -0.050497904 -0.056672126 0.13597788 -0.23419012 -0.4192264 0.4684567 -0.016623132 0.0858046 -0.052361272 -0.17401278 -0.042497195 0.29360485 0.5305953 -0.19289525 0.31203884 0.11995375 -0.61014515 0.12405575 0.2280409 -0.020279005 0.40566888 0.13191892 -0.43461725 -0.36471748 -0.5559438 -0.10752297 0.014841825 0.18680349 0.018458795 0.27577186 0.2579072 -0.20168245 0.092333764 0.1911515 -0.167922 0.22047363 0.05807091 -0.020040259 0.32672328 -0.1932455 0.05261466 -0.11364766 0.6613885 0.08705183 -0.20995072 -0.15388826 0.024789799 -0.42569956 0.23733538 0.062035225 -0.087256536 -0.30181625 -0.12858364 -0.2188364 -0.24677436 0.108971 0.040334992 0.041034445 0.24746563 -0.24857719 -0.20874535 -0.6388111 -0.5185759 -0.010099238 -0.1498191 0.33224493 0.086999506 -0.22493473 -0.13012652 -0.059388295 0.250866 -0.052863672 0.18514463 -0.06530203 0.06507243 0.15598479 -0.19630566 0.10320714 -0.2358643 0.33408538 0.08432322 -0.11729881 0.3826833 0.31429142 0.09545915 0.24274486 -0.031663153 -0.1198326 0.30127338 0.19350865 -0.16893375 -0.3215848 -0.080125034 0.13594171 0.16344056 0.34114844 0.23685548 0.10825764 -0.035681836 0.11015944 0.11269376 -0.28487983 0.13621075 -0.27885202 0.018674362 0.38676053 0.2365601 -0.19715013 -0.28420007 -0.15509608 0.14398709 -0.006267704 -0.19964282 -0.03180469 -0.0046997145 -0.10132669 0.11907978 -0.31445524 -0.11406879 -0.36334267 -0.09464594 0.12963215 0.48541653 0.14136338 0.3628547 -0.08821098 0.63214934 0.07279949 0.1640825 -0.4745822 0.27106047 -0.4127435 0.061015714 -0.47784442 -0.31763947 -0.051404998 -0.22856826 -0.07875675 0.03471662 0.18299471 -0.1988165 -0.17322268 0.15577519 -0.09208366 -0.42103016 0.120694466 -0.29477853 0.08401044 -0.08446928 -0.40870976 -0.050702244 0.0020602942 -0.24571066 0.21653661 -0.024839614 -0.27419266 0.17747137 0.18278006 -0.20624733 0.035641186 -0.04504779 -0.17874819 0.113801345 0.44944453 0.3021956 0.11366035 -0.1562994 -0.03141246 0.20872444 0.103782386 -0.092820466 0.2279408 -0.0078021213 0.12443245 -0.053263538 -0.32339966 0.2872648 -0.016934417 -0.039128475 0.008390162 0.1224526 0.150391 0.22097489 0.12694499 -0.06766318 0.18631269 0.059084553 0.30927968 -0.21705142 -0.32891053 0.18242002 0.24417919 -0.20717521 -0.32689834 0.20818439 -0.24420959 -0.12546119 0.19397579 -0.12642848 -0.14395441 -0.029657386 0.08669755 -0.19019297 -0.17062257 0.15988144 -0.14257318 -0.24744949 0.06743594 0.05069439 0.23549752 0.18104221 -0.034457356 -0.44327426 0.12920375 0.13345274 0.4230364 0.2654356 -0.12276989 0.22535533 0.11437215 -0.16219865 0.072463594 -0.11381692 -0.02130191 -0.26902345 0.22019322 -0.4354412 -0.20839587 -0.15536359 -0.03463626 0.12873474 -0.090319276 0.30973035 -0.22422846 -0.36870635 -0.064347476 0.05462493 0.2749619 0.3848164 0.34043458 -0.10612929 0.2292727 -0.1113181 -0.29208362 -0.18461734 -0.10343401 -0.22304015 -0.2064134 -0.16665138 -0.28157973 -0.30260158 0.24823569 -0.38004458 0.4010123 0.04307197 0.17241108 0.19942509 0.015126035 0.0631661 -0.11716747 0.20236304 0.51460797 0.035604604 0.23445156 0.015380637 0.009181593 -0.19803199 0.30247343 -0.44682193 0.082560375 0.2356784 -0.049252473 0.21330307 0.15675057 0.06635068 0.14685397 -0.001369819 0.023857035 -0.27229208 -0.21072954 -0.16485119 -0.0053050397 -0.28813186 0.0051991045 -0.2626351 0.5744908 0.28955978 0.19618717 0.04008427 0.09005518 0.07072275 -0.26506734 -0.67052656 0.06984406 0.030975614 0.24063116 0.14294428 -0.042245075 -0.39078578 -0.023544945 0.086776145 -0.41167992 -0.1889595 0.0548815 -0.08000932 0.19957449 0.18331304 -0.010127962 0.17413354 0.22917415 0.45321602 -0.11437318 0.18965557 -0.18643449 -0.53583276 0.3271259 0.4475539 -0.03598004 -0.2853884 -0.22065562 -0.10847305 -0.02197367 -0.14411542 -0.33154842 -0.5973706 -0.360672 0.124393895 -1.0349115 
/root/meme-glossary/test_data/4_label_xml/94화_잠은행上/94화_잠은행上-018.xml 0.0 0.0 0.0 0.0 0.0 0.0 0.0 0.0 0.0 0.0 0.0 0.0 0.0 0.0 0.0 0.0 0.0 0.0 0.0 0.0 0.0 0.0 0.0 0.0 0.0 0.0 0.0 0.0 0.0 0.0 0.0 0.0 0.0 0.0 0.0 0.0 0.0 0.0 0.0 0.0 0.0 0.0 0.0 0.0 0.0 0.0 0.0 0.0 0.0 0.0 0.0 0.0 0.0 0.0 0.0 0.0 0.0 0.0 0.0 0.0 0.0 0.0 0.0 0.0 0.0 0.0 0.0 0.0 0.0 0.0 0.0 0.0 0.0 0.0 0.0 0.0 0.0 0.0 0.0 0.0 0.0 0.0 0.0 0.0 0.0 0.0 0.0 0.0 0.0 0.0 0.0 0.0 0.0 0.0 0.0 0.0 0.0 0.0 0.0 0.0 0.0 0.0 0.0 0.0 0.0 0.0 0.0 0.0 0.0 0.0 0.0 0.0 0.0 0.0 0.0 0.0 0.0 0.0 0.0 0.0 0.0 0.0 0.0 0.0 0.0 0.0 0.0 0.0 0.0 0.0 0.0 0.0 0.0 0.0 0.0 0.0 0.0 0.0 0.0 0.0 0.0 0.0 0.0 0.0 0.0 0.0 0.0 0.0 0.0 0.0 0.0 0.0 0.0 0.0 0.0 0.0 0.0 0.0 0.0 0.0 0.0 0.0 0.0 0.0 0.0 0.0 0.0 0.0 0.0 0.0 0.0 0.0 0.0 0.0 0.0 0.0 0.0 0.0 0.0 0.0 0.0 0.0 0.0 0.0 0.0 0.0 0.0 0.0 0.0 0.0 0.0 0.0 0.0 0.0 0.0 0.0 0.0 0.0 0.0 0.0 0.0 0.0 0.0 0.0 0.0 0.0 0.0 0.0 0.0 0.0 0.0 0.0 0.0 0.0 0.0 0.0 0.0 0.0 0.0 0.0 0.0 0.0 0.0 0.0 0.0 0.0 0.0 0.0 0.0 0.0 0.0 0.0 0.0 0.0 0.0 0.0 0.0 0.0 0.0 0.0 0.0 0.0 0.0 0.0 0.0 0.0 0.0 0.0 0.0 0.0 0.0 0.0 0.0 0.0 0.0 0.0 0.0 0.0 0.0 0.0 0.0 0.0 0.0 0.0 0.0 0.0 0.0 0.0 0.0 0.0 0.0 0.0 0.0 0.0 0.0 0.0 0.0 0.0 0.0 0.0 0.0 0.0 0.0 0.0 0.0 0.0 0.0 0.0 0.0 0.0 0.0 0.0 0.0 0.0 0.0 0.0 0.0 0.0 0.0 0.0 0.0 0.0 0.0 0.0 0.0 0.0 0.0 0.0 0.0 0.0 0.0 0.0 0.0 0.0 0.0 0.0 0.0 0.0 0.0 0.0 0.0 0.0 0.0 0.0 0.0 0.0 0.0 0.0 0.0 0.0 0.0 0.0 0.0 0.0 0.0 0.0 0.0 0.0 0.0 0.0 0.0 0.0 0.0 0.0 0.0 0.0 0.0 0.0 0.0 0.0 0.0 0.0 0.0 0.0 0.0 0.0 0.0 0.0 0.0 0.0 0.0 0.0 0.0 0.0 0.0 0.0 0.0 0.0 0.0 0.0 0.0 0.0 0.0 0.0 0.0 0.0 0.0 0.0 0.0 0.0 0.0 0.0 0.0 0.0 0.0 0.0 0.0 0.0 0.0 0.0 0.0 0.0 0.0 0.0 0.0 0.0 0.0 0.0 0.0 0.0 0.0 0.0 0.0 0.0 0.0 0.0 0.0 0.0 0.0 0.0 0.0 0.0 0.0 0.0 0.0 0.0 0.0 0.0 0.0 0.0 0.0 0.0 0.0 0.0 0.0 0.0 0.0 0.0 0.0 0.0 0.0 0.0 0.0 0.0 0.0 0.0 0.0 0.0 0.0 0.0 0.0 0.0 0.0 0.0 0.0 0.0 0.0 0.0 0.0 0.0 0.0 0.0 0.0 0.0 0.0 0.0 0.0 0.0 0.0 0.0 0.0 0.0 0.0 0.0 0.0 0.0 0.0 0.0 0.0 0.0 0.0 0.0 0.0 0.0 0.0 0.0 0.0 0.0 0.0 0.0 0.0 0.0 0.0 0.0 0.0 0.0 0.0 0.0 0.0 0.0 0.0 0.0 0.0 0.0 0.0 0.0 0.0 0.0 0.0 0.0 0.0 0.0 0.0 0.0 0.0 0.0 0.0 0.0 0.0 0.0 0.0 0.0 0.0 0.0 0.0 0.0 0.0 0.0 0.0 0.0 0.0 0.0 0.0 0.0 0.0 0.0 0.0 0.0 0.0 0.0 0.0 0.0 0.0 0.0 0.0 0.0 0.0 0.0 0.0 0.0 0.0 0.0 0.0 0.0 0.0 0.0 0.0 0.0 0.0 0.0 0.0 0.0 0.0 0.0 0.0 0.0 0.0 0.0 0.0 0.0 0.0 0.0 0.0 0.0 0.0 0.0 0.0 0.0 0.0 0.0 0.0 0.0 0.0 0.0 0.0 0.0 0.0 0.0 0.0 0.0 0.0 0.0 0.0 0.0 0.0 0.0 0.0 0.0 0.0 0.0 0.0 0.0 0.0 0.0 0.0 0.0 0.0 0.0 0.0 0.0 0.0 0.0 0.0 0.0 0.0 0.0 0.0 0.0 0.0 0.0 0.0 0.0 0.0 0.0 0.0 0.0 0.0 0.0 0.0 0.0 0.0 0.0 0.0 0.0 0.0 0.0 0.0 0.0 0.0 0.0 0.0 0.0 0.0 0.0 0.0 0.0 0.0 0.0 0.0 0.0 0.0 0.0 0.0 0.0 0.0 0.0 0.0 0.0 0.0 0.0 0.0 0.0 0.0 0.0 0.0 0.0 0.0 0.0 0.0 0.0 0.0 0.0 0.0 0.0 0.0 0.0 0.0 0.0 0.0 0.0 0.0 0.0 0.0 0.0 0.0 0.0 0.0 0.0 0.0 0.0 0.0 0.0 0.0 0.0 0.0 0.0 0.0 0.0 0.0 0.0 0.0 0.0 0.0 0.0 0.0 0.0 0.0 0.0 0.0 0.0 
/root/meme-glossary/test_data/4_label_xml/94화_잠은행上/94화_잠은행上-016.xml 0.0 0.0 0.0 0.0 0.0 0.0 0.0 0.0 0.0 0.0 0.0 0.0 0.0 0.0 0.0 0.0 0.0 0.0 0.0 0.0 0.0 0.0 0.0 0.0 0.0 0.0 0.0 0.0 0.0 0.0 0.0 0.0 0.0 0.0 0.0 0.0 0.0 0.0 0.0 0.0 0.0 0.0 0.0 0.0 0.0 0.0 0.0 0.0 0.0 0.0 0.0 0.0 0.0 0.0 0.0 0.0 0.0 0.0 0.0 0.0 0.0 0.0 0.0 0.0 0.0 0.0 0.0 0.0 0.0 0.0 0.0 0.0 0.0 0.0 0.0 0.0 0.0 0.0 0.0 0.0 0.0 0.0 0.0 0.0 0.0 0.0 0.0 0.0 0.0 0.0 0.0 0.0 0.0 0.0 0.0 0.0 0.0 0.0 0.0 0.0 0.0 0.0 0.0 0.0 0.0 0.0 0.0 0.0 0.0 0.0 0.0 0.0 0.0 0.0 0.0 0.0 0.0 0.0 0.0 0.0 0.0 0.0 0.0 0.0 0.0 0.0 0.0 0.0 0.0 0.0 0.0 0.0 0.0 0.0 0.0 0.0 0.0 0.0 0.0 0.0 0.0 0.0 0.0 0.0 0.0 0.0 0.0 0.0 0.0 0.0 0.0 0.0 0.0 0.0 0.0 0.0 0.0 0.0 0.0 0.0 0.0 0.0 0.0 0.0 0.0 0.0 0.0 0.0 0.0 0.0 0.0 0.0 0.0 0.0 0.0 0.0 0.0 0.0 0.0 0.0 0.0 0.0 0.0 0.0 0.0 0.0 0.0 0.0 0.0 0.0 0.0 0.0 0.0 0.0 0.0 0.0 0.0 0.0 0.0 0.0 0.0 0.0 0.0 0.0 0.0 0.0 0.0 0.0 0.0 0.0 0.0 0.0 0.0 0.0 0.0 0.0 0.0 0.0 0.0 0.0 0.0 0.0 0.0 0.0 0.0 0.0 0.0 0.0 0.0 0.0 0.0 0.0 0.0 0.0 0.0 0.0 0.0 0.0 0.0 0.0 0.0 0.0 0.0 0.0 0.0 0.0 0.0 0.0 0.0 0.0 0.0 0.0 0.0 0.0 0.0 0.0 0.0 0.0 0.0 0.0 0.0 0.0 0.0 0.0 0.0 0.0 0.0 0.0 0.0 0.0 0.0 0.0 0.0 0.0 0.0 0.0 0.0 0.0 0.0 0.0 0.0 0.0 0.0 0.0 0.0 0.0 0.0 0.0 0.0 0.0 0.0 0.0 0.0 0.0 0.0 0.0 0.0 0.0 0.0 0.0 0.0 0.0 0.0 0.0 0.0 0.0 0.0 0.0 0.0 0.0 0.0 0.0 0.0 0.0 0.0 0.0 0.0 0.0 0.0 0.0 0.0 0.0 0.0 0.0 0.0 0.0 0.0 0.0 0.0 0.0 0.0 0.0 0.0 0.0 0.0 0.0 0.0 0.0 0.0 0.0 0.0 0.0 0.0 0.0 0.0 0.0 0.0 0.0 0.0 0.0 0.0 0.0 0.0 0.0 0.0 0.0 0.0 0.0 0.0 0.0 0.0 0.0 0.0 0.0 0.0 0.0 0.0 0.0 0.0 0.0 0.0 0.0 0.0 0.0 0.0 0.0 0.0 0.0 0.0 0.0 0.0 0.0 0.0 0.0 0.0 0.0 0.0 0.0 0.0 0.0 0.0 0.0 0.0 0.0 0.0 0.0 0.0 0.0 0.0 0.0 0.0 0.0 0.0 0.0 0.0 0.0 0.0 0.0 0.0 0.0 0.0 0.0 0.0 0.0 0.0 0.0 0.0 0.0 0.0 0.0 0.0 0.0 0.0 0.0 0.0 0.0 0.0 0.0 0.0 0.0 0.0 0.0 0.0 0.0 0.0 0.0 0.0 0.0 0.0 0.0 0.0 0.0 0.0 0.0 0.0 0.0 0.0 0.0 0.0 0.0 0.0 0.0 0.0 0.0 0.0 0.0 0.0 0.0 0.0 0.0 0.0 0.0 0.0 0.0 0.0 0.0 0.0 0.0 0.0 0.0 0.0 0.0 0.0 0.0 0.0 0.0 0.0 0.0 0.0 0.0 0.0 0.0 0.0 0.0 0.0 0.0 0.0 0.0 0.0 0.0 0.0 0.0 0.0 0.0 0.0 0.0 0.0 0.0 0.0 0.0 0.0 0.0 0.0 0.0 0.0 0.0 0.0 0.0 0.0 0.0 0.0 0.0 0.0 0.0 0.0 0.0 0.0 0.0 0.0 0.0 0.0 0.0 0.0 0.0 0.0 0.0 0.0 0.0 0.0 0.0 0.0 0.0 0.0 0.0 0.0 0.0 0.0 0.0 0.0 0.0 0.0 0.0 0.0 0.0 0.0 0.0 0.0 0.0 0.0 0.0 0.0 0.0 0.0 0.0 0.0 0.0 0.0 0.0 0.0 0.0 0.0 0.0 0.0 0.0 0.0 0.0 0.0 0.0 0.0 0.0 0.0 0.0 0.0 0.0 0.0 0.0 0.0 0.0 0.0 0.0 0.0 0.0 0.0 0.0 0.0 0.0 0.0 0.0 0.0 0.0 0.0 0.0 0.0 0.0 0.0 0.0 0.0 0.0 0.0 0.0 0.0 0.0 0.0 0.0 0.0 0.0 0.0 0.0 0.0 0.0 0.0 0.0 0.0 0.0 0.0 0.0 0.0 0.0 0.0 0.0 0.0 0.0 0.0 0.0 0.0 0.0 0.0 0.0 0.0 0.0 0.0 0.0 0.0 0.0 0.0 0.0 0.0 0.0 0.0 0.0 0.0 0.0 0.0 0.0 0.0 0.0 0.0 0.0 0.0 0.0 0.0 0.0 0.0 0.0 0.0 0.0 0.0 0.0 0.0 0.0 0.0 0.0 0.0 0.0 0.0 0.0 0.0 0.0 0.0 0.0 0.0 0.0 0.0 0.0 0.0 0.0 0.0 0.0 0.0 0.0 0.0 0.0 0.0 0.0 0.0 0.0 0.0 0.0 0.0 0.0 0.0 0.0 0.0 0.0 0.0 0.0 0.0 0.0 0.0 0.0 
/root/meme-glossary/test_data/4_label_xml/94화_잠은행上/94화_잠은행上-023.xml 0.46248072 -0.08211862 0.08435503 -0.3658139 0.30592462 0.0073191896 0.2677781 0.0063810125 0.1361936 0.18621758 0.079270855 -0.10845599 -0.015049461 -0.07824983 -0.40758795 0.2632675 0.09537699 0.51603335 -0.45513576 0.07596732 -0.28365293 -0.066512614 -0.0042502806 0.09258345 0.063510425 0.28536433 -0.19700244 0.4456311 -0.29506707 -0.022463962 -0.016970363 0.02990508 0.0553121 -0.14330511 0.03974949 0.17124136 0.12298333 -0.3751588 -0.388326 0.20520261 -0.07449611 -0.42095375 -0.00761047 -0.04242777 0.30296177 0.05245473 -0.019653425 -0.26976234 -0.03399891 -0.20077488 0.24110776 -0.327655 -0.01137922 0.01441038 -0.16784787 -0.32008862 -0.20586424 0.026635353 0.024632528 0.01939099 0.40090623 0.08161659 -0.36787775 0.032639325 0.396991 0.025525786 0.050512362 0.04746826 -0.1696307 0.16336225 -0.018828455 0.109743744 -0.31671247 0.24284518 -0.060811553 -0.19511543 0.16509362 0.19705334 -0.109770715 0.15255842 -0.26670092 0.026684335 -0.17576729 0.088645175 -0.28105024 -0.033472367 -0.32526678 -0.12317416 -0.015173942 0.21391633 0.13460644 -0.1793688 0.31693232 0.10648956 0.19251639 -0.15448797 -0.36568797 0.13648295 0.32069665 0.11714005 0.1325282 0.46479654 -0.16040479 0.03833914 0.06338101 -0.18433255 -0.41923118 0.085545786 0.06702645 -0.036334567 -0.2822767 0.051355608 -0.0076367445 -0.2935563 -0.20614405 0.07700649 0.0007804297 -0.34175318 0.22831988 0.16679956 0.20015624 0.37617943 -0.2762181 -0.0009536948 0.17676166 0.18401141 0.16972537 -0.085018694 -0.18853487 -0.105946906 0.4361463 -0.25922385 0.091114014 0.22583875 0.19760267 -0.07667819 -0.16031568 -0.21832547 0.029172696 -0.0179459 -0.24202695 -0.20728566 0.15355682 0.0013380647 -0.1912072 0.031648602 0.28294644 0.35800046 0.18576443 0.5453657 0.3116525 -0.100719355 0.07129721 -0.12332906 0.12833229 -0.13107184 -0.09736947 0.010859996 0.23450412 -0.084878616 -0.20305389 0.27821463 -0.29553345 -0.20645574 0.6079474 -0.2839886 0.06829342 0.07783113 -0.31177336 0.14729209 0.02760866 0.15726484 -0.040560633 -0.18258521 -0.51097345 0.14377788 -0.06679309 -0.13683128 0.053756952 -0.12845941 -0.43257126 -0.1191339 -0.58861065 0.09910649 -0.4085824 -0.06254453 0.19468752 -0.029754568 0.14395478 0.3322127 0.17181826 -0.0019798093 0.06801669 -0.30602524 0.23685087 0.08455189 0.40054142 -0.27647164 -0.3118072 0.30799884 0.216934 -0.051959895 0.103577375 -0.28359246 0.10647999 -0.21364023 -0.21151039 0.102108285 0.017435959 -0.4325929 -0.44829035 -0.15875593 -0.34984604 0.09235143 0.08998045 -0.1839362 0.070414335 0.12297724 -0.44415805 0.13074073 -0.24275254 -0.23878792 -0.54637206 -0.14675553 0.5727936 -0.2751616 0.28422394 0.058716968 0.270155 0.20681673 0.16818877 -0.051277816 0.41224217 -0.20805633 -0.32305062 0.18853223 -0.261578 -0.082379915 0.123566285 0.15062718 0.119394615 0.24167426 0.49160627 0.11491255 0.11062285 -0.024411961 -0.44098216 0.0083349645 0.5704516 0.068428084 0.10943395 0.30274272 0.38342947 0.2501254 0.18054813 -0.13106942 0.29819843 0.2740675 0.09361096 -0.45336884 0.16516812 0.20091525 0.3489529 -0.1529878 0.026785737 -0.39452225 0.5334704 0.3095879 -0.2697487 0.10180918 -0.20956609 -0.087034166 0.20042308 -0.054083876 -0.2032292 -0.10426638 0.8706583 -0.181573 0.40733263 -0.04315582 0.28282464 -0.41483656 0.17224762 0.14232239 0.0019931935 -0.21225977 -0.32050556 -0.06684621 -0.052572392 0.012256846 0.25525403 0.12773931 0.3058706 -0.018643446 -0.14043891 -0.050658718 -0.19190732 0.24976015 0.0471691 0.38364497 0.34613144 0.11287426 -0.23197474 0.0422962 -0.5903896 -0.39593232 0.19766192 -0.1264728 0.2679577 -0.054442327 -0.12511954 -0.07280941 -0.4033806 -0.017988522 -0.1603145 -0.25089228 -0.009723917 0.3771969 0.11154561 -0.33032525 -0.16315569 0.15202367 -0.09509797 -0.27305907 0.16521522 -0.20064409 -0.2755675 0.11002467 -0.33516675 -0.19672143 0.087492675 0.07589115 0.4192453 0.048367452 -0.23353747 -0.007990181 -0.26951417 0.047406793 -0.109532446 0.061494015 0.014462449 0.015892245 0.4800188 -0.17545663 0.13447894 0.22291696 0.6093654 -0.24976301 0.028211579 0.054872047 -0.09223306 -0.19864601 0.21529514 0.10251907 -0.46478498 -0.054044336 0.37717724 -0.024016824 0.27845526 -0.19447799 -0.06664885 0.05868682 0.30141777 -0.26560646 -0.08922221 -0.040926196 -0.05802668 0.2980473 0.23970804 0.060115475 -0.22682424 0.09196585 -0.28069878 -0.107562765 0.23531038 -0.1492872 0.20106356 -0.1567199 0.2167653 -0.2155096 -0.21900257 0.10638155 0.092515536 0.3941141 -0.055103693 -0.042174958 0.037067242 0.021764966 -0.12743782 -0.30752245 0.35583282 -0.082112096 0.10753703 -0.08867024 0.07761183 -0.23654757 0.13813826 -0.057887748 0.22033125 -0.11040215 -0.31744492 0.43400925 -0.13513747 -0.109120905 -0.04362145 -0.43592128 -0.47904587 -0.13105373 0.4641248 -0.08575274 0.15234394 0.44332638 0.45437697 0.043348987 0.20615704 -0.09599255 -0.36193225 -0.36566347 -0.1608626 -0.0030279905 -0.16098207 0.27639127 -0.17641881 0.3384151 0.1363672 0.17272483 -0.02847718 -0.13820003 0.13462554 0.2845076 0.3470109 -0.38774803 0.05806066 0.33259115 -0.10397324 -0.5048877 -0.03399592 0.24753988 0.38529465 -0.08405092 -0.51333266 0.015081765 0.045686245 0.013329862 -0.249075 0.073972695 -0.2344933 0.20126908 -0.060815606 -0.060461458 0.08523443 0.13516347 0.051732305 0.23914899 0.52564955 0.266141 -0.40222517 0.20791212 0.091428675 0.17102626 -0.56686985 -0.16554059 -0.13238099 0.5565512 -0.0147353 -0.25515276 0.26038164 0.046150167 0.23538715 0.09001951 -0.17289722 -0.5887218 -0.13298136 0.52273905 0.09528283 0.023115218 0.2769589 -0.3374062 -0.29011354 -0.38382012 -0.15608099 -0.34279966 0.07363972 0.14053957 0.120907456 -0.08324014 0.029780637 0.11988102 -0.7423456 -0.18598557 0.51573366 -0.03513435 0.016987707 -0.01500047 0.108619526 0.46904013 -0.068847835 -0.01795825 0.059055544 0.047378063 0.37460142 -0.18755983 0.43376812 0.1802125 0.0021003392 0.26170897 0.45437682 0.38811272 -0.41019872 0.36796492 0.08185594 0.02575824 -0.00839958 -0.23597695 0.41729188 0.031860203 -0.050886966 0.14707646 -0.21648632 -0.038122706 0.074739 0.2540525 0.013081959 -0.10552673 -0.3186748 0.17281938 -0.08078666 -0.036515996 -0.4434693 0.069105454 -0.054193057 -0.14527792 -0.13480091 0.00530231 0.010734088 -0.34284213 -0.23012444 0.38523796 -0.2863782 0.22267713 -0.20906347 -0.22280121 -0.021829128 -0.02452802 -0.117264785 -0.30444634 0.049990095 0.055706423 0.27047682 0.110819764 0.4908904 0.10223007 0.52018046 0.23407114 0.31308535 -0.16087359 -0.056498095 -0.013021003 0.3683323 -0.027544225 -0.31621584 0.07587084 -0.4340401 0.18901101 0.04084798 -0.041485835 -0.09575771 -0.076239064 -0.2636323 0.07438403 -0.050020628 -0.032616854 -0.3039326 0.1231718 0.1425089 0.66067517 -0.19930616 -0.36542934 0.42375696 0.33020896 0.16108264 -0.15778458 0.06861146 0.6780519 -0.11178447 0.038390167 -0.37536383 -0.45814276 0.014742032 -0.033127524 0.029593654 0.27165034 0.19734235 0.07345313 -0.1690905 0.063958816 0.09865796 -0.582619 -0.28901657 0.25062683 0.1227352 -0.02398833 0.040986933 0.030410059 -0.015483762 -0.14556961 -0.12469774 0.4162267 0.15239558 0.19681403 -0.24481158 -0.01728173 -0.20450774 0.09717788 0.029381976 0.255417 -0.020738252 -0.15578766 -0.046059564 -0.11110322 -0.12798534 -0.24481326 0.18570201 0.106866896 -0.16464022 -0.10374026 -0.14721587 -0.13432656 -0.13486509 -0.13037819 -0.087724075 -0.03853841 -0.3362869 0.26316935 0.14010502 0.49542624 0.03012911 0.10315763 -0.29155654 0.14969125 -0.3074463 -0.61596483 0.5711199 0.016933322 0.28725457 -0.1748729 0.19413696 -0.36442834 0.059535094 -0.040277306 0.0814717 -0.0066817105 -0.1926717 0.081910685 -0.06905341 0.008209515 0.04260327 0.5622298 0.015211731 0.3220894 0.25625062 0.03170106 0.09335291 0.14683682 0.09205157 -0.16109866 -0.25999916 0.11594546 0.3174715 0.15570682 -0.24220708 -0.09864808 -0.06125979 -0.12548077 0.013692394 -0.18976027 0.21992703 -0.18765694 0.021486767 0.24866489 0.8348615 0.34236896 0.029960953 -0.042192854 -0.16035093 -0.29043168 -0.26056835 -0.13514657 0.5093329 -0.32260025 -0.26306722 -0.19694683 0.5095419 -0.2062795 -0.01565805 -0.034853682 0.18378279 0.186696 0.48229283 -0.14320225 
/root/meme-glossary/test_data/4_label_xml/94화_잠은행上/94화_잠은행上-009.xml -0.60806257 1.0999478 -0.04635803 -0.07085826 0.5815029 0.1682027 0.28743598 0.326787 0.6145706 0.27288383 0.026727147 -0.5735041 0.38983357 0.34135106 0.30938044 0.5298322 -0.1383377 0.5783235 0.07204099 -0.11822221 0.028851938 -0.6673286 0.42153805 -0.062966324 0.37726998 0.25444782 -0.16804221 -0.4328004 0.12502137 0.09931474 0.6578474 0.3988801 0.38983023 0.41670063 0.026243217 0.1419458 0.34922215 0.22045328 0.4677292 -0.13466801 0.050031714 -0.0016344562 -0.388737 -0.17974389 -0.36485624 -0.5066461 -0.4836859 -0.029353138 0.6995372 0.41989902 -0.21093777 -0.81546235 0.656702 -0.30501252 -0.10067423 -0.35748875 0.50488955 -0.17703 0.29721278 -0.13174534 0.26674896 0.060882553 -0.0918575 0.4294537 -0.3424578 0.61156136 1.1559385 0.15692928 0.45836553 -0.3282761 -0.13142534 -0.7265867 0.45185277 -0.12451746 -0.3343882 0.35546857 -0.20161667 0.7990253 -0.7216062 -0.49824542 -0.26230592 -0.27001202 0.48636162 -0.3502378 0.076586425 -0.013474464 -0.037455812 0.013306517 0.17749828 -0.6078663 0.052683063 -0.58386934 0.015231196 -0.3664807 -0.110457376 -0.04516401 -0.33024246 -0.6467662 -0.046851136 -0.40582636 -0.409935 0.58318263 0.1555866 -0.3849051 -0.10875991 0.35733342 -0.33873233 0.09463237 0.011912428 0.21242282 0.11015384 0.6324676 -0.62931085 -0.28687245 0.00077018095 0.27496666 -0.16320461 0.04862871 0.5591211 -0.32314655 1.2698662 -0.28466123 -0.31851977 0.39748365 0.11055626 0.18581495 -0.06364765 0.9440707 0.1254647 0.49594992 0.30582935 0.39867336 -0.31045216 0.4386284 -0.0443103 0.3598255 -0.10294904 0.31609553 -0.12072111 -0.87232965 -0.68858206 -0.0071467906 0.06280039 0.20412466 0.119450904 0.64254844 0.029431537 0.15083247 -0.1513747 -0.664633 -0.6542083 0.41600943 -0.16289407 0.9511365 -0.019851921 0.4244391 -0.44221795 -0.38587743 -0.13639875 0.31481206 0.088903785 0.3610739 0.0659083 -0.14188784 -0.09627791 0.016872548 -0.5279722 0.26585734 0.9485253 0.4824324 0.21155183 -0.84021103 0.6108132 0.47233605 -0.6351329 0.38715747 -0.39589554 -0.08573553 -0.3688956 -0.24074855 0.6547308 -0.20603809 0.00093168207 0.35731995 -0.47924292 -0.20701274 -0.978686 -0.48894247 0.28483772 -0.6704004 -0.11185497 0.42427108 -0.41079468 -0.34771383 -0.653954 -0.6682896 0.20111503 0.49082795 -0.2774912 0.08754656 0.3560811 -0.25535586 0.8345018 0.8442379 0.60850513 -0.30653018 -0.0066892356 0.046851456 -0.13984656 0.77730215 0.38006592 -0.41065863 -0.022491464 0.18749215 0.6014567 0.52174354 0.45565957 0.30152392 -0.80045265 -0.2279743 0.025736421 0.19651231 0.3690936 0.12833156 -0.7790308 -0.91520286 0.06680355 -0.5583567 0.5221619 0.15084106 -0.11985736 0.04972989 -0.41781253 0.26912272 -1.2580025 0.060720444 -0.32170624 -0.064679325 -0.079079285 0.3965077 0.83084565 -0.3500795 0.34447226 -0.6605726 -0.029374246 -0.35033762 -0.31361932 -0.46464226 -0.18716988 0.42501462 0.16178688 0.08404734 -0.10725331 0.9834676 0.81197536 -0.3492944 -0.01302883 0.16872439 0.3167657 -0.53517556 1.4832965 -0.13471821 0.29590923 0.21378276 0.27597505 0.354523 -0.8894162 -0.7671878 0.11947242 -0.8130411 0.34283367 -0.28088707 -0.52203 0.18835647 0.4141976 -0.32950777 -0.099568635 -0.9239584 0.019951291 -0.01965694 0.32950804 0.2167982 0.4270454 -0.20840392 -0.043927222 -0.07557584 0.29808006 0.54989344 0.20813493 0.75014246 0.03988661 0.07461876 -0.09317639 -0.35833326 0.23117697 -0.33727127 0.24979499 -0.45735037 -0.025736876 -0.3629586 0.4415708 -0.52808833 0.2780372 -0.40933657 -0.32094577 0.14573973 -0.9572804 -0.4843439 1.0010368 -0.682815 -0.7143886 0.073370576 0.4432803 0.43672508 0.071970105 0.33189616 -0.52754366 1.1414244 -0.713973 0.5153085 0.28580263 -0.5610779 -0.48461446 -0.2659651 0.20226112 -0.11051014 -0.19354889 0.22852093 -0.29183733 0.11186486 -0.13612744 -0.07359596 -0.13451831 -0.46151844 -0.649075 0.294017 -0.789497 0.21977927 0.47346607 -0.037782613 -0.4996351 0.90431833 -0.2786087 0.18995231 -0.17995034 -0.6127074 0.28217843 0.2512311 -0.32522997 0.53817236 0.112789914 0.26506406 -0.24674322 -0.08367791 -0.5583836 1.0583115 0.92574733 -0.2942343 0.42315727 1.0538539 0.036726713 -0.16140257 -0.11264545 -0.6983835 -0.5150297 0.059297305 0.17123236 -0.05109216 -0.61695033 0.6928472 -0.76430285 -0.3982523 -0.24185616 0.19591993 -0.21789077 -0.31632364 0.07170902 -0.392587 -0.4437273 -0.17147729 -0.15238154 -0.16074389 0.36969176 0.802805 -0.12131665 -0.13102023 -0.043467183 0.5066715 -0.71872574 -0.6651066 0.25612628 -0.38057658 -0.40250835 0.21459743 0.23850313 -0.9072367 0.10625861 -0.43272978 0.33134854 0.16653213 -0.3943823 -0.13117485 0.09329163 0.094515584 -0.13897294 0.012158059 0.24263568 0.17787936 0.4581083 -0.06114541 0.69586533 0.4386138 0.17667283 -0.2902258 0.33516973 -0.18544409 -0.24826351 0.26671323 -0.22232237 -0.17883593 0.36370394 0.0052605495 0.32023576 -0.026946843 0.4055506 -0.17577381 0.080625765 -0.009259814 -0.36343586 0.017818263 -0.13781846 0.06421249 -0.23510382 0.14055717 -0.03419151 -0.05321373 0.41942075 -0.33310398 -0.15698887 0.45722952 -0.16108145 0.048226215 -0.8172121 -0.43893346 -0.40400815 -0.030406222 -0.013469485 0.49880263 -0.22341844 -0.334808 -0.96320385 -0.14784662 0.09377433 -0.43500558 0.44743446 0.20928021 0.3926696 -0.538421 0.12997183 0.19429232 0.5389972 -0.16195774 0.17615028 0.4275848 0.5443317 0.41414326 0.10402639 0.14332265 0.37683123 -0.24312522 -0.3880146 -0.6927167 0.47307593 -0.22424486 0.041169383 -0.28869686 0.24391152 -0.20811442 0.55065143 0.3278643 0.053131595 -0.12550431 -0.3520589 0.40439 0.7028601 0.5198329 -0.53721195 0.47780216 0.60145354 -0.24134602 -0.13298263 0.31864658 0.5759831 -0.14379287 -0.2222277 -0.29709357 0.5601228 0.7176961 -0.057614848 -0.035850395 -0.266639 0.056645907 -0.1529308 -0.24685356 0.072897404 -0.35410362 -0.0118351355 -0.58217406 0.514694 0.37492287 0.45226628 0.20418406 0.1892027 0.088326976 0.0042399764 -0.35866326 0.25882474 0.18219234 0.3797564 -0.10026001 -0.13538238 0.53611875 -0.67200625 0.23923558 -0.085184865 -1.1445826 0.14445305 -0.14698422 0.24051677 -0.7543762 0.42356676 0.16576828 -0.3741194 -0.58081424 0.31302592 -0.4387176 -0.5585533 0.51352 0.052583925 0.27426478 0.20815124 -0.23777281 -0.03931966 0.22653525 0.1666249 -0.07693038 -0.7668757 -0.030484758 0.011091512 -0.025234722 -0.17332357 0.33296955 -0.39244345 0.54480535 -0.5823777 -0.6082869 0.12988365 0.47079623 -0.4902711 -0.3422805 0.22052714 -0.3183443 0.24744883 0.47426596 0.31947336 0.21573073 0.0908448 -0.3491414 -0.416235 0.9821504 0.3680249 -0.20147905 0.41045618 0.40798366 -0.17954054 -0.31576902 0.26237613 0.3375768 0.4263726 -0.41912934 0.9706936 0.06728369 0.87321764 0.64151335 -0.96295226 0.5232298 -0.45829418 0.8214422 -0.19646779 -0.11799188 0.4833337 0.20617358 0.08876793 -0.2789496 0.21187392 -0.087728076 0.57507837 0.42489105 -0.04357253 0.05847177 -0.021221282 -0.23149088 0.41460404 -0.38010904 0.014298603 -0.29600784 -0.14209549 0.7869973 -0.26547948 -0.039141938 0.47194716 0.16740347 0.4258385 0.8375436 0.3802117 -0.48396033 -0.37852505 0.1543582 -0.34626812 0.27963054 0.23104373 -0.10015343 0.07148695 0.21616706 0.45359412 0.75918823 0.40250587 -0.16596282 0.7009747 -0.17498317 0.43384954 -0.53273666 -0.6671809 0.63688076 -0.5291507 -0.39312857 -0.48525614 0.85817283 0.1683331 -0.060026214 0.14644316 -0.84951663 0.62595135 -0.31164712 0.70732284 -0.24941842 -0.14557005 -0.46181446 -0.20396838 -0.012903411 0.06999107 0.41535008 -0.10579738 0.1862658 0.07910409 0.24336928 -0.49864867 0.041544426 0.70681304 -0.015643045 -0.3755877 -0.24355307 -0.6103769 1.1928005 -0.005396316 0.3912623 -0.060908217 -1.0724378 0.8266426 0.301803 -0.1590668 0.09611245 -0.73815554 -0.7082664 -0.24502309 -0.27127233 0.05630501 0.56626356 0.33277127 -0.0034763515 0.50798756 0.6120009 -0.0068394146 0.24364717 -0.62548625 0.18102905 -0.22287667 -0.24654019 -0.030773783 0.25084615 -0.038603514 0.04346456 0.28565997 0.21920602 -0.35696992 -0.56884634 -0.13104393 0.4397683 -0.050102334 -0.65333635 
